~o
<STREAMINFO> 1 39
<VECSIZE> 39<NULLD><MFCC_E_D_A><DIAGC>
~h "hmm_proto"
<BEGINHMM>
<NUMSTATES> 5
<STATE> 2
<MEAN> 39
 -5.806790e+00 -5.890003e+00 -5.272577e+00 -1.062341e+01 -2.458188e+00 -5.907826e+00 -1.012600e+00 -8.324840e+00 -2.678756e+00 -5.942506e+00 -1.569095e-01 -5.169997e+00 1.619915e+01 4.930480e-04 1.090846e-03 1.596720e-03 1.169628e-03 8.378903e-04 8.856699e-04 1.853120e-03 -1.016671e-03 -1.090109e-03 2.195356e-04 2.160630e-05 -2.264081e-03 -3.865636e-04 1.932999e-04 3.916602e-04 -2.250698e-04 -1.750685e-04 1.180835e-04 5.509903e-04 -7.775269e-04 3.412192e-04 -1.287045e-05 -5.363039e-04 -1.177121e-03 2.180751e-05 -2.671771e-05
<VARIANCE> 39
 1.232866e+01 2.122852e+01 2.053946e+01 2.613612e+01 2.965707e+01 2.840929e+01 2.652397e+01 2.735181e+01 2.876204e+01 2.660541e+01 2.610834e+01 2.440000e+01 4.458008e+00 5.325591e-01 9.738581e-01 1.146434e+00 1.698157e+00 1.912932e+00 2.244902e+00 2.081785e+00 2.146115e+00 2.202320e+00 1.971077e+00 1.983374e+00 1.746822e+00 9.785759e-02 8.381817e-02 1.396484e-01 1.894072e-01 2.822349e-01 3.434550e-01 4.174975e-01 3.908643e-01 4.039106e-01 4.125814e-01 3.689319e-01 3.774311e-01 3.306276e-01 1.151738e-02
<GCONST> 9.520315e+01
<STATE> 3
<MEAN> 39
 -5.806790e+00 -5.890003e+00 -5.272577e+00 -1.062341e+01 -2.458188e+00 -5.907826e+00 -1.012600e+00 -8.324840e+00 -2.678756e+00 -5.942506e+00 -1.569095e-01 -5.169997e+00 1.619915e+01 4.930480e-04 1.090846e-03 1.596720e-03 1.169628e-03 8.378903e-04 8.856699e-04 1.853120e-03 -1.016671e-03 -1.090109e-03 2.195356e-04 2.160630e-05 -2.264081e-03 -3.865636e-04 1.932999e-04 3.916602e-04 -2.250698e-04 -1.750685e-04 1.180835e-04 5.509903e-04 -7.775269e-04 3.412192e-04 -1.287045e-05 -5.363039e-04 -1.177121e-03 2.180751e-05 -2.671771e-05
<VARIANCE> 39
 1.232866e+01 2.122852e+01 2.053946e+01 2.613612e+01 2.965707e+01 2.840929e+01 2.652397e+01 2.735181e+01 2.876204e+01 2.660541e+01 2.610834e+01 2.440000e+01 4.458008e+00 5.325591e-01 9.738581e-01 1.146434e+00 1.698157e+00 1.912932e+00 2.244902e+00 2.081785e+00 2.146115e+00 2.202320e+00 1.971077e+00 1.983374e+00 1.746822e+00 9.785759e-02 8.381817e-02 1.396484e-01 1.894072e-01 2.822349e-01 3.434550e-01 4.174975e-01 3.908643e-01 4.039106e-01 4.125814e-01 3.689319e-01 3.774311e-01 3.306276e-01 1.151738e-02
<GCONST> 9.520315e+01
<STATE> 4
<MEAN> 39
 -5.806790e+00 -5.890003e+00 -5.272577e+00 -1.062341e+01 -2.458188e+00 -5.907826e+00 -1.012600e+00 -8.324840e+00 -2.678756e+00 -5.942506e+00 -1.569095e-01 -5.169997e+00 1.619915e+01 4.930480e-04 1.090846e-03 1.596720e-03 1.169628e-03 8.378903e-04 8.856699e-04 1.853120e-03 -1.016671e-03 -1.090109e-03 2.195356e-04 2.160630e-05 -2.264081e-03 -3.865636e-04 1.932999e-04 3.916602e-04 -2.250698e-04 -1.750685e-04 1.180835e-04 5.509903e-04 -7.775269e-04 3.412192e-04 -1.287045e-05 -5.363039e-04 -1.177121e-03 2.180751e-05 -2.671771e-05
<VARIANCE> 39
 1.232866e+01 2.122852e+01 2.053946e+01 2.613612e+01 2.965707e+01 2.840929e+01 2.652397e+01 2.735181e+01 2.876204e+01 2.660541e+01 2.610834e+01 2.440000e+01 4.458008e+00 5.325591e-01 9.738581e-01 1.146434e+00 1.698157e+00 1.912932e+00 2.244902e+00 2.081785e+00 2.146115e+00 2.202320e+00 1.971077e+00 1.983374e+00 1.746822e+00 9.785759e-02 8.381817e-02 1.396484e-01 1.894072e-01 2.822349e-01 3.434550e-01 4.174975e-01 3.908643e-01 4.039106e-01 4.125814e-01 3.689319e-01 3.774311e-01 3.306276e-01 1.151738e-02
<GCONST> 9.520315e+01
<TRANSP> 5
 0.000000e+00 1.000000e+00 0.000000e+00 0.000000e+00 0.000000e+00
 0.000000e+00 6.000000e-01 4.000000e-01 0.000000e+00 0.000000e+00
 0.000000e+00 0.000000e+00 6.000000e-01 4.000000e-01 0.000000e+00
 0.000000e+00 0.000000e+00 0.000000e+00 7.000000e-01 3.000000e-01
 0.000000e+00 0.000000e+00 0.000000e+00 0.000000e+00 0.000000e+00
<ENDHMM>
