~o
<STREAMINFO> 1 39
<VECSIZE> 39<NULLD><MFCC_E_D_A><DIAGC>
~s "silst"
<MEAN> 39
 -7.035870e+00 -7.309662e+00 -5.935064e+00 -1.013591e+01 -8.079910e-01 -4.381109e+00 -2.791290e-01 -8.592092e+00 -2.663364e+00 -5.592234e+00 9.837543e-01 -3.985711e+00 1.408761e+01 -2.655080e-04 9.405829e-03 -4.240452e-03 -3.254020e-04 -5.880665e-03 1.048894e-02 -2.326264e-03 -2.377438e-02 4.864878e-03 2.411544e-02 8.180308e-03 -1.140925e-03 -2.418970e-04 -5.613622e-03 9.499542e-03 4.167332e-03 7.809304e-03 -8.273756e-03 1.092290e-03 -1.540336e-03 1.075614e-02 8.646737e-03 1.774102e-03 -2.263612e-03 -1.071419e-02 2.266791e-03
<VARIANCE> 39
 2.666420e+00 3.273155e+00 5.767204e+00 8.138957e+00 1.247046e+01 1.416901e+01 1.528944e+01 1.567245e+01 1.608863e+01 1.376234e+01 1.561157e+01 1.294384e+01 5.023420e-01 1.246010e-01 3.038634e-01 5.543140e-01 8.960348e-01 1.200584e+00 1.647069e+00 1.674318e+00 1.741886e+00 1.724041e+00 1.401688e+00 1.625200e+00 1.451958e+00 4.437503e-03 2.626847e-02 6.360403e-02 1.151625e-01 1.853594e-01 2.552141e-01 3.511306e-01 3.509217e-01 3.664669e-01 3.590266e-01 2.821622e-01 3.336160e-01 3.055691e-01 1.075756e-03
<GCONST> 6.635568e+01
~h "f"
<BEGINHMM>
<NUMSTATES> 5
<STATE> 2
<MEAN> 39
 -8.367277e+00 -6.718881e+00 -5.692112e+00 -9.977070e+00 -1.328866e+00 -4.687921e+00 -3.332580e-01 -8.579082e+00 -2.348185e+00 -5.872424e+00 1.145189e+00 -4.021918e+00 1.486649e+01 -1.649785e-01 -1.650894e-01 -1.083408e-01 -9.159759e-02 -7.694466e-02 -1.268438e-02 7.651070e-02 3.060801e-02 -1.002643e-03 5.861909e-02 1.519066e-01 8.856761e-02 -4.112701e-02 2.779742e-01 7.699412e-02 -2.156329e-02 -3.133263e-03 -2.086958e-02 -1.591649e-01 -1.181437e-01 4.253774e-03 -1.921000e-02 -4.345114e-02 -1.157612e-01 -9.452325e-02 1.249954e-01
<VARIANCE> 39
 4.597693e+00 3.829226e+00 7.034571e+00 8.566859e+00 1.282543e+01 1.443997e+01 1.490437e+01 1.639963e+01 1.552669e+01 1.457451e+01 1.520739e+01 1.251045e+01 1.009495e+00 5.086730e-01 4.837030e-01 8.651825e-01 1.024451e+00 1.335443e+00 1.783868e+00 1.575680e+00 2.034560e+00 1.801303e+00 1.611079e+00 1.775613e+00 1.475086e+00 4.713565e-02 1.255795e-01 1.421644e-01 2.360675e-01 2.363143e-01 3.020457e-01 4.190328e-01 3.290156e-01 4.759629e-01 4.311113e-01 3.637314e-01 3.938889e-01 3.063794e-01 1.322699e-02
<GCONST> 8.040211e+01
<STATE> 3
<MEAN> 39
 -7.162793e+00 -6.617366e+00 -5.473082e+00 -9.903824e+00 -1.389198e+00 -4.921298e+00 -7.718941e-01 -8.369555e+00 -2.244177e+00 -5.682819e+00 9.266109e-01 -4.103158e+00 1.538461e+01 1.934345e+00 3.631274e-02 -1.108410e+00 -5.097662e-01 -7.991120e-02 -9.694591e-01 -5.031142e-01 3.957130e-01 -2.839372e-02 -2.309062e-01 -7.965646e-01 -5.632424e-01 8.970158e-01 4.386303e-01 -1.494484e-01 -5.568976e-01 -1.882913e-01 4.028409e-02 -2.052018e-01 -5.826871e-02 1.532537e-01 -1.363741e-01 -3.436372e-02 -1.943801e-01 -2.080168e-01 2.281863e-01
<VARIANCE> 39
 5.769698e+00 4.959471e+00 5.807618e+00 8.980925e+00 1.002187e+01 1.304240e+01 1.502915e+01 1.726449e+01 1.714703e+01 1.434302e+01 1.499939e+01 1.267029e+01 1.728989e+00 8.399103e-01 1.716849e+00 1.392706e+00 2.097867e+00 1.582249e+00 1.989537e+00 2.208232e+00 3.865540e+00 2.737034e+00 2.462875e+00 2.387223e+00 2.074044e+00 8.934909e-02 1.533713e-01 2.537047e-01 1.811572e-01 4.120967e-01 3.162012e-01 3.835572e-01 3.969612e-01 5.299978e-01 4.706313e-01 4.821890e-01 4.511015e-01 4.701078e-01 1.699422e-02
<GCONST> 8.992014e+01
<STATE> 4
<MEAN> 39
 -8.988695e-01 -9.508682e+00 -1.174178e+01 -1.059546e+01 -4.471081e-01 -9.311175e+00 -1.857932e+00 -5.181391e+00 -3.761920e+00 -7.564988e+00 -3.258122e+00 -6.900572e+00 1.865832e+01 9.605495e-01 -7.905225e-01 -1.450612e+00 1.863061e-02 3.853513e-01 -5.355308e-01 8.509405e-02 3.191683e-01 -5.550629e-01 3.736144e-02 -4.314147e-01 -4.325135e-01 7.599851e-01 -5.988508e-01 8.927213e-02 4.377294e-01 1.494479e-01 -3.326344e-02 4.117038e-01 2.115250e-01 -3.336528e-01 3.190637e-04 2.608556e-01 4.644899e-01 2.872244e-01 -2.391276e-01
<VARIANCE> 39
 8.090949e+00 2.603101e+01 1.639187e+01 2.071512e+01 1.954646e+01 1.659562e+01 3.142475e+01 5.302386e+01 3.437269e+01 2.978027e+01 3.089241e+01 2.894764e+01 1.298163e+00 1.952074e+00 2.231140e+00 1.879916e+00 3.170149e+00 2.058788e+00 2.220174e+00 2.485100e+00 3.372534e+00 3.559470e+00 3.882824e+00 3.440945e+00 3.463073e+00 1.705136e-01 7.862297e-02 1.887490e-01 2.415639e-01 1.965523e-01 2.567769e-01 3.031870e-01 4.081797e-01 6.731935e-01 6.441562e-01 4.687154e-01 4.008582e-01 3.838481e-01 1.065200e-02
<GCONST> 1.015666e+02
<TRANSP> 5
 0.000000e+00 1.000000e+00 0.000000e+00 0.000000e+00 0.000000e+00
 0.000000e+00 8.145840e-01 1.854160e-01 0.000000e+00 0.000000e+00
 0.000000e+00 0.000000e+00 5.775528e-01 4.224471e-01 0.000000e+00
 0.000000e+00 0.000000e+00 0.000000e+00 5.927587e-01 4.072412e-01
 0.000000e+00 0.000000e+00 0.000000e+00 0.000000e+00 0.000000e+00
<ENDHMM>
~h "k"
<BEGINHMM>
<NUMSTATES> 5
<STATE> 2
<MEAN> 39
 -5.798792e+00 -4.223522e+00 -1.596773e+00 -1.303191e+01 -2.192129e+00 -4.235925e+00 -4.691908e+00 -8.154469e+00 -1.674375e+00 -6.107631e+00 1.593270e+00 -4.509066e+00 1.580303e+01 -5.272705e-02 -1.556739e+00 -1.966160e+00 2.961565e+00 1.583227e+00 9.883544e-01 1.903371e+00 -9.756794e-01 -4.933528e-01 -3.403944e-01 4.627414e-01 5.325908e-01 -8.953804e-01 -2.671367e-01 -1.744635e-03 -1.926453e-01 -4.327641e-01 -4.287251e-01 -2.898362e-01 4.048867e-01 1.336181e-01 9.995106e-02 2.560394e-01 -3.651156e-01 -1.948751e-01 1.002249e-01
<VARIANCE> 39
 3.520163e+00 8.730261e+00 1.684545e+01 2.234078e+01 3.024122e+01 2.288163e+01 3.678779e+01 2.362585e+01 2.475836e+01 2.298756e+01 2.093467e+01 1.656046e+01 1.526655e+00 5.818061e-01 1.149617e+00 1.680768e+00 2.100726e+00 5.646426e+00 4.454283e+00 4.572787e+00 3.101905e+00 3.098759e+00 3.180313e+00 3.447386e+00 2.791889e+00 6.047812e-02 6.355436e-02 1.620090e-01 3.415712e-01 5.265084e-01 5.400866e-01 4.415583e-01 7.969056e-01 4.977927e-01 5.768358e-01 4.976662e-01 5.309171e-01 5.657179e-01 1.811571e-02
<GCONST> 1.003274e+02
<STATE> 3
<MEAN> 39
 -7.225582e+00 -6.936532e+00 -5.708777e+00 -1.056462e+01 -9.174206e-01 -3.797619e+00 -2.859672e-01 -8.972693e+00 -2.279894e+00 -5.914955e+00 8.505774e-01 -3.933836e+00 1.431079e+01 -4.271920e-01 -6.627299e-01 -6.671630e-01 5.484573e-01 -1.459827e-01 1.402217e-01 6.121264e-01 -1.786607e-01 -9.388466e-02 1.530156e-01 -4.443137e-02 1.164087e-01 -2.626155e-01 -3.489634e-02 3.389005e-01 5.536881e-01 -6.092062e-01 -4.694854e-01 -2.063281e-01 -4.781021e-01 2.348639e-01 1.349547e-01 9.398554e-02 -9.555541e-02 -1.739225e-01 2.241002e-01
<VARIANCE> 39
 4.301255e+00 4.357338e+00 6.705495e+00 1.003797e+01 1.274138e+01 1.312898e+01 1.436075e+01 1.679521e+01 1.556811e+01 1.583433e+01 1.775456e+01 1.384356e+01 1.129377e+00 4.255227e-01 6.363527e-01 1.571528e+00 1.743188e+00 2.167670e+00 1.968524e+00 2.224364e+00 2.185767e+00 2.162982e+00 2.248007e+00 2.013947e+00 1.818812e+00 8.612809e-02 1.000178e-01 1.532584e-01 2.643393e-01 4.009103e-01 5.831378e-01 4.827555e-01 5.397654e-01 5.277663e-01 4.312559e-01 4.371670e-01 5.018300e-01 3.968939e-01 1.457810e-02
<GCONST> 8.726147e+01
<STATE> 4
<MEAN> 39
 -7.816418e+00 -7.678242e+00 -4.855311e+00 -9.547836e+00 -3.168428e+00 -4.211227e+00 -1.731003e-01 -8.846758e+00 -2.468168e+00 -5.190069e+00 4.995958e-01 -4.398458e+00 1.455531e+01 -3.539396e-01 4.414003e-02 8.311007e-02 2.611057e-01 -4.763904e-01 2.549499e-01 -7.080833e-02 1.440743e-02 7.235628e-03 2.042848e-01 -1.210597e-01 -7.328510e-02 3.166041e-02 -3.410729e-02 1.863543e-01 -6.579268e-02 -5.300337e-02 8.554740e-02 1.088365e-01 -1.037020e-01 5.708132e-02 2.156029e-02 7.762302e-03 2.779846e-02 2.396188e-02 1.770328e-02
<VARIANCE> 39
 4.485760e+00 8.536880e+00 9.345621e+00 1.163181e+01 1.795549e+01 1.672132e+01 1.683753e+01 1.629842e+01 1.637479e+01 1.582296e+01 1.376570e+01 1.389269e+01 1.177616e+00 3.898562e-01 1.074085e+00 1.085250e+00 1.267509e+00 1.738074e+00 1.913750e+00 1.848529e+00 1.911118e+00 1.924688e+00 1.640746e+00 1.843198e+00 1.478946e+00 1.962006e-02 6.586650e-02 2.186708e-01 2.626117e-01 2.825570e-01 3.752442e-01 4.153930e-01 4.175507e-01 3.774085e-01 4.051057e-01 3.768750e-01 3.760117e-01 3.060380e-01 7.447592e-03
<GCONST> 8.294921e+01
<TRANSP> 5
 0.000000e+00 1.000000e+00 0.000000e+00 0.000000e+00 0.000000e+00
 0.000000e+00 5.036572e-01 4.963428e-01 0.000000e+00 0.000000e+00
 0.000000e+00 0.000000e+00 5.384399e-01 4.615601e-01 0.000000e+00
 0.000000e+00 0.000000e+00 0.000000e+00 7.751802e-01 2.248199e-01
 0.000000e+00 0.000000e+00 0.000000e+00 0.000000e+00 0.000000e+00
<ENDHMM>
~h "n"
<BEGINHMM>
<NUMSTATES> 5
<STATE> 2
<MEAN> 39
 -4.676359e+00 -2.589901e+00 -1.692372e+00 -1.199316e+01 -2.209845e+00 -6.308711e+00 -3.416093e+00 -1.018104e+01 -3.379374e+00 -8.811215e+00 -2.959228e+00 -7.503634e+00 1.755467e+01 5.763506e-01 9.450207e-01 3.835952e-01 1.222008e-01 6.673751e-01 -9.761086e-01 -5.924693e-01 -3.207718e-02 -6.687465e-01 1.438768e-01 -4.534300e-02 -2.664385e-01 -7.691258e-03 1.455800e-02 -2.036134e-01 -3.082364e-02 2.919125e-01 -7.101302e-02 -9.063726e-03 1.708679e-01 -7.060348e-02 -1.093545e-01 9.656418e-02 4.190237e-02 -5.430342e-03 -5.890602e-03
<VARIANCE> 39
 9.655437e+00 1.185187e+01 1.209936e+01 1.853505e+01 3.055989e+01 3.345174e+01 2.797881e+01 3.047464e+01 4.256021e+01 4.684641e+01 3.740203e+01 3.909459e+01 1.618860e+00 5.074041e-01 1.021838e+00 1.179439e+00 1.634277e+00 2.401980e+00 2.373711e+00 2.276070e+00 2.497144e+00 2.582419e+00 2.497933e+00 2.264501e+00 1.907636e+00 7.799473e-02 9.412215e-02 2.051695e-01 2.264980e-01 2.844675e-01 4.355179e-01 4.774969e-01 4.224649e-01 4.188490e-01 4.987792e-01 4.978024e-01 4.147043e-01 3.428704e-01 6.767698e-03
<GCONST> 9.679855e+01
<STATE> 3
<MEAN> 39
 -2.569819e+00 -1.125469e+00 -2.358609e-01 -9.366119e+00 -1.192620e+00 -8.776758e+00 -3.959650e+00 -1.149776e+01 -6.234607e+00 -7.885657e+00 -2.954063e+00 -8.102761e+00 1.739660e+01 -2.019317e-01 -3.969142e-01 -2.936483e-01 3.021994e-01 -1.395685e-01 5.916605e-01 4.163777e-01 -8.294354e-02 1.316655e-01 2.973634e-02 1.468930e-01 1.809702e-01 -9.211978e-02 -2.302169e-01 -3.318808e-01 -2.667368e-01 -2.450941e-02 -1.094410e-01 3.140085e-01 2.429252e-01 1.351763e-01 1.963155e-01 -1.127761e-02 6.704746e-02 9.802028e-02 -4.451647e-02
<VARIANCE> 39
 3.882974e+00 5.441908e+00 8.988894e+00 1.284783e+01 2.011298e+01 2.171756e+01 2.138486e+01 2.668406e+01 3.766309e+01 3.691899e+01 3.371126e+01 3.447485e+01 9.894668e-01 4.792709e-01 9.487802e-01 1.033020e+00 1.202845e+00 2.129792e+00 2.138467e+00 2.300385e+00 2.119410e+00 2.589389e+00 1.946376e+00 2.179601e+00 1.760218e+00 8.947263e-02 6.567813e-02 1.353140e-01 1.803296e-01 2.664014e-01 3.686116e-01 3.669393e-01 4.092190e-01 3.939317e-01 4.393046e-01 3.981666e-01 4.080433e-01 3.144656e-01 6.993758e-03
<GCONST> 8.892183e+01
<STATE> 4
<MEAN> 39
 -4.708127e+00 -4.322712e+00 -2.525968e+00 -8.263269e+00 -2.210653e-01 -3.736089e+00 -3.442874e-01 -9.451650e+00 -3.116879e+00 -6.585855e+00 -5.389988e-01 -5.407459e+00 1.596174e+01 -5.416805e-01 -7.935634e-01 -6.287472e-01 5.931394e-02 5.689478e-03 4.099385e-01 4.322508e-01 2.561333e-01 2.552277e-01 1.456325e-01 2.116006e-01 2.060271e-01 -1.837307e-01 2.064241e-02 2.524392e-02 -6.948318e-04 -5.381416e-02 -5.721696e-02 -2.075803e-01 -1.035668e-01 -7.982666e-03 -6.000999e-02 1.939160e-02 1.591138e-02 -1.246260e-02 2.295629e-02
<VARIANCE> 39
 6.046307e+00 9.099408e+00 8.967048e+00 1.173832e+01 2.128637e+01 1.872805e+01 2.113112e+01 2.278030e+01 3.078664e+01 2.252195e+01 2.425524e+01 2.065165e+01 1.971284e+00 4.272687e-01 8.406819e-01 9.588943e-01 1.416308e+00 1.339136e+00 1.787358e+00 1.893056e+00 2.007852e+00 2.419695e+00 2.058390e+00 1.923408e+00 1.760651e+00 8.017077e-02 6.448223e-02 9.683069e-02 1.430296e-01 2.439999e-01 3.042180e-01 3.491726e-01 3.741628e-01 3.580965e-01 4.241073e-01 3.324278e-01 3.363504e-01 3.033143e-01 6.357306e-03
<GCONST> 8.575114e+01
<TRANSP> 5
 0.000000e+00 1.000000e+00 0.000000e+00 0.000000e+00 0.000000e+00
 0.000000e+00 7.003857e-01 2.996143e-01 0.000000e+00 0.000000e+00
 0.000000e+00 0.000000e+00 7.642253e-01 2.357747e-01 0.000000e+00
 0.000000e+00 0.000000e+00 0.000000e+00 7.201774e-01 2.798226e-01
 0.000000e+00 0.000000e+00 0.000000e+00 0.000000e+00 0.000000e+00
<ENDHMM>
~h "r"
<BEGINHMM>
<NUMSTATES> 5
<STATE> 2
<MEAN> 39
 -1.357173e+00 -9.154540e+00 5.836551e-01 -8.167197e+00 -1.498276e+01 -1.093351e+01 6.331851e-01 -8.105591e+00 -5.055760e-02 -4.987722e+00 -2.539004e-01 -5.719982e+00 1.842795e+01 -2.341821e-01 -1.959514e-01 4.265296e-01 -9.356699e-01 -4.567040e-01 1.271206e+00 -2.435760e-01 -1.183330e-01 7.125528e-01 -1.185519e-01 -6.600139e-02 -2.226107e-02 1.252235e-01 -2.544734e-01 3.467979e-01 -3.881198e-02 -5.220683e-01 6.052907e-01 2.960310e-01 -5.038527e-01 1.399110e-01 -2.524872e-02 -1.589349e-01 1.051287e-02 -5.687813e-03 -4.245117e-02
<VARIANCE> 39
 4.545450e+00 1.702576e+01 2.048133e+01 2.887500e+01 3.927599e+01 5.202240e+01 2.464514e+01 3.347226e+01 2.839114e+01 2.954601e+01 3.821684e+01 4.331162e+01 1.307643e+00 4.908398e-01 9.054640e-01 1.646475e+00 3.023486e+00 2.836219e+00 4.149595e+00 2.955864e+00 2.887208e+00 2.029918e+00 1.867375e+00 1.793236e+00 1.667494e+00 2.702787e-02 5.563105e-02 1.200301e-01 2.277418e-01 2.777678e-01 7.495520e-01 6.041157e-01 4.783531e-01 4.686156e-01 3.796957e-01 3.689758e-01 3.822811e-01 3.853364e-01 7.299133e-03
<GCONST> 9.652091e+01
<STATE> 3
<MEAN> 39
 -3.518665e+00 -7.510368e+00 3.687934e+00 -1.572177e+01 -1.455400e+01 -3.792498e+00 -4.929934e+00 -8.203534e+00 2.780882e+00 -6.588357e+00 4.027167e-01 -5.749508e+00 1.877205e+01 -8.525820e-01 1.345289e+00 -2.269117e-01 -2.073792e+00 2.582091e+00 4.810583e-01 -1.971762e+00 1.363125e+00 -3.861137e-01 -6.262444e-01 2.081293e-01 -9.787811e-02 -1.143652e-02 -1.253601e-03 3.171513e-01 -5.389372e-01 4.568098e-01 6.834421e-01 -9.617067e-01 2.909267e-01 2.595831e-01 -6.121153e-01 1.624963e-01 -5.311775e-03 4.128064e-02 -5.189614e-02
<VARIANCE> 39
 7.214785e+00 2.899492e+01 2.921316e+01 3.772542e+01 4.156262e+01 4.029865e+01 5.285788e+01 5.553847e+01 2.419425e+01 3.262358e+01 3.784557e+01 3.183891e+01 1.315681e+00 4.158218e-01 1.742235e+00 1.106480e+00 2.522085e+00 2.212270e+00 4.160045e+00 3.201268e+00 2.309450e+00 2.707399e+00 1.943297e+00 1.531679e+00 1.707201e+00 1.397725e-02 4.143606e-02 9.403280e-02 2.009917e-01 3.584540e-01 4.587339e-01 5.578261e-01 6.503431e-01 5.341056e-01 3.258235e-01 3.871229e-01 3.273236e-01 2.604457e-01 2.343710e-03
<GCONST> 9.556147e+01
<STATE> 4
<MEAN> 39
 -4.534564e+00 -6.015400e+00 4.193125e-01 -1.825364e+01 -6.108852e+00 -4.991205e+00 -4.112812e+00 -3.648379e+00 -1.176334e+00 -5.361507e+00 -8.308614e-01 -6.236911e+00 1.840611e+01 -3.830349e-01 1.014440e+00 -9.988064e-01 -4.856166e-02 1.933506e+00 -1.237425e+00 9.590724e-02 3.532341e-01 -9.310863e-01 1.301998e-01 -6.365047e-02 8.063170e-02 -6.625514e-02 1.262546e-01 9.150524e-05 -1.414773e-01 4.911652e-01 -2.977184e-01 -2.840873e-01 4.028814e-01 -3.884641e-01 7.553711e-02 9.802758e-02 -4.869635e-02 7.215088e-03 -2.112496e-02
<VARIANCE> 39
 1.059157e+01 4.732374e+01 1.897869e+01 3.950819e+01 3.581319e+01 4.036814e+01 5.729487e+01 3.808051e+01 3.454420e+01 3.390348e+01 3.513417e+01 3.433525e+01 1.265605e+00 2.642008e-01 1.248261e+00 7.384017e-01 9.019458e-01 2.054749e+00 3.117006e+00 2.239923e+00 2.012364e+00 2.047020e+00 2.470256e+00 1.501648e+00 1.361279e+00 1.071704e-02 4.488295e-02 1.100607e-01 1.021970e-01 2.845680e-01 2.600513e-01 3.003469e-01 4.525718e-01 3.783399e-01 3.121697e-01 2.995526e-01 2.561089e-01 2.661990e-01 1.371648e-03
<GCONST> 8.871220e+01
<TRANSP> 5
 0.000000e+00 1.000000e+00 0.000000e+00 0.000000e+00 0.000000e+00
 0.000000e+00 6.275269e-01 3.724731e-01 0.000000e+00 0.000000e+00
 0.000000e+00 0.000000e+00 4.718403e-01 5.281596e-01 0.000000e+00
 0.000000e+00 0.000000e+00 0.000000e+00 5.267820e-01 4.732180e-01
 0.000000e+00 0.000000e+00 0.000000e+00 0.000000e+00 0.000000e+00
<ENDHMM>
~h "s"
<BEGINHMM>
<NUMSTATES> 5
<STATE> 2
<MEAN> 39
 -9.870381e+00 -4.242826e+00 -6.963462e+00 -8.529109e+00 -2.813430e+00 -2.404277e+00 -1.016131e+00 -7.766718e+00 -2.461279e+00 -4.497797e+00 5.030563e-01 -4.358234e+00 1.476261e+01 -6.537607e-01 3.443582e-02 -9.856720e-01 2.033439e-01 -9.618659e-02 5.154641e-01 -8.546388e-02 2.210884e-01 8.174750e-03 1.085223e-01 7.236822e-02 3.032137e-01 -1.631435e-01 2.683954e-01 4.685991e-03 1.162349e-01 -2.212547e-02 -4.714125e-02 -2.929421e-01 -8.304849e-02 -7.804200e-02 -9.135909e-02 -9.347923e-02 -9.291120e-03 -4.900847e-02 6.203698e-02
<VARIANCE> 39
 1.136895e+01 1.288787e+01 1.612880e+01 1.535635e+01 2.029008e+01 1.988674e+01 2.112298e+01 1.948486e+01 2.076462e+01 1.932660e+01 1.904486e+01 1.510829e+01 1.196865e+00 1.120639e+00 1.343269e+00 1.519821e+00 1.582272e+00 2.117582e+00 2.795531e+00 2.315817e+00 2.129393e+00 2.676615e+00 2.331260e+00 2.148063e+00 1.808440e+00 7.103587e-02 1.447397e-01 2.241475e-01 3.196610e-01 2.923428e-01 4.295445e-01 5.153574e-01 4.697460e-01 4.935832e-01 5.370237e-01 4.252233e-01 4.235229e-01 3.431273e-01 1.184186e-02
<GCONST> 9.462704e+01
<STATE> 3
<MEAN> 39
 -9.315551e+00 -5.002062e+00 -8.105242e+00 -8.311378e+00 -2.947356e+00 -2.598550e+00 -1.788046e+00 -7.884039e+00 -3.249231e+00 -4.754861e+00 6.007824e-01 -3.576857e+00 1.458700e+01 -4.801394e-03 1.360294e-02 -9.970789e-02 6.496955e-02 3.397376e-02 -6.792919e-02 -4.542755e-02 2.892108e-02 -4.827352e-02 -4.458141e-02 -2.632278e-02 4.628497e-02 -1.571414e-03 6.459781e-02 6.821299e-03 1.185141e-01 -4.444342e-02 3.058417e-02 -6.714793e-02 4.539999e-02 -2.803350e-02 1.948791e-02 -1.110251e-02 -3.988604e-02 -3.837847e-02 2.862348e-02
<VARIANCE> 39
 4.462376e+00 6.858004e+00 9.391824e+00 1.199224e+01 1.578963e+01 1.582123e+01 1.531114e+01 1.699520e+01 1.829612e+01 1.578140e+01 1.547192e+01 1.294484e+01 9.506828e-01 2.350561e-01 4.337214e-01 6.400694e-01 1.013556e+00 1.278230e+00 1.576096e+00 1.549162e+00 1.750714e+00 1.826852e+00 1.505658e+00 1.493108e+00 1.333443e+00 6.657600e-03 5.478099e-02 9.800931e-02 1.421283e-01 2.216010e-01 2.679310e-01 3.516606e-01 3.339238e-01 3.549934e-01 3.648799e-01 3.310581e-01 2.952384e-01 2.713847e-01 3.676198e-03
<GCONST> 7.406660e+01
<STATE> 4
<MEAN> 39
 -9.488970e+00 -5.129575e+00 -8.131206e+00 -8.104794e+00 -2.724987e+00 -3.068031e+00 -1.446875e+00 -7.771719e+00 -3.095520e+00 -5.327685e+00 3.471066e-01 -3.756469e+00 1.452531e+01 4.227816e-01 1.062031e-01 5.113685e-01 -3.021123e-01 1.951952e-01 -4.222294e-01 7.015953e-02 -2.361031e-01 -5.755645e-02 -8.466692e-02 -1.664286e-01 1.833569e-03 1.492148e-01 3.227519e-01 1.543588e-01 3.759863e-01 -3.922010e-01 -3.289803e-01 -3.481188e-01 7.109418e-02 -8.715021e-02 8.928424e-02 7.953383e-02 -1.376894e-01 -1.491895e-01 1.883028e-01
<VARIANCE> 39
 6.302021e+00 8.582488e+00 1.183717e+01 1.333564e+01 1.686202e+01 1.726785e+01 1.533111e+01 1.929129e+01 1.755260e+01 1.893764e+01 1.715797e+01 1.481945e+01 9.173741e-01 5.788447e-01 6.259355e-01 8.852574e-01 1.235075e+00 1.504039e+00 1.723604e+00 1.692584e+00 1.926646e+00 1.754014e+00 2.076963e+00 1.650078e+00 1.630133e+00 5.618687e-02 1.039891e-01 1.587221e-01 2.333684e-01 3.226102e-01 3.839878e-01 4.729598e-01 3.609898e-01 4.734144e-01 3.963976e-01 5.062394e-01 3.887816e-01 3.764611e-01 1.756185e-02
<GCONST> 8.623041e+01
<TRANSP> 5
 0.000000e+00 1.000000e+00 0.000000e+00 0.000000e+00 0.000000e+00
 0.000000e+00 5.551202e-01 4.448798e-01 0.000000e+00 0.000000e+00
 0.000000e+00 0.000000e+00 7.993124e-01 2.006876e-01 0.000000e+00
 0.000000e+00 0.000000e+00 0.000000e+00 3.950590e-01 6.049410e-01
 0.000000e+00 0.000000e+00 0.000000e+00 0.000000e+00 0.000000e+00
<ENDHMM>
~h "t"
<BEGINHMM>
<NUMSTATES> 5
<STATE> 2
<MEAN> 39
 -6.002018e+00 -2.855986e+00 -3.570444e+00 -1.006248e+01 -7.682570e-01 -8.054767e+00 -3.124854e+00 -1.115791e+01 -5.109910e+00 -6.799109e+00 1.615488e-01 -4.720147e+00 1.567911e+01 -3.335516e-01 -1.891047e+00 -4.837606e-01 6.103111e-01 2.728014e-01 2.034599e+00 8.538992e-01 5.474948e-01 2.327049e-01 -7.482252e-02 1.998461e-01 2.621600e-01 -5.557564e-01 -2.045380e-01 1.751214e-01 -2.451850e-01 -2.633961e-01 -1.731572e-01 -1.730830e-01 1.078331e-01 2.865667e-01 3.475422e-01 2.117530e-01 5.266150e-02 -1.492412e-02 5.651593e-02
<VARIANCE> 39
 4.536308e+00 1.522763e+01 1.173284e+01 1.425910e+01 1.697019e+01 2.771471e+01 2.384357e+01 2.150876e+01 2.469533e+01 2.226310e+01 2.196553e+01 1.850624e+01 1.744306e+00 1.005267e+00 2.354065e+00 1.592266e+00 2.043671e+00 2.171190e+00 3.191307e+00 3.441529e+00 2.882912e+00 3.908416e+00 2.766994e+00 2.973774e+00 2.557934e+00 1.141121e-01 9.275147e-02 3.094856e-01 2.092504e-01 2.980990e-01 2.665769e-01 5.499449e-01 5.120311e-01 4.531196e-01 5.083200e-01 3.943058e-01 4.804600e-01 3.627360e-01 1.389254e-02
<GCONST> 9.747319e+01
<STATE> 3
<MEAN> 39
 -9.477757e+00 -5.246765e+00 -6.809858e+00 -9.640921e+00 -1.586091e+00 -4.105393e+00 -1.004242e+00 -8.056956e+00 -2.388227e+00 -5.500896e+00 8.530521e-01 -3.635198e+00 1.468114e+01 -6.757845e-01 4.651217e-02 -5.094761e-01 -2.728711e-02 -1.557954e-01 3.858348e-01 2.753336e-02 4.159041e-01 3.110710e-01 1.967266e-01 9.673061e-03 1.920509e-01 -6.536046e-02 2.174053e-01 2.481963e-01 2.628169e-01 -1.434947e-01 1.359476e-02 -3.072869e-01 -1.608421e-01 -1.518328e-01 -8.226430e-02 -3.637286e-02 -4.346144e-02 -7.382047e-02 9.806341e-02
<VARIANCE> 39
 1.119847e+01 1.064377e+01 1.021829e+01 1.192074e+01 1.454858e+01 1.769778e+01 1.934332e+01 1.802033e+01 1.977988e+01 1.923478e+01 1.736603e+01 1.526214e+01 9.168663e-01 1.016485e+00 1.846903e+00 1.259989e+00 1.589321e+00 1.574132e+00 2.186393e+00 2.232064e+00 2.044058e+00 2.421553e+00 2.185024e+00 2.188865e+00 1.647895e+00 7.413260e-02 2.257333e-01 4.183775e-01 2.659163e-01 3.564886e-01 3.926978e-01 5.984623e-01 5.328030e-01 4.683156e-01 5.188866e-01 4.780359e-01 4.876823e-01 3.722421e-01 1.831752e-02
<GCONST> 9.387232e+01
<STATE> 4
<MEAN> 39
 -9.664363e+00 -5.039651e+00 -6.551389e+00 -1.017044e+01 -1.170810e+00 -4.508024e+00 -1.210087e+00 -8.395454e+00 -2.415950e+00 -5.796990e+00 1.492057e+00 -3.806579e+00 1.494110e+01 1.538446e-01 1.162870e-01 3.471156e-01 -2.659341e-01 6.840236e-02 -1.420916e-02 -5.162446e-02 -4.485112e-02 2.928402e-02 -6.808506e-02 2.822662e-02 -1.385237e-01 7.795022e-02 2.103512e-01 1.431416e-01 2.379196e-01 -6.232231e-02 -1.073440e-01 -1.736224e-01 -1.145928e-01 -1.253169e-01 -8.820216e-02 -2.271018e-02 -8.623263e-02 -1.044352e-01 8.456387e-02
<VARIANCE> 39
 7.508017e+00 7.621569e+00 1.014390e+01 1.038318e+01 1.577511e+01 1.713384e+01 1.761066e+01 1.998154e+01 1.854307e+01 1.953501e+01 1.869497e+01 1.629956e+01 1.070884e+00 8.922138e-01 6.619226e-01 1.440645e+00 1.226253e+00 1.741180e+00 1.762405e+00 1.799459e+00 1.962886e+00 1.987491e+00 1.991268e+00 2.188007e+00 1.628330e+00 4.497880e-02 1.619021e-01 1.881005e-01 2.482190e-01 2.870631e-01 4.412561e-01 4.446109e-01 4.094422e-01 4.079247e-01 4.663684e-01 4.137396e-01 5.400133e-01 3.412864e-01 1.494966e-02
<GCONST> 8.840347e+01
<TRANSP> 5
 0.000000e+00 1.000000e+00 0.000000e+00 0.000000e+00 0.000000e+00
 0.000000e+00 5.492327e-01 4.507673e-01 0.000000e+00 0.000000e+00
 0.000000e+00 0.000000e+00 5.880446e-01 4.119554e-01 0.000000e+00
 0.000000e+00 0.000000e+00 0.000000e+00 7.597468e-01 2.402532e-01
 0.000000e+00 0.000000e+00 0.000000e+00 0.000000e+00 0.000000e+00
<ENDHMM>
~h "v"
<BEGINHMM>
<NUMSTATES> 5
<STATE> 2
<MEAN> 39
 -5.881059e+00 -8.661130e+00 -4.978952e+00 -1.602729e+01 -2.972910e+00 -1.851112e+00 3.263485e+00 -9.097521e+00 -3.073002e+00 -7.730826e+00 -3.116937e+00 -5.298635e+00 1.868349e+01 4.527385e-01 6.818408e-01 5.007128e-01 1.976317e-01 -6.639542e-01 -8.554592e-01 -1.578083e-01 5.650893e-01 1.212795e-01 4.890528e-01 -8.153117e-02 -1.844954e-01 -2.178256e-01 6.503576e-02 1.386800e-01 1.511448e-01 4.621655e-01 3.870957e-03 -3.313800e-01 -2.508222e-01 -5.317607e-02 1.260571e-02 1.230031e-01 2.143409e-01 -4.679980e-02 -1.025735e-01
<VARIANCE> 39
 8.792643e+00 1.308228e+01 8.143062e+00 2.057465e+01 4.314943e+01 2.123645e+01 2.424583e+01 3.672599e+01 4.657832e+01 3.286722e+01 3.132008e+01 3.294184e+01 1.491514e+00 3.495852e-01 1.156060e+00 6.533716e-01 1.879238e+00 1.679395e+00 1.796276e+00 1.952111e+00 1.951765e+00 2.568987e+00 2.153414e+00 2.337435e+00 1.597142e+00 4.945121e-02 8.110180e-02 1.271172e-01 1.069620e-01 3.408464e-01 4.476098e-01 3.065062e-01 3.460322e-01 4.029839e-01 3.816862e-01 3.816116e-01 4.849791e-01 3.519352e-01 6.500273e-03
<GCONST> 9.101715e+01
<STATE> 3
<MEAN> 39
 -3.657030e+00 -4.537108e+00 -1.882844e+00 -1.146869e+01 -6.229895e+00 -8.113285e+00 3.431671e-01 -5.944302e+00 -3.523080e+00 -4.961370e+00 -7.667410e-01 -6.540503e+00 1.720729e+01 -1.012821e-01 8.049083e-01 4.707522e-01 1.799000e+00 1.244253e+00 -3.377972e-01 -1.207939e+00 -6.332772e-01 9.191288e-02 -1.727731e-01 1.040667e+00 3.458450e-01 -6.171900e-01 -2.915559e-01 -3.263884e-01 -3.520763e-01 -1.202467e-01 3.973086e-01 5.785861e-01 2.110587e-01 -3.060174e-01 -6.448205e-02 -1.962010e-01 -1.703486e-01 1.372967e-01 1.366644e-02
<VARIANCE> 39
 5.066919e+00 9.491470e+00 8.809505e+00 2.264539e+01 2.598708e+01 2.458824e+01 2.230799e+01 3.307705e+01 2.511215e+01 2.630732e+01 2.765595e+01 2.603792e+01 1.482506e+00 6.970365e-01 9.874218e-01 1.212196e+00 2.019692e+00 2.780881e+00 2.631660e+00 2.446819e+00 3.016316e+00 2.792407e+00 2.589437e+00 2.447480e+00 2.487834e+00 7.953330e-02 7.287484e-02 1.307747e-01 1.604516e-01 4.262219e-01 4.675024e-01 3.564613e-01 4.329769e-01 4.872200e-01 4.592768e-01 4.720157e-01 5.032424e-01 3.691774e-01 2.186401e-02
<GCONST> 9.542159e+01
<STATE> 4
<MEAN> 39
 -5.355394e+00 -5.111422e+00 -3.112054e+00 -9.046533e+00 -2.055437e+00 -5.284627e+00 2.307708e-01 -8.546849e+00 -2.907119e+00 -6.012427e+00 1.491627e-01 -5.100657e+00 1.574719e+01 -2.128093e-01 -1.557883e-01 -2.656352e-01 -1.612747e-01 8.034983e-02 3.253548e-01 3.833494e-02 -3.472729e-01 2.224306e-01 -7.670786e-02 -5.743739e-02 7.141644e-02 -5.685192e-02 7.648982e-02 -5.945148e-02 -3.358805e-02 -3.357745e-01 -2.657403e-01 -4.675070e-02 9.452184e-02 9.226836e-02 2.899098e-02 4.357977e-02 -1.541339e-01 -5.646555e-02 1.241179e-01
<VARIANCE> 39
 7.144118e+00 6.980858e+00 8.207134e+00 1.165265e+01 2.017757e+01 2.231825e+01 2.032638e+01 1.970437e+01 2.289944e+01 2.377645e+01 2.350483e+01 1.783913e+01 1.469296e+00 5.137554e-01 6.740476e-01 9.853374e-01 1.432768e+00 2.285343e+00 1.819123e+00 2.138688e+00 2.130246e+00 2.094631e+00 2.525296e+00 2.304741e+00 1.688715e+00 1.427523e-01 9.254232e-02 1.689306e-01 1.951838e-01 3.958443e-01 5.114201e-01 3.819945e-01 4.999706e-01 4.721305e-01 4.610673e-01 4.978398e-01 4.749673e-01 3.662224e-01 2.423518e-02
<GCONST> 9.154066e+01
<TRANSP> 5
 0.000000e+00 1.000000e+00 0.000000e+00 0.000000e+00 0.000000e+00
 0.000000e+00 7.398103e-01 2.601897e-01 0.000000e+00 0.000000e+00
 0.000000e+00 0.000000e+00 5.906138e-01 4.093861e-01 0.000000e+00
 0.000000e+00 0.000000e+00 0.000000e+00 7.301158e-01 2.698843e-01
 0.000000e+00 0.000000e+00 0.000000e+00 0.000000e+00 0.000000e+00
<ENDHMM>
~h "w"
<BEGINHMM>
<NUMSTATES> 5
<STATE> 2
<MEAN> 39
 -3.592266e+00 -3.810919e+00 -3.897622e+00 -1.018178e+01 -1.993899e+00 -6.765391e+00 -2.445594e+00 -9.691163e+00 -3.317402e+00 -6.297585e+00 9.378707e-02 -5.325312e+00 1.606746e+01 8.277538e-01 6.439010e-01 6.110236e-03 -5.386560e-01 -4.909229e-01 -5.318894e-01 -1.801161e-01 4.140472e-02 -2.189929e-01 -1.677578e-01 -2.835712e-01 -3.284228e-01 3.349328e-01 1.685010e-01 1.135824e-02 -2.824467e-01 -2.708956e-01 -1.105987e-01 1.689191e-02 9.929321e-02 1.076253e-01 1.115157e-01 4.598013e-02 -9.010687e-02 -1.247928e-01 8.564240e-02
<VARIANCE> 39
 8.538020e+00 6.581631e+00 8.655976e+00 1.216431e+01 1.549872e+01 1.608801e+01 1.888797e+01 1.704320e+01 1.935840e+01 1.907968e+01 2.300974e+01 2.276740e+01 1.698079e+00 6.239023e-01 6.536316e-01 8.701965e-01 1.186094e+00 1.138770e+00 1.537612e+00 1.848613e+00 1.726352e+00 2.097046e+00 2.146589e+00 2.080121e+00 2.098652e+00 9.017859e-02 8.455573e-02 1.103080e-01 1.639179e-01 2.161640e-01 2.115425e-01 2.776302e-01 3.848889e-01 3.320244e-01 3.917444e-01 4.212725e-01 4.309374e-01 3.953443e-01 9.571299e-03
<GCONST> 8.465836e+01
<STATE> 3
<MEAN> 39
 1.706834e-02 -1.662989e+00 -6.636526e+00 -1.485656e+01 -5.222908e+00 -8.295669e+00 -1.136793e+00 -8.068681e+00 -2.628034e+00 -6.388491e+00 -1.544618e+00 -6.855608e+00 1.780110e+01 6.108553e-01 -1.702777e-01 -1.431232e+00 -9.006826e-01 1.783602e-01 8.516595e-01 6.945227e-01 3.796107e-01 1.410153e-01 -1.539975e-01 -2.200281e-01 -2.760269e-01 3.392051e-01 -1.949974e-01 -3.714167e-01 -2.898283e-01 4.088280e-01 5.712093e-01 3.686959e-01 -1.056784e-01 -1.180625e-01 -5.394557e-02 -5.695942e-02 3.475633e-02 4.617357e-02 -4.815254e-02
<VARIANCE> 39
 3.775889e+00 4.018262e+00 1.046684e+01 1.554030e+01 1.986107e+01 1.713731e+01 1.737337e+01 2.035490e+01 2.224203e+01 2.430177e+01 2.988051e+01 2.979128e+01 1.126182e+00 3.933013e-01 5.490435e-01 9.583049e-01 1.152429e+00 1.856302e+00 1.814524e+00 1.746062e+00 1.619180e+00 1.876729e+00 1.919981e+00 2.130674e+00 1.934259e+00 5.625341e-02 6.141644e-02 9.016167e-02 1.388214e-01 3.210531e-01 2.552085e-01 2.832072e-01 4.544167e-01 3.607599e-01 3.759865e-01 3.537197e-01 4.227353e-01 3.794809e-01 6.541788e-03
<GCONST> 8.341032e+01
<STATE> 4
<MEAN> 39
 5.465860e-01 -4.902714e+00 -1.337665e+01 -1.325207e+01 1.065537e+00 -2.420536e+00 -1.837235e+00 -9.167645e+00 -2.983160e+00 -6.869385e+00 -1.713788e+00 -8.247324e+00 1.845593e+01 -2.198719e-01 -1.205589e+00 -1.180793e+00 1.948151e+00 1.689554e+00 6.710680e-02 -1.432360e+00 -1.023432e-01 6.297296e-01 -1.605266e-01 -5.924159e-01 -4.639009e-01 1.005773e-01 -2.063302e-01 -1.045997e-01 4.573241e-01 5.848896e-01 -3.120087e-01 -7.206482e-01 -1.691152e-01 3.407709e-01 1.003399e-01 -2.512503e-01 -1.138554e-01 2.042674e-01 -4.872679e-02
<VARIANCE> 39
 3.841955e+00 7.286705e+00 1.643364e+01 2.269273e+01 2.244370e+01 2.155965e+01 2.444395e+01 2.044379e+01 3.466672e+01 2.442347e+01 3.135726e+01 2.868596e+01 1.412003e+00 2.201549e-01 4.720688e-01 1.017391e+00 1.497782e+00 1.436946e+00 2.377372e+00 1.583045e+00 2.150441e+00 2.169169e+00 1.743620e+00 2.082556e+00 1.742643e+00 1.883943e-02 4.891747e-02 6.152505e-02 1.588371e-01 3.114788e-01 3.825663e-01 2.790601e-01 5.364365e-01 3.709095e-01 4.516855e-01 3.840182e-01 3.826799e-01 4.176667e-01 3.184248e-03
<GCONST> 8.447388e+01
<TRANSP> 5
 0.000000e+00 1.000000e+00 0.000000e+00 0.000000e+00 0.000000e+00
 0.000000e+00 7.118635e-01 2.881366e-01 0.000000e+00 0.000000e+00
 0.000000e+00 0.000000e+00 7.208131e-01 2.791869e-01 0.000000e+00
 0.000000e+00 0.000000e+00 0.000000e+00 7.257698e-01 2.742302e-01
 0.000000e+00 0.000000e+00 0.000000e+00 0.000000e+00 0.000000e+00
<ENDHMM>
~h "z"
<BEGINHMM>
<NUMSTATES> 5
<STATE> 2
<MEAN> 39
 -6.141640e+00 -3.872941e+00 -4.498814e+00 -7.705676e+00 -8.468929e-01 -3.879885e+00 -1.056010e+00 -8.804863e+00 -3.827307e+00 -5.399524e+00 7.251699e-01 -4.525884e+00 1.522024e+01 -2.271899e-01 3.101353e-02 -2.031219e-01 1.848092e-01 9.500795e-02 3.755870e-01 1.261107e-02 1.699616e-01 4.917167e-02 1.533052e-01 2.984081e-02 8.777434e-02 -5.161434e-02 1.797857e-02 5.849546e-02 4.902364e-02 -6.848313e-02 -6.102186e-02 -9.935326e-02 -4.869130e-02 -3.848692e-02 3.122407e-02 2.142309e-02 -3.818657e-02 -1.916193e-02 4.077164e-02
<VARIANCE> 39
 6.152938e+00 8.651546e+00 1.138164e+01 1.152255e+01 1.496155e+01 1.440857e+01 1.777226e+01 1.880639e+01 2.005948e+01 1.845572e+01 2.031147e+01 1.656690e+01 9.814039e-01 5.125186e-01 7.790347e-01 1.085933e+00 8.895614e-01 1.270263e+00 1.742350e+00 1.894844e+00 1.820380e+00 1.978394e+00 1.748755e+00 2.137065e+00 1.587308e+00 5.558594e-02 8.774211e-02 1.499208e-01 1.804263e-01 1.969068e-01 2.536823e-01 3.553294e-01 4.239685e-01 3.562143e-01 3.766107e-01 3.468399e-01 4.537935e-01 3.192711e-01 1.039821e-02
<GCONST> 8.358146e+01
<STATE> 3
<MEAN> 39
 -8.251573e+00 -3.307008e+00 -6.799141e+00 -6.288615e+00 -1.608428e+00 -1.890673e+00 -1.266983e+00 -7.001608e+00 -3.147670e+00 -4.593637e+00 4.189740e-01 -4.266042e+00 1.493365e+01 1.521428e-01 7.253779e-01 4.695792e-01 -3.087901e-01 -4.127795e-01 -7.100328e-01 -5.486767e-01 -3.991298e-01 1.113215e-02 2.357509e-01 -2.057969e-01 -5.075102e-02 2.695859e-01 2.899144e-01 3.712152e-01 5.310528e-01 -5.137919e-01 -3.131210e-01 -7.377707e-01 -2.252587e-01 -3.634382e-01 4.263818e-02 7.193759e-02 1.347624e-05 -1.153542e-01 2.012624e-01
<VARIANCE> 39
 6.139266e+00 1.116466e+01 1.586349e+01 1.238265e+01 1.847252e+01 1.594729e+01 1.946453e+01 1.790382e+01 2.527416e+01 1.759115e+01 1.865652e+01 1.452501e+01 8.884401e-01 4.500880e-01 6.872862e-01 1.117502e+00 1.090168e+00 1.207618e+00 2.116821e+00 1.757170e+00 1.970892e+00 1.778284e+00 1.727120e+00 1.807280e+00 1.804456e+00 6.324698e-02 7.681154e-02 1.612792e-01 1.997403e-01 2.336882e-01 2.592112e-01 3.605945e-01 3.551577e-01 3.873103e-01 4.129773e-01 3.448911e-01 4.349784e-01 4.789548e-01 7.270728e-03
<GCONST> 8.480270e+01
<STATE> 4
<MEAN> 39
 -6.228081e+00 -9.234261e-01 -3.145408e+00 -8.564432e+00 -3.115992e+00 -6.293685e+00 -3.926979e+00 -1.060259e+01 -4.156034e+00 -3.663045e+00 1.266181e-01 -4.148306e+00 1.629080e+01 5.906500e-01 1.382208e+00 1.621896e+00 -2.091736e+00 -1.379124e+00 -2.360486e+00 -8.248539e-01 -1.008860e+00 4.365461e-01 5.248887e-01 -1.146433e-01 -3.749313e-01 7.428108e-01 -7.221599e-02 5.781799e-03 2.812709e-02 -4.644198e-01 -2.293048e-01 -1.365877e-01 1.607522e-01 2.330019e-01 3.365871e-01 -9.444439e-02 3.826178e-02 -1.497564e-01 7.369044e-02
<VARIANCE> 39
 6.252565e+00 7.585161e+00 1.130722e+01 1.353601e+01 2.333636e+01 1.791647e+01 1.906191e+01 1.716621e+01 3.074395e+01 2.954910e+01 2.205413e+01 2.386763e+01 1.138857e+00 5.867324e-01 9.434114e-01 1.420040e+00 1.229939e+00 1.717679e+00 2.338693e+00 2.432174e+00 2.333672e+00 3.021470e+00 2.217161e+00 2.965541e+00 3.257984e+00 4.073440e-02 8.822606e-02 1.630418e-01 2.139078e-01 2.543248e-01 3.058309e-01 3.951604e-01 4.055012e-01 3.703676e-01 3.897496e-01 3.932659e-01 3.917497e-01 3.493972e-01 8.078998e-03
<GCONST> 8.981909e+01
<TRANSP> 5
 0.000000e+00 1.000000e+00 0.000000e+00 0.000000e+00 0.000000e+00
 0.000000e+00 7.966306e-01 2.033694e-01 0.000000e+00 0.000000e+00
 0.000000e+00 0.000000e+00 6.020252e-01 3.979747e-01 0.000000e+00
 0.000000e+00 0.000000e+00 0.000000e+00 4.299771e-01 5.700229e-01
 0.000000e+00 0.000000e+00 0.000000e+00 0.000000e+00 0.000000e+00
<ENDHMM>
~h "ah"
<BEGINHMM>
<NUMSTATES> 5
<STATE> 2
<MEAN> 39
 -1.346051e+00 -9.691779e+00 -1.345874e+01 -3.367478e+00 2.453897e+00 -8.459557e+00 -5.757348e+00 -4.790206e+00 -5.308875e-01 -1.113118e+01 -4.513316e+00 -6.708498e+00 1.857937e+01 -6.504379e-01 -8.501699e-01 1.006719e+00 1.739442e+00 -1.141388e+00 -1.446161e+00 9.833972e-01 1.221324e+00 -9.550291e-01 -1.318197e+00 5.015133e-01 9.896601e-01 -1.130527e-02 -5.024560e-02 2.478529e-01 4.766649e-01 -5.483786e-01 -5.977337e-01 3.355228e-01 7.035471e-01 -3.859063e-01 -5.074717e-01 3.397107e-01 4.693118e-01 -1.139823e-01 -2.808397e-02
<VARIANCE> 39
 4.969830e+00 8.814433e+00 1.448195e+01 2.514434e+01 1.734107e+01 2.200954e+01 2.615193e+01 3.044120e+01 4.024791e+01 3.726631e+01 2.680027e+01 3.055980e+01 1.504833e+00 1.799306e-01 4.360551e-01 7.922826e-01 1.534298e+00 1.350857e+00 1.421645e+00 2.478032e+00 1.793633e+00 2.477822e+00 1.650946e+00 2.423826e+00 1.592770e+00 9.436198e-03 3.113174e-02 6.478533e-02 1.468799e-01 2.231838e-01 2.780927e-01 3.674009e-01 3.453760e-01 5.160909e-01 3.775494e-01 4.858840e-01 3.421738e-01 4.632127e-01 1.204656e-03
<GCONST> 8.241019e+01
<STATE> 3
<MEAN> 39
 -3.866170e+00 -1.135958e+01 -6.800265e+00 -1.525642e+00 -4.873177e+00 -8.614586e+00 2.266271e+00 -6.326948e+00 -7.013355e+00 -9.968650e+00 2.491845e-01 -7.043990e+00 1.835928e+01 -5.397450e-01 3.786361e-01 1.711495e+00 -1.086445e+00 -1.416937e+00 1.154576e+00 1.070124e+00 -1.765897e+00 -3.763286e-01 1.385769e+00 1.970646e-01 -8.440665e-01 -1.026646e-01 1.331300e-01 4.144698e-01 -6.400253e-02 -5.810025e-01 4.972153e-01 3.096217e-01 -6.831216e-01 -2.930001e-01 6.168073e-01 1.837915e-01 -4.362440e-01 -9.967112e-03 -2.865838e-02
<VARIANCE> 39
 5.480802e+00 1.168660e+01 1.222779e+01 2.250850e+01 1.851435e+01 2.164234e+01 2.326337e+01 4.524438e+01 3.054005e+01 4.424795e+01 2.960359e+01 4.175990e+01 1.638822e+00 2.741756e-01 5.431310e-01 7.636895e-01 1.271024e+00 1.456514e+00 1.683823e+00 2.045403e+00 1.927730e+00 3.015095e+00 1.735316e+00 2.217784e+00 1.494740e+00 8.223170e-03 3.961340e-02 8.196779e-02 9.379523e-02 2.554984e-01 2.868368e-01 4.007082e-01 3.426856e-01 5.288847e-01 3.166905e-01 6.509091e-01 3.177123e-01 4.723182e-01 1.224869e-03
<GCONST> 8.410336e+01
<STATE> 4
<MEAN> 39
 -5.381242e+00 -7.953210e+00 -2.242791e+00 -8.243631e+00 -5.869717e+00 -2.496950e+00 -1.293617e-01 -1.275205e+01 -2.989705e+00 -8.422603e+00 -2.572032e+00 -7.878336e+00 1.802570e+01 1.869304e-01 1.619775e+00 8.264250e-01 -1.573475e+00 7.895674e-01 1.306586e-01 -1.460078e+00 -3.151386e-01 6.743929e-01 -1.322513e-01 -1.961603e-01 4.481936e-01 -1.736827e-01 2.129602e-01 1.068483e-01 -2.429505e-01 3.257155e-01 4.118333e-01 -5.952259e-01 -2.377411e-01 4.036363e-01 -2.422608e-01 -2.112289e-01 1.176130e-01 9.609994e-02 -6.605320e-03
<VARIANCE> 39
 7.518411e+00 1.381441e+01 8.099442e+00 1.798829e+01 1.741080e+01 5.046722e+01 3.618915e+01 4.204718e+01 3.907228e+01 4.557137e+01 2.882136e+01 3.465979e+01 1.306695e+00 4.086174e-01 6.916116e-01 1.178992e+00 1.157962e+00 1.456555e+00 2.906651e+00 1.858763e+00 2.347806e+00 2.423545e+00 3.334176e+00 1.838944e+00 1.454370e+00 1.777342e-02 6.067930e-02 1.138586e-01 1.479399e-01 1.961539e-01 3.199034e-01 4.504178e-01 4.643633e-01 3.819324e-01 4.010943e-01 5.120916e-01 3.562647e-01 3.408047e-01 1.990096e-03
<GCONST> 8.898132e+01
<TRANSP> 5
 0.000000e+00 1.000000e+00 0.000000e+00 0.000000e+00 0.000000e+00
 0.000000e+00 7.464731e-01 2.535270e-01 0.000000e+00 0.000000e+00
 0.000000e+00 0.000000e+00 7.319373e-01 2.680627e-01 0.000000e+00
 0.000000e+00 0.000000e+00 0.000000e+00 6.840693e-01 3.159307e-01
 0.000000e+00 0.000000e+00 0.000000e+00 0.000000e+00 0.000000e+00
<ENDHMM>
~h "ao"
<BEGINHMM>
<NUMSTATES> 5
<STATE> 2
<MEAN> 39
 1.659209e+00 -3.172071e+00 -1.214859e+01 -1.750962e+01 -4.330957e+00 -5.797205e+00 -2.718786e+00 -8.999726e+00 -1.689345e+00 -3.792203e+00 9.923927e-01 -6.345022e+00 1.898506e+01 4.600225e-02 -2.783501e-01 -1.359810e-01 1.351262e-01 1.671336e-01 8.713129e-02 -1.822606e-01 1.590876e-01 3.539730e-01 8.345529e-02 -1.339102e-01 -1.069022e-01 2.934272e-02 -1.453678e-01 -1.896499e-01 1.377059e-01 2.878276e-01 8.112469e-02 -1.007821e-01 -4.650182e-02 1.466482e-01 1.188137e-01 -1.049338e-01 -1.486936e-01 6.364658e-03 -5.617648e-02
<VARIANCE> 39
 3.867215e+00 9.577563e+00 8.883676e+00 1.281468e+01 2.465385e+01 1.592519e+01 1.725539e+01 1.620657e+01 2.307924e+01 2.496746e+01 3.539108e+01 3.657476e+01 1.059057e+00 2.014319e-01 7.623101e-01 7.126454e-01 1.211881e+00 1.457288e+00 1.208476e+00 1.537063e+00 1.488668e+00 2.165716e+00 1.709533e+00 2.003071e+00 1.701842e+00 2.975426e-02 7.935397e-02 7.138848e-02 1.622310e-01 1.603167e-01 2.394766e-01 2.518093e-01 2.632319e-01 2.869466e-01 3.479075e-01 3.567220e-01 3.612854e-01 3.380301e-01 9.811618e-03
<GCONST> 8.057614e+01
<STATE> 3
<MEAN> 39
 6.716304e-01 -1.051710e+01 -1.030411e+01 -9.338876e+00 -4.209586e+00 -9.915812e+00 -4.704952e+00 -3.583341e+00 3.305274e+00 -6.121564e+00 -4.630448e+00 -7.915248e+00 1.893820e+01 -5.160741e-01 -6.289207e-01 1.272398e+00 1.193171e+00 -8.350329e-01 -6.254842e-01 9.069830e-01 6.162289e-01 -5.910519e-01 -9.974530e-01 -1.192646e-01 5.777237e-01 -1.580369e-01 -1.376560e-01 3.145178e-01 2.134599e-01 -2.688912e-01 -1.376828e-01 3.285630e-01 3.324880e-01 -3.903312e-01 -4.798545e-01 4.127170e-02 4.110828e-01 9.722153e-02 -6.484391e-02
<VARIANCE> 39
 5.992204e+00 1.348373e+01 2.255484e+01 2.050863e+01 5.171190e+01 3.508766e+01 3.142736e+01 3.852956e+01 3.503592e+01 3.540965e+01 3.640788e+01 3.065373e+01 1.452442e+00 2.950659e-01 1.634566e+00 1.144760e+00 2.140701e+00 3.192418e+00 3.006170e+00 2.917228e+00 4.252380e+00 3.906196e+00 3.009846e+00 4.147380e+00 2.072326e+00 4.850816e-02 5.538940e-02 1.646080e-01 2.695149e-01 3.423595e-01 7.886848e-01 5.926343e-01 6.374554e-01 7.279702e-01 6.588453e-01 7.166194e-01 6.814049e-01 5.124579e-01 4.674666e-03
<GCONST> 1.020819e+02
<STATE> 4
<MEAN> 39
 -3.202623e+00 -8.930774e+00 -3.481042e+00 -8.155697e+00 -5.250503e+00 -6.143375e+00 3.474852e-01 -7.851156e+00 -3.829989e+00 -8.357451e+00 -1.835241e+00 -6.445730e+00 1.704417e+01 -7.826797e-01 7.684507e-01 5.229971e-01 -2.466023e-01 4.562475e-01 8.425788e-01 1.486271e-01 -7.854245e-01 -3.800565e-01 3.930582e-01 4.466868e-01 1.373786e-01 -3.733198e-01 6.404189e-03 1.254358e-02 -3.294829e-01 -1.095228e-01 2.345225e-01 -3.102678e-02 -2.202351e-01 9.627723e-02 2.223029e-01 1.189063e-01 -8.467610e-02 1.210929e-02 -4.724110e-03
<VARIANCE> 39
 8.542162e+00 2.538494e+01 1.535982e+01 1.765866e+01 3.226706e+01 3.054319e+01 2.389322e+01 3.686666e+01 3.046769e+01 2.927977e+01 2.640399e+01 2.739192e+01 2.142061e+00 5.264969e-01 1.362410e+00 1.830706e+00 1.610966e+00 3.570881e+00 2.874099e+00 2.682249e+00 2.785446e+00 2.936842e+00 2.202409e+00 2.342160e+00 2.137200e+00 7.188938e-02 7.159404e-02 2.895546e-01 2.338393e-01 2.820116e-01 5.787072e-01 4.585096e-01 4.863440e-01 4.907736e-01 5.110027e-01 4.493410e-01 4.556459e-01 3.903084e-01 9.462515e-03
<GCONST> 9.919321e+01
<TRANSP> 5
 0.000000e+00 1.000000e+00 0.000000e+00 0.000000e+00 0.000000e+00
 0.000000e+00 9.035063e-01 9.649370e-02 0.000000e+00 0.000000e+00
 0.000000e+00 0.000000e+00 8.048215e-01 1.951785e-01 0.000000e+00
 0.000000e+00 0.000000e+00 0.000000e+00 8.261027e-01 1.738974e-01
 0.000000e+00 0.000000e+00 0.000000e+00 0.000000e+00 0.000000e+00
<ENDHMM>
~h "ay"
<BEGINHMM>
<NUMSTATES> 5
<STATE> 2
<MEAN> 39
 -5.206370e+00 -1.303800e+01 -9.157602e+00 -3.996757e+00 -1.523634e+00 -7.595340e+00 1.176620e+00 -7.860376e+00 -6.582302e+00 -9.239173e+00 -2.161088e+00 -5.416184e+00 1.909869e+01 -2.634552e-01 -5.767638e-01 1.158038e-01 9.738393e-01 4.566526e-04 -1.960467e-01 1.959369e-01 -1.549260e-01 -2.525197e-01 1.122972e-01 6.191409e-01 7.079733e-02 3.503850e-02 7.618446e-02 3.045109e-01 1.959153e-01 -2.409575e-01 -9.896252e-02 -8.223741e-03 -1.222105e-01 6.610697e-03 9.616064e-02 3.934396e-02 -1.252497e-02 -1.153005e-01 -5.154294e-02
<VARIANCE> 39
 8.591955e+00 1.217635e+01 3.425034e+01 2.036085e+01 3.616306e+01 2.718307e+01 3.266505e+01 5.417072e+01 4.469809e+01 4.319741e+01 2.882615e+01 2.820147e+01 1.211855e+00 2.431290e-01 4.515611e-01 8.960475e-01 9.669367e-01 1.268759e+00 1.000394e+00 1.092867e+00 1.417974e+00 1.654785e+00 1.434518e+00 1.061074e+00 1.037065e+00 1.395859e-02 4.642244e-02 7.738597e-02 1.035186e-01 1.306346e-01 2.049875e-01 1.818270e-01 2.314305e-01 2.368254e-01 2.702921e-01 2.592458e-01 2.245854e-01 1.908507e-01 4.255856e-03
<GCONST> 7.932169e+01
<STATE> 3
<MEAN> 39
 -6.150147e+00 -1.394818e+01 -6.789943e+00 -2.600814e+00 -1.825276e+00 -7.880488e+00 2.462646e+00 -9.166300e+00 -6.836759e+00 -6.905424e+00 -5.752545e-01 -6.124175e+00 1.884816e+01 -1.081084e-01 4.668358e-02 3.937477e-01 -2.342279e-01 -2.216893e-01 2.999273e-01 6.392282e-02 -2.928859e-01 3.852270e-02 2.895796e-01 -2.918725e-02 -1.084036e-01 -3.666463e-02 1.117078e-03 9.987827e-02 4.152371e-02 -2.163991e-01 -2.652126e-02 1.357933e-01 -3.186918e-02 -3.810917e-02 6.929886e-02 4.583465e-03 -1.168307e-01 1.052265e-02 -8.715523e-03
<VARIANCE> 39
 7.973475e+00 1.190696e+01 2.404415e+01 2.716835e+01 3.016564e+01 2.941527e+01 2.065969e+01 3.632854e+01 4.397229e+01 4.580917e+01 2.715557e+01 3.044181e+01 1.150042e+00 9.327958e-02 1.441595e-01 3.753082e-01 5.235618e-01 5.204103e-01 6.341910e-01 6.001993e-01 6.512632e-01 6.721634e-01 7.492899e-01 6.675661e-01 6.603683e-01 4.641098e-03 1.479103e-02 3.042260e-02 4.826888e-02 7.366411e-02 7.719199e-02 9.461512e-02 9.950136e-02 1.009553e-01 1.192107e-01 1.148748e-01 1.079579e-01 1.066335e-01 4.957397e-04
<GCONST> 5.649474e+01
<STATE> 4
<MEAN> 39
 -6.972815e+00 -1.100303e+01 -2.861924e+00 -8.706836e+00 -3.292351e+00 -2.168900e+00 1.186477e+00 -1.210113e+01 -3.481604e+00 -5.740638e+00 -2.531838e+00 -5.676377e+00 1.841074e+01 -1.041745e-01 1.168388e+00 3.271067e-01 -1.766479e+00 1.589541e-01 8.176692e-01 -6.235913e-01 1.573151e-01 7.511265e-01 -4.703928e-01 -4.755658e-01 2.903100e-01 -9.577691e-02 9.095750e-02 2.306532e-01 -1.291172e-01 -3.632084e-02 1.162350e-01 -2.876442e-01 -9.443741e-02 3.346440e-01 -3.186268e-02 -1.685959e-01 1.105509e-01 -1.325577e-02 -1.568795e-02
<VARIANCE> 39
 8.601040e+00 1.773979e+01 1.340576e+01 2.954761e+01 3.250152e+01 2.427543e+01 3.059447e+01 3.149492e+01 6.143414e+01 3.618776e+01 2.915391e+01 3.373864e+01 1.429053e+00 1.914249e-01 4.818941e-01 6.305243e-01 1.065228e+00 1.592034e+00 1.305302e+00 1.313050e+00 1.496904e+00 1.587767e+00 1.736709e+00 1.472422e+00 1.304265e+00 6.646448e-03 2.668887e-02 6.132992e-02 6.881548e-02 1.710818e-01 1.759319e-01 2.200051e-01 2.421410e-01 1.830426e-01 3.122778e-01 2.421067e-01 2.487064e-01 2.224267e-01 8.449510e-04
<GCONST> 7.668393e+01
<TRANSP> 5
 0.000000e+00 1.000000e+00 0.000000e+00 0.000000e+00 0.000000e+00
 0.000000e+00 7.174322e-01 2.825678e-01 0.000000e+00 0.000000e+00
 0.000000e+00 0.000000e+00 8.699639e-01 1.300361e-01 0.000000e+00
 0.000000e+00 0.000000e+00 0.000000e+00 7.732171e-01 2.267829e-01
 0.000000e+00 0.000000e+00 0.000000e+00 0.000000e+00 0.000000e+00
<ENDHMM>
~h "eh"
<BEGINHMM>
<NUMSTATES> 5
<STATE> 2
<MEAN> 39
 -8.265828e+00 -4.724851e+00 -6.402770e+00 -9.241412e+00 -2.004952e+00 -3.616899e+00 -7.776848e-01 -8.561908e+00 -2.375919e+00 -4.832131e+00 -4.793018e-02 -3.610216e+00 1.520032e+01 1.577393e+00 4.170376e-01 1.323541e+00 -1.841331e+00 -1.681195e+00 -1.641697e+00 1.060957e+00 -1.697518e-01 5.471132e-01 2.372187e-01 -7.705524e-01 -8.984305e-01 9.453360e-01 1.194645e-01 -9.328936e-02 -4.672633e-02 -4.932638e-01 -5.473595e-01 -1.405194e-01 4.275729e-01 1.823553e-01 1.570684e-02 -8.976878e-02 -3.546416e-01 -2.995057e-01 2.355466e-01
<VARIANCE> 39
 6.290600e+00 6.631532e+00 1.080959e+01 9.952534e+00 1.341972e+01 1.421377e+01 1.797322e+01 1.669000e+01 1.726477e+01 2.259620e+01 2.122817e+01 1.854840e+01 1.349568e+00 7.379170e-01 9.140903e-01 1.381632e+00 1.679062e+00 2.165168e+00 2.636544e+00 2.368527e+00 2.701041e+00 2.168650e+00 4.713576e+00 2.299869e+00 2.136594e+00 6.965555e-02 1.490066e-01 1.477045e-01 2.405809e-01 2.808398e-01 4.661744e-01 4.412087e-01 4.339563e-01 4.513409e-01 4.631601e-01 5.186341e-01 3.815141e-01 5.063956e-01 1.505380e-02
<GCONST> 9.159184e+01
<STATE> 3
<MEAN> 39
 -3.813669e+00 -3.653059e+00 -3.607525e+00 -1.603891e+01 -1.020263e+01 -9.695541e+00 3.401659e+00 -8.053452e+00 -1.353100e+00 -4.392578e+00 -4.400173e+00 -7.523548e+00 1.845165e+01 3.011448e-01 -5.156255e-01 -1.203505e-01 -1.855847e+00 -1.239171e+00 2.217404e-02 1.672185e+00 2.806763e-01 8.534775e-02 -7.331848e-01 -1.388856e+00 -9.649660e-01 8.442686e-01 -5.796763e-01 -3.799098e-01 -4.945795e-01 5.338175e-01 8.606229e-01 9.074504e-01 -1.475602e-01 7.194511e-03 -2.990433e-01 -2.430596e-01 2.925678e-01 3.744479e-01 -2.213793e-01
<VARIANCE> 39
 6.414156e+00 6.409178e+00 8.205840e+00 2.037572e+01 2.211278e+01 2.506073e+01 2.721291e+01 2.949637e+01 3.284605e+01 8.120944e+01 2.589095e+01 2.608241e+01 1.128737e+00 1.196247e+00 9.581203e-01 1.220531e+00 1.684685e+00 4.148905e+00 3.976288e+00 2.139467e+00 2.428346e+00 3.300113e+00 4.124848e+00 2.591361e+00 3.442137e+00 1.384784e-01 8.593139e-02 1.132261e-01 1.669514e-01 2.625052e-01 3.803441e-01 2.878799e-01 3.102097e-01 3.236675e-01 3.410075e-01 7.454647e-01 4.639207e-01 3.948364e-01 1.109050e-02
<GCONST> 9.633447e+01
<STATE> 4
<MEAN> 39
 -5.322971e+00 -7.164444e+00 -5.990608e+00 -1.358370e+01 -7.898776e+00 -7.209758e+00 5.238921e+00 -4.524777e+00 -4.660943e+00 -6.856650e+00 -3.482327e+00 -7.531493e+00 1.886419e+01 -1.808938e-01 -4.478050e-01 -1.931560e-01 3.094231e-01 7.338997e-01 6.899901e-01 -8.618066e-02 1.153691e-02 -4.141809e-01 -4.073235e-01 5.192782e-01 2.566871e-01 1.672717e-02 4.617653e-02 1.178884e-01 1.537552e-01 2.497876e-01 1.219163e-01 -1.733870e-01 -3.139279e-01 -3.082218e-02 1.845824e-02 2.006814e-01 2.144324e-01 1.260057e-01 -1.042101e-01
<VARIANCE> 39
 9.338398e+00 7.949601e+00 1.095522e+01 2.925075e+01 3.544073e+01 4.108516e+01 4.825381e+01 4.382362e+01 4.580661e+01 5.173464e+01 3.422383e+01 2.780868e+01 1.698628e+00 5.763272e-01 7.964538e-01 7.429536e-01 8.212271e-01 2.265907e+00 2.337831e+00 3.479359e+00 2.278223e+00 2.316501e+00 1.983061e+00 2.225142e+00 1.559753e+00 1.041583e-01 1.017575e-01 1.305446e-01 1.564087e-01 2.684242e-01 5.006207e-01 4.195021e-01 6.960293e-01 4.880206e-01 5.007566e-01 4.279232e-01 5.009381e-01 3.467362e-01 2.726527e-02
<GCONST> 9.779982e+01
<TRANSP> 5
 0.000000e+00 1.000000e+00 0.000000e+00 0.000000e+00 0.000000e+00
 0.000000e+00 4.809522e-01 5.190477e-01 0.000000e+00 0.000000e+00
 0.000000e+00 0.000000e+00 5.962453e-01 4.037548e-01 0.000000e+00
 0.000000e+00 0.000000e+00 0.000000e+00 7.789259e-01 2.210741e-01
 0.000000e+00 0.000000e+00 0.000000e+00 0.000000e+00 0.000000e+00
<ENDHMM>
~h "ey"
<BEGINHMM>
<NUMSTATES> 5
<STATE> 2
<MEAN> 39
 -7.675449e+00 -6.566527e+00 -5.492172e+00 -1.372969e+01 -1.958427e-02 -3.827440e+00 9.521164e-02 -8.826951e+00 -2.855460e+00 -6.538942e+00 -7.704611e-01 -4.418437e+00 1.616033e+01 -3.098217e-01 6.711490e-01 5.609427e-03 -1.294261e+00 2.874441e-01 1.939558e-02 2.485848e-01 2.771862e-01 2.021519e-01 -2.404488e-01 -3.848028e-01 9.417690e-02 3.315160e-01 2.093846e-02 2.873965e-01 -4.946880e-02 -2.296504e-01 -3.846914e-02 -2.102466e-01 -6.321536e-02 2.201375e-01 1.694887e-01 -4.590676e-02 -1.990062e-02 -1.324214e-01 9.307989e-02
<VARIANCE> 39
 6.501534e+00 1.346632e+01 1.081207e+01 2.358679e+01 3.588052e+01 2.003651e+01 2.463772e+01 2.344969e+01 2.767787e+01 2.438700e+01 2.617889e+01 2.268422e+01 3.228391e+00 6.012571e-01 1.363257e+00 1.171470e+00 2.342155e+00 2.427343e+00 2.662989e+00 2.591676e+00 2.647073e+00 3.249628e+00 2.511584e+00 2.251149e+00 2.391110e+00 1.826349e-01 9.686095e-02 1.658003e-01 1.865376e-01 4.261184e-01 3.683980e-01 4.743975e-01 5.085801e-01 4.497997e-01 6.148940e-01 4.690018e-01 4.721582e-01 4.621682e-01 2.377752e-02
<GCONST> 9.899809e+01
<STATE> 3
<MEAN> 39
 -8.461085e+00 5.501866e-01 -6.023618e+00 -2.145680e+01 -9.596005e-01 -6.962352e+00 1.088057e+00 -4.659418e+00 -2.824344e-01 -7.442266e+00 -2.138857e+00 -6.601190e+00 1.833569e+01 -9.512284e-02 1.151391e+00 -6.458959e-02 -5.405416e-01 -2.405314e-01 -1.125396e+00 -2.186534e-01 3.449832e-01 4.870755e-01 3.624189e-01 1.480460e-01 -2.364941e-01 1.987338e-01 5.905563e-02 -6.900436e-02 5.409257e-02 4.089930e-01 -1.917163e-02 -1.605261e-01 -1.443910e-01 -2.431953e-01 -1.064531e-01 1.591285e-01 1.975965e-01 1.025988e-01 -7.782879e-02
<VARIANCE> 39
 8.374279e+00 1.241370e+01 2.597655e+01 1.714302e+01 4.151010e+01 2.386568e+01 3.001991e+01 1.901275e+01 3.139067e+01 1.982789e+01 2.335708e+01 2.418598e+01 1.337014e+00 4.555968e-01 8.562151e-01 8.468383e-01 1.849766e+00 1.344361e+00 1.716560e+00 1.892344e+00 1.455527e+00 1.678497e+00 1.655964e+00 1.991841e+00 1.448376e+00 1.106977e-01 7.289916e-02 1.050642e-01 1.360274e-01 2.082233e-01 2.276989e-01 2.638163e-01 2.095827e-01 2.268515e-01 3.487534e-01 2.637720e-01 2.826517e-01 2.404294e-01 8.802587e-03
<GCONST> 8.586184e+01
<STATE> 4
<MEAN> 39
 -8.100351e+00 6.356752e+00 -5.048281e+00 -1.680533e+01 -2.562332e+00 -1.511284e+01 -3.027888e+00 -8.326864e+00 -9.148467e-01 -3.858657e+00 1.443451e+00 -5.148190e+00 1.824762e+01 2.375938e-01 -2.417128e-01 2.397196e-01 1.090075e+00 2.038039e-01 -1.691571e-01 -4.939683e-01 -9.649951e-01 -7.422436e-01 -8.709310e-02 1.837987e-01 2.146691e-01 -2.054616e-01 4.912279e-02 -4.346462e-01 -4.174976e-03 7.520355e-02 7.896161e-02 4.765060e-01 1.293055e-01 3.541324e-02 -9.036170e-02 -1.774766e-01 -1.271599e-01 -1.871442e-02 -7.670731e-02
<VARIANCE> 39
 9.562851e+00 1.076883e+01 2.165580e+01 2.958558e+01 1.843488e+01 2.220942e+01 5.349890e+01 3.175661e+01 4.157594e+01 2.632200e+01 3.292062e+01 2.846233e+01 1.720413e+00 3.553124e-01 1.630526e+00 5.580607e-01 1.057782e+00 1.220803e+00 2.556438e+00 1.646679e+00 1.534202e+00 2.591828e+00 1.923579e+00 2.140357e+00 1.682284e+00 5.183221e-02 6.063139e-02 1.475679e-01 1.006935e-01 2.040152e-01 1.879601e-01 3.286689e-01 3.335420e-01 3.627118e-01 4.682852e-01 3.360747e-01 3.870369e-01 3.436286e-01 5.851501e-03
<GCONST> 8.902428e+01
<TRANSP> 5
 0.000000e+00 1.000000e+00 0.000000e+00 0.000000e+00 0.000000e+00
 0.000000e+00 7.904648e-01 2.095352e-01 0.000000e+00 0.000000e+00
 0.000000e+00 0.000000e+00 8.338476e-01 1.661524e-01 0.000000e+00
 0.000000e+00 0.000000e+00 0.000000e+00 8.714063e-01 1.285938e-01
 0.000000e+00 0.000000e+00 0.000000e+00 0.000000e+00 0.000000e+00
<ENDHMM>
~h "ia"
<BEGINHMM>
<NUMSTATES> 5
<STATE> 2
<MEAN> 39
 -5.479982e+00 2.434325e+00 -6.792651e-01 -1.531707e+01 -5.738897e+00 -1.193110e+01 -3.599709e+00 -1.016075e+01 -1.517254e-02 -3.251671e+00 7.155083e-02 -6.583043e+00 1.803634e+01 -1.392066e-01 7.270337e-01 4.633234e-01 -1.719652e+00 -7.216753e-01 -1.008466e+00 -1.149108e-01 3.980888e-01 8.004751e-01 1.266518e-01 -1.525567e-02 -3.989911e-01 4.681292e-01 -1.315432e-01 -4.591292e-01 -2.243464e-01 3.534804e-01 2.108392e-01 7.024630e-01 5.455178e-02 3.350243e-01 -1.687247e-01 -1.372041e-01 6.913875e-02 1.065220e-01 -1.505098e-01
<VARIANCE> 39
 7.043850e+00 7.223565e+00 1.096159e+01 1.494118e+01 3.134548e+01 1.997275e+01 2.436886e+01 2.451834e+01 3.737766e+01 3.539910e+01 4.096012e+01 6.150537e+01 1.011453e+00 6.150055e-01 1.183165e+00 1.755841e+00 1.865013e+00 2.167574e+00 2.351464e+00 2.193831e+00 2.655459e+00 2.193236e+00 2.572323e+00 2.109632e+00 2.750985e+00 7.171945e-02 8.840889e-02 1.163950e-01 2.304461e-01 2.626534e-01 2.569750e-01 3.422547e-01 4.116264e-01 3.259443e-01 4.970452e-01 5.203313e-01 4.920325e-01 6.087168e-01 5.585823e-03
<GCONST> 9.411479e+01
<STATE> 3
<MEAN> 39
 -6.358022e+00 1.418312e+00 8.984761e-01 -1.888623e+01 -6.317823e+00 -9.269918e+00 -5.688933e+00 -6.960283e+00 -1.961527e-01 -3.812257e+00 -4.088351e-02 -6.910773e+00 1.854850e+01 4.221442e-01 -1.339687e+00 7.717518e-01 -2.499819e-02 -1.135725e+00 1.430111e+00 -2.161644e-01 2.426575e-01 1.437231e-01 -2.688314e-01 9.193885e-02 -1.067389e-01 2.925701e-02 2.252298e-01 -3.967232e-01 -9.120955e-02 5.960479e-01 -3.065161e-01 1.152378e-01 3.431966e-01 -2.294824e-01 1.805645e-02 -2.146059e-02 -3.029712e-02 5.019552e-02 -5.257304e-02
<VARIANCE> 39
 6.888617e+00 1.494118e+01 1.919996e+01 2.275477e+01 5.500658e+01 3.853265e+01 3.664493e+01 5.263876e+01 2.848043e+01 2.991553e+01 3.091866e+01 4.791768e+01 9.702718e-01 4.415669e-01 1.209538e+00 8.528653e-01 2.094836e+00 2.995648e+00 2.425222e+00 2.273216e+00 2.176324e+00 2.365907e+00 1.834008e+00 1.871753e+00 1.984352e+00 1.876239e-02 4.738509e-02 1.276199e-01 2.584682e-01 3.587669e-01 3.711928e-01 6.407769e-01 5.308845e-01 4.729989e-01 4.100048e-01 3.082679e-01 3.018774e-01 3.386731e-01 3.496882e-03
<GCONST> 9.366290e+01
<STATE> 4
<MEAN> 39
 -1.978511e+00 -8.758149e+00 7.033398e-01 -1.051038e+01 -1.628561e+01 -7.124840e+00 -2.670953e-02 -7.555309e+00 7.675115e-01 -4.623970e+00 1.591103e-01 -6.056835e+00 1.865318e+01 5.338868e-01 -1.191636e+00 -6.988959e-01 1.210881e+00 -2.999861e-01 -3.680143e-01 1.089954e+00 4.372419e-01 -2.901540e-02 -2.717727e-01 -1.782116e-01 2.221378e-01 3.584814e-03 -1.257050e-01 2.039015e-01 -1.384252e-01 -2.124656e-01 4.360476e-01 -8.730084e-02 -1.559561e-01 1.550240e-01 -6.922226e-02 -4.535190e-02 -4.559049e-02 1.619032e-02 2.042105e-03
<VARIANCE> 39
 6.165291e+00 1.923870e+01 1.602289e+01 4.387891e+01 4.834716e+01 6.449709e+01 2.859072e+01 3.304604e+01 2.068533e+01 1.861879e+01 1.870974e+01 3.398055e+01 1.278736e+00 3.305762e-01 5.416559e-01 6.615910e-01 1.843843e+00 2.452644e+00 2.869423e+00 1.963550e+00 2.479976e+00 1.643030e+00 1.338771e+00 1.302593e+00 1.257728e+00 1.003820e-02 2.912072e-02 5.808063e-02 1.618785e-01 2.400033e-01 3.071215e-01 5.801879e-01 3.335897e-01 3.374049e-01 2.880619e-01 2.379538e-01 2.113474e-01 2.154796e-01 1.461273e-03
<GCONST> 8.341508e+01
<TRANSP> 5
 0.000000e+00 1.000000e+00 0.000000e+00 0.000000e+00 0.000000e+00
 0.000000e+00 6.727402e-01 3.272599e-01 0.000000e+00 0.000000e+00
 0.000000e+00 0.000000e+00 7.732275e-01 2.267724e-01 0.000000e+00
 0.000000e+00 0.000000e+00 0.000000e+00 8.367217e-01 1.632783e-01
 0.000000e+00 0.000000e+00 0.000000e+00 0.000000e+00 0.000000e+00
<ENDHMM>
~h "ih"
<BEGINHMM>
<NUMSTATES> 5
<STATE> 2
<MEAN> 39
 -8.555648e+00 -4.122942e+00 -6.540129e+00 -8.854834e+00 -2.448806e+00 -4.323356e+00 -1.940139e+00 -8.261303e+00 -3.444262e+00 -4.026861e+00 2.069270e-01 -2.848649e+00 1.511830e+01 1.294725e+00 1.045154e+00 1.964296e+00 -1.955448e+00 -1.859002e+00 -1.994629e+00 -1.255430e-03 -1.944092e-01 6.154189e-01 5.741805e-01 -6.700312e-01 -7.405991e-01 9.454056e-01 8.321188e-02 1.481744e-01 2.824931e-01 -7.693455e-01 -6.136668e-01 -2.960139e-01 7.403909e-02 1.172396e-01 3.337460e-01 2.692932e-02 -2.663987e-01 -4.680504e-01 2.142075e-01
<VARIANCE> 39
 6.863516e+00 7.705805e+00 1.134843e+01 1.015002e+01 1.737062e+01 1.655732e+01 1.583199e+01 1.631732e+01 2.261680e+01 3.185413e+01 2.116396e+01 1.869125e+01 1.804370e+00 5.392111e-01 9.783970e-01 1.514619e+00 1.812176e+00 1.867634e+00 2.608484e+00 2.231030e+00 2.025343e+00 2.706464e+00 4.823104e+00 2.404465e+00 2.351751e+00 6.853754e-02 1.584736e-01 1.467059e-01 2.985369e-01 2.501194e-01 4.470837e-01 4.100120e-01 3.591465e-01 4.597095e-01 5.148371e-01 5.600756e-01 4.618459e-01 4.473632e-01 1.693654e-02
<GCONST> 9.308856e+01
<STATE> 3
<MEAN> 39
 -5.210486e+00 -1.115878e+00 -9.734692e-01 -1.719148e+01 -1.139240e+01 -1.097016e+01 -1.288841e+00 -8.796132e+00 -1.152092e+00 -2.076434e+00 -3.750682e+00 -7.803211e+00 1.842929e+01 6.461021e-03 5.075247e-01 9.189587e-01 -2.516287e+00 -1.252411e+00 -4.802181e-01 7.318439e-02 3.865151e-01 1.066667e+00 -1.010181e-01 -8.741382e-01 -1.175420e+00 6.717826e-01 -4.041969e-01 -2.465463e-01 -4.405284e-01 4.266757e-01 8.200500e-01 7.590123e-01 -1.639222e-01 2.350072e-01 -8.990774e-02 -2.299475e-01 3.522069e-01 3.324443e-01 -2.659752e-01
<VARIANCE> 39
 7.527382e+00 7.405504e+00 1.235029e+01 2.481138e+01 2.733764e+01 1.714022e+01 2.574070e+01 1.778397e+01 3.986571e+01 8.606125e+01 2.725882e+01 3.615895e+01 1.248244e+00 9.663148e-01 9.122952e-01 1.931645e+00 1.666046e+00 3.758172e+00 3.311841e+00 2.660167e+00 2.563244e+00 3.054428e+00 3.959512e+00 3.051119e+00 3.155494e+00 1.920137e-01 1.243378e-01 1.243314e-01 2.455646e-01 4.039071e-01 3.709255e-01 4.801689e-01 5.457160e-01 3.953317e-01 5.761819e-01 9.789950e-01 4.795801e-01 5.218918e-01 1.519977e-02
<GCONST> 1.016621e+02
<STATE> 4
<MEAN> 39
 -7.137162e+00 -1.071512e+00 -1.155723e+00 -2.152164e+01 -6.237573e+00 -7.954865e+00 -2.358703e+00 -5.114425e+00 8.802118e-01 -4.477622e+00 -2.177339e+00 -7.269629e+00 1.834592e+01 2.005225e-02 -2.514623e-01 1.069005e-01 4.720635e-01 9.898604e-01 5.020657e-01 -6.991593e-01 1.788516e-01 -4.010988e-01 -2.217428e-01 6.762326e-01 5.096157e-01 -3.155738e-01 1.029474e-01 -2.354426e-01 -2.375871e-01 6.766328e-01 1.725715e-01 9.407685e-02 1.486739e-01 -2.777176e-01 -2.074990e-01 -3.524495e-02 1.327971e-01 1.499700e-01 -1.693036e-01
<VARIANCE> 39
 6.670609e+00 1.072745e+01 1.768475e+01 1.761505e+01 6.403226e+01 3.329503e+01 3.651724e+01 2.303963e+01 3.052299e+01 4.426301e+01 3.724753e+01 3.836230e+01 1.406165e+00 5.148216e-01 6.333528e-01 9.027672e-01 2.810070e+00 1.948988e+00 2.729849e+00 2.842693e+00 2.133971e+00 2.744181e+00 3.090835e+00 2.468933e+00 2.361681e+00 1.121386e-01 8.508226e-02 1.504886e-01 3.190571e-01 4.480222e-01 5.224134e-01 5.663128e-01 7.925282e-01 4.219554e-01 5.526676e-01 4.711204e-01 4.992582e-01 4.499731e-01 1.484938e-02
<GCONST> 1.002355e+02
<TRANSP> 5
 0.000000e+00 1.000000e+00 0.000000e+00 0.000000e+00 0.000000e+00
 0.000000e+00 5.098918e-01 4.901082e-01 0.000000e+00 0.000000e+00
 0.000000e+00 0.000000e+00 6.686361e-01 3.313639e-01 0.000000e+00
 0.000000e+00 0.000000e+00 0.000000e+00 8.264949e-01 1.735051e-01
 0.000000e+00 0.000000e+00 0.000000e+00 0.000000e+00 0.000000e+00
<ENDHMM>
~h "iy"
<BEGINHMM>
<NUMSTATES> 5
<STATE> 2
<MEAN> 39
 -7.713805e+00 5.510444e+00 -1.022075e+00 -1.742414e+01 -1.649633e+00 -1.280157e+01 -7.184708e+00 -8.153380e+00 -3.319555e+00 -5.251507e+00 8.310663e-01 -5.831996e+00 1.832811e+01 1.265092e-01 2.878307e-01 -7.261614e-01 1.080201e+00 5.185067e-01 -5.011992e-01 7.555394e-01 -4.934501e-01 -5.218009e-01 2.490494e-02 -2.508927e-01 -7.144200e-02 -1.435337e-01 1.713401e-01 -4.621391e-01 1.877707e-01 1.433782e-01 -3.453743e-01 4.201226e-01 1.618741e-02 -4.159788e-02 1.401001e-01 -3.942795e-02 -1.716874e-02 -1.529811e-02 -2.782369e-02
<VARIANCE> 39
 6.156024e+00 1.157194e+01 1.662332e+01 2.592734e+01 2.315800e+01 2.470129e+01 4.874423e+01 4.568367e+01 3.016852e+01 4.484581e+01 3.919645e+01 3.749221e+01 1.216464e+00 2.763397e-01 1.219764e+00 8.904232e-01 1.294535e+00 1.747845e+00 2.067297e+00 1.996834e+00 2.562842e+00 1.740564e+00 1.509578e+00 1.324075e+00 1.389869e+00 1.552656e-02 4.549847e-02 1.340591e-01 1.287145e-01 2.631521e-01 3.273351e-01 3.236289e-01 4.325858e-01 3.938034e-01 3.314022e-01 2.885618e-01 2.515387e-01 2.467392e-01 2.780603e-03
<GCONST> 8.663676e+01
<STATE> 3
<MEAN> 39
 -5.034819e+00 2.118432e+00 -2.107200e+00 -1.225634e+01 -1.325975e+00 -1.175370e+01 -4.483452e+00 -1.019884e+01 -4.607624e+00 -5.635812e+00 -1.949708e+00 -7.147439e+00 1.709638e+01 1.857660e-01 -1.353766e+00 -3.432620e-01 1.052862e+00 7.505324e-02 1.313985e+00 7.854499e-01 1.953729e-02 3.429231e-01 -7.558361e-02 1.547076e-01 2.145766e-01 -3.807654e-01 -2.114090e-01 -2.061686e-01 -1.152656e-01 -1.660710e-01 -1.371039e-02 2.816201e-01 1.718376e-01 1.801925e-01 1.982326e-01 -1.744382e-02 1.740527e-01 8.198959e-02 -5.633176e-02
<VARIANCE> 39
 5.720313e+00 1.127681e+01 1.310130e+01 1.961526e+01 2.287109e+01 2.892459e+01 3.495576e+01 2.965198e+01 3.143883e+01 3.761645e+01 4.235474e+01 3.764782e+01 1.297379e+00 6.797907e-01 1.338750e+00 1.212196e+00 1.709189e+00 1.875180e+00 2.590594e+00 3.349305e+00 3.015103e+00 2.982876e+00 2.876059e+00 2.863110e+00 2.450892e+00 7.385849e-02 8.668461e-02 1.804903e-01 1.977833e-01 2.584027e-01 3.586615e-01 3.926471e-01 4.549574e-01 4.883120e-01 4.904048e-01 4.321770e-01 4.637239e-01 3.866281e-01 7.177405e-03
<GCONST> 9.675768e+01
<STATE> 4
<MEAN> 39
 -5.673368e+00 -2.623432e+00 -4.102319e+00 -9.604614e+00 5.059128e-02 -6.721252e+00 -1.025024e-01 -9.430500e+00 -2.267451e+00 -5.960203e+00 -4.564998e-01 -5.482312e+00 1.555632e+01 -2.965704e-01 -1.149543e+00 -5.322945e-01 3.156389e-01 -5.131853e-02 8.679470e-01 5.105138e-01 1.276855e-01 2.198942e-01 -1.602195e-01 2.349220e-01 2.027876e-01 -2.974674e-01 -3.791501e-02 1.861191e-01 1.383406e-02 -2.440400e-01 -9.392789e-02 -3.024974e-01 -2.388127e-01 -2.864757e-02 -1.009662e-01 3.365482e-02 -6.113512e-03 1.879306e-02 6.417833e-02
<VARIANCE> 39
 5.878473e+00 1.314954e+01 9.456465e+00 1.262196e+01 1.712720e+01 2.822808e+01 1.970546e+01 2.465874e+01 2.134845e+01 2.276180e+01 2.338196e+01 2.117546e+01 1.436934e+00 4.565079e-01 7.830801e-01 1.291465e+00 1.580034e+00 1.685370e+00 2.416973e+00 2.448357e+00 2.104015e+00 2.212173e+00 2.353425e+00 2.361023e+00 1.826209e+00 5.858888e-02 6.920449e-02 1.414326e-01 1.748787e-01 2.561331e-01 3.252123e-01 4.827542e-01 4.042688e-01 3.606398e-01 4.308518e-01 4.110617e-01 3.886136e-01 3.076074e-01 8.523750e-03
<GCONST> 8.880028e+01
<TRANSP> 5
 0.000000e+00 1.000000e+00 0.000000e+00 0.000000e+00 0.000000e+00
 0.000000e+00 8.241736e-01 1.758264e-01 0.000000e+00 0.000000e+00
 0.000000e+00 0.000000e+00 6.957297e-01 3.042703e-01 0.000000e+00
 0.000000e+00 0.000000e+00 0.000000e+00 7.180347e-01 2.819653e-01
 0.000000e+00 0.000000e+00 0.000000e+00 0.000000e+00 0.000000e+00
<ENDHMM>
~h "ow"
<BEGINHMM>
<NUMSTATES> 5
<STATE> 2
<MEAN> 39
 -4.536863e+00 -1.088116e+01 -7.022943e+00 -9.007332e+00 -3.401777e+00 -6.494484e+00 3.607520e+00 -6.997109e+00 -5.326608e+00 -6.386653e+00 -1.366886e+00 -5.010768e+00 1.771085e+01 4.153864e-01 -1.358458e-01 -6.722676e-01 3.111468e-01 2.737579e-01 -7.563097e-01 2.700664e-01 6.129032e-01 -2.187510e-01 -5.149165e-01 -2.758341e-01 2.279073e-02 2.545869e-01 7.745370e-02 1.157878e-01 -2.189093e-02 -5.143598e-02 -1.189326e-02 -5.743362e-02 -1.576027e-01 4.711809e-02 1.962292e-01 -3.081774e-02 -6.180694e-02 -4.298692e-02 1.151237e-03
<VARIANCE> 39
 8.475563e+00 1.353509e+01 1.250589e+01 1.801499e+01 2.628297e+01 2.388149e+01 3.154211e+01 5.833742e+01 3.990945e+01 3.532091e+01 2.689797e+01 2.902927e+01 3.032367e+00 5.089170e-01 9.110748e-01 9.658068e-01 9.745678e-01 1.450448e+00 1.650620e+00 2.030694e+00 2.721949e+00 2.135270e+00 2.067922e+00 2.071259e+00 1.765683e+00 1.650271e-01 7.758013e-02 1.202627e-01 1.498334e-01 1.477448e-01 2.189946e-01 2.497187e-01 3.648127e-01 4.103691e-01 4.111759e-01 4.015810e-01 3.789384e-01 2.971841e-01 2.195620e-02
<GCONST> 9.245746e+01
<STATE> 3
<MEAN> 39
 -9.997674e-01 -9.170052e+00 -1.170020e+01 -9.304607e+00 -2.034287e+00 -1.188397e+01 -1.407179e-01 -3.320280e-01 -7.373008e-01 -9.813523e+00 -4.283478e+00 -6.043272e+00 1.886572e+01 2.369856e-01 5.349386e-01 -2.392019e-01 -2.546101e-01 2.795562e-01 -1.917965e-01 -8.352662e-01 -1.029273e-01 8.057092e-01 4.380053e-01 -2.520179e-01 -4.343337e-01 -2.703810e-02 -5.853611e-02 5.553164e-02 1.798178e-01 -4.534417e-02 -8.124345e-02 1.938022e-01 -8.362299e-04 -3.139345e-01 -5.540211e-02 2.173987e-01 1.110792e-01 -3.248039e-02 -3.771297e-02
<VARIANCE> 39
 5.522723e+00 8.512789e+00 1.694410e+01 1.310103e+01 2.389344e+01 2.332947e+01 4.033307e+01 3.442021e+01 4.810274e+01 3.152803e+01 3.066892e+01 3.716294e+01 1.417175e+00 1.701533e-01 3.252566e-01 5.616379e-01 5.794010e-01 9.776022e-01 1.077638e+00 1.396423e+00 1.732373e+00 1.671420e+00 1.806541e+00 1.397253e+00 1.240182e+00 3.043607e-02 3.021951e-02 3.794804e-02 9.942917e-02 9.154773e-02 1.410965e-01 2.079682e-01 2.436606e-01 2.557305e-01 2.954389e-01 2.611562e-01 2.470137e-01 2.124680e-01 3.402119e-03
<GCONST> 7.531536e+01
<STATE> 4
<MEAN> 39
 -1.001338e+00 -4.240968e+00 -8.187755e+00 -1.186521e+01 -2.321418e+00 -8.553686e+00 -3.906835e+00 -7.406550e+00 4.026563e-01 -4.215596e+00 -8.089572e-01 -6.972985e+00 1.770430e+01 -4.598359e-01 2.700945e-01 6.921515e-01 1.684361e-01 3.345816e-02 5.430189e-01 2.310385e-01 -6.738223e-01 -5.549203e-01 9.746350e-02 4.755285e-01 3.121010e-01 -2.887281e-01 -1.229092e-01 -1.450458e-01 -9.600611e-03 6.903520e-02 1.817581e-02 5.707275e-02 1.519768e-01 1.235092e-01 -8.240809e-02 -1.260598e-01 -4.690278e-03 1.137300e-01 -3.274042e-02
<VARIANCE> 39
 7.866295e+00 7.600747e+00 2.520697e+01 1.898240e+01 2.292966e+01 2.863932e+01 3.055330e+01 2.805250e+01 3.518195e+01 3.653651e+01 3.328794e+01 3.124750e+01 2.615893e+00 4.509289e-01 6.733320e-01 9.086380e-01 1.187988e+00 1.561264e+00 1.864329e+00 2.078072e+00 2.345124e+00 2.294258e+00 2.357350e+00 1.981148e+00 1.901727e+00 5.938921e-02 5.731480e-02 8.177440e-02 1.708330e-01 1.903066e-01 2.792352e-01 3.358749e-01 3.523988e-01 3.661270e-01 4.562564e-01 3.923049e-01 3.635185e-01 3.442146e-01 6.404691e-03
<GCONST> 8.992120e+01
<TRANSP> 5
 0.000000e+00 1.000000e+00 0.000000e+00 0.000000e+00 0.000000e+00
 0.000000e+00 7.963214e-01 2.036786e-01 0.000000e+00 0.000000e+00
 0.000000e+00 0.000000e+00 8.403235e-01 1.596764e-01 0.000000e+00
 0.000000e+00 0.000000e+00 0.000000e+00 8.719937e-01 1.280063e-01
 0.000000e+00 0.000000e+00 0.000000e+00 0.000000e+00 0.000000e+00
<ENDHMM>
~h "sp"
<BEGINHMM>
<NUMSTATES> 3
<STATE> 2
~s "silst"
<TRANSP> 3
 0.000000e+00 2.335192e-01 7.664807e-01
 0.000000e+00 9.109877e-01 8.901235e-02
 0.000000e+00 0.000000e+00 0.000000e+00
<ENDHMM>
~h "th"
<BEGINHMM>
<NUMSTATES> 5
<STATE> 2
<MEAN> 39
 -7.731919e+00 -6.428976e+00 -5.518437e+00 -9.998214e+00 -1.000905e+00 -4.951765e+00 -4.388824e-01 -8.714662e+00 -2.581228e+00 -5.362602e+00 1.070674e+00 -3.582576e+00 1.472389e+01 -2.870899e-01 -4.696066e-02 -7.209797e-02 -1.055419e-01 6.838570e-02 -3.430879e-02 6.920933e-02 6.265344e-02 -4.274089e-02 1.785184e-02 3.195176e-02 1.363127e-01 -2.394161e-02 1.623138e-01 1.177502e-01 1.793128e-01 -1.957238e-02 -1.221615e-01 -1.225920e-01 -1.262846e-01 -7.498191e-03 -3.020558e-02 -3.357713e-02 -4.806574e-02 -9.842393e-02 9.059873e-02
<VARIANCE> 39
 4.029645e+00 5.594221e+00 8.124944e+00 8.695120e+00 1.253767e+01 1.346466e+01 1.541771e+01 1.751641e+01 1.758341e+01 1.657092e+01 1.497526e+01 1.503810e+01 9.640490e-01 4.411021e-01 8.296614e-01 1.060232e+00 1.126786e+00 1.369524e+00 1.505873e+00 1.720833e+00 2.114785e+00 2.179110e+00 1.921350e+00 1.582180e+00 1.711986e+00 5.869373e-02 9.829809e-02 1.798114e-01 2.168340e-01 2.379114e-01 3.356117e-01 3.573361e-01 3.948008e-01 5.043760e-01 4.419636e-01 4.003339e-01 3.465738e-01 3.939904e-01 1.006138e-02
<GCONST> 8.255708e+01
<STATE> 3
<MEAN> 39
 -8.189166e+00 -5.617929e+00 -3.934703e+00 -1.063677e+01 -9.661785e-01 -5.048225e+00 -8.956465e-01 -8.228652e+00 -2.781353e+00 -5.603823e+00 9.581219e-01 -3.901191e+00 1.527832e+01 1.220813e+00 2.016312e-01 1.161702e+00 7.679359e-02 -1.627594e+00 -1.223149e+00 -6.517918e-01 -1.674813e-01 1.643789e-01 -1.211288e-01 -2.634690e-01 -4.411878e-01 5.141952e-01 4.190646e-01 -1.183075e-01 2.298324e-01 1.023934e-01 -7.909680e-01 -4.782530e-01 -6.944894e-02 -7.828278e-02 1.185673e-01 5.458862e-02 -9.618856e-02 -8.347028e-02 1.387496e-01
<VARIANCE> 39
 7.441453e+00 7.551808e+00 1.107185e+01 1.469544e+01 1.802182e+01 1.682940e+01 1.868174e+01 1.960104e+01 2.130296e+01 1.943208e+01 2.148912e+01 1.391801e+01 1.284223e+00 1.019652e+00 1.241006e+00 1.277631e+00 2.456903e+00 3.225561e+00 3.926063e+00 2.362787e+00 2.979543e+00 2.747954e+00 2.729564e+00 3.338116e+00 2.640378e+00 1.071116e-01 1.601252e-01 2.272461e-01 3.093211e-01 5.186565e-01 4.640547e-01 6.872732e-01 5.003976e-01 5.754869e-01 5.681242e-01 5.912895e-01 6.723886e-01 5.109395e-01 1.358594e-02
<GCONST> 9.823050e+01
<STATE> 4
<MEAN> 39
 -1.851681e+00 -6.349832e+00 -2.058698e-01 -8.268021e+00 -1.044281e+01 -1.376362e+01 -3.207696e+00 -8.942800e+00 -2.516566e+00 -5.566003e+00 -2.895315e-01 -5.167513e+00 1.763651e+01 9.794598e-01 -5.473881e-01 1.110167e+00 2.756900e-01 -2.624464e+00 -1.025950e+00 5.567524e-02 -1.534515e-01 2.735437e-01 2.999725e-01 -1.272835e-02 -3.800159e-01 5.423430e-01 -4.508033e-01 -6.585048e-02 -6.718186e-02 -2.648803e-01 3.045729e-01 7.986519e-01 1.567097e-01 -5.475803e-02 1.368446e-01 7.015549e-02 1.835513e-01 5.948041e-02 -1.123672e-01
<VARIANCE> 39
 5.311970e+00 1.431136e+01 1.317702e+01 3.365044e+01 2.494779e+01 4.175434e+01 2.249759e+01 2.304553e+01 3.013421e+01 2.490486e+01 3.354333e+01 2.711774e+01 1.245632e+00 9.132141e-01 9.976098e-01 1.877508e+00 2.823251e+00 3.083489e+00 5.176059e+00 2.823885e+00 3.497995e+00 2.960226e+00 2.804878e+00 3.754353e+00 2.957566e+00 8.643799e-02 1.129108e-01 2.804109e-01 3.323179e-01 6.822543e-01 6.619369e-01 8.340304e-01 6.208039e-01 6.893492e-01 5.567129e-01 5.203464e-01 5.398855e-01 4.631700e-01 1.209598e-02
<GCONST> 1.042468e+02
<TRANSP> 5
 0.000000e+00 1.000000e+00 0.000000e+00 0.000000e+00 0.000000e+00
 0.000000e+00 8.403112e-01 1.596889e-01 0.000000e+00 0.000000e+00
 0.000000e+00 0.000000e+00 6.559776e-01 3.440224e-01 0.000000e+00
 0.000000e+00 0.000000e+00 0.000000e+00 6.909106e-01 3.090894e-01
 0.000000e+00 0.000000e+00 0.000000e+00 0.000000e+00 0.000000e+00
<ENDHMM>
~h "uw"
<BEGINHMM>
<NUMSTATES> 5
<STATE> 2
<MEAN> 39
 -5.847150e+00 -1.308970e-01 2.580743e-01 -1.400329e+01 -4.433404e+00 -7.682791e+00 -5.321607e+00 -9.841339e+00 -2.317224e+00 -5.452144e+00 -2.850733e-01 -6.057128e+00 1.740907e+01 1.182993e+00 1.063688e+00 1.525699e+00 -1.079133e+00 -1.786168e+00 -1.679391e+00 -1.094852e+00 -6.061369e-01 -3.431736e-02 1.265515e-01 -5.886365e-01 -1.028042e+00 7.370717e-01 -3.009101e-01 -1.344459e-01 -4.419240e-01 1.530870e-01 2.127665e-02 5.045422e-02 1.484507e-01 1.439418e-01 7.077036e-04 2.984108e-02 8.136730e-02 7.320206e-02 -7.832973e-02
<VARIANCE> 39
 1.126649e+01 1.175788e+01 1.942669e+01 2.036594e+01 3.975071e+01 3.463271e+01 2.936623e+01 2.502840e+01 2.766860e+01 4.628768e+01 3.530184e+01 4.158865e+01 2.572187e+00 1.423996e+00 1.076750e+00 1.875244e+00 2.266531e+00 2.258522e+00 2.203962e+00 2.991970e+00 3.045708e+00 3.598352e+00 4.293767e+00 5.355222e+00 3.330071e+00 1.118573e-01 2.041829e-01 2.447733e-01 2.785579e-01 3.827385e-01 6.559840e-01 5.981964e-01 5.948479e-01 5.405685e-01 5.621357e-01 7.048676e-01 7.862089e-01 5.725441e-01 4.410564e-02
<GCONST> 1.087304e+02
<STATE> 3
<MEAN> 39
 -3.747054e+00 5.547155e-01 9.527342e-01 -1.453448e+01 -7.993301e+00 -1.158034e+01 -6.227914e+00 -9.886586e+00 -3.117005e+00 -5.463692e+00 -5.080953e-01 -8.289042e+00 1.853625e+01 2.372579e-01 -2.213012e-01 -2.620388e-01 5.719230e-01 1.974637e-01 -7.346620e-02 1.224398e-01 2.195803e-03 -1.549837e-01 -1.550641e-02 1.822109e-01 1.630589e-01 -8.132266e-02 -3.787882e-02 -7.051244e-02 -9.355689e-02 8.764547e-02 1.869023e-01 1.498582e-01 6.860326e-02 6.147573e-03 3.239892e-02 -6.869894e-03 2.384126e-02 1.110989e-01 -6.273055e-02
<VARIANCE> 39
 6.210267e+00 8.067061e+00 1.113573e+01 3.112671e+01 3.681524e+01 2.268551e+01 3.345156e+01 3.276686e+01 4.203246e+01 4.812454e+01 5.871967e+01 4.211536e+01 1.080145e+00 1.983359e-01 3.116657e-01 5.896381e-01 9.965960e-01 1.314339e+00 1.343607e+00 1.415757e+00 1.618260e+00 1.669016e+00 1.568893e+00 1.701802e+00 1.600385e+00 1.924883e-02 4.702749e-02 6.795140e-02 1.010552e-01 2.017529e-01 2.217269e-01 2.622717e-01 2.731698e-01 3.039242e-01 3.421780e-01 3.298331e-01 3.480185e-01 3.192977e-01 6.203935e-03
<GCONST> 8.233237e+01
<STATE> 4
<MEAN> 39
 -2.853930e+00 -2.541979e+00 -2.552196e+00 -9.538639e+00 -3.069973e+00 -9.020779e+00 -3.674618e+00 -9.550097e+00 -2.641517e+00 -5.019536e+00 7.307996e-01 -5.050906e+00 1.660413e+01 -5.642595e-01 -5.891630e-01 -4.677651e-01 2.271672e-01 7.752116e-01 1.038552e+00 7.689834e-01 2.716515e-01 7.726181e-02 -1.553244e-02 -3.109466e-02 2.667266e-01 -3.730898e-01 -1.236888e-01 -6.875563e-02 -9.220439e-03 -1.160433e-01 -1.018924e-01 3.740795e-02 6.663522e-02 3.797781e-02 -1.225634e-02 -2.992508e-02 -3.722472e-02 -4.290651e-02 -5.731423e-03
<VARIANCE> 39
 5.770251e+00 6.603062e+00 7.839422e+00 1.444196e+01 1.845024e+01 2.738692e+01 2.860722e+01 2.843107e+01 2.894508e+01 2.988017e+01 3.152281e+01 2.934307e+01 1.855807e+00 5.258127e-01 5.592453e-01 8.887777e-01 1.173954e+00 1.581440e+00 2.215916e+00 2.520879e+00 2.822859e+00 2.645869e+00 2.751671e+00 2.785285e+00 2.328467e+00 6.381975e-02 7.236660e-02 8.076771e-02 1.491420e-01 2.053298e-01 2.858879e-01 4.507360e-01 4.243704e-01 4.902604e-01 4.219590e-01 4.535993e-01 4.840940e-01 3.618538e-01 7.991740e-03
<GCONST> 8.984975e+01
<TRANSP> 5
 0.000000e+00 1.000000e+00 0.000000e+00 0.000000e+00 0.000000e+00
 0.000000e+00 7.564544e-01 2.435456e-01 0.000000e+00 0.000000e+00
 0.000000e+00 0.000000e+00 8.953167e-01 1.046833e-01 0.000000e+00
 0.000000e+00 0.000000e+00 0.000000e+00 8.334091e-01 1.665909e-01
 0.000000e+00 0.000000e+00 0.000000e+00 0.000000e+00 0.000000e+00
<ENDHMM>
~h "sil"
<BEGINHMM>
<NUMSTATES> 5
<STATE> 2
<MEAN> 39
 -6.843241e+00 -7.268085e+00 -5.608760e+00 -1.012809e+01 -1.090921e+00 -4.204337e+00 -2.347369e-01 -8.523479e+00 -2.856190e+00 -5.635620e+00 1.007324e+00 -3.972665e+00 1.535715e+01 -4.955149e-02 -4.714122e-02 -3.530767e-02 -1.297018e-02 -1.710512e-03 2.962471e-03 1.061584e-02 1.228939e-02 2.140979e-03 2.026267e-02 2.195312e-02 9.431903e-03 -1.569050e-02 1.919731e-03 1.449997e-02 -5.947216e-04 1.314352e-03 7.577472e-03 -6.137505e-03 -1.376279e-02 -1.680110e-03 2.789182e-03 -7.327261e-03 -7.703549e-03 -6.532608e-03 5.547583e-03
<VARIANCE> 39
 2.595534e+00 3.378937e+00 5.681907e+00 7.719884e+00 1.240253e+01 1.333576e+01 1.356395e+01 1.494151e+01 1.569736e+01 1.404859e+01 1.436032e+01 1.264392e+01 8.809974e-01 1.483707e-01 3.248180e-01 5.695590e-01 8.604407e-01 1.173661e+00 1.495551e+00 1.426538e+00 1.601093e+00 1.667604e+00 1.508941e+00 1.527797e+00 1.507362e+00 7.266849e-03 2.821079e-02 6.177260e-02 1.070280e-01 1.603230e-01 2.314344e-01 2.880888e-01 2.701223e-01 3.047017e-01 3.189020e-01 2.888312e-01 2.924871e-01 2.997020e-01 1.636673e-03
<GCONST> 6.613888e+01
<STATE> 3
~s "silst"
<STATE> 4
<MEAN> 39
 -8.192983e+00 -6.490647e+00 -5.897378e+00 -1.031489e+01 -1.186385e+00 -4.508869e+00 -7.220397e-01 -8.829788e+00 -2.252639e+00 -5.698276e+00 1.237532e+00 -4.563350e+00 1.448936e+01 -4.234118e-03 4.697557e-02 -3.698549e-03 -1.148559e-02 -4.759392e-02 -6.744469e-02 -4.103950e-02 4.731897e-02 -4.098013e-02 -8.676516e-02 -6.022353e-02 -2.963273e-02 6.737627e-03 4.078909e-02 3.041725e-02 2.540858e-02 1.918370e-02 1.579410e-02 8.151331e-03 -2.163026e-03 -1.126721e-02 -4.304717e-02 -2.163511e-02 -3.306489e-02 2.537300e-02 1.580171e-02
<VARIANCE> 39
 4.791007e+00 5.663552e+00 8.561709e+00 1.022679e+01 1.188486e+01 1.364596e+01 1.529421e+01 1.798946e+01 1.848163e+01 1.661505e+01 1.625946e+01 1.403748e+01 9.802694e-01 3.187304e-01 5.477439e-01 9.172476e-01 1.184414e+00 1.206715e+00 1.584533e+00 1.424008e+00 2.136510e+00 2.096011e+00 1.833432e+00 1.806744e+00 1.537782e+00 1.237168e-02 6.987735e-02 1.222726e-01 1.906073e-01 2.433721e-01 2.312553e-01 3.219209e-01 2.704414e-01 4.303655e-01 4.109530e-01 3.596227e-01 3.504067e-01 2.788699e-01 3.734558e-03
<GCONST> 7.695849e+01
<TRANSP> 5
 0.000000e+00 1.000000e+00 0.000000e+00 0.000000e+00 0.000000e+00
 0.000000e+00 8.071097e-01 8.876633e-02 1.041240e-01 0.000000e+00
 0.000000e+00 0.000000e+00 9.370337e-01 6.296625e-02 0.000000e+00
 0.000000e+00 1.250378e-01 0.000000e+00 6.988386e-01 1.761236e-01
 0.000000e+00 0.000000e+00 0.000000e+00 0.000000e+00 0.000000e+00
<ENDHMM>
