~o
<STREAMINFO> 1 39
<VECSIZE> 39<NULLD><MFCC_E_D_A><DIAGC>
~h "f"
<BEGINHMM>
<NUMSTATES> 5
<STATE> 2
<MEAN> 39
 -5.057992e+00 -7.205345e+00 -6.827130e+00 -1.050064e+01 -1.928719e+00 -6.120671e+00 -9.273789e-01 -8.009056e+00 -2.885002e+00 -5.881645e+00 -1.947963e-01 -5.229225e+00 1.662265e+01 3.514416e-02 -4.421838e-02 -4.163656e-02 1.471312e-02 7.286218e-03 -8.483287e-03 1.180659e-02 1.677431e-02 -3.199237e-03 2.613158e-03 -1.592505e-02 -8.130727e-03 2.264506e-02 -8.503515e-04 3.257577e-04 1.153777e-03 -5.770798e-04 -4.366266e-06 -1.775742e-04 -1.629847e-03 -1.864387e-04 -5.876361e-04 -1.013027e-03 -2.247066e-03 -1.098284e-03 8.997909e-04
<VARIANCE> 39
 1.636719e+01 2.111605e+01 2.185974e+01 2.515738e+01 2.329562e+01 2.566020e+01 2.407741e+01 2.867531e+01 3.060986e+01 2.564797e+01 2.672337e+01 2.365130e+01 4.635973e+00 7.596107e-01 9.492905e-01 1.265365e+00 1.554262e+00 1.695480e+00 2.044298e+00 1.875994e+00 2.211765e+00 2.204658e+00 1.953704e+00 2.019850e+00 1.778099e+00 1.373321e-01 1.166838e-01 1.369472e-01 2.130762e-01 2.614014e-01 3.178629e-01 3.839630e-01 3.569863e-01 4.126146e-01 4.149514e-01 3.666296e-01 3.853360e-01 3.435699e-01 1.617294e-02
<GCONST> 9.610797e+01
<STATE> 3
<MEAN> 39
 -4.885728e+00 -7.391090e+00 -7.007328e+00 -1.044846e+01 -1.902496e+00 -6.170200e+00 -8.854877e-01 -7.932201e+00 -2.900496e+00 -5.885660e+00 -2.934744e-01 -5.285405e+00 1.674497e+01 3.085984e-02 -4.236620e-02 -3.300644e-02 1.464134e-02 7.872911e-03 -7.662802e-03 1.042300e-02 1.783851e-02 -5.544936e-03 -1.354796e-03 -2.336535e-02 -1.143593e-02 2.572984e-02 -1.344157e-03 9.282897e-04 2.212678e-03 -1.545919e-04 3.106835e-05 3.448534e-04 -4.641239e-04 1.926082e-04 -5.940067e-04 -9.080084e-04 -1.480251e-03 -4.681557e-04 5.604923e-04
<VARIANCE> 39
 1.692873e+01 2.216548e+01 2.242190e+01 2.681104e+01 2.406184e+01 2.572389e+01 2.402893e+01 2.891814e+01 3.169070e+01 2.580880e+01 2.723302e+01 2.436739e+01 4.635354e+00 7.785977e-01 9.820485e-01 1.306093e+00 1.597229e+00 1.722884e+00 2.032317e+00 1.865944e+00 2.219752e+00 2.229363e+00 1.953898e+00 2.056707e+00 1.784309e+00 1.433530e-01 1.191010e-01 1.403474e-01 2.175850e-01 2.644581e-01 3.211341e-01 3.788500e-01 3.542209e-01 4.135875e-01 4.157664e-01 3.662067e-01 3.921991e-01 3.434756e-01 1.683242e-02
<GCONST> 9.673886e+01
<STATE> 4
<MEAN> 39
 -4.558799e+00 -7.624817e+00 -7.311758e+00 -1.045219e+01 -1.902911e+00 -6.274389e+00 -8.372467e-01 -7.848105e+00 -2.863951e+00 -5.940989e+00 -5.194799e-01 -5.457011e+00 1.702790e+01 1.667018e-02 -3.394400e-02 -4.060275e-03 1.579850e-02 1.246265e-04 -1.194064e-03 1.338439e-02 1.370458e-02 -9.207151e-03 -5.662928e-03 -2.180749e-02 -8.269859e-03 2.150084e-02 -3.561458e-03 2.616085e-03 4.789076e-03 -3.268479e-04 -1.342777e-03 1.453112e-03 -7.198664e-05 -1.183749e-03 -3.517978e-04 -9.221709e-05 1.154356e-03 1.206769e-03 -1.645858e-03
<VARIANCE> 39
 1.790069e+01 2.423448e+01 2.334130e+01 3.021859e+01 2.583940e+01 2.598853e+01 2.431541e+01 2.919420e+01 3.276431e+01 2.643624e+01 2.859431e+01 2.615353e+01 4.639709e+00 7.726446e-01 1.022919e+00 1.326475e+00 1.672208e+00 1.784357e+00 2.027403e+00 1.882787e+00 2.202341e+00 2.249676e+00 1.975354e+00 2.118432e+00 1.805224e+00 1.442455e-01 1.169451e-01 1.418076e-01 2.160220e-01 2.671384e-01 3.283729e-01 3.744878e-01 3.553441e-01 4.084225e-01 4.152200e-01 3.693799e-01 4.025152e-01 3.452157e-01 1.672671e-02
<GCONST> 9.754835e+01
<TRANSP> 5
 0.000000e+00 1.000000e+00 0.000000e+00 0.000000e+00 0.000000e+00
 0.000000e+00 7.485249e-01 2.514751e-01 0.000000e+00 0.000000e+00
 0.000000e+00 0.000000e+00 7.485254e-01 2.514746e-01 0.000000e+00
 0.000000e+00 0.000000e+00 0.000000e+00 8.763581e-01 1.236419e-01
 0.000000e+00 0.000000e+00 0.000000e+00 0.000000e+00 0.000000e+00
<ENDHMM>
~h "k"
<BEGINHMM>
<NUMSTATES> 5
<STATE> 2
<MEAN> 39
 -7.448706e+00 -5.160687e+00 -5.431664e+00 -1.144023e+01 -3.115822e+00 -4.890546e+00 -1.291171e+00 -7.895034e+00 -2.405367e+00 -5.130380e+00 -4.650584e-02 -4.821492e+00 1.557340e+01 1.512268e-02 -4.047415e-02 -2.242151e-02 4.260433e-02 3.959953e-02 1.273716e-02 8.259461e-03 -1.596644e-02 -1.420800e-02 -6.122821e-03 1.497269e-02 9.590028e-03 -1.079026e-02 2.202516e-03 -1.835839e-03 -4.699611e-04 2.418089e-03 2.259351e-03 -1.466023e-03 1.184660e-03 -1.157745e-03 -4.395019e-04 1.673616e-04 2.114482e-03 -1.856220e-04 -3.483450e-04
<VARIANCE> 39
 1.015706e+01 1.483080e+01 1.918913e+01 3.303633e+01 2.993844e+01 2.593742e+01 2.281704e+01 2.108781e+01 2.409847e+01 2.810986e+01 2.388752e+01 2.291150e+01 4.105677e+00 6.077121e-01 9.890754e-01 1.491800e+00 2.534583e+00 2.363567e+00 2.505072e+00 2.358250e+00 2.114083e+00 2.299187e+00 2.405902e+00 2.227028e+00 2.039779e+00 1.832749e-01 1.053376e-01 1.645319e-01 2.654953e-01 4.280465e-01 4.409399e-01 4.877597e-01 4.814503e-01 4.285295e-01 4.484708e-01 4.570044e-01 4.270085e-01 3.916322e-01 2.444377e-02
<GCONST> 9.951414e+01
<STATE> 3
<MEAN> 39
 -7.395406e+00 -5.327088e+00 -5.538970e+00 -1.123261e+01 -2.942441e+00 -4.831934e+00 -1.262298e+00 -7.970338e+00 -2.470656e+00 -5.149751e+00 3.799351e-02 -4.772567e+00 1.551466e+01 2.319038e-02 -4.437673e-02 -2.403362e-02 4.877519e-02 4.550689e-02 6.940675e-03 1.251068e-02 -1.904843e-02 -1.520162e-02 -5.040642e-03 2.218281e-02 7.743468e-03 -1.074035e-02 2.072710e-03 -6.481099e-04 3.867832e-04 1.109175e-03 6.945101e-04 -1.683266e-03 1.094225e-03 -6.011541e-04 -1.312406e-04 4.408871e-04 1.541630e-03 -9.656535e-04 2.539498e-04
<VARIANCE> 39
 1.042898e+01 1.483869e+01 1.900062e+01 3.130561e+01 2.844740e+01 2.555973e+01 2.275540e+01 2.094513e+01 2.414167e+01 2.691046e+01 2.368358e+01 2.201927e+01 4.046185e+00 5.938975e-01 9.704442e-01 1.443606e+00 2.407633e+00 2.270855e+00 2.429055e+00 2.316866e+00 2.093541e+00 2.286292e+00 2.355748e+00 2.198664e+00 1.964685e+00 1.680958e-01 1.016387e-01 1.612621e-01 2.581737e-01 4.082901e-01 4.251542e-01 4.734136e-01 4.718827e-01 4.259955e-01 4.465156e-01 4.494155e-01 4.216270e-01 3.782437e-01 2.251820e-02
<GCONST> 9.853548e+01
<STATE> 4
<MEAN> 39
 -7.293377e+00 -5.558925e+00 -5.705095e+00 -1.093319e+01 -2.673352e+00 -4.747470e+00 -1.170635e+00 -8.083306e+00 -2.536007e+00 -5.191886e+00 1.844980e-01 -4.741679e+00 1.542980e+01 3.113964e-02 -4.042266e-02 -2.084726e-02 4.540622e-02 4.637623e-02 -1.630159e-03 1.471303e-02 -2.052562e-02 -1.466348e-02 -4.467857e-03 2.813395e-02 2.172781e-03 -8.068145e-03 1.905089e-03 8.946151e-04 2.082354e-03 -1.918140e-03 -1.295129e-03 -2.353875e-03 7.574420e-04 3.940000e-04 2.822577e-04 1.135163e-04 -1.034853e-04 -1.730851e-03 1.165623e-03
<VARIANCE> 39
 1.050050e+01 1.468780e+01 1.795288e+01 2.826294e+01 2.666351e+01 2.442238e+01 2.234223e+01 2.069065e+01 2.411191e+01 2.522907e+01 2.323046e+01 2.068845e+01 3.953068e+00 5.501608e-01 9.172186e-01 1.308429e+00 2.147744e+00 2.092994e+00 2.262733e+00 2.182088e+00 2.047708e+00 2.243177e+00 2.231178e+00 2.133316e+00 1.851907e+00 1.397571e-01 9.247820e-02 1.522018e-01 2.358025e-01 3.670023e-01 3.908315e-01 4.417321e-01 4.393886e-01 4.172314e-01 4.401252e-01 4.282208e-01 4.109603e-01 3.592696e-01 1.861712e-02
<GCONST> 9.620914e+01
<TRANSP> 5
 0.000000e+00 1.000000e+00 0.000000e+00 0.000000e+00 0.000000e+00
 0.000000e+00 7.329335e-01 2.670665e-01 0.000000e+00 0.000000e+00
 0.000000e+00 0.000000e+00 7.329329e-01 2.670671e-01 0.000000e+00
 0.000000e+00 0.000000e+00 0.000000e+00 8.571061e-01 1.428939e-01
 0.000000e+00 0.000000e+00 0.000000e+00 0.000000e+00 0.000000e+00
<ENDHMM>
~h "n"
<BEGINHMM>
<NUMSTATES> 5
<STATE> 2
<MEAN> 39
 -5.145896e+00 -5.658766e+00 -4.394133e+00 -9.437651e+00 -2.415382e+00 -5.861541e+00 -1.055954e+00 -9.259491e+00 -3.512732e+00 -7.021500e+00 -1.088294e+00 -5.982148e+00 1.680730e+01 -1.914485e-02 4.439784e-03 2.397144e-03 -8.114655e-03 1.442300e-02 7.876879e-03 -9.348691e-03 -9.678985e-04 -1.987531e-03 1.792825e-02 1.729149e-02 1.218031e-02 -1.764348e-02 -3.238614e-04 -2.230743e-03 -2.526500e-03 -1.029614e-03 -1.726554e-03 -6.416271e-04 5.987776e-04 2.235811e-03 1.457439e-03 1.388044e-03 5.588613e-04 1.121828e-03 1.012308e-04
<VARIANCE> 39
 1.188835e+01 2.093041e+01 2.197043e+01 2.835998e+01 2.765020e+01 2.904339e+01 2.909314e+01 3.033392e+01 3.479850e+01 3.301914e+01 2.923303e+01 2.865988e+01 3.714640e+00 5.548404e-01 1.120272e+00 1.242041e+00 1.754874e+00 1.906913e+00 2.141664e+00 2.186182e+00 2.115902e+00 2.293355e+00 2.069077e+00 1.951132e+00 1.707481e+00 8.721361e-02 8.518390e-02 1.563956e-01 1.936809e-01 2.865627e-01 3.507329e-01 3.989401e-01 4.075640e-01 3.944430e-01 4.235226e-01 3.892525e-01 3.653772e-01 3.147824e-01 1.035155e-02
<GCONST> 9.621294e+01
<STATE> 3
<MEAN> 39
 -5.222075e+00 -5.662897e+00 -4.405289e+00 -9.467910e+00 -2.374717e+00 -5.839357e+00 -1.085815e+00 -9.249435e+00 -3.506597e+00 -6.939406e+00 -1.019093e+00 -5.927572e+00 1.674241e+01 -2.094877e-02 -7.203277e-03 -8.823415e-03 -1.130768e-02 6.341890e-03 4.726364e-03 -5.298933e-03 6.375550e-03 4.216879e-03 2.163335e-02 1.841162e-02 1.680122e-02 -1.601707e-02 -4.065060e-05 -2.180916e-03 -2.004994e-03 -4.444256e-04 -1.661902e-03 -9.439041e-04 8.678666e-04 1.515395e-03 1.356667e-03 5.347693e-04 6.053480e-05 1.039262e-03 6.306531e-04
<VARIANCE> 39
 1.171726e+01 2.091854e+01 2.180392e+01 2.807275e+01 2.746515e+01 2.859705e+01 2.853699e+01 2.969834e+01 3.443156e+01 3.220714e+01 2.888292e+01 2.822271e+01 3.766178e+00 5.524957e-01 1.108006e+00 1.230222e+00 1.715598e+00 1.872866e+00 2.120468e+00 2.147584e+00 2.089048e+00 2.276215e+00 2.024752e+00 1.934212e+00 1.709464e+00 8.658018e-02 8.477236e-02 1.551782e-01 1.926349e-01 2.796648e-01 3.438166e-01 3.941517e-01 3.995336e-01 3.900532e-01 4.200071e-01 3.796555e-01 3.618999e-01 3.151680e-01 1.012006e-02
<GCONST> 9.574849e+01
<STATE> 4
<MEAN> 39
 -5.327134e+00 -5.777544e+00 -4.532000e+00 -9.459966e+00 -2.313473e+00 -5.816348e+00 -1.104758e+00 -9.188857e+00 -3.432339e+00 -6.875270e+00 -9.432186e-01 -5.841374e+00 1.670204e+01 -2.460680e-02 -1.962547e-02 -2.037678e-02 -1.688124e-02 -1.010748e-03 2.766049e-03 2.447728e-03 1.502482e-02 1.331582e-02 2.564364e-02 2.095700e-02 2.504637e-02 -1.471083e-02 7.293060e-05 -8.261714e-04 -7.644762e-04 -5.021412e-04 -5.803478e-04 -2.453669e-04 8.428585e-04 7.957750e-04 8.704253e-04 -1.495619e-04 9.436801e-05 7.175035e-04 4.054559e-04
<VARIANCE> 39
 1.163156e+01 2.126314e+01 2.191321e+01 2.899276e+01 2.729030e+01 2.828289e+01 2.810213e+01 2.923224e+01 3.405282e+01 3.126904e+01 2.858302e+01 2.748918e+01 3.877093e+00 5.333222e-01 1.078060e+00 1.189384e+00 1.671404e+00 1.812641e+00 2.081964e+00 2.075637e+00 2.048334e+00 2.227286e+00 1.957686e+00 1.906991e+00 1.695095e+00 8.410151e-02 8.143242e-02 1.497728e-01 1.860284e-01 2.691014e-01 3.307419e-01 3.859527e-01 3.841754e-01 3.835094e-01 4.090357e-01 3.648220e-01 3.562457e-01 3.137252e-01 9.633853e-03
<GCONST> 9.496250e+01
<TRANSP> 5
 0.000000e+00 1.000000e+00 0.000000e+00 0.000000e+00 0.000000e+00
 0.000000e+00 7.358049e-01 2.641951e-01 0.000000e+00 0.000000e+00
 0.000000e+00 0.000000e+00 7.358059e-01 2.641941e-01 0.000000e+00
 0.000000e+00 0.000000e+00 0.000000e+00 8.603475e-01 1.396525e-01
 0.000000e+00 0.000000e+00 0.000000e+00 0.000000e+00 0.000000e+00
<ENDHMM>
~h "r"
<BEGINHMM>
<NUMSTATES> 5
<STATE> 2
<MEAN> 39
 -4.881721e+00 -5.024973e+00 -2.994366e+00 -1.171239e+01 -5.220842e+00 -7.337633e+00 -1.921149e+00 -7.635028e+00 -1.716742e+00 -5.733427e+00 -1.395093e-01 -5.430789e+00 1.702578e+01 1.097031e-02 7.736992e-03 -1.170502e-02 -1.590618e-02 2.354845e-02 -2.002528e-02 -1.600607e-02 -2.122115e-03 -2.725854e-03 -1.803111e-02 7.287604e-03 -4.088469e-03 1.145684e-02 -3.876772e-03 -1.087631e-03 -7.007392e-03 3.441808e-03 1.052294e-02 5.500215e-03 2.126369e-03 -2.456530e-03 -2.694790e-03 3.716938e-04 1.041056e-03 9.147194e-04 -3.560970e-03
<VARIANCE> 39
 1.206116e+01 3.259092e+01 2.649422e+01 3.504416e+01 5.810126e+01 4.035804e+01 3.453409e+01 3.611753e+01 3.296669e+01 3.018345e+01 2.827754e+01 3.005088e+01 4.032786e+00 6.430105e-01 1.441015e+00 1.423311e+00 2.274373e+00 3.057122e+00 3.280830e+00 2.583954e+00 2.558470e+00 2.409498e+00 2.061933e+00 1.959981e+00 1.787318e+00 1.025830e-01 9.560532e-02 1.781147e-01 2.201162e-01 3.529126e-01 4.634917e-01 5.854145e-01 4.671478e-01 4.559070e-01 4.451826e-01 3.774099e-01 3.684675e-01 3.309866e-01 1.050882e-02
<GCONST> 1.023658e+02
<STATE> 3
<MEAN> 39
 -4.867015e+00 -4.993734e+00 -3.101178e+00 -1.174217e+01 -5.037805e+00 -7.370254e+00 -1.961378e+00 -7.656936e+00 -1.750245e+00 -5.803330e+00 -1.056824e-01 -5.432895e+00 1.704286e+01 -5.749701e-03 3.915966e-03 -4.053618e-02 5.090788e-04 6.582341e-02 3.666089e-03 -6.367548e-03 -1.100404e-02 -1.352935e-02 -1.514492e-02 1.116698e-02 1.188949e-03 -4.209543e-03 -4.086738e-03 -1.941074e-03 -6.983175e-03 3.919126e-03 9.031432e-03 6.142260e-03 3.095906e-03 -1.394050e-03 -2.515691e-03 1.156763e-03 8.312671e-04 1.259672e-03 -3.772515e-03
<VARIANCE> 39
 1.218397e+01 3.348745e+01 2.684382e+01 3.508857e+01 5.751337e+01 3.997079e+01 3.510802e+01 3.660893e+01 3.334676e+01 3.038098e+01 2.819571e+01 3.003349e+01 4.014708e+00 6.406712e-01 1.451077e+00 1.406382e+00 2.261113e+00 3.016789e+00 3.243555e+00 2.598606e+00 2.565641e+00 2.425843e+00 2.065394e+00 1.948823e+00 1.783660e+00 1.023770e-01 9.547459e-02 1.781568e-01 2.172167e-01 3.508960e-01 4.603530e-01 5.796165e-01 4.686072e-01 4.543958e-01 4.484120e-01 3.766735e-01 3.669632e-01 3.289014e-01 1.041564e-02
<GCONST> 1.023544e+02
<STATE> 4
<MEAN> 39
 -4.946982e+00 -4.988341e+00 -3.451444e+00 -1.169336e+01 -4.508003e+00 -7.286903e+00 -1.915818e+00 -7.757529e+00 -1.885124e+00 -5.898667e+00 -8.365756e-02 -5.438505e+00 1.699350e+01 -2.541758e-02 -7.831126e-03 -7.444773e-02 2.385372e-02 1.092038e-01 3.821753e-02 1.184591e-02 -1.725007e-02 -2.505000e-02 -5.924982e-03 1.509169e-02 1.154751e-02 -2.487952e-02 -3.088918e-03 -3.092534e-03 -4.240830e-03 2.713409e-03 3.804437e-03 4.968333e-03 3.216620e-03 -3.066809e-04 -1.613620e-03 1.871532e-03 3.783320e-04 1.143632e-03 -2.867742e-03
<VARIANCE> 39
 1.227809e+01 3.424663e+01 2.684624e+01 3.400825e+01 5.401155e+01 3.867421e+01 3.504684e+01 3.654942e+01 3.303481e+01 3.017022e+01 2.780585e+01 2.939594e+01 4.054149e+00 6.264528e-01 1.422088e+00 1.351738e+00 2.162217e+00 2.844974e+00 3.083424e+00 2.544541e+00 2.536791e+00 2.405395e+00 2.057621e+00 1.928266e+00 1.788216e+00 1.016213e-01 9.437761e-02 1.742691e-01 2.109013e-01 3.376386e-01 4.441785e-01 5.514575e-01 4.582462e-01 4.482597e-01 4.453620e-01 3.741080e-01 3.645260e-01 3.291169e-01 1.045722e-02
<GCONST> 1.016771e+02
<TRANSP> 5
 0.000000e+00 1.000000e+00 0.000000e+00 0.000000e+00 0.000000e+00
 0.000000e+00 7.315724e-01 2.684276e-01 0.000000e+00 0.000000e+00
 0.000000e+00 0.000000e+00 7.315735e-01 2.684266e-01 0.000000e+00
 0.000000e+00 0.000000e+00 0.000000e+00 8.544382e-01 1.455617e-01
 0.000000e+00 0.000000e+00 0.000000e+00 0.000000e+00 0.000000e+00
<ENDHMM>
~h "s"
<BEGINHMM>
<NUMSTATES> 5
<STATE> 2
<MEAN> 39
 -6.839075e+00 -5.548427e+00 -5.574692e+00 -1.084087e+01 -2.713680e+00 -5.209509e+00 -9.097465e-01 -8.124717e+00 -2.607615e+00 -5.348486e+00 6.936541e-02 -4.849668e+00 1.563601e+01 3.918357e-03 5.297740e-04 -5.579162e-03 4.631886e-03 -1.047054e-02 4.914837e-03 2.170615e-02 7.961211e-03 -6.970648e-03 6.135849e-03 2.131014e-03 2.403073e-03 5.225680e-04 8.143364e-04 3.366542e-04 1.171912e-03 -6.767717e-04 -2.808488e-03 -1.245329e-03 -7.795524e-04 1.967423e-04 -5.497058e-04 7.709477e-05 -2.006484e-03 -1.405116e-03 1.360958e-03
<VARIANCE> 39
 1.171810e+01 1.585381e+01 1.751602e+01 2.499314e+01 2.665783e+01 2.674521e+01 2.481488e+01 2.249408e+01 2.571348e+01 2.522432e+01 2.427081e+01 2.199256e+01 4.284434e+00 5.848590e-01 9.026936e-01 1.213321e+00 1.898677e+00 2.051109e+00 2.329264e+00 2.164001e+00 2.057548e+00 2.224410e+00 2.073419e+00 2.039535e+00 1.798275e+00 1.275800e-01 9.605208e-02 1.448449e-01 2.127833e-01 3.268887e-01 3.913084e-01 4.440140e-01 4.210699e-01 4.085061e-01 4.292108e-01 3.943430e-01 3.936263e-01 3.435214e-01 1.636310e-02
<GCONST> 9.576894e+01
<STATE> 3
<MEAN> 39
 -6.819769e+00 -5.535828e+00 -5.581543e+00 -1.083948e+01 -2.776429e+00 -5.202994e+00 -8.337300e-01 -8.095555e+00 -2.632477e+00 -5.329227e+00 6.098101e-02 -4.855849e+00 1.565472e+01 7.642984e-03 2.339818e-03 1.538894e-03 -4.841696e-04 -2.010448e-02 1.014519e-04 2.083801e-02 9.817712e-03 -6.950264e-03 4.205840e-03 -5.805090e-03 -4.514713e-03 7.102222e-03 8.291787e-04 5.245614e-04 1.745887e-03 -7.867945e-04 -2.060050e-03 -8.517084e-04 -4.388995e-04 4.129517e-04 -7.190449e-05 -7.123516e-04 -1.859110e-03 -1.554573e-03 1.609521e-03
<VARIANCE> 39
 1.167849e+01 1.543040e+01 1.740169e+01 2.514414e+01 2.694983e+01 2.664720e+01 2.504691e+01 2.258940e+01 2.587340e+01 2.555484e+01 2.444437e+01 2.199412e+01 4.290905e+00 5.863731e-01 8.886368e-01 1.212808e+00 1.902675e+00 2.055830e+00 2.330000e+00 2.169875e+00 2.050774e+00 2.219310e+00 2.085174e+00 2.054134e+00 1.809311e+00 1.306574e-01 9.653476e-02 1.438744e-01 2.134136e-01 3.274445e-01 3.919823e-01 4.451358e-01 4.214624e-01 4.070561e-01 4.276525e-01 3.953938e-01 3.968056e-01 3.456884e-01 1.686499e-02
<GCONST> 9.586581e+01
<STATE> 4
<MEAN> 39
 -6.753909e+00 -5.510962e+00 -5.566111e+00 -1.092067e+01 -2.892064e+00 -5.191764e+00 -6.869758e-01 -8.039797e+00 -2.631308e+00 -5.358553e+00 6.522387e-03 -4.924190e+00 1.574043e+01 1.530240e-02 3.331383e-03 1.477210e-02 -1.370605e-02 -2.330118e-02 -6.822046e-03 2.018058e-02 1.053985e-02 -4.793720e-03 -4.628023e-03 -1.536848e-02 -1.339603e-02 1.703610e-02 1.105693e-03 -6.336547e-05 1.733499e-03 -6.072915e-04 2.913414e-04 -7.706188e-04 -5.611023e-04 -3.397385e-04 2.450425e-04 -1.281031e-03 -8.439106e-04 -9.135939e-04 1.104374e-03
<VARIANCE> 39
 1.154616e+01 1.504087e+01 1.712957e+01 2.582757e+01 2.800901e+01 2.641028e+01 2.524940e+01 2.294727e+01 2.604229e+01 2.670053e+01 2.485255e+01 2.238628e+01 4.396724e+00 5.801976e-01 8.754813e-01 1.201554e+00 1.921611e+00 2.075835e+00 2.325675e+00 2.170162e+00 2.047848e+00 2.205320e+00 2.120403e+00 2.092833e+00 1.848407e+00 1.396346e-01 9.632193e-02 1.426626e-01 2.130319e-01 3.297714e-01 3.928015e-01 4.460976e-01 4.198697e-01 4.052573e-01 4.248336e-01 3.987541e-01 4.046124e-01 3.536751e-01 1.813282e-02
<GCONST> 9.620808e+01
<TRANSP> 5
 0.000000e+00 1.000000e+00 0.000000e+00 0.000000e+00 0.000000e+00
 0.000000e+00 7.322749e-01 2.677251e-01 0.000000e+00 0.000000e+00
 0.000000e+00 0.000000e+00 7.322750e-01 2.677250e-01 0.000000e+00
 0.000000e+00 0.000000e+00 0.000000e+00 8.559165e-01 1.440835e-01
 0.000000e+00 0.000000e+00 0.000000e+00 0.000000e+00 0.000000e+00
<ENDHMM>
~h "t"
<BEGINHMM>
<NUMSTATES> 5
<STATE> 2
<MEAN> 39
 -6.701027e+00 -3.583806e+00 -4.969841e+00 -1.212571e+01 -2.327221e+00 -7.061707e+00 -1.686136e+00 -8.327219e+00 -2.437729e+00 -5.501077e+00 2.238770e-01 -5.031132e+00 1.623013e+01 1.118258e-02 5.745571e-03 3.108222e-02 2.795862e-02 -2.281991e-02 -5.726792e-03 -2.681231e-02 -1.535151e-02 -9.867365e-03 1.107185e-02 5.914309e-03 5.050152e-03 -2.066334e-03 2.322676e-03 -4.387507e-03 5.997114e-04 2.959555e-03 -1.248977e-03 1.698498e-03 3.589962e-04 -9.513521e-04 -1.090710e-03 -1.494611e-03 -1.150069e-03 -1.039281e-03 -9.032162e-05
<VARIANCE> 39
 1.237282e+01 2.916635e+01 2.082432e+01 2.846670e+01 2.786965e+01 3.366476e+01 3.031594e+01 2.619851e+01 2.983261e+01 2.485677e+01 2.743027e+01 2.500893e+01 4.408833e+00 6.749132e-01 1.359335e+00 1.242882e+00 1.722230e+00 1.800053e+00 2.509355e+00 2.196679e+00 2.192523e+00 2.419024e+00 2.066840e+00 2.191511e+00 1.886644e+00 1.251092e-01 1.084546e-01 1.914713e-01 2.062021e-01 2.795905e-01 3.229621e-01 4.452193e-01 4.007038e-01 4.130011e-01 4.476290e-01 3.934783e-01 4.161530e-01 3.537190e-01 1.434928e-02
<GCONST> 9.843754e+01
<STATE> 3
<MEAN> 39
 -6.619231e+00 -3.609718e+00 -4.823792e+00 -1.198764e+01 -2.445424e+00 -7.071119e+00 -1.804790e+00 -8.398571e+00 -2.485541e+00 -5.469978e+00 2.317424e-01 -5.024688e+00 1.622154e+01 2.213290e-02 -1.266441e-02 3.270278e-02 3.738417e-02 -2.505450e-02 3.475708e-03 -2.321973e-02 -1.765541e-02 -1.338147e-02 3.469998e-03 5.042037e-04 7.076471e-04 -2.217532e-03 2.302654e-03 -4.057365e-03 -1.284344e-04 1.702231e-03 -7.064791e-04 1.859862e-03 1.055384e-03 -5.936013e-04 -8.936060e-04 -1.788334e-03 -1.100736e-03 -1.059475e-03 3.370281e-05
<VARIANCE> 39
 1.246386e+01 2.787318e+01 2.153374e+01 2.779358e+01 2.835620e+01 3.377795e+01 3.007550e+01 2.620374e+01 2.929533e+01 2.535937e+01 2.792010e+01 2.529980e+01 4.361991e+00 6.914344e-01 1.321354e+00 1.264406e+00 1.691656e+00 1.806234e+00 2.493958e+00 2.180286e+00 2.194509e+00 2.387655e+00 2.085923e+00 2.202118e+00 1.893464e+00 1.262685e-01 1.106219e-01 1.885336e-01 2.089763e-01 2.763446e-01 3.223305e-01 4.416215e-01 3.979094e-01 4.142348e-01 4.426190e-01 3.961198e-01 4.161062e-01 3.537758e-01 1.453387e-02
<GCONST> 9.844220e+01
<STATE> 4
<MEAN> 39
 -6.396631e+00 -3.776209e+00 -4.660658e+00 -1.177914e+01 -2.609285e+00 -7.050704e+00 -1.937396e+00 -8.475795e+00 -2.546536e+00 -5.482939e+00 2.040751e-01 -5.060145e+00 1.620779e+01 3.643181e-02 -3.690577e-02 2.353040e-02 4.271095e-02 -1.672178e-02 1.676935e-02 -1.055036e-02 -1.434838e-02 -1.517245e-02 -3.708013e-03 -3.591507e-03 -3.891807e-03 -4.101248e-03 7.658301e-04 -2.983087e-03 -2.500002e-03 4.679775e-05 1.533596e-03 1.452136e-03 2.507411e-03 1.553064e-04 -2.544913e-04 -9.190690e-04 -1.502206e-04 -4.972954e-04 -3.023166e-04
<VARIANCE> 39
 1.260664e+01 2.544084e+01 2.218025e+01 2.652755e+01 2.917850e+01 3.330142e+01 2.963346e+01 2.655420e+01 2.817992e+01 2.628163e+01 2.887216e+01 2.594714e+01 4.349365e+00 6.772712e-01 1.204236e+00 1.232748e+00 1.623437e+00 1.778638e+00 2.423434e+00 2.128285e+00 2.167516e+00 2.297068e+00 2.074775e+00 2.197615e+00 1.878233e+00 1.214857e-01 1.068708e-01 1.749757e-01 2.039914e-01 2.672946e-01 3.149171e-01 4.316122e-01 3.873808e-01 4.078584e-01 4.273438e-01 3.902633e-01 4.128149e-01 3.486716e-01 1.398817e-02
<GCONST> 9.769164e+01
<TRANSP> 5
 0.000000e+00 1.000000e+00 0.000000e+00 0.000000e+00 0.000000e+00
 0.000000e+00 7.491761e-01 2.508239e-01 0.000000e+00 0.000000e+00
 0.000000e+00 0.000000e+00 7.491754e-01 2.508246e-01 0.000000e+00
 0.000000e+00 0.000000e+00 0.000000e+00 8.760197e-01 1.239804e-01
 0.000000e+00 0.000000e+00 0.000000e+00 0.000000e+00 0.000000e+00
<ENDHMM>
~h "v"
<BEGINHMM>
<NUMSTATES> 5
<STATE> 2
<MEAN> 39
 -5.714915e+00 -6.850418e+00 -5.192576e+00 -1.026490e+01 -2.462284e+00 -5.732924e+00 3.382072e-01 -8.047145e+00 -3.380743e+00 -5.871019e+00 -8.014495e-01 -5.313509e+00 1.683992e+01 1.941481e-02 6.966755e-02 4.654410e-02 -1.860652e-02 -1.039815e-02 1.698323e-03 -4.371099e-02 -2.822397e-02 3.221250e-02 -7.094989e-03 1.022487e-02 -6.796129e-03 -1.418807e-02 -1.204086e-03 6.170511e-04 -1.744680e-03 1.175460e-03 1.845038e-03 -6.563180e-04 -2.853346e-03 -1.175607e-03 1.356735e-04 -1.333934e-04 2.094619e-03 1.436818e-03 -2.136172e-03
<VARIANCE> 39
 1.093740e+01 2.407336e+01 1.884375e+01 2.773908e+01 2.979795e+01 2.948423e+01 2.727660e+01 3.063778e+01 3.320492e+01 3.023961e+01 2.771154e+01 2.431152e+01 4.271269e+00 5.897847e-01 9.649057e-01 1.106777e+00 1.850895e+00 2.039335e+00 2.183216e+00 2.100837e+00 2.142819e+00 2.187805e+00 2.087959e+00 2.118074e+00 1.698369e+00 1.479932e-01 1.008145e-01 1.419272e-01 1.937838e-01 3.098426e-01 3.794978e-01 4.044124e-01 3.953083e-01 4.096176e-01 4.035027e-01 3.807393e-01 4.020882e-01 3.230661e-01 1.911064e-02
<GCONST> 9.730642e+01
<STATE> 3
<MEAN> 39
 -5.644734e+00 -6.567561e+00 -5.028182e+00 -1.032801e+01 -2.489514e+00 -5.729155e+00 1.481639e-01 -8.155995e+00 -3.250852e+00 -5.897159e+00 -7.530051e-01 -5.329164e+00 1.676273e+01 1.452388e-02 6.701760e-02 3.656095e-02 -1.157794e-02 -1.594439e-03 -1.145612e-03 -5.164667e-02 -3.003386e-02 2.991846e-02 -6.367437e-03 1.716584e-02 -1.183403e-03 -2.082351e-02 -1.334832e-03 -1.660866e-03 -2.852144e-03 1.006970e-03 1.854599e-03 -3.166740e-04 -1.009500e-03 -3.513551e-05 -9.479530e-04 2.755831e-04 1.295195e-03 1.328827e-03 -1.328584e-03
<VARIANCE> 39
 1.091159e+01 2.303576e+01 1.861829e+01 2.687419e+01 2.952792e+01 2.923909e+01 2.706857e+01 2.992559e+01 3.243948e+01 3.013766e+01 2.766333e+01 2.448344e+01 4.196276e+00 5.739378e-01 9.522077e-01 1.107228e+00 1.829193e+00 2.043639e+00 2.187189e+00 2.110442e+00 2.141454e+00 2.194082e+00 2.095872e+00 2.109418e+00 1.709000e+00 1.403095e-01 9.766518e-02 1.411120e-01 1.941842e-01 3.099597e-01 3.814387e-01 4.070856e-01 3.998270e-01 4.104656e-01 4.077980e-01 3.857205e-01 4.018991e-01 3.261416e-01 1.828264e-02
<GCONST> 9.701837e+01
<STATE> 4
<MEAN> 39
 -5.582907e+00 -6.287394e+00 -4.936338e+00 -1.038275e+01 -2.433383e+00 -5.741841e+00 -1.194549e-01 -8.343750e+00 -3.072284e+00 -5.937445e+00 -6.772466e-01 -5.320493e+00 1.667127e+01 8.200553e-03 5.191715e-02 1.878688e-02 -3.257384e-03 7.171896e-03 -2.350735e-03 -5.086281e-02 -2.446499e-02 2.178620e-02 -3.433804e-03 2.121930e-02 4.534180e-03 -2.548291e-02 -1.384571e-03 -4.015937e-03 -3.083692e-03 9.252310e-04 8.435419e-04 -2.073532e-06 1.371247e-03 8.779382e-04 -1.623192e-03 3.764035e-04 3.581153e-04 9.212727e-04 -1.152746e-04
<VARIANCE> 39
 1.093863e+01 2.144402e+01 1.840721e+01 2.556599e+01 2.839047e+01 2.868230e+01 2.675966e+01 2.864843e+01 3.100824e+01 2.939461e+01 2.757096e+01 2.443938e+01 4.021509e+00 5.421527e-01 9.239151e-01 1.093691e+00 1.756771e+00 1.991740e+00 2.170941e+00 2.095853e+00 2.110839e+00 2.177052e+00 2.072483e+00 2.088583e+00 1.716616e+00 1.268101e-01 9.149858e-02 1.381273e-01 1.914422e-01 3.013615e-01 3.720706e-01 4.068263e-01 3.987488e-01 4.051890e-01 4.074002e-01 3.865477e-01 3.988310e-01 3.297440e-01 1.658325e-02
<GCONST> 9.607340e+01
<TRANSP> 5
 0.000000e+00 1.000000e+00 0.000000e+00 0.000000e+00 0.000000e+00
 0.000000e+00 7.352926e-01 2.647074e-01 0.000000e+00 0.000000e+00
 0.000000e+00 0.000000e+00 7.352920e-01 2.647080e-01 0.000000e+00
 0.000000e+00 0.000000e+00 0.000000e+00 8.600100e-01 1.399900e-01
 0.000000e+00 0.000000e+00 0.000000e+00 0.000000e+00 0.000000e+00
<ENDHMM>
~h "w"
<BEGINHMM>
<NUMSTATES> 5
<STATE> 2
<MEAN> 39
 -3.968881e+00 -5.868063e+00 -6.433918e+00 -1.008316e+01 -1.824407e+00 -6.267397e+00 -1.454730e+00 -8.429489e+00 -2.723857e+00 -6.721830e+00 -8.064469e-01 -5.819562e+00 1.675681e+01 7.235785e-02 1.938831e-02 -1.119283e-02 3.925855e-02 1.516390e-03 -1.041451e-02 -1.656094e-02 -2.322090e-02 -2.502346e-02 -3.794752e-02 -4.931456e-02 -3.756599e-02 2.834798e-02 -1.171924e-03 -1.463554e-03 3.532296e-04 1.424007e-03 -7.775807e-04 5.655083e-04 -2.921736e-04 -9.268448e-04 -1.717899e-03 -1.565892e-03 -1.624392e-03 -2.107264e-03 7.568137e-04
<VARIANCE> 39
 1.493547e+01 2.030163e+01 2.429185e+01 2.918401e+01 2.360939e+01 2.790182e+01 2.557753e+01 2.982541e+01 3.029749e+01 2.903611e+01 2.934635e+01 2.718597e+01 4.087567e+00 5.260072e-01 1.038025e+00 1.340615e+00 1.995424e+00 1.960403e+00 2.252064e+00 2.217732e+00 2.282100e+00 2.272913e+00 2.098449e+00 2.021264e+00 1.803082e+00 8.352751e-02 7.609804e-02 1.436234e-01 1.948213e-01 3.245077e-01 3.631354e-01 4.333368e-01 4.401228e-01 4.374274e-01 4.301837e-01 4.036897e-01 3.912239e-01 3.565618e-01 9.049745e-03
<GCONST> 9.661101e+01
<STATE> 3
<MEAN> 39
 -3.690062e+00 -5.821401e+00 -6.486744e+00 -9.911755e+00 -1.823954e+00 -6.301308e+00 -1.518769e+00 -8.514936e+00 -2.835341e+00 -6.887479e+00 -1.006630e+00 -5.990720e+00 1.688549e+01 5.917682e-02 9.195107e-03 -7.193849e-03 4.511695e-02 1.868244e-03 -4.845317e-03 -1.419057e-02 -2.598638e-02 -3.060938e-02 -4.465142e-02 -5.105665e-02 -4.388837e-02 2.918881e-02 -4.436865e-03 -2.344315e-03 1.470730e-03 6.992100e-04 -1.506733e-04 1.346941e-03 6.172451e-04 -6.646552e-04 -1.616184e-03 -1.502060e-03 3.558653e-05 -1.284091e-03 -1.931191e-04
<VARIANCE> 39
 1.454239e+01 1.997426e+01 2.536419e+01 3.037772e+01 2.390651e+01 2.838896e+01 2.566724e+01 3.081898e+01 3.095742e+01 3.066488e+01 2.992410e+01 2.835296e+01 3.953394e+00 5.507974e-01 1.087210e+00 1.434271e+00 2.099407e+00 2.034343e+00 2.328434e+00 2.273989e+00 2.353553e+00 2.347443e+00 2.199875e+00 2.054709e+00 1.846151e+00 8.375289e-02 7.805707e-02 1.488520e-01 2.038924e-01 3.406593e-01 3.746260e-01 4.501610e-01 4.511222e-01 4.468058e-01 4.460809e-01 4.247356e-01 3.975998e-01 3.641301e-01 8.762516e-03
<GCONST> 9.764326e+01
<STATE> 4
<MEAN> 39
 -3.433950e+00 -5.876079e+00 -6.512612e+00 -9.661700e+00 -1.856051e+00 -6.351332e+00 -1.634639e+00 -8.676349e+00 -3.042593e+00 -7.199602e+00 -1.233117e+00 -6.241906e+00 1.709394e+01 1.709010e-02 -6.924687e-04 1.998787e-02 4.626465e-02 5.374642e-04 2.730001e-03 -1.520122e-02 -2.910533e-02 -3.398454e-02 -4.441280e-02 -3.087975e-02 -3.459414e-02 1.918784e-02 -7.747646e-03 -3.638594e-04 4.615825e-03 -1.649674e-03 -5.469471e-04 1.064582e-03 1.312947e-04 -6.051965e-04 -4.920201e-04 1.037919e-03 3.296730e-03 2.197072e-03 -2.468274e-03
<VARIANCE> 39
 1.389418e+01 2.012234e+01 2.739899e+01 3.221017e+01 2.479745e+01 2.985695e+01 2.676117e+01 3.304577e+01 3.263375e+01 3.362904e+01 3.075874e+01 3.005364e+01 3.765460e+00 5.703967e-01 1.148078e+00 1.557221e+00 2.214924e+00 2.145841e+00 2.427366e+00 2.386101e+00 2.456716e+00 2.463443e+00 2.327545e+00 2.129320e+00 1.892675e+00 8.136064e-02 7.956498e-02 1.540045e-01 2.132598e-01 3.544077e-01 3.910909e-01 4.673684e-01 4.701838e-01 4.572269e-01 4.653784e-01 4.487064e-01 4.128358e-01 3.716258e-01 8.221517e-03
<GCONST> 9.904295e+01
<TRANSP> 5
 0.000000e+00 1.000000e+00 0.000000e+00 0.000000e+00 0.000000e+00
 0.000000e+00 7.412317e-01 2.587683e-01 0.000000e+00 0.000000e+00
 0.000000e+00 0.000000e+00 7.412332e-01 2.587668e-01 0.000000e+00
 0.000000e+00 0.000000e+00 0.000000e+00 8.659636e-01 1.340364e-01
 0.000000e+00 0.000000e+00 0.000000e+00 0.000000e+00 0.000000e+00
<ENDHMM>
~h "z"
<BEGINHMM>
<NUMSTATES> 5
<STATE> 2
<MEAN> 39
 -5.508928e+00 -4.805337e+00 -4.021045e+00 -1.061878e+01 -3.493905e+00 -6.127295e+00 -1.661018e+00 -8.617530e+00 -2.511850e+00 -5.563070e+00 3.881986e-02 -5.249867e+00 1.639158e+01 3.496261e-02 1.340500e-02 5.278420e-02 -1.528271e-03 -8.537466e-02 -1.875500e-02 -8.309631e-03 4.269341e-02 4.378554e-02 1.869297e-02 -1.467406e-02 -1.567602e-02 2.583457e-02 2.036122e-03 -8.133763e-04 1.442827e-03 -1.071397e-04 -4.515298e-03 9.765439e-04 4.736365e-03 4.316531e-03 2.964437e-03 4.819058e-04 -6.432536e-04 -2.029630e-04 2.010343e-03
<VARIANCE> 39
 1.052759e+01 2.570829e+01 1.949479e+01 2.782148e+01 4.144867e+01 3.278875e+01 2.600512e+01 2.716360e+01 2.928427e+01 2.645912e+01 2.623850e+01 2.648093e+01 4.218572e+00 4.813188e-01 1.153298e+00 1.171660e+00 1.836230e+00 2.021253e+00 2.518625e+00 2.134271e+00 2.097582e+00 2.182447e+00 1.862230e+00 1.909540e+00 1.735760e+00 8.846495e-02 7.367428e-02 1.520142e-01 1.889313e-01 2.921767e-01 3.412614e-01 4.520084e-01 4.024646e-01 3.831300e-01 4.069431e-01 3.512553e-01 3.738934e-01 3.313595e-01 1.041157e-02
<GCONST> 9.573792e+01
<STATE> 3
<MEAN> 39
 -5.373394e+00 -4.730826e+00 -3.795391e+00 -1.063482e+01 -3.857982e+00 -6.212953e+00 -1.664973e+00 -8.432790e+00 -2.327030e+00 -5.478506e+00 -1.681624e-02 -5.305902e+00 1.650758e+01 4.101669e-02 1.133741e-02 5.868328e-02 -4.888947e-03 -1.061751e-01 -2.335989e-02 6.026833e-03 5.712770e-02 5.468393e-02 1.833462e-02 -1.711464e-02 -1.362686e-02 3.419552e-02 1.382789e-03 -5.493779e-04 9.524425e-04 -3.167599e-04 -4.348802e-03 -1.751077e-03 3.295351e-03 3.320423e-03 2.208290e-03 -7.344424e-04 -5.030296e-04 8.332088e-04 1.943858e-03
<VARIANCE> 39
 1.062751e+01 2.673979e+01 2.018106e+01 2.856689e+01 4.517997e+01 3.417270e+01 2.648145e+01 2.813899e+01 3.016536e+01 2.709817e+01 2.630221e+01 2.731668e+01 4.167197e+00 4.924212e-01 1.211189e+00 1.219532e+00 1.881875e+00 2.095141e+00 2.615192e+00 2.170527e+00 2.126294e+00 2.211094e+00 1.900651e+00 1.919791e+00 1.763516e+00 9.132968e-02 7.511460e-02 1.568768e-01 1.948391e-01 2.964910e-01 3.457860e-01 4.660075e-01 4.077510e-01 3.848422e-01 4.087232e-01 3.561091e-01 3.763133e-01 3.349082e-01 1.080170e-02
<GCONST> 9.665983e+01
<STATE> 4
<MEAN> 39
 -5.174650e+00 -4.617155e+00 -3.436356e+00 -1.075375e+01 -4.445642e+00 -6.456447e+00 -1.649667e+00 -8.143379e+00 -2.018885e+00 -5.436964e+00 -1.566415e-01 -5.454334e+00 1.675376e+01 4.997835e-02 -6.155551e-03 5.809597e-02 -1.847326e-02 -1.292732e-01 -3.556255e-02 1.124688e-02 6.747410e-02 6.193058e-02 5.901771e-03 -2.193666e-02 -1.462434e-02 4.639352e-02 1.273787e-03 -4.233259e-03 -2.117082e-03 -1.380317e-03 -1.130307e-03 -1.696795e-03 6.726979e-04 1.020743e-03 2.948906e-05 -3.269482e-03 -4.655150e-04 1.997872e-04 1.133343e-03
<VARIANCE> 39
 1.083003e+01 2.953719e+01 2.146576e+01 3.027309e+01 5.035090e+01 3.656910e+01 2.738122e+01 3.036669e+01 3.136266e+01 2.851729e+01 2.683764e+01 2.963606e+01 4.059532e+00 5.140616e-01 1.317885e+00 1.287415e+00 1.994190e+00 2.216959e+00 2.768175e+00 2.222334e+00 2.203295e+00 2.231782e+00 1.969961e+00 1.939393e+00 1.826100e+00 9.519588e-02 7.772838e-02 1.636496e-01 2.027911e-01 3.093948e-01 3.526091e-01 4.873905e-01 4.147361e-01 3.922228e-01 4.065525e-01 3.629774e-01 3.749376e-01 3.429841e-01 1.124094e-02
<GCONST> 9.822610e+01
<TRANSP> 5
 0.000000e+00 1.000000e+00 0.000000e+00 0.000000e+00 0.000000e+00
 0.000000e+00 7.240279e-01 2.759720e-01 0.000000e+00 0.000000e+00
 0.000000e+00 0.000000e+00 7.240280e-01 2.759720e-01 0.000000e+00
 0.000000e+00 0.000000e+00 0.000000e+00 8.453779e-01 1.546221e-01
 0.000000e+00 0.000000e+00 0.000000e+00 0.000000e+00 0.000000e+00
<ENDHMM>
~h "ah"
<BEGINHMM>
<NUMSTATES> 5
<STATE> 2
<MEAN> 39
 -3.495712e+00 -5.827449e+00 -6.242399e+00 -9.382916e+00 -1.821594e+00 -6.275677e+00 -1.704106e+00 -8.833240e+00 -3.211452e+00 -7.380662e+00 -1.330194e+00 -6.367563e+00 1.710544e+01 -2.796319e-02 7.426679e-03 4.712288e-02 2.578840e-02 -2.627737e-03 7.341884e-03 -1.229641e-02 -3.259883e-02 -3.373995e-02 -3.037856e-02 -1.281635e-02 -1.670932e-02 -9.773008e-05 -7.006402e-03 1.377113e-03 3.512312e-03 -4.659184e-03 -1.101871e-03 3.188592e-04 1.418850e-04 8.829687e-04 1.152964e-03 3.743807e-03 4.260118e-03 3.938152e-03 -3.165625e-03
<VARIANCE> 39
 1.332440e+01 2.000941e+01 2.798193e+01 3.224054e+01 2.499107e+01 3.012255e+01 2.727563e+01 3.391451e+01 3.348494e+01 3.519746e+01 3.076221e+01 3.081780e+01 3.546769e+00 5.789385e-01 1.173808e+00 1.604967e+00 2.243728e+00 2.180475e+00 2.480950e+00 2.426450e+00 2.521897e+00 2.524389e+00 2.417098e+00 2.137979e+00 1.908903e+00 7.835886e-02 8.175650e-02 1.574049e-01 2.167479e-01 3.608681e-01 3.985429e-01 4.783922e-01 4.752488e-01 4.672199e-01 4.726898e-01 4.657125e-01 4.144638e-01 3.711272e-01 7.876255e-03
<GCONST> 9.948425e+01
<STATE> 3
<MEAN> 39
 -3.654127e+00 -5.776030e+00 -6.012149e+00 -9.316385e+00 -1.833334e+00 -6.247914e+00 -1.753705e+00 -8.948324e+00 -3.324140e+00 -7.457629e+00 -1.334909e+00 -6.389255e+00 1.707801e+01 -5.084829e-02 1.590917e-02 5.732486e-02 3.237756e-03 -5.378517e-03 7.777327e-03 -1.006313e-02 -2.626399e-02 -2.566447e-02 -1.079753e-02 3.216026e-03 3.871601e-04 -1.315780e-02 -4.773649e-03 1.411943e-03 1.027868e-03 -5.714703e-03 -8.720422e-04 -8.708274e-05 6.698633e-04 2.488126e-03 2.658751e-03 5.302577e-03 4.128201e-03 4.285316e-03 -2.915238e-03
<VARIANCE> 39
 1.308849e+01 1.998734e+01 2.805527e+01 3.158660e+01 2.500743e+01 3.030853e+01 2.768120e+01 3.430936e+01 3.399925e+01 3.593731e+01 3.074987e+01 3.092541e+01 3.512088e+00 5.810512e-01 1.173686e+00 1.604838e+00 2.206851e+00 2.164569e+00 2.479933e+00 2.436993e+00 2.525771e+00 2.544748e+00 2.445263e+00 2.149720e+00 1.906555e+00 7.730918e-02 8.312657e-02 1.574663e-01 2.160751e-01 3.564194e-01 3.966428e-01 4.758388e-01 4.747900e-01 4.653097e-01 4.730285e-01 4.692443e-01 4.158466e-01 3.678468e-01 7.868686e-03
<GCONST> 9.949331e+01
<STATE> 4
<MEAN> 39
 -3.926650e+00 -5.669037e+00 -5.687560e+00 -9.421678e+00 -1.863394e+00 -6.276928e+00 -1.831117e+00 -9.030488e+00 -3.417899e+00 -7.436922e+00 -1.229618e+00 -6.303088e+00 1.701477e+01 -6.457076e-02 2.148028e-02 4.925711e-02 -2.834767e-02 -2.719710e-03 7.922223e-03 9.067159e-05 -5.248065e-03 -6.848482e-03 2.366835e-02 2.146304e-02 2.262138e-02 -2.727091e-02 -1.452198e-03 -9.747455e-04 -3.471474e-03 -4.620698e-03 -3.063450e-04 -1.456406e-04 1.863457e-03 4.141022e-03 3.277132e-03 5.122767e-03 2.904251e-03 3.045665e-03 -1.640636e-03
<VARIANCE> 39
 1.293483e+01 2.001570e+01 2.781806e+01 3.036992e+01 2.485789e+01 3.050962e+01 2.831614e+01 3.427346e+01 3.451982e+01 3.594586e+01 3.036255e+01 3.041335e+01 3.554049e+00 5.691584e-01 1.145452e+00 1.555375e+00 2.079349e+00 2.095798e+00 2.416108e+00 2.419975e+00 2.472183e+00 2.529797e+00 2.401556e+00 2.135605e+00 1.897808e+00 7.785138e-02 8.214431e-02 1.535412e-01 2.094743e-01 3.367456e-01 3.847348e-01 4.548707e-01 4.662361e-01 4.523869e-01 4.649205e-01 4.546447e-01 4.098722e-01 3.611924e-01 8.122113e-03
<GCONST> 9.890779e+01
<TRANSP> 5
 0.000000e+00 1.000000e+00 0.000000e+00 0.000000e+00 0.000000e+00
 0.000000e+00 7.412275e-01 2.587724e-01 0.000000e+00 0.000000e+00
 0.000000e+00 0.000000e+00 7.412282e-01 2.587718e-01 0.000000e+00
 0.000000e+00 0.000000e+00 0.000000e+00 8.659519e-01 1.340481e-01
 0.000000e+00 0.000000e+00 0.000000e+00 0.000000e+00 0.000000e+00
<ENDHMM>
~h "ao"
<BEGINHMM>
<NUMSTATES> 5
<STATE> 2
<MEAN> 39
 -3.481629e+00 -6.508311e+00 -7.497188e+00 -1.136631e+01 -2.832845e+00 -6.093438e+00 -1.695097e+00 -7.796170e+00 -1.944471e+00 -6.003458e+00 -6.453756e-01 -5.816920e+00 1.696493e+01 -2.511389e-02 -1.760853e-02 4.264095e-02 3.427071e-02 -1.641346e-02 -2.525658e-04 1.443858e-02 2.544378e-03 -1.881299e-02 -2.286480e-02 -1.003020e-02 1.004460e-02 -4.476048e-03 -4.554170e-03 5.839057e-04 3.341996e-03 1.363771e-03 2.690240e-04 1.922609e-04 9.351504e-04 -1.931896e-03 -1.792368e-03 8.407091e-04 3.345980e-03 3.393962e-03 -1.870007e-03
<VARIANCE> 39
 2.050991e+01 1.885898e+01 2.406431e+01 2.771604e+01 2.691174e+01 2.581180e+01 2.378973e+01 2.792073e+01 3.000037e+01 2.590934e+01 3.028017e+01 2.801842e+01 4.540406e+00 8.643040e-01 1.102390e+00 1.475910e+00 1.747950e+00 2.114409e+00 2.235173e+00 2.178940e+00 2.385159e+00 2.496352e+00 2.130928e+00 2.354881e+00 1.967193e+00 1.401264e-01 1.199611e-01 1.600904e-01 2.358493e-01 2.869810e-01 3.967409e-01 4.250041e-01 4.142831e-01 4.429582e-01 4.694954e-01 4.107166e-01 4.568259e-01 3.763278e-01 1.557514e-02
<GCONST> 9.974199e+01
<STATE> 3
<MEAN> 39
 -3.656303e+00 -6.592779e+00 -7.264171e+00 -1.117544e+01 -2.883619e+00 -6.094706e+00 -1.619045e+00 -7.809133e+00 -2.044249e+00 -6.101555e+00 -6.619169e-01 -5.741802e+00 1.691316e+01 -4.743141e-02 -1.434301e-02 5.511376e-02 4.025004e-02 -1.276815e-02 1.617613e-03 1.956588e-02 -7.505771e-03 -2.549607e-02 -1.741133e-02 4.603008e-03 2.448651e-02 -1.412816e-02 -3.336218e-03 6.625896e-04 1.946624e-03 1.212824e-03 5.416183e-04 5.461057e-04 1.260032e-03 -2.050993e-03 -7.210406e-04 1.605259e-03 2.849795e-03 2.550797e-03 -1.540198e-03
<VARIANCE> 39
 2.027409e+01 1.918684e+01 2.405552e+01 2.823503e+01 2.757349e+01 2.643091e+01 2.432402e+01 2.848199e+01 3.054449e+01 2.595808e+01 2.983958e+01 2.807420e+01 4.591445e+00 8.161290e-01 1.106902e+00 1.461357e+00 1.757631e+00 2.163864e+00 2.258061e+00 2.202974e+00 2.406560e+00 2.507709e+00 2.110064e+00 2.347610e+00 1.941092e+00 1.325419e-01 1.133676e-01 1.607924e-01 2.338803e-01 2.891829e-01 4.069346e-01 4.299414e-01 4.193273e-01 4.461004e-01 4.724647e-01 4.067260e-01 4.592912e-01 3.716715e-01 1.464271e-02
<GCONST> 9.972343e+01
<STATE> 4
<MEAN> 39
 -4.055876e+00 -6.733382e+00 -6.929813e+00 -1.086775e+01 -2.874326e+00 -6.087990e+00 -1.429839e+00 -7.912074e+00 -2.200778e+00 -6.268968e+00 -6.852705e-01 -5.631781e+00 1.679254e+01 -7.912445e-02 -7.951831e-03 6.324203e-02 4.684877e-02 2.158978e-03 8.386177e-03 2.780113e-02 -2.065294e-02 -2.891248e-02 -6.073054e-03 2.184952e-02 3.862267e-02 -2.937579e-02 -6.287945e-04 1.032263e-03 -5.584778e-04 -2.785606e-04 1.124268e-03 8.008606e-04 7.547868e-04 -1.071250e-03 3.671212e-04 2.055094e-03 8.692534e-04 -1.174223e-06 -4.895400e-04
<VARIANCE> 39
 1.932479e+01 1.895599e+01 2.320965e+01 2.779741e+01 2.762604e+01 2.676789e+01 2.459915e+01 2.881681e+01 3.059817e+01 2.575027e+01 2.888696e+01 2.806178e+01 4.642192e+00 7.060044e-01 1.057013e+00 1.389776e+00 1.712526e+00 2.150411e+00 2.236769e+00 2.196390e+00 2.385012e+00 2.469582e+00 2.069504e+00 2.319054e+00 1.912031e+00 1.145924e-01 9.873503e-02 1.535089e-01 2.242154e-01 2.840634e-01 4.034924e-01 4.261928e-01 4.186714e-01 4.423935e-01 4.672852e-01 3.982168e-01 4.570971e-01 3.649964e-01 1.256916e-02
<GCONST> 9.863913e+01
<TRANSP> 5
 0.000000e+00 1.000000e+00 0.000000e+00 0.000000e+00 0.000000e+00
 0.000000e+00 7.556337e-01 2.443663e-01 0.000000e+00 0.000000e+00
 0.000000e+00 0.000000e+00 7.556344e-01 2.443656e-01 0.000000e+00
 0.000000e+00 0.000000e+00 0.000000e+00 8.838485e-01 1.161515e-01
 0.000000e+00 0.000000e+00 0.000000e+00 0.000000e+00 0.000000e+00
<ENDHMM>
~h "ay"
<BEGINHMM>
<NUMSTATES> 5
<STATE> 2
<MEAN> 39
 -5.918250e+00 -7.968273e+00 -5.059818e+00 -8.463522e+00 -1.771245e+00 -5.937623e+00 -9.790367e-02 -8.931880e+00 -4.158088e+00 -6.777050e+00 -9.397880e-01 -5.631053e+00 1.719824e+01 -8.131715e-03 1.016800e-02 4.652558e-03 -1.388160e-02 8.821117e-03 2.618252e-02 6.168742e-04 -2.909791e-03 3.388038e-03 8.395776e-03 -1.368080e-02 2.167374e-03 8.358488e-03 -8.716611e-04 5.490726e-03 -5.720690e-04 -6.300020e-03 -2.257499e-03 2.795488e-04 -2.255553e-03 1.520921e-03 3.367815e-03 2.232059e-03 1.794679e-03 9.049958e-04 -2.694972e-03
<VARIANCE> 39
 9.787619e+00 2.963406e+01 2.404811e+01 3.377077e+01 2.768573e+01 2.832408e+01 2.886090e+01 3.238059e+01 3.896788e+01 3.078451e+01 2.827200e+01 2.703168e+01 3.911198e+00 5.388142e-01 1.185892e+00 1.154670e+00 1.754767e+00 1.640034e+00 1.834783e+00 1.797701e+00 1.948142e+00 2.065013e+00 1.722389e+00 1.792790e+00 1.505658e+00 1.011416e-01 8.796823e-02 1.496499e-01 1.848296e-01 2.618972e-01 2.889926e-01 3.276292e-01 3.256969e-01 3.588889e-01 3.629065e-01 3.114915e-01 3.324741e-01 2.778178e-01 1.116594e-02
<GCONST> 9.430896e+01
<STATE> 3
<MEAN> 39
 -5.960329e+00 -7.860274e+00 -5.028722e+00 -8.590540e+00 -1.758276e+00 -5.820123e+00 -1.097133e-01 -8.937829e+00 -4.118946e+00 -6.724666e+00 -9.719653e-01 -5.613304e+00 1.720038e+01 -9.947295e-03 3.798552e-02 4.273705e-03 -4.166346e-02 9.095557e-04 2.718740e-02 -1.042262e-02 3.162181e-03 1.640770e-02 1.718815e-02 -4.720550e-03 5.590108e-03 -5.435184e-03 -4.782036e-04 6.057111e-03 -2.787324e-04 -5.946255e-03 -2.345461e-03 -4.739924e-04 -2.693519e-03 1.308171e-03 3.186690e-03 2.040266e-03 2.624896e-03 8.743131e-04 -3.236908e-03
<VARIANCE> 39
 9.838223e+00 2.989124e+01 2.363972e+01 3.404822e+01 2.778999e+01 2.821189e+01 2.892146e+01 3.202409e+01 3.901462e+01 3.063100e+01 2.831183e+01 2.675197e+01 3.887781e+00 5.324426e-01 1.173124e+00 1.129603e+00 1.786345e+00 1.656007e+00 1.851423e+00 1.792976e+00 1.936674e+00 2.050941e+00 1.716722e+00 1.801198e+00 1.498605e+00 9.774089e-02 8.636726e-02 1.456635e-01 1.796173e-01 2.657200e-01 2.902310e-01 3.304572e-01 3.245333e-01 3.584210e-01 3.597808e-01 3.110281e-01 3.335848e-01 2.769265e-01 1.071411e-02
<GCONST> 9.412203e+01
<STATE> 4
<MEAN> 39
 -6.032742e+00 -7.563092e+00 -5.046028e+00 -8.847599e+00 -1.730643e+00 -5.700397e+00 -1.783575e-01 -8.936148e+00 -3.968328e+00 -6.653773e+00 -9.901390e-01 -5.606497e+00 1.717275e+01 -5.662960e-03 7.602074e-02 4.411834e-03 -7.285827e-02 -7.562163e-03 2.075975e-02 -2.696516e-02 1.136452e-02 2.921198e-02 2.915777e-02 9.931144e-03 1.159069e-02 -2.609529e-02 4.665577e-04 3.462717e-03 -8.070358e-04 -2.743757e-03 -1.491810e-03 -1.987719e-03 -2.400666e-03 1.075202e-03 2.208067e-03 1.410321e-03 2.556853e-03 1.158586e-03 -2.546538e-03
<VARIANCE> 39
 1.003307e+01 2.983450e+01 2.292638e+01 3.420522e+01 2.792348e+01 2.816879e+01 2.911740e+01 3.166525e+01 3.805048e+01 3.072684e+01 2.824652e+01 2.617468e+01 3.921413e+00 5.205190e-01 1.129264e+00 1.088379e+00 1.813103e+00 1.676957e+00 1.896073e+00 1.788264e+00 1.934666e+00 2.039242e+00 1.747116e+00 1.833460e+00 1.502550e+00 9.217452e-02 8.373949e-02 1.394211e-01 1.726249e-01 2.713135e-01 2.933722e-01 3.392289e-01 3.234395e-01 3.602854e-01 3.584540e-01 3.193027e-01 3.393501e-01 2.789113e-01 1.014308e-02
<GCONST> 9.393557e+01
<TRANSP> 5
 0.000000e+00 1.000000e+00 0.000000e+00 0.000000e+00 0.000000e+00
 0.000000e+00 7.373541e-01 2.626459e-01 0.000000e+00 0.000000e+00
 0.000000e+00 0.000000e+00 7.373546e-01 2.626453e-01 0.000000e+00
 0.000000e+00 0.000000e+00 0.000000e+00 8.633366e-01 1.366635e-01
 0.000000e+00 0.000000e+00 0.000000e+00 0.000000e+00 0.000000e+00
<ENDHMM>
~h "eh"
<BEGINHMM>
<NUMSTATES> 5
<STATE> 2
<MEAN> 39
 -5.931072e+00 -5.522388e+00 -5.300640e+00 -1.070982e+01 -3.624316e+00 -5.498815e+00 4.450915e-01 -7.866007e+00 -2.965494e+00 -5.738944e+00 -8.560085e-01 -5.299020e+00 1.644478e+01 4.476543e-02 1.109047e-02 4.212900e-02 -1.534567e-02 -2.743984e-02 -9.474437e-03 4.109297e-02 7.168850e-03 -8.385841e-03 -1.623591e-02 -4.012472e-02 -3.167735e-02 3.835535e-02 2.899663e-03 4.829360e-04 4.523704e-03 6.284860e-04 3.075381e-03 -1.791067e-03 -4.255760e-03 -3.016996e-03 1.027820e-03 -2.011569e-03 2.204913e-03 -5.521293e-04 4.469663e-04
<VARIANCE> 39
 1.310243e+01 1.429149e+01 1.611909e+01 2.206813e+01 2.757410e+01 3.087428e+01 3.132172e+01 2.856748e+01 2.895152e+01 3.006812e+01 2.778769e+01 2.437035e+01 4.232818e+00 7.021926e-01 9.148917e-01 1.077249e+00 1.740182e+00 2.222876e+00 2.480516e+00 2.457977e+00 2.093456e+00 2.261590e+00 2.179789e+00 2.247256e+00 1.851209e+00 1.705610e-01 1.174218e-01 1.540589e-01 1.956193e-01 3.035861e-01 4.330923e-01 4.728553e-01 4.503929e-01 4.049114e-01 4.300492e-01 3.975134e-01 4.290838e-01 3.475897e-01 2.277348e-02
<GCONST> 9.826569e+01
<STATE> 3
<MEAN> 39
 -5.738955e+00 -5.494280e+00 -5.110139e+00 -1.078438e+01 -3.703396e+00 -5.549650e+00 5.711702e-01 -7.868111e+00 -2.991925e+00 -5.833614e+00 -1.005806e+00 -5.425869e+00 1.659733e+01 5.445615e-02 1.231730e-02 5.750611e-02 -1.055170e-02 -1.323027e-02 -1.486741e-02 2.154934e-02 -6.384954e-03 -4.107023e-03 -2.545540e-02 -3.178998e-02 -3.148838e-02 3.691711e-02 1.520072e-03 5.390227e-04 3.163443e-03 1.894737e-03 4.113705e-03 -9.588374e-04 -5.721975e-03 -3.787042e-03 1.065300e-03 -2.477121e-03 2.774444e-03 6.284484e-04 -1.059647e-03
<VARIANCE> 39
 1.296057e+01 1.414213e+01 1.616962e+01 2.284634e+01 2.889658e+01 3.163154e+01 3.148746e+01 3.003495e+01 2.980437e+01 3.187364e+01 2.851122e+01 2.503586e+01 4.180710e+00 7.061828e-01 9.205384e-01 1.089967e+00 1.779925e+00 2.299210e+00 2.490342e+00 2.503982e+00 2.147249e+00 2.283858e+00 2.252356e+00 2.287865e+00 1.861033e+00 1.805195e-01 1.193694e-01 1.559923e-01 1.994541e-01 3.100073e-01 4.459506e-01 4.740845e-01 4.595676e-01 4.136207e-01 4.338088e-01 4.078929e-01 4.344813e-01 3.483651e-01 2.435130e-02
<GCONST> 9.904516e+01
<STATE> 4
<MEAN> 39
 -5.436167e+00 -5.498456e+00 -4.813467e+00 -1.087719e+01 -3.672698e+00 -5.567982e+00 6.026332e-01 -8.019189e+00 -2.978364e+00 -6.097118e+00 -1.144914e+00 -5.566294e+00 1.680197e+01 5.671158e-02 1.534554e-02 6.688813e-02 4.771747e-03 1.288358e-02 -1.558363e-02 -1.250247e-02 -2.746093e-02 2.095363e-03 -3.519394e-02 -1.816871e-02 -2.245718e-02 2.408790e-02 -9.657650e-04 9.236216e-04 2.680001e-04 3.754615e-03 4.552705e-03 2.743633e-04 -6.177066e-03 -3.348422e-03 6.307536e-04 -9.578587e-04 3.450149e-03 1.948995e-03 -3.064833e-03
<VARIANCE> 39
 1.242271e+01 1.423281e+01 1.626353e+01 2.382838e+01 3.042172e+01 3.258732e+01 3.098380e+01 3.168000e+01 3.118484e+01 3.400932e+01 2.942801e+01 2.575582e+01 4.053893e+00 6.851660e-01 9.279672e-01 1.103937e+00 1.810309e+00 2.372901e+00 2.466419e+00 2.515510e+00 2.209868e+00 2.325986e+00 2.330106e+00 2.326655e+00 1.849966e+00 1.864089e-01 1.168849e-01 1.569993e-01 2.027381e-01 3.163999e-01 4.576671e-01 4.678827e-01 4.650397e-01 4.238569e-01 4.415806e-01 4.190644e-01 4.396605e-01 3.454377e-01 2.544778e-02
<GCONST> 9.963606e+01
<TRANSP> 5
 0.000000e+00 1.000000e+00 0.000000e+00 0.000000e+00 0.000000e+00
 0.000000e+00 7.307866e-01 2.692134e-01 0.000000e+00 0.000000e+00
 0.000000e+00 0.000000e+00 7.307869e-01 2.692131e-01 0.000000e+00
 0.000000e+00 0.000000e+00 0.000000e+00 8.531715e-01 1.468285e-01
 0.000000e+00 0.000000e+00 0.000000e+00 0.000000e+00 0.000000e+00
<ENDHMM>
~h "ey"
<BEGINHMM>
<NUMSTATES> 5
<STATE> 2
<MEAN> 39
 -6.805308e+00 -3.616328e+00 -5.655087e+00 -1.318073e+01 -1.612877e+00 -6.926908e+00 -1.129117e+00 -7.925999e+00 -2.110438e+00 -5.877828e+00 7.821381e-02 -4.998815e+00 1.641345e+01 -2.911854e-02 9.041358e-02 -6.237055e-03 -5.237715e-02 7.979632e-03 -5.838888e-02 -4.636229e-04 1.353835e-02 1.631291e-02 1.772486e-02 6.619350e-03 7.467314e-03 1.218937e-02 8.391551e-04 4.013532e-05 1.254135e-03 1.837276e-03 -1.251794e-03 -8.040489e-04 3.553299e-04 -5.492179e-04 -1.132095e-03 -6.978201e-04 1.047020e-03 -3.463706e-04 7.309501e-04
<VARIANCE> 39
 1.173525e+01 3.471387e+01 1.880343e+01 3.348145e+01 2.529323e+01 3.295484e+01 3.131297e+01 2.773359e+01 3.127639e+01 2.546907e+01 2.702116e+01 2.453583e+01 4.648103e+00 5.106838e-01 1.430001e+00 1.006735e+00 1.962078e+00 1.624509e+00 2.488940e+00 2.274055e+00 2.209792e+00 2.499612e+00 2.039145e+00 2.109164e+00 1.815667e+00 1.151873e-01 8.216520e-02 1.789316e-01 1.668832e-01 3.048907e-01 2.886046e-01 4.366774e-01 4.046777e-01 4.094387e-01 4.551965e-01 3.813552e-01 3.972135e-01 3.490778e-01 1.277316e-02
<GCONST> 9.737189e+01
<STATE> 3
<MEAN> 39
 -6.916936e+00 -3.214901e+00 -5.661347e+00 -1.337549e+01 -1.599479e+00 -7.184707e+00 -1.150633e+00 -7.882565e+00 -2.055811e+00 -5.816803e+00 1.161973e-01 -4.980208e+00 1.647575e+01 -2.242489e-02 8.090733e-02 -4.710560e-04 -3.272128e-02 3.404750e-03 -5.643396e-02 -4.005669e-03 5.414515e-03 1.077822e-02 1.496338e-02 9.663079e-03 5.118242e-03 1.038365e-02 1.896391e-03 -2.969608e-03 1.388011e-03 4.711300e-03 -1.260080e-03 9.208293e-04 -5.928372e-04 -2.042799e-03 -1.045029e-03 -8.886770e-04 3.892905e-04 -6.843169e-04 -3.627999e-04
<VARIANCE> 39
 1.160304e+01 3.673693e+01 1.904134e+01 3.439337e+01 2.503997e+01 3.419655e+01 3.217640e+01 2.791473e+01 3.193042e+01 2.502315e+01 2.698549e+01 2.423896e+01 4.621453e+00 5.157691e-01 1.541055e+00 1.001795e+00 1.999597e+00 1.589638e+00 2.562726e+00 2.285628e+00 2.215649e+00 2.550711e+00 2.029135e+00 2.104694e+00 1.826939e+00 1.234777e-01 8.329236e-02 1.899123e-01 1.667139e-01 3.037392e-01 2.800243e-01 4.442410e-01 4.042963e-01 4.081667e-01 4.601792e-01 3.794416e-01 3.942158e-01 3.516459e-01 1.340310e-02
<GCONST> 9.780896e+01
<STATE> 4
<MEAN> 39
 -7.008517e+00 -2.822797e+00 -5.699526e+00 -1.336998e+01 -1.558448e+00 -7.487331e+00 -1.213955e+00 -7.967803e+00 -2.086712e+00 -5.741180e+00 1.964067e-01 -4.962348e+00 1.648672e+01 -4.980332e-03 1.185524e-02 4.465784e-03 3.047546e-02 -3.755365e-03 -1.886338e-02 -8.231176e-03 -1.317997e-02 -7.682877e-03 1.182479e-02 8.427521e-03 7.577650e-03 -1.064945e-02 2.652622e-03 -9.787902e-03 5.522626e-04 7.652489e-03 -1.029758e-03 5.895042e-03 4.559720e-04 -2.030031e-03 -1.764672e-03 -7.809935e-04 -6.211269e-04 -5.174785e-05 -2.398632e-03
<VARIANCE> 39
 1.115907e+01 3.910993e+01 1.868392e+01 3.495435e+01 2.429114e+01 3.652296e+01 3.213080e+01 2.837954e+01 3.231668e+01 2.428390e+01 2.675754e+01 2.375818e+01 4.642320e+00 5.022632e-01 1.669685e+00 9.721525e-01 1.949568e+00 1.523611e+00 2.654270e+00 2.231118e+00 2.225779e+00 2.576594e+00 2.015691e+00 2.063862e+00 1.841994e+00 1.257226e-01 8.084384e-02 2.019466e-01 1.632832e-01 2.908351e-01 2.654728e-01 4.480069e-01 3.932673e-01 4.044078e-01 4.600236e-01 3.769715e-01 3.847643e-01 3.568993e-01 1.315022e-02
<GCONST> 9.767001e+01
<TRANSP> 5
 0.000000e+00 1.000000e+00 0.000000e+00 0.000000e+00 0.000000e+00
 0.000000e+00 7.508833e-01 2.491166e-01 0.000000e+00 0.000000e+00
 0.000000e+00 0.000000e+00 7.508822e-01 2.491178e-01 0.000000e+00
 0.000000e+00 0.000000e+00 0.000000e+00 8.785198e-01 1.214802e-01
 0.000000e+00 0.000000e+00 0.000000e+00 0.000000e+00 0.000000e+00
<ENDHMM>
~h "ia"
<BEGINHMM>
<NUMSTATES> 5
<STATE> 2
<MEAN> 39
 -4.863243e+00 -4.801519e+00 -3.195221e+00 -1.085154e+01 -5.189217e+00 -6.580874e+00 -1.566581e+00 -7.754108e+00 -1.700029e+00 -5.413306e+00 -2.394458e-01 -5.468677e+00 1.698967e+01 5.595341e-02 -3.959429e-02 3.451101e-02 -2.043001e-02 -1.180454e-01 -3.620687e-02 1.531558e-02 6.894866e-02 5.529605e-02 -1.521173e-02 -2.198690e-02 -1.286208e-02 4.568043e-02 2.496816e-05 -4.975703e-03 -4.754700e-03 -1.143129e-03 4.429574e-03 -4.527521e-04 -1.005884e-03 -1.583147e-03 -2.218947e-03 -3.507016e-03 5.752606e-04 -1.804855e-04 -6.841481e-04
<VARIANCE> 39
 1.139259e+01 3.209594e+01 2.262292e+01 3.204868e+01 5.566777e+01 3.833459e+01 2.894559e+01 3.268139e+01 3.289085e+01 2.955788e+01 2.711787e+01 3.103566e+01 3.887659e+00 5.208351e-01 1.373963e+00 1.326717e+00 2.066423e+00 2.346102e+00 2.858902e+00 2.237413e+00 2.263132e+00 2.271704e+00 1.995855e+00 1.940505e+00 1.810376e+00 9.538524e-02 7.651819e-02 1.636258e-01 2.045740e-01 3.155911e-01 3.571574e-01 4.970796e-01 4.082701e-01 3.957345e-01 4.077298e-01 3.633939e-01 3.704015e-01 3.375237e-01 1.094466e-02
<GCONST> 9.909764e+01
<STATE> 3
<MEAN> 39
 -4.643899e+00 -5.025534e+00 -3.107201e+00 -1.094779e+01 -5.611073e+00 -6.699654e+00 -1.506120e+00 -7.500239e+00 -1.513706e+00 -5.491733e+00 -3.178917e-01 -5.525132e+00 1.715958e+01 5.591634e-02 -6.430861e-02 1.082174e-02 -2.152531e-02 -9.309626e-02 -3.122281e-02 1.432523e-02 6.296238e-02 4.385174e-02 -2.764669e-02 -1.863331e-02 -1.350553e-02 3.990192e-02 -1.040393e-03 -5.222601e-03 -6.341983e-03 -5.335884e-04 8.128138e-03 1.594371e-03 -8.760477e-04 -2.733493e-03 -3.150264e-03 -2.463975e-03 1.528108e-03 -1.445760e-04 -2.185215e-03
<VARIANCE> 39
 1.169743e+01 3.396727e+01 2.350620e+01 3.305399e+01 5.848457e+01 3.939831e+01 2.999645e+01 3.453836e+01 3.387878e+01 3.036716e+01 2.736082e+01 3.221456e+01 3.726739e+00 5.248066e-01 1.399435e+00 1.343249e+00 2.100499e+00 2.435851e+00 2.906679e+00 2.248333e+00 2.322256e+00 2.304760e+00 2.014467e+00 1.940529e+00 1.807447e+00 9.468572e-02 7.539212e-02 1.617252e-01 2.042451e-01 3.176500e-01 3.604107e-01 5.017003e-01 4.047391e-01 4.000663e-01 4.108132e-01 3.632804e-01 3.661544e-01 3.350596e-01 1.055295e-02
<GCONST> 9.958316e+01
<STATE> 4
<MEAN> 39
 -4.348924e+00 -5.574003e+00 -3.173651e+00 -1.110181e+01 -5.977963e+00 -6.801428e+00 -1.390631e+00 -7.175467e+00 -1.373296e+00 -5.679179e+00 -4.401221e-01 -5.666463e+00 1.737667e+01 5.004366e-02 -9.928326e-02 -3.432291e-02 -9.387389e-03 -3.475524e-02 -8.660882e-03 2.068214e-02 5.465300e-02 2.056339e-02 -3.613259e-02 -1.009445e-02 -7.179814e-03 2.263110e-02 -3.256562e-03 -1.955668e-03 -7.374506e-03 1.980602e-03 1.283994e-02 3.667162e-03 -2.618055e-04 -3.561809e-03 -3.962680e-03 -2.560143e-04 2.378234e-03 1.273441e-03 -4.195879e-03
<VARIANCE> 39
 1.196747e+01 3.595742e+01 2.473313e+01 3.382779e+01 6.090897e+01 4.067184e+01 3.109229e+01 3.682879e+01 3.538909e+01 3.127031e+01 2.780410e+01 3.359915e+01 3.522187e+00 5.274714e-01 1.393087e+00 1.339508e+00 2.103623e+00 2.516435e+00 2.922641e+00 2.255526e+00 2.398433e+00 2.349736e+00 2.028035e+00 1.930604e+00 1.810432e+00 9.125590e-02 7.369903e-02 1.549237e-01 2.013541e-01 3.150194e-01 3.643927e-01 5.010510e-01 3.999701e-01 4.049791e-01 4.177562e-01 3.603452e-01 3.583110e-01 3.320428e-01 9.752871e-03
<GCONST> 9.986334e+01
<TRANSP> 5
 0.000000e+00 1.000000e+00 0.000000e+00 0.000000e+00 0.000000e+00
 0.000000e+00 7.240244e-01 2.759756e-01 0.000000e+00 0.000000e+00
 0.000000e+00 0.000000e+00 7.240237e-01 2.759763e-01 0.000000e+00
 0.000000e+00 0.000000e+00 0.000000e+00 8.453677e-01 1.546323e-01
 0.000000e+00 0.000000e+00 0.000000e+00 0.000000e+00 0.000000e+00
<ENDHMM>
~h "ih"
<BEGINHMM>
<NUMSTATES> 5
<STATE> 2
<MEAN> 39
 -7.458548e+00 -4.869131e+00 -5.325158e+00 -1.165685e+01 -3.310890e+00 -5.141852e+00 -1.293042e+00 -7.820076e+00 -2.312793e+00 -5.080694e+00 -4.797148e-02 -4.857451e+00 1.563145e+01 -7.910485e-03 6.563095e-03 4.279157e-03 -1.907059e-02 -2.293459e-02 1.266192e-02 -2.559598e-03 1.071234e-02 3.470081e-03 2.632557e-03 -1.146123e-02 -7.323874e-03 9.555899e-03 2.286086e-03 -2.491452e-03 -2.278188e-04 5.161733e-04 3.338951e-03 -5.279328e-04 8.797285e-04 -1.097345e-03 -5.915053e-04 -1.781020e-03 -1.046844e-03 -5.059898e-04 2.467710e-04
<VARIANCE> 39
 9.787280e+00 1.436980e+01 1.878500e+01 3.408677e+01 3.213893e+01 2.651589e+01 2.256342e+01 2.136316e+01 2.480572e+01 2.942216e+01 2.409677e+01 2.413000e+01 4.327943e+00 6.120385e-01 9.481001e-01 1.494673e+00 2.518609e+00 2.393310e+00 2.574834e+00 2.271265e+00 2.140449e+00 2.270687e+00 2.371865e+00 2.131485e+00 2.089873e+00 1.892514e-01 1.071719e-01 1.574825e-01 2.616338e-01 4.231751e-01 4.464122e-01 4.943401e-01 4.594208e-01 4.273538e-01 4.386910e-01 4.483575e-01 4.092247e-01 3.983524e-01 2.478004e-02
<GCONST> 9.956957e+01
<STATE> 3
<MEAN> 39
 -7.471962e+00 -4.863177e+00 -5.299117e+00 -1.172883e+01 -3.367145e+00 -5.099127e+00 -1.298740e+00 -7.791729e+00 -2.301369e+00 -5.084733e+00 -9.902718e-02 -4.891715e+00 1.566587e+01 -6.177225e-04 -5.902472e-03 4.528718e-04 -9.008965e-03 -5.636485e-03 1.299144e-02 2.010036e-04 4.419416e-03 -3.450688e-04 -2.600779e-03 -1.054969e-02 -5.311925e-03 6.189849e-03 2.295405e-03 -3.252320e-03 -6.760994e-04 2.287234e-03 4.409885e-03 -6.267795e-04 8.785313e-04 -1.661893e-03 -8.166269e-04 -1.341131e-03 4.014109e-04 4.841091e-04 -7.176258e-04
<VARIANCE> 39
 9.820065e+00 1.443784e+01 1.904109e+01 3.489698e+01 3.242879e+01 2.658856e+01 2.273274e+01 2.131598e+01 2.473313e+01 2.999091e+01 2.421242e+01 2.445997e+01 4.300145e+00 6.199110e-01 9.709449e-01 1.526091e+00 2.606896e+00 2.443145e+00 2.601423e+00 2.323571e+00 2.140205e+00 2.287769e+00 2.429403e+00 2.186859e+00 2.130045e+00 1.986864e-01 1.088335e-01 1.613541e-01 2.683199e-01 4.372994e-01 4.545116e-01 5.016852e-01 4.720565e-01 4.280740e-01 4.425430e-01 4.588788e-01 4.194432e-01 4.063040e-01 2.614212e-02
<GCONST> 1.002191e+02
<STATE> 4
<MEAN> 39
 -7.419684e+00 -4.956378e+00 -5.305571e+00 -1.174377e+01 -3.320996e+00 -5.020987e+00 -1.223234e+00 -7.785812e+00 -2.282868e+00 -5.127232e+00 -1.721518e-01 -4.940670e+00 1.568727e+01 3.658059e-03 -2.724134e-02 -1.199176e-02 2.436220e-02 2.261108e-02 1.789596e-02 1.613915e-03 -8.763093e-03 -9.197298e-03 -4.736038e-03 3.560823e-03 5.785947e-03 -7.141646e-03 1.664855e-03 -3.211996e-03 -1.782472e-03 4.403592e-03 4.130810e-03 -3.191128e-04 8.256204e-04 -1.861367e-03 -1.160339e-03 -3.867203e-04 2.238055e-03 1.210709e-03 -1.426730e-03
<VARIANCE> 39
 9.939406e+00 1.476508e+01 1.871375e+01 3.480497e+01 3.241966e+01 2.601909e+01 2.279535e+01 2.125391e+01 2.453860e+01 2.975729e+01 2.438662e+01 2.411397e+01 4.263497e+00 6.054922e-01 9.843516e-01 1.482465e+00 2.603867e+00 2.428505e+00 2.539080e+00 2.321674e+00 2.130341e+00 2.298630e+00 2.419761e+00 2.248677e+00 2.110553e+00 1.968400e-01 1.060750e-01 1.632453e-01 2.634890e-01 4.363292e-01 4.473716e-01 4.920073e-01 4.708728e-01 4.284765e-01 4.468484e-01 4.561484e-01 4.309326e-01 4.031186e-01 2.577672e-02
<GCONST> 1.000521e+02
<TRANSP> 5
 0.000000e+00 1.000000e+00 0.000000e+00 0.000000e+00 0.000000e+00
 0.000000e+00 7.329395e-01 2.670605e-01 0.000000e+00 0.000000e+00
 0.000000e+00 0.000000e+00 7.329392e-01 2.670608e-01 0.000000e+00
 0.000000e+00 0.000000e+00 0.000000e+00 8.571208e-01 1.428792e-01
 0.000000e+00 0.000000e+00 0.000000e+00 0.000000e+00 0.000000e+00
<ENDHMM>
~h "iy"
<BEGINHMM>
<NUMSTATES> 5
<STATE> 2
<MEAN> 39
 -5.873142e+00 -3.515973e+00 -3.142224e+00 -1.215597e+01 -3.371784e+00 -7.580589e+00 -2.465599e+00 -8.675009e+00 -2.418933e+00 -5.770391e+00 2.556334e-01 -5.277349e+00 1.662858e+01 -2.024876e-02 -6.446367e-02 -9.867387e-02 5.507311e-02 8.938070e-02 7.949986e-02 5.782188e-02 1.245206e-04 -2.485100e-02 -7.433930e-03 1.877802e-03 7.521274e-03 -2.434597e-02 5.649744e-04 -8.270496e-03 -3.009138e-03 4.423857e-04 -2.605972e-03 2.567494e-03 4.110184e-03 2.632902e-03 1.069739e-03 9.598891e-04 -1.503086e-04 9.222332e-04 -8.796174e-04
<VARIANCE> 39
 1.045880e+01 3.263487e+01 2.682877e+01 3.333842e+01 4.409520e+01 3.548898e+01 3.644512e+01 3.374352e+01 2.927962e+01 2.879077e+01 2.863517e+01 2.815610e+01 4.271640e+00 6.747060e-01 1.596548e+00 1.360287e+00 2.319844e+00 2.955538e+00 3.148787e+00 2.714537e+00 2.509573e+00 2.330791e+00 2.013063e+00 1.965173e+00 1.830841e+00 1.133229e-01 1.093643e-01 2.074184e-01 2.184509e-01 3.754608e-01 4.895726e-01 5.835961e-01 5.014498e-01 4.587149e-01 4.392163e-01 3.732638e-01 3.771200e-01 3.380130e-01 1.182969e-02
<GCONST> 1.023650e+02
<STATE> 3
<MEAN> 39
 -5.943433e+00 -3.844648e+00 -3.560341e+00 -1.192632e+01 -3.026581e+00 -7.234802e+00 -2.204978e+00 -8.647348e+00 -2.509727e+00 -5.787416e+00 2.634332e-01 -5.233492e+00 1.651778e+01 -1.614076e-02 -9.185596e-02 -1.024326e-01 5.199471e-02 7.230026e-02 8.283230e-02 6.892062e-02 9.689036e-03 -1.975718e-02 -2.855685e-03 1.164325e-03 1.020380e-02 -2.512252e-02 1.110807e-03 -3.706616e-03 8.888391e-04 -1.793072e-03 -4.522026e-03 -7.520610e-04 1.442003e-03 1.564666e-03 1.399308e-03 7.147985e-04 -1.825630e-04 4.377784e-04 3.566889e-04
<VARIANCE> 39
 1.054199e+01 3.220256e+01 2.599580e+01 3.146918e+01 3.933185e+01 3.372820e+01 3.515456e+01 3.322010e+01 2.893470e+01 2.861265e+01 2.815167e+01 2.781682e+01 4.384351e+00 6.392138e-01 1.499852e+00 1.298557e+00 2.170430e+00 2.711230e+00 2.927277e+00 2.575730e+00 2.463691e+00 2.301996e+00 1.985679e+00 1.946467e+00 1.831965e+00 1.095825e-01 1.046997e-01 1.976593e-01 2.099117e-01 3.569121e-01 4.601774e-01 5.457313e-01 4.797648e-01 4.523646e-01 4.352428e-01 3.686188e-01 3.746938e-01 3.394052e-01 1.173095e-02
<GCONST> 1.011021e+02
<STATE> 4
<MEAN> 39
 -5.946394e+00 -4.425823e+00 -4.182414e+00 -1.163758e+01 -2.645326e+00 -6.812242e+00 -1.758363e+00 -8.553521e+00 -2.585083e+00 -5.801767e+00 2.222916e-01 -5.204814e+00 1.639504e+01 -7.909400e-03 -1.023228e-01 -8.890983e-02 3.901052e-02 4.569534e-02 7.031721e-02 6.812551e-02 1.914479e-02 -1.176339e-02 1.748625e-03 -8.079377e-04 1.115660e-02 -2.181281e-02 1.231599e-03 1.835599e-03 4.531550e-03 -2.812080e-03 -4.957941e-03 -3.194959e-03 -9.815637e-04 9.153373e-04 2.174709e-03 1.959306e-04 -4.973026e-04 -5.027090e-04 1.172770e-03
<VARIANCE> 39
 1.092403e+01 3.067364e+01 2.487381e+01 2.926818e+01 3.392355e+01 3.120396e+01 3.300055e+01 3.241418e+01 2.849604e+01 2.838943e+01 2.717587e+01 2.698434e+01 4.527594e+00 5.822200e-01 1.315523e+00 1.214819e+00 1.953561e+00 2.401345e+00 2.621723e+00 2.364239e+00 2.383591e+00 2.248731e+00 1.951686e+00 1.906170e+00 1.806138e+00 1.022779e-01 9.614852e-02 1.754142e-01 1.973477e-01 3.250605e-01 4.192007e-01 4.907083e-01 4.439799e-01 4.420862e-01 4.271164e-01 3.633593e-01 3.680394e-01 3.368351e-01 1.131361e-02
<GCONST> 9.895593e+01
<TRANSP> 5
 0.000000e+00 1.000000e+00 0.000000e+00 0.000000e+00 0.000000e+00
 0.000000e+00 7.390083e-01 2.609917e-01 0.000000e+00 0.000000e+00
 0.000000e+00 0.000000e+00 7.390075e-01 2.609925e-01 0.000000e+00
 0.000000e+00 0.000000e+00 0.000000e+00 8.628129e-01 1.371871e-01
 0.000000e+00 0.000000e+00 0.000000e+00 0.000000e+00 0.000000e+00
<ENDHMM>
~h "ow"
<BEGINHMM>
<NUMSTATES> 5
<STATE> 2
<MEAN> 39
 -4.281910e+00 -6.858370e+00 -6.347281e+00 -1.052672e+01 -2.982426e+00 -6.770629e+00 -8.429477e-01 -6.940490e+00 -1.876780e+00 -5.997384e+00 -6.395359e-01 -5.381400e+00 1.692593e+01 -1.478157e-02 9.904558e-03 -4.595928e-02 -1.057367e-04 5.883415e-02 3.313054e-03 -6.808592e-03 -9.838987e-03 -1.371831e-02 1.551642e-02 1.112985e-02 3.743456e-03 -1.567908e-02 -2.146500e-03 2.536654e-03 2.319978e-03 -4.582964e-04 -5.737822e-04 3.730200e-04 4.489612e-04 -2.590396e-03 -1.152577e-03 4.562867e-04 -1.043807e-04 6.961423e-04 -2.430269e-04
<VARIANCE> 39
 1.422382e+01 2.081330e+01 2.604094e+01 2.374753e+01 3.721851e+01 3.204470e+01 3.066188e+01 3.660130e+01 3.441494e+01 3.036800e+01 2.805832e+01 2.767477e+01 4.430819e+00 5.136310e-01 8.933439e-01 1.115224e+00 1.420037e+00 1.781803e+00 2.172185e+00 2.034097e+00 2.357393e+00 2.296377e+00 2.033545e+00 1.891341e+00 1.726649e+00 9.756923e-02 7.104085e-02 1.188804e-01 1.724527e-01 2.328281e-01 2.998121e-01 3.799652e-01 3.586032e-01 4.045427e-01 4.109627e-01 3.638270e-01 3.484218e-01 3.173193e-01 1.029717e-02
<GCONST> 9.522578e+01
<STATE> 3
<MEAN> 39
 -4.333094e+00 -6.771507e+00 -6.492595e+00 -1.053965e+01 -2.775485e+00 -6.762539e+00 -8.819620e-01 -7.014588e+00 -1.917664e+00 -5.921024e+00 -5.882288e-01 -5.364940e+00 1.686763e+01 -2.516722e-02 2.041098e-02 -3.097205e-02 -4.228520e-03 5.002671e-02 6.010820e-03 -5.953809e-03 -2.203379e-02 -1.619395e-02 1.747130e-02 1.443284e-02 6.189445e-03 -1.836364e-02 -1.366455e-03 2.299451e-03 3.402575e-03 -7.019382e-04 -2.217317e-03 5.730842e-04 4.341052e-04 -2.276346e-03 -3.387826e-04 1.622688e-04 7.929618e-05 3.370866e-04 -9.732571e-05
<VARIANCE> 39
 1.455006e+01 2.016726e+01 2.537828e+01 2.356117e+01 3.465437e+01 3.186245e+01 3.082146e+01 3.569646e+01 3.379967e+01 3.013948e+01 2.805249e+01 2.678293e+01 4.578138e+00 5.265124e-01 8.728560e-01 1.108277e+00 1.407687e+00 1.754747e+00 2.144652e+00 2.041514e+00 2.341949e+00 2.294750e+00 2.044614e+00 1.890830e+00 1.724322e+00 9.915519e-02 7.296701e-02 1.187733e-01 1.727362e-01 2.333236e-01 3.004871e-01 3.748526e-01 3.610980e-01 4.055921e-01 4.123003e-01 3.658859e-01 3.489741e-01 3.170165e-01 1.048079e-02
<GCONST> 9.509039e+01
<STATE> 4
<MEAN> 39
 -4.316835e+00 -6.614017e+00 -6.785571e+00 -1.059036e+01 -2.431520e+00 -6.781584e+00 -9.106125e-01 -7.200433e+00 -1.964620e+00 -5.830198e+00 -5.640198e-01 -5.368343e+00 1.681480e+01 -4.237735e-02 3.239072e-02 9.425682e-03 -7.635667e-03 2.320186e-02 1.950033e-02 -7.954057e-03 -4.088748e-02 -1.623978e-02 1.443384e-02 2.854243e-02 1.113476e-02 -2.667623e-02 -1.160743e-03 2.681130e-04 3.827493e-03 1.080575e-04 -2.527947e-03 1.745964e-03 5.407953e-04 -1.419494e-03 -1.459389e-04 -7.649381e-04 3.302917e-04 8.332510e-04 -2.991561e-04
<VARIANCE> 39
 1.521389e+01 1.878479e+01 2.398250e+01 2.266009e+01 2.977553e+01 3.091805e+01 3.096153e+01 3.416341e+01 3.199847e+01 2.969062e+01 2.857029e+01 2.605058e+01 4.725942e+00 5.364586e-01 8.167393e-01 1.060580e+00 1.351769e+00 1.661329e+00 2.055631e+00 2.014226e+00 2.278188e+00 2.250261e+00 2.027087e+00 1.889857e+00 1.733403e+00 9.786027e-02 7.357924e-02 1.147439e-01 1.671750e-01 2.267457e-01 2.915611e-01 3.615644e-01 3.566800e-01 3.987713e-01 4.071968e-01 3.628421e-01 3.489126e-01 3.168352e-01 1.034472e-02
<GCONST> 9.417515e+01
<TRANSP> 5
 0.000000e+00 1.000000e+00 0.000000e+00 0.000000e+00 0.000000e+00
 0.000000e+00 7.492906e-01 2.507093e-01 0.000000e+00 0.000000e+00
 0.000000e+00 0.000000e+00 7.492899e-01 2.507102e-01 0.000000e+00
 0.000000e+00 0.000000e+00 0.000000e+00 8.796830e-01 1.203170e-01
 0.000000e+00 0.000000e+00 0.000000e+00 0.000000e+00 0.000000e+00
<ENDHMM>
~h "th"
<BEGINHMM>
<NUMSTATES> 5
<STATE> 2
<MEAN> 39
 -5.878573e+00 -5.404409e+00 -3.783636e+00 -1.154827e+01 -3.572382e+00 -6.776091e+00 -1.716107e+00 -8.151235e+00 -2.258822e+00 -5.697497e+00 -3.168635e-02 -5.080252e+00 1.611528e+01 1.860432e-02 5.232110e-02 7.418886e-02 -3.890945e-02 -7.602502e-02 -6.066848e-02 -4.535144e-02 5.306947e-03 1.171291e-02 7.947052e-03 1.384981e-02 -1.072095e-02 2.308668e-02 2.294106e-04 6.483249e-03 4.221190e-03 -1.974500e-03 -1.353753e-03 -3.863731e-03 -2.545696e-03 -1.949690e-03 -1.487106e-03 8.863953e-04 4.801258e-04 -1.222605e-04 2.234713e-03
<VARIANCE> 39
 1.012869e+01 2.141690e+01 2.341407e+01 2.706876e+01 4.237145e+01 3.532625e+01 3.064263e+01 3.027285e+01 2.750200e+01 2.645997e+01 2.678664e+01 2.405209e+01 4.546257e+00 6.449470e-01 1.130323e+00 1.321853e+00 1.949011e+00 2.855296e+00 2.970426e+00 2.391777e+00 2.565411e+00 2.366409e+00 2.034789e+00 2.004847e+00 1.831764e+00 1.029388e-01 1.027458e-01 1.692113e-01 2.211688e-01 3.338500e-01 4.735142e-01 5.510558e-01 4.484864e-01 4.983798e-01 4.592806e-01 3.925948e-01 3.823144e-01 3.539521e-01 1.111452e-02
<GCONST> 9.969341e+01
<STATE> 3
<MEAN> 39
 -5.793578e+00 -5.138272e+00 -3.435065e+00 -1.172799e+01 -3.902664e+00 -7.056041e+00 -1.915047e+00 -8.141885e+00 -2.211385e+00 -5.656263e+00 1.246096e-02 -5.126268e+00 1.623565e+01 1.985813e-02 7.754408e-02 8.887546e-02 -4.897299e-02 -7.576094e-02 -7.365335e-02 -5.546499e-02 -3.880901e-03 9.400022e-03 1.121540e-02 1.309472e-02 -9.761753e-03 3.206406e-02 -5.305026e-05 5.415518e-03 2.455200e-03 -1.402776e-03 1.446348e-03 -2.134850e-03 -1.961160e-03 -2.618328e-03 -9.068936e-04 2.746959e-04 -4.996068e-04 2.453688e-04 1.871555e-03
<VARIANCE> 39
 1.037527e+01 2.246297e+01 2.453652e+01 2.938383e+01 4.570470e+01 3.684152e+01 3.204493e+01 3.079163e+01 2.763078e+01 2.695366e+01 2.738524e+01 2.462835e+01 4.486693e+00 6.854063e-01 1.219499e+00 1.390036e+00 2.102456e+00 3.105878e+00 3.189566e+00 2.545317e+00 2.589729e+00 2.363756e+00 2.050323e+00 2.015873e+00 1.830864e+00 1.063912e-01 1.086041e-01 1.804883e-01 2.308719e-01 3.539961e-01 5.065583e-01 5.899565e-01 4.762348e-01 5.010428e-01 4.576327e-01 3.940664e-01 3.840601e-01 3.518455e-01 1.134610e-02
<GCONST> 1.011054e+02
<STATE> 4
<MEAN> 39
 -5.659827e+00 -4.586857e+00 -2.904814e+00 -1.204832e+01 -4.347100e+00 -7.551643e+00 -2.234565e+00 -8.248099e+00 -2.157528e+00 -5.666256e+00 -1.150058e-02 -5.284548e+00 1.648608e+01 1.437293e-02 1.030417e-01 8.255085e-02 -5.749046e-02 -5.134216e-02 -7.606777e-02 -5.901018e-02 -1.853887e-02 7.640217e-03 4.510657e-03 1.180957e-02 -1.235319e-02 3.796837e-02 -1.723998e-03 1.647981e-03 -3.864690e-03 1.342823e-03 6.933155e-03 2.369198e-03 9.918042e-04 -2.499407e-03 -1.434168e-03 -1.444077e-03 -3.904173e-04 -7.215784e-05 -3.773556e-04
<VARIANCE> 39
 1.077684e+01 2.553207e+01 2.610509e+01 3.296003e+01 5.027404e+01 3.891418e+01 3.414867e+01 3.190421e+01 2.801565e+01 2.793936e+01 2.886147e+01 2.630243e+01 4.434438e+00 7.375510e-01 1.375131e+00 1.476121e+00 2.331196e+00 3.438246e+00 3.505220e+00 2.748530e+00 2.621178e+00 2.361876e+00 2.072045e+00 2.020918e+00 1.820712e+00 1.114921e-01 1.156285e-01 1.951503e-01 2.415576e-01 3.801801e-01 5.507652e-01 6.470370e-01 5.126969e-01 5.009614e-01 4.544935e-01 3.954675e-01 3.834256e-01 3.439786e-01 1.170581e-02
<GCONST> 1.030596e+02
<TRANSP> 5
 0.000000e+00 1.000000e+00 0.000000e+00 0.000000e+00 0.000000e+00
 0.000000e+00 7.390196e-01 2.609804e-01 0.000000e+00 0.000000e+00
 0.000000e+00 0.000000e+00 7.390201e-01 2.609798e-01 0.000000e+00
 0.000000e+00 0.000000e+00 0.000000e+00 8.628415e-01 1.371585e-01
 0.000000e+00 0.000000e+00 0.000000e+00 0.000000e+00 0.000000e+00
<ENDHMM>
~h "uw"
<BEGINHMM>
<NUMSTATES> 5
<STATE> 2
<MEAN> 39
 -5.677327e+00 -3.472285e+00 -3.470205e+00 -1.123764e+01 -3.448946e+00 -7.409965e+00 -2.886223e+00 -8.928748e+00 -2.883435e+00 -5.426717e+00 2.058948e-01 -5.370658e+00 1.649503e+01 3.271209e-02 -2.500230e-02 -1.153403e-02 1.885217e-02 2.329995e-02 -9.614049e-04 8.491242e-03 -1.874166e-02 -1.619597e-02 -2.706831e-02 -1.043962e-02 -6.474668e-03 2.138853e-03 -1.613205e-03 -5.813104e-03 -5.310111e-03 -6.759996e-04 2.527310e-03 2.554406e-03 5.415312e-03 1.523225e-03 1.048513e-03 -8.656105e-04 -1.192675e-03 -8.911185e-05 -1.557459e-03
<VARIANCE> 39
 1.447854e+01 1.962809e+01 2.396079e+01 2.458579e+01 3.422849e+01 3.232938e+01 3.262373e+01 2.717016e+01 2.887006e+01 3.047458e+01 3.399335e+01 3.082202e+01 3.887826e+00 8.784965e-01 9.570306e-01 1.403339e+00 1.593344e+00 2.032716e+00 2.389128e+00 2.252531e+00 2.214718e+00 2.283777e+00 2.210913e+00 2.490170e+00 2.007526e+00 1.394336e-01 1.338895e-01 1.512317e-01 2.224109e-01 2.654814e-01 3.501625e-01 4.233630e-01 4.007951e-01 4.196169e-01 4.256670e-01 4.129750e-01 4.635554e-01 3.530290e-01 1.623139e-02
<GCONST> 9.958054e+01
<STATE> 3
<MEAN> 39
 -5.562903e+00 -3.644999e+00 -3.583200e+00 -1.113342e+01 -3.290996e+00 -7.360182e+00 -2.787863e+00 -8.990160e+00 -2.948178e+00 -5.537453e+00 1.635329e-01 -5.383760e+00 1.647098e+01 1.989267e-02 -5.125334e-02 -3.541654e-02 1.790841e-02 3.545247e-02 1.464250e-02 3.228937e-02 -1.021534e-02 -1.091766e-02 -2.744345e-02 -1.354686e-02 -3.043083e-03 -6.604712e-03 -2.094779e-03 -4.750386e-03 -3.646623e-03 -6.538284e-04 1.495065e-03 2.257527e-03 4.338235e-03 2.891184e-03 1.910281e-03 3.630763e-04 -1.034234e-03 2.767583e-04 -1.330155e-03
<VARIANCE> 39
 1.419743e+01 2.007990e+01 2.363199e+01 2.506813e+01 3.343531e+01 3.226593e+01 3.310441e+01 2.754747e+01 2.840240e+01 3.033077e+01 3.383797e+01 3.085155e+01 3.906507e+00 8.425946e-01 9.285469e-01 1.332489e+00 1.610461e+00 1.985633e+00 2.404776e+00 2.275772e+00 2.203727e+00 2.260169e+00 2.178811e+00 2.451324e+00 1.998558e+00 1.338112e-01 1.272889e-01 1.444163e-01 2.128726e-01 2.672777e-01 3.422225e-01 4.277446e-01 4.050052e-01 4.168909e-01 4.234079e-01 4.092495e-01 4.577049e-01 3.533795e-01 1.539327e-02
<GCONST> 9.913979e+01
<STATE> 4
<MEAN> 39
 -5.443595e+00 -4.017493e+00 -3.864629e+00 -1.102840e+01 -2.964499e+00 -7.223260e+00 -2.528686e+00 -8.936811e+00 -2.922490e+00 -5.672670e+00 1.184727e-01 -5.368840e+00 1.638194e+01 -5.524202e-03 -8.243299e-02 -6.025488e-02 2.048763e-02 5.127310e-02 4.497471e-02 5.758172e-02 8.531717e-03 -4.815618e-04 -2.097105e-02 -1.285998e-02 7.382541e-03 -2.070872e-02 -1.868798e-03 -1.475307e-03 -4.971607e-04 -1.213530e-03 -1.188263e-03 1.050106e-03 1.238833e-03 3.693015e-03 2.445986e-03 1.327455e-03 -4.094727e-04 1.617132e-04 -4.165162e-04
<VARIANCE> 39
 1.355073e+01 1.997991e+01 2.252031e+01 2.522839e+01 3.184282e+01 3.238438e+01 3.276472e+01 2.798564e+01 2.754391e+01 2.952982e+01 3.246870e+01 3.002441e+01 3.966913e+00 7.706382e-01 8.785431e-01 1.216105e+00 1.607863e+00 1.909988e+00 2.412772e+00 2.276229e+00 2.176334e+00 2.200726e+00 2.139863e+00 2.359722e+00 1.967453e+00 1.208097e-01 1.152083e-01 1.345263e-01 1.995182e-01 2.666140e-01 3.320101e-01 4.340295e-01 4.084310e-01 4.119323e-01 4.150977e-01 4.050526e-01 4.467537e-01 3.543896e-01 1.371516e-02
<GCONST> 9.798587e+01
<TRANSP> 5
 0.000000e+00 1.000000e+00 0.000000e+00 0.000000e+00 0.000000e+00
 0.000000e+00 7.472974e-01 2.527026e-01 0.000000e+00 0.000000e+00
 0.000000e+00 0.000000e+00 7.472972e-01 2.527028e-01 0.000000e+00
 0.000000e+00 0.000000e+00 0.000000e+00 8.731908e-01 1.268092e-01
 0.000000e+00 0.000000e+00 0.000000e+00 0.000000e+00 0.000000e+00
<ENDHMM>
~h "sil"
<BEGINHMM>
<NUMSTATES> 5
<STATE> 2
<MEAN> 39
 -6.982257e+00 -7.062640e+00 -5.812784e+00 -1.023598e+01 -1.057459e+00 -4.587871e+00 -4.578961e-01 -8.606401e+00 -2.584797e+00 -5.724312e+00 9.229332e-01 -4.184308e+00 1.462023e+01 -3.273301e-02 -1.184491e-02 7.084774e-03 2.713519e-03 4.846522e-03 -4.064875e-03 3.131274e-02 -1.284504e-02 -5.893427e-03 8.889065e-03 3.187110e-02 -1.331809e-02 -1.600269e-02 3.024862e-03 3.398402e-03 -2.118188e-03 -2.489024e-04 2.923418e-03 4.784255e-03 -4.116931e-03 -1.833008e-03 -2.317237e-03 1.915503e-03 -1.437302e-02 7.934608e-03 1.330219e-03
<VARIANCE> 39
 4.599322e+00 5.164344e+00 7.507535e+00 9.439602e+00 1.348847e+01 1.509598e+01 1.611634e+01 1.701121e+01 1.710903e+01 1.528616e+01 1.657306e+01 1.399115e+01 1.418654e+00 1.852314e-01 3.943991e-01 6.719914e-01 9.938997e-01 1.257646e+00 1.669980e+00 1.594417e+00 1.852023e+00 1.836809e+00 1.575064e+00 1.692043e+00 1.548738e+00 1.290726e-02 3.244470e-02 6.900848e-02 1.203421e-01 1.803556e-01 2.321246e-01 3.115219e-01 2.918561e-01 3.443757e-01 3.380698e-01 2.832401e-01 3.102119e-01 2.831261e-01 1.759448e-03
<GCONST> 7.190122e+01
<STATE> 3
<MEAN> 39
 -7.090971e+00 -7.117221e+00 -5.827036e+00 -1.022927e+01 -1.016737e+00 -4.545375e+00 -3.517219e-01 -8.631313e+00 -2.597988e+00 -5.700745e+00 9.607192e-01 -4.169100e+00 1.456754e+01 -1.459297e-02 -4.763529e-03 -2.541149e-03 1.201815e-03 7.351652e-03 6.435892e-03 2.007591e-02 -5.579234e-03 -3.927083e-04 3.776155e-03 -2.263866e-03 9.289703e-04 -6.311562e-03 4.186888e-03 2.527892e-03 -1.174071e-03 -5.668128e-04 1.237709e-04 3.037218e-03 -3.013987e-03 3.643763e-03 1.667284e-03 -2.952791e-03 -6.990822e-03 1.387427e-03 1.967503e-03
<VARIANCE> 39
 4.272892e+00 4.674337e+00 7.161384e+00 9.143861e+00 1.306671e+01 1.476816e+01 1.572336e+01 1.700790e+01 1.703930e+01 1.485247e+01 1.615302e+01 1.381560e+01 1.297377e+00 1.878234e-01 3.796629e-01 6.452667e-01 9.634576e-01 1.216102e+00 1.640340e+00 1.592042e+00 1.809261e+00 1.787905e+00 1.513176e+00 1.644572e+00 1.487403e+00 1.274020e-02 3.647912e-02 7.527009e-02 1.295573e-01 1.951333e-01 2.539053e-01 3.450441e-01 3.227460e-01 3.764158e-01 3.688076e-01 3.060109e-01 3.363253e-01 3.073665e-01 1.967876e-03
<GCONST> 7.226588e+01
<STATE> 4
<MEAN> 39
 -6.996522e+00 -6.996519e+00 -5.915372e+00 -1.027646e+01 -1.107241e+00 -4.669784e+00 -3.479836e-01 -8.569778e+00 -2.589671e+00 -5.726938e+00 8.078452e-01 -4.288725e+00 1.475214e+01 1.326803e-02 2.352322e-02 -6.621528e-03 -7.094708e-03 -1.114879e-02 -1.098501e-02 -5.546813e-03 9.263662e-03 3.434815e-03 -7.307273e-03 -2.643460e-02 -2.668660e-02 1.861514e-02 3.311707e-03 6.607627e-03 1.206175e-03 -1.211120e-03 -3.125115e-03 -1.887158e-03 -6.540593e-03 3.657787e-03 1.494254e-04 -5.377523e-03 -4.982032e-03 -7.480676e-03 2.847104e-03
<VARIANCE> 39
 5.513099e+00 6.828700e+00 8.678958e+00 1.083972e+01 1.409652e+01 1.592848e+01 1.668814e+01 1.780805e+01 1.805198e+01 1.588541e+01 1.742343e+01 1.484619e+01 1.961615e+00 2.571651e-01 4.642833e-01 7.130145e-01 1.036343e+00 1.280420e+00 1.677000e+00 1.660075e+00 1.869737e+00 1.874483e+00 1.605402e+00 1.735213e+00 1.533859e+00 2.841711e-02 4.544299e-02 8.343963e-02 1.337265e-01 1.960366e-01 2.505561e-01 3.314166e-01 3.187488e-01 3.612712e-01 3.608366e-01 3.029994e-01 3.324715e-01 2.971221e-01 3.672024e-03
<GCONST> 7.683339e+01
<TRANSP> 5
 0.000000e+00 1.000000e+00 0.000000e+00 0.000000e+00 0.000000e+00
 0.000000e+00 7.571700e-01 2.428301e-01 0.000000e+00 0.000000e+00
 0.000000e+00 0.000000e+00 7.571701e-01 2.428299e-01 0.000000e+00
 0.000000e+00 0.000000e+00 0.000000e+00 8.857077e-01 1.142923e-01
 0.000000e+00 0.000000e+00 0.000000e+00 0.000000e+00 0.000000e+00
<ENDHMM>
