~o
<STREAMINFO> 1 39
<VECSIZE> 39<NULLD><MFCC_E_D_A><DIAGC>
~h "f"
<BEGINHMM>
<NUMSTATES> 5
<STATE> 2
<MEAN> 39
 -8.006883e+00 -6.719061e+00 -5.701388e+00 -9.989881e+00 -1.140862e+00 -4.510564e+00 -3.405165e-01 -8.727202e+00 -2.426198e+00 -5.760449e+00 1.132911e+00 -4.175966e+00 1.483264e+01 -1.719352e-01 -1.492567e-01 -1.092783e-01 -6.754527e-02 -7.270864e-02 3.359319e-02 6.487926e-02 3.397185e-02 1.032910e-02 3.245478e-02 1.202159e-01 1.067689e-01 -4.801764e-02 2.174844e-01 5.446335e-02 -1.967268e-02 -7.197214e-03 -2.010633e-02 -1.382186e-01 -9.961145e-02 1.936183e-02 -2.083864e-02 -3.303752e-02 -1.001590e-01 -7.968449e-02 1.027705e-01
<VARIANCE> 39
 4.388204e+00 3.810083e+00 6.612295e+00 8.484941e+00 1.233347e+01 1.386285e+01 1.415124e+01 1.621348e+01 1.549693e+01 1.414007e+01 1.540451e+01 1.239128e+01 9.159694e-01 5.224592e-01 4.764866e-01 8.276693e-01 9.994485e-01 1.261326e+00 1.721195e+00 1.555264e+00 1.946342e+00 1.798448e+00 1.576645e+00 1.839061e+00 1.468572e+00 5.931517e-02 1.124283e-01 1.305737e-01 2.147850e-01 2.254467e-01 2.850870e-01 3.905945e-01 3.196549e-01 4.416179e-01 4.211947e-01 3.399666e-01 3.831681e-01 2.979845e-01 1.298490e-02
<GCONST> 7.930569e+01
<STATE> 3
<MEAN> 39
 -7.280118e+00 -6.768734e+00 -5.546886e+00 -9.889466e+00 -1.360265e+00 -5.030494e+00 -7.689193e-01 -8.177361e+00 -2.288416e+00 -5.723416e+00 7.855313e-01 -4.105986e+00 1.537099e+01 1.893225e+00 -5.773644e-02 -1.124654e+00 -4.345424e-01 -1.098884e-02 -1.007614e+00 -4.586720e-01 4.818940e-01 -7.183801e-02 -2.807705e-01 -8.416319e-01 -5.575733e-01 8.876145e-01 4.295451e-01 -1.485378e-01 -5.409644e-01 -1.657459e-01 5.399677e-02 -1.934654e-01 -5.287780e-02 1.242524e-01 -1.460816e-01 -3.716118e-02 -1.762787e-01 -1.959752e-01 2.230234e-01
<VARIANCE> 39
 6.235528e+00 5.005892e+00 6.245853e+00 8.954587e+00 1.048000e+01 1.349270e+01 1.549508e+01 1.822288e+01 1.702054e+01 1.416290e+01 1.481643e+01 1.275575e+01 1.700464e+00 9.196168e-01 1.758461e+00 1.427523e+00 1.998293e+00 1.707797e+00 2.008227e+00 2.315617e+00 4.096826e+00 2.936593e+00 2.503370e+00 2.370419e+00 2.058282e+00 1.077885e-01 1.684430e-01 2.651488e-01 1.948487e-01 4.171116e-01 3.320243e-01 3.843327e-01 4.030775e-01 5.492369e-01 4.695944e-01 4.925209e-01 4.605771e-01 4.792207e-01 1.811291e-02
<GCONST> 9.118681e+01
<STATE> 4
<MEAN> 39
 -1.511680e+00 -1.032504e+01 -1.138261e+01 -9.679949e+00 -9.760392e-02 -9.267214e+00 -1.087949e+00 -4.520803e+00 -4.510864e+00 -8.050097e+00 -2.836495e+00 -5.823394e+00 1.864699e+01 8.482576e-01 -9.138787e-01 -1.332950e+00 2.207497e-01 4.138077e-01 -6.024788e-01 8.988466e-02 2.566817e-01 -6.997548e-01 -4.892584e-02 -3.510393e-01 -2.588671e-01 7.479626e-01 -5.338445e-01 1.407719e-01 4.005692e-01 8.700381e-02 -6.630483e-02 3.861676e-01 1.275590e-01 -3.778593e-01 7.042474e-02 3.081639e-01 4.099005e-01 1.695310e-01 -2.212376e-01
<VARIANCE> 39
 7.754890e+00 2.527370e+01 1.791069e+01 1.894010e+01 1.967720e+01 1.679189e+01 2.991939e+01 5.631303e+01 3.297031e+01 2.881923e+01 2.696848e+01 2.217452e+01 1.481943e+00 2.217273e+00 2.234936e+00 2.057944e+00 3.258497e+00 2.032744e+00 2.076793e+00 2.473914e+00 3.455239e+00 3.522367e+00 3.659419e+00 3.406047e+00 3.205389e+00 1.977719e-01 9.802207e-02 1.797809e-01 2.557265e-01 2.003539e-01 2.573179e-01 2.843602e-01 3.786101e-01 6.939685e-01 6.259777e-01 4.476843e-01 3.585005e-01 3.406966e-01 1.305622e-02
<GCONST> 1.013963e+02
<TRANSP> 5
 0.000000e+00 1.000000e+00 0.000000e+00 0.000000e+00 0.000000e+00
 0.000000e+00 8.681399e-01 1.318600e-01 0.000000e+00 0.000000e+00
 0.000000e+00 0.000000e+00 5.520903e-01 4.479097e-01 0.000000e+00
 0.000000e+00 0.000000e+00 0.000000e+00 5.506464e-01 4.493536e-01
 0.000000e+00 0.000000e+00 0.000000e+00 0.000000e+00 0.000000e+00
<ENDHMM>
~h "k"
<BEGINHMM>
<NUMSTATES> 5
<STATE> 2
<MEAN> 39
 -6.070383e+00 -4.527024e+00 -2.251488e+00 -1.261972e+01 -1.800312e+00 -3.897346e+00 -3.784001e+00 -7.981552e+00 -1.625471e+00 -6.177783e+00 1.498569e+00 -4.418777e+00 1.562064e+01 -1.327257e-01 -1.501732e+00 -1.840516e+00 2.662987e+00 1.308544e+00 8.579366e-01 1.784986e+00 -8.474562e-01 -4.712862e-01 -2.925051e-01 3.088100e-01 4.605299e-01 -8.298676e-01 -2.391387e-01 6.846629e-02 -7.780438e-02 -4.881261e-01 -4.691960e-01 -3.242773e-01 2.511733e-01 1.174014e-01 9.384178e-02 2.348588e-01 -3.240100e-01 -1.939585e-01 1.229863e-01
<VARIANCE> 39
 4.986554e+00 8.849358e+00 1.499539e+01 2.121743e+01 2.568320e+01 2.194411e+01 3.370187e+01 2.353621e+01 2.142509e+01 2.209484e+01 2.050827e+01 1.696012e+01 1.642533e+00 6.446428e-01 1.304688e+00 1.949404e+00 2.434375e+00 5.404972e+00 4.153552e+00 4.796439e+00 3.089833e+00 3.132977e+00 3.344120e+00 3.349183e+00 2.691012e+00 9.341994e-02 8.324658e-02 1.864561e-01 3.725560e-01 5.447484e-01 5.584881e-01 4.497533e-01 8.178494e-01 4.955827e-01 5.030810e-01 5.156363e-01 5.639257e-01 5.260924e-01 2.084419e-02
<GCONST> 1.016336e+02
<STATE> 3
<MEAN> 39
 -7.883823e+00 -6.412099e+00 -5.396489e+00 -1.089616e+01 -2.070791e+00 -3.757503e+00 -5.160124e-01 -8.835649e+00 -1.997326e+00 -5.945649e+00 4.676954e-01 -4.057645e+00 1.446200e+01 -3.760881e-01 -4.555469e-01 -6.341289e-01 6.130294e-01 -1.699906e-01 1.672581e-01 5.359830e-01 -1.993887e-01 -1.118568e-01 1.808630e-01 -5.782728e-02 1.067448e-01 -2.218501e-01 -5.770182e-03 2.799602e-01 3.682541e-01 -4.552405e-01 -2.944887e-01 -1.447623e-01 -3.629315e-01 1.702141e-01 9.654196e-02 7.979804e-02 -5.093525e-02 -1.271868e-01 1.692775e-01
<VARIANCE> 39
 8.890577e+00 8.510781e+00 1.073166e+01 1.608583e+01 1.962132e+01 1.485248e+01 1.660918e+01 1.814732e+01 1.771363e+01 1.961862e+01 1.847260e+01 1.473110e+01 1.286476e+00 7.118297e-01 1.010688e+00 1.830597e+00 2.155229e+00 2.629658e+00 2.034218e+00 2.317869e+00 2.588343e+00 2.329049e+00 2.366155e+00 2.058776e+00 1.775585e+00 1.073965e-01 1.316995e-01 1.859592e-01 4.046609e-01 4.869088e-01 6.534508e-01 4.938586e-01 5.372689e-01 6.258261e-01 4.921359e-01 4.670244e-01 4.564724e-01 3.953921e-01 2.538200e-02
<GCONST> 9.511956e+01
<STATE> 4
<MEAN> 39
 -8.191769e+00 -6.795455e+00 -5.784668e+00 -9.279769e+00 -3.054533e+00 -3.339671e+00 -6.414060e-01 -8.625699e+00 -2.586656e+00 -5.021908e+00 7.185585e-01 -4.411051e+00 1.458061e+01 -1.512153e-01 4.585107e-02 -6.452655e-02 1.752849e-01 -1.089713e-01 1.364992e-01 -4.815400e-02 -1.769775e-02 -3.622142e-02 7.441458e-02 -3.099269e-02 -6.078827e-02 -2.735328e-03 6.684625e-03 6.913690e-02 1.459656e-02 -4.976435e-02 4.877738e-02 7.992789e-03 -4.234935e-02 3.963233e-02 7.603318e-03 -8.479152e-03 1.021334e-02 7.459204e-03 1.705820e-02
<VARIANCE> 39
 6.244914e+00 8.447260e+00 1.038625e+01 1.238748e+01 1.898859e+01 1.674157e+01 1.692883e+01 1.669310e+01 1.656277e+01 1.676237e+01 1.398780e+01 1.393182e+01 1.164987e+00 4.122696e-01 8.987845e-01 1.077860e+00 1.266601e+00 1.778570e+00 1.796336e+00 1.875179e+00 1.870807e+00 1.857395e+00 1.740435e+00 1.682795e+00 1.466071e+00 1.939481e-02 6.961547e-02 1.856905e-01 2.355132e-01 2.797946e-01 3.504817e-01 3.752364e-01 4.167927e-01 3.864964e-01 3.886709e-01 3.678485e-01 3.522063e-01 3.048211e-01 6.057306e-03
<GCONST> 8.262012e+01
<TRANSP> 5
 0.000000e+00 1.000000e+00 0.000000e+00 0.000000e+00 0.000000e+00
 0.000000e+00 4.786328e-01 5.213673e-01 0.000000e+00 0.000000e+00
 0.000000e+00 0.000000e+00 5.658377e-01 4.341623e-01 0.000000e+00
 0.000000e+00 0.000000e+00 0.000000e+00 8.562118e-01 1.437882e-01
 0.000000e+00 0.000000e+00 0.000000e+00 0.000000e+00 0.000000e+00
<ENDHMM>
~h "n"
<BEGINHMM>
<NUMSTATES> 5
<STATE> 2
<MEAN> 39
 -4.492646e+00 -2.574631e+00 -1.484080e+00 -1.150777e+01 -2.107445e+00 -6.723983e+00 -3.813315e+00 -1.065458e+01 -3.931334e+00 -9.081060e+00 -3.291392e+00 -7.912699e+00 1.756276e+01 4.678238e-01 8.618654e-01 3.384195e-01 7.700742e-02 5.950161e-01 -7.236836e-01 -5.281292e-01 -6.163664e-02 -5.393772e-01 4.006192e-02 -3.853244e-02 -1.648293e-01 -1.040826e-02 -1.029408e-03 -2.073840e-01 -7.490737e-02 2.388499e-01 -8.696383e-02 1.923066e-02 2.057948e-01 -1.663539e-02 -8.434956e-02 9.605768e-02 5.239912e-02 9.302290e-03 -6.323438e-03
<VARIANCE> 39
 1.013134e+01 1.230854e+01 1.174784e+01 1.842862e+01 2.771486e+01 3.517649e+01 2.747509e+01 3.124837e+01 4.505692e+01 4.399191e+01 3.758740e+01 4.036802e+01 1.491396e+00 5.629392e-01 1.146656e+00 1.151650e+00 1.681657e+00 2.312786e+00 2.549227e+00 2.299419e+00 2.466135e+00 2.663077e+00 2.590281e+00 2.193557e+00 1.927672e+00 7.553936e-02 1.007517e-01 1.998455e-01 2.262010e-01 2.949498e-01 4.188308e-01 5.061921e-01 4.232402e-01 4.212300e-01 5.256288e-01 5.002119e-01 4.112264e-01 3.531999e-01 6.512822e-03
<GCONST> 9.717014e+01
<STATE> 3
<MEAN> 39
 -2.837514e+00 -1.348562e+00 -4.679730e-01 -9.474897e+00 -1.342077e+00 -8.219089e+00 -3.496311e+00 -1.107675e+01 -5.615109e+00 -7.470130e+00 -2.538106e+00 -7.651986e+00 1.732853e+01 -2.146386e-01 -4.565765e-01 -3.271241e-01 3.365694e-01 -1.395503e-01 5.632849e-01 4.911832e-01 -4.647607e-02 1.267355e-01 8.923641e-02 1.509670e-01 1.729534e-01 -9.415032e-02 -2.045000e-01 -3.228471e-01 -2.404472e-01 6.872145e-03 -8.492774e-02 2.520300e-01 2.190731e-01 1.144531e-01 1.603057e-01 -7.676991e-03 5.509368e-02 7.613304e-02 -3.935362e-02
<VARIANCE> 39
 4.801599e+00 7.256390e+00 9.827281e+00 1.332292e+01 2.148456e+01 2.446851e+01 2.291422e+01 2.653586e+01 3.876420e+01 3.452607e+01 3.227594e+01 3.401505e+01 1.047587e+00 5.463340e-01 1.147044e+00 1.135550e+00 1.301296e+00 2.201174e+00 2.295717e+00 2.450920e+00 2.165973e+00 2.668181e+00 2.040285e+00 2.207357e+00 1.792481e+00 9.663097e-02 7.563466e-02 1.414784e-01 1.923881e-01 2.807575e-01 3.796046e-01 4.012922e-01 4.331116e-01 3.995475e-01 4.458664e-01 3.979799e-01 4.001678e-01 3.137163e-01 7.108057e-03
<GCONST> 9.112746e+01
<STATE> 4
<MEAN> 39
 -4.627573e+00 -4.341283e+00 -2.590471e+00 -8.299804e+00 -2.754396e-01 -4.168229e+00 -5.598555e-01 -9.608456e+00 -3.324697e+00 -6.602714e+00 -5.031284e-01 -5.301017e+00 1.598860e+01 -4.104024e-01 -6.222391e-01 -4.988390e-01 9.548934e-02 1.942483e-02 3.350368e-01 3.595323e-01 2.150110e-01 1.930833e-01 1.003129e-01 1.685272e-01 1.524730e-01 -1.499338e-01 -5.900154e-03 1.475964e-03 -2.072254e-02 -6.255038e-02 -5.077247e-02 -1.306631e-01 -6.831114e-02 1.802690e-02 -2.005393e-02 7.682727e-03 1.222953e-02 -8.582410e-03 1.455727e-02
<VARIANCE> 39
 6.381611e+00 1.009847e+01 9.893177e+00 1.131808e+01 2.007298e+01 2.097039e+01 2.102763e+01 2.191639e+01 3.011459e+01 2.139247e+01 2.405884e+01 2.105384e+01 1.967875e+00 4.327576e-01 8.241972e-01 9.327202e-01 1.333480e+00 1.293883e+00 1.782330e+00 1.746541e+00 1.950496e+00 2.298967e+00 1.880760e+00 1.862844e+00 1.707462e+00 7.420693e-02 6.354546e-02 1.029212e-01 1.397859e-01 2.252025e-01 2.811637e-01 3.372109e-01 3.534382e-01 3.582397e-01 4.054613e-01 3.185785e-01 3.302487e-01 2.897938e-01 5.971562e-03
<GCONST> 8.495377e+01
<TRANSP> 5
 0.000000e+00 1.000000e+00 0.000000e+00 0.000000e+00 0.000000e+00
 0.000000e+00 7.154231e-01 2.845769e-01 0.000000e+00 0.000000e+00
 0.000000e+00 0.000000e+00 7.272903e-01 2.727097e-01 0.000000e+00
 0.000000e+00 0.000000e+00 0.000000e+00 7.603669e-01 2.396331e-01
 0.000000e+00 0.000000e+00 0.000000e+00 0.000000e+00 0.000000e+00
<ENDHMM>
~h "r"
<BEGINHMM>
<NUMSTATES> 5
<STATE> 2
<MEAN> 39
 -1.802491e+00 -8.445629e+00 1.219820e+00 -8.939634e+00 -1.473177e+01 -1.050617e+01 -3.274348e-01 -8.338068e+00 -2.188793e-01 -5.052975e+00 3.465196e-02 -5.451876e+00 1.846621e+01 -1.600673e-01 -2.239234e-01 4.034316e-01 -6.895507e-01 -4.590837e-01 9.379303e-01 -1.182765e-01 -7.648361e-02 4.933735e-01 -3.193534e-02 -2.556816e-04 -8.344535e-02 1.185801e-01 -2.423489e-01 3.303900e-01 -1.019634e-01 -4.181389e-01 6.074890e-01 2.142287e-01 -3.761300e-01 1.262471e-01 -4.543240e-02 -1.086426e-01 9.350587e-03 1.289308e-02 -4.982279e-02
<VARIANCE> 39
 5.421555e+00 1.830499e+01 1.980932e+01 3.282754e+01 4.199425e+01 5.565165e+01 3.138723e+01 3.562444e+01 2.972999e+01 3.128541e+01 3.854476e+01 4.036995e+01 1.320902e+00 6.253816e-01 1.249098e+00 1.572061e+00 4.041375e+00 3.663277e+00 4.821508e+00 3.829679e+00 3.125535e+00 2.264812e+00 1.978396e+00 1.826909e+00 1.924903e+00 3.064328e-02 5.680320e-02 1.323050e-01 2.850364e-01 4.000727e-01 7.144594e-01 8.417149e-01 6.193472e-01 5.477616e-01 4.357830e-01 3.900594e-01 3.939240e-01 4.070570e-01 7.274057e-03
<GCONST> 1.010420e+02
<STATE> 3
<MEAN> 39
 -3.464291e+00 -7.292267e+00 3.499659e+00 -1.582036e+01 -1.397265e+01 -4.399851e+00 -4.665838e+00 -7.630332e+00 2.134686e+00 -5.889405e+00 1.943948e-01 -6.100617e+00 1.872165e+01 -7.544641e-01 1.236185e+00 -3.233273e-01 -1.775438e+00 2.409115e+00 2.446798e-01 -1.556248e+00 1.123799e+00 -4.499735e-01 -4.490949e-01 1.139655e-01 -1.061748e-01 -2.023855e-02 -2.351683e-03 2.939945e-01 -4.814556e-01 4.147855e-01 5.899966e-01 -8.219858e-01 2.639406e-01 1.497143e-01 -4.783252e-01 8.528500e-02 -1.501640e-02 7.459545e-02 -4.651076e-02
<VARIANCE> 39
 7.112220e+00 2.710623e+01 2.609449e+01 4.343411e+01 4.654207e+01 4.346938e+01 5.522576e+01 5.616793e+01 2.730688e+01 3.173774e+01 3.936943e+01 3.483017e+01 1.227609e+00 4.727768e-01 1.893007e+00 1.277564e+00 3.005764e+00 2.860619e+00 5.049300e+00 3.924321e+00 2.668564e+00 2.713641e+00 2.187480e+00 1.572351e+00 1.653029e+00 1.649272e-02 4.311650e-02 9.369531e-02 1.910592e-01 4.677739e-01 4.973983e-01 6.703634e-01 7.570825e-01 6.303862e-01 3.976831e-01 3.785137e-01 3.239154e-01 2.778268e-01 2.014527e-03
<GCONST> 9.842856e+01
<STATE> 4
<MEAN> 39
 -4.382782e+00 -5.036484e+00 1.454946e-01 -1.780203e+01 -6.507773e+00 -6.615745e+00 -3.625278e+00 -4.409300e+00 -6.282785e-01 -5.004079e+00 -1.120244e+00 -6.817639e+00 1.835340e+01 -3.595937e-01 9.520860e-01 -9.453126e-01 9.533688e-03 1.704364e+00 -9.826847e-01 6.144116e-02 2.130383e-01 -6.871949e-01 -3.014096e-02 -2.265808e-02 1.438726e-01 -7.495310e-02 1.013498e-01 -1.526593e-02 -1.145794e-01 4.100267e-01 -2.550510e-01 -1.998094e-01 2.985519e-01 -2.698467e-01 3.656309e-02 4.111843e-02 -1.948667e-02 2.292074e-02 -1.799537e-02
<VARIANCE> 39
 1.121941e+01 4.354715e+01 2.137405e+01 4.230126e+01 3.938622e+01 4.325282e+01 5.537785e+01 3.967711e+01 3.333140e+01 3.481597e+01 3.392028e+01 3.366061e+01 1.216410e+00 3.148708e-01 1.321845e+00 8.474482e-01 1.187489e+00 2.411041e+00 3.326758e+00 2.519335e+00 2.319983e+00 2.218454e+00 2.477155e+00 1.529318e+00 1.415970e+00 1.601685e-02 5.317442e-02 1.069818e-01 1.203125e-01 3.098890e-01 3.266388e-01 3.849020e-01 4.666205e-01 4.300601e-01 3.652235e-01 3.469788e-01 2.828555e-01 2.741877e-01 1.825038e-03
<GCONST> 9.235688e+01
<TRANSP> 5
 0.000000e+00 1.000000e+00 0.000000e+00 0.000000e+00 0.000000e+00
 0.000000e+00 6.034756e-01 3.965244e-01 0.000000e+00 0.000000e+00
 0.000000e+00 0.000000e+00 4.811639e-01 5.188361e-01 0.000000e+00
 0.000000e+00 0.000000e+00 0.000000e+00 4.945604e-01 5.054396e-01
 0.000000e+00 0.000000e+00 0.000000e+00 0.000000e+00 0.000000e+00
<ENDHMM>
~h "s"
<BEGINHMM>
<NUMSTATES> 5
<STATE> 2
<MEAN> 39
 -8.727397e+00 -5.035742e+00 -6.509988e+00 -8.848939e+00 -2.082491e+00 -3.024281e+00 -8.957785e-01 -8.029817e+00 -2.788975e+00 -4.874213e+00 7.232058e-01 -4.362238e+00 1.468384e+01 -6.001281e-01 -1.815933e-01 -7.263321e-01 1.047038e-01 -6.719054e-02 4.709930e-01 2.033813e-02 1.870922e-01 1.756509e-02 1.237277e-01 8.018370e-02 3.003632e-01 -1.598741e-01 1.763363e-01 5.935173e-02 1.026477e-01 -4.360342e-02 -8.768657e-02 -2.180519e-01 -1.029035e-01 -6.549506e-02 -5.997386e-02 -6.949628e-02 -4.725765e-02 -3.915081e-02 6.955177e-02
<VARIANCE> 39
 9.419171e+00 1.116517e+01 1.380798e+01 1.205365e+01 1.671436e+01 1.818777e+01 1.822676e+01 1.776195e+01 2.003469e+01 1.693498e+01 1.713345e+01 1.415714e+01 1.150035e+00 8.832164e-01 9.672977e-01 1.412723e+00 1.311775e+00 1.819597e+00 2.566503e+00 1.996109e+00 2.008327e+00 2.656460e+00 2.144502e+00 2.092133e+00 1.758208e+00 6.661033e-02 1.327316e-01 1.934788e-01 2.745399e-01 2.492616e-01 3.530336e-01 4.806697e-01 4.049572e-01 4.501302e-01 5.249949e-01 3.928610e-01 3.847086e-01 3.382185e-01 9.782299e-03
<GCONST> 9.005979e+01
<STATE> 3
<MEAN> 39
 -8.834150e+00 -5.581800e+00 -7.608804e+00 -8.761965e+00 -2.293187e+00 -3.001309e+00 -1.389935e+00 -8.044776e+00 -3.251614e+00 -5.027977e+00 8.185337e-01 -3.584027e+00 1.449192e+01 -2.193131e-02 1.857145e-02 -9.314719e-02 4.390087e-02 -2.979957e-02 -5.445367e-02 -5.092940e-02 1.418502e-02 -3.799523e-02 -1.937903e-02 -2.078849e-02 5.673525e-02 -3.969811e-04 6.755869e-02 3.110760e-02 1.011701e-01 -4.041419e-02 6.743141e-03 -6.563897e-02 2.230239e-02 -1.726086e-02 1.870969e-02 -1.628375e-02 -3.558083e-02 -4.694625e-02 2.972081e-02
<VARIANCE> 39
 5.687651e+00 7.443157e+00 9.657780e+00 1.153903e+01 1.447774e+01 1.650833e+01 1.555595e+01 1.661749e+01 1.789651e+01 1.581841e+01 1.535193e+01 1.322891e+01 8.170659e-01 2.434075e-01 4.303608e-01 6.357015e-01 9.604046e-01 1.195914e+00 1.588111e+00 1.514808e+00 1.717310e+00 1.812717e+00 1.520791e+00 1.483339e+00 1.440237e+00 8.309507e-03 5.958835e-02 9.543914e-02 1.420953e-01 2.170984e-01 2.660235e-01 3.615663e-01 3.219805e-01 3.611860e-01 3.670857e-01 3.279727e-01 3.025579e-01 3.069502e-01 4.901853e-03
<GCONST> 7.480280e+01
<STATE> 4
<MEAN> 39
 -9.112936e+00 -5.366376e+00 -7.830883e+00 -8.367762e+00 -2.570186e+00 -3.268076e+00 -1.315286e+00 -7.837120e+00 -3.223563e+00 -5.348694e+00 4.351198e-01 -3.733052e+00 1.458184e+01 3.430941e-01 1.805627e-01 3.787816e-01 -2.481329e-01 6.677955e-04 -4.489718e-01 4.574513e-02 -1.114566e-01 3.405176e-02 -1.165374e-01 -1.968418e-01 -3.493631e-02 1.526337e-01 2.430187e-01 1.494801e-01 2.823514e-01 -3.305826e-01 -2.463234e-01 -2.722578e-01 5.024145e-02 -6.885357e-02 1.044623e-01 5.433201e-02 -1.342008e-01 -1.431112e-01 1.624852e-01
<VARIANCE> 39
 6.164033e+00 8.243598e+00 1.077603e+01 1.272563e+01 1.610964e+01 1.723459e+01 1.520666e+01 1.896035e+01 1.710936e+01 1.761928e+01 1.602876e+01 1.449544e+01 1.025530e+00 5.232495e-01 5.850782e-01 8.452061e-01 1.225988e+00 1.490465e+00 1.899108e+00 1.740329e+00 2.094489e+00 1.847836e+00 1.891278e+00 1.611674e+00 1.692685e+00 6.148957e-02 1.024411e-01 1.374729e-01 2.128785e-01 3.184929e-01 3.884062e-01 4.669899e-01 3.465447e-01 4.460318e-01 4.038120e-01 4.663911e-01 3.849332e-01 3.838099e-01 1.854545e-02
<GCONST> 8.555286e+01
<TRANSP> 5
 0.000000e+00 1.000000e+00 0.000000e+00 0.000000e+00 0.000000e+00
 0.000000e+00 5.702538e-01 4.297462e-01 0.000000e+00 0.000000e+00
 0.000000e+00 0.000000e+00 8.140455e-01 1.859545e-01 0.000000e+00
 0.000000e+00 0.000000e+00 0.000000e+00 4.332113e-01 5.667887e-01
 0.000000e+00 0.000000e+00 0.000000e+00 0.000000e+00 0.000000e+00
<ENDHMM>
~h "t"
<BEGINHMM>
<NUMSTATES> 5
<STATE> 2
<MEAN> 39
 -6.269871e+00 -3.538090e+00 -4.035187e+00 -9.876322e+00 -9.727308e-01 -7.395027e+00 -2.566294e+00 -1.048934e+01 -4.449009e+00 -6.533148e+00 4.831837e-01 -4.611322e+00 1.551411e+01 -4.850259e-01 -1.510733e+00 -4.992535e-01 4.840213e-01 1.958042e-01 1.727687e+00 7.156180e-01 4.636247e-01 2.658246e-01 -2.554527e-02 2.511417e-01 3.047920e-01 -4.808009e-01 -1.637127e-01 2.211966e-01 -1.735161e-01 -2.411501e-01 -1.294997e-01 -1.835775e-01 3.568072e-02 1.971820e-01 2.604303e-01 1.681957e-01 1.332652e-03 -2.223663e-02 7.017226e-02
<VARIANCE> 39
 6.991820e+00 1.434348e+01 1.242447e+01 1.299027e+01 1.664532e+01 2.581885e+01 2.315088e+01 2.238721e+01 2.447890e+01 2.106990e+01 2.133263e+01 1.857660e+01 1.692907e+00 1.057032e+00 2.927863e+00 1.605675e+00 1.866004e+00 2.015960e+00 3.475737e+00 3.386010e+00 2.745655e+00 3.729755e+00 2.661769e+00 2.916158e+00 2.414602e+00 1.415134e-01 1.259400e-01 3.212052e-01 2.492813e-01 3.073383e-01 2.925193e-01 6.068072e-01 5.209537e-01 4.879973e-01 5.131220e-01 4.103140e-01 5.116123e-01 3.702266e-01 1.537904e-02
<GCONST> 9.886097e+01
<STATE> 3
<MEAN> 39
 -9.375204e+00 -5.000547e+00 -6.537859e+00 -9.675862e+00 -1.441196e+00 -4.293579e+00 -1.110846e+00 -8.385056e+00 -2.508874e+00 -5.799039e+00 8.653408e-01 -3.657327e+00 1.477377e+01 -5.129529e-01 -8.985351e-02 -3.398066e-01 -6.666818e-02 -1.315599e-01 4.603177e-01 5.723459e-02 3.697655e-01 3.134780e-01 1.839321e-01 -5.606987e-03 1.533767e-01 -7.277561e-02 2.219603e-01 2.269414e-01 2.409819e-01 -1.510929e-01 -2.197174e-02 -2.976464e-01 -1.275588e-01 -1.117638e-01 -7.671463e-02 -1.423718e-02 -4.062780e-02 -8.214097e-02 9.793271e-02
<VARIANCE> 39
 1.119844e+01 1.052495e+01 1.107122e+01 1.224685e+01 1.493463e+01 1.808656e+01 1.988485e+01 1.817571e+01 2.002505e+01 1.998790e+01 1.765754e+01 1.566578e+01 9.930199e-01 1.075448e+00 1.911914e+00 1.422300e+00 1.619465e+00 1.683667e+00 2.415621e+00 2.374048e+00 2.158539e+00 2.647638e+00 2.266817e+00 2.350598e+00 1.747310e+00 8.942301e-02 2.230509e-01 4.058996e-01 2.766070e-01 3.640388e-01 4.034742e-01 5.732565e-01 5.252618e-01 4.611015e-01 5.395274e-01 4.987692e-01 5.034892e-01 3.795289e-01 1.874140e-02
<GCONST> 9.531113e+01
<STATE> 4
<MEAN> 39
 -8.967667e+00 -5.455905e+00 -6.253559e+00 -1.020114e+01 -1.362331e+00 -4.438786e+00 -1.255632e+00 -8.517833e+00 -2.474681e+00 -5.741147e+00 1.364573e+00 -3.863925e+00 1.489654e+01 1.224514e-01 8.340584e-02 2.389057e-01 -1.851768e-01 4.277981e-02 -1.782352e-02 -1.524335e-02 1.372347e-03 2.453327e-04 -3.677585e-02 1.101952e-02 -9.839516e-02 6.965157e-02 1.549593e-01 1.230052e-01 1.726439e-01 -5.682651e-02 -7.061422e-02 -1.434996e-01 -8.119042e-02 -8.734150e-02 -7.601577e-02 -2.245042e-02 -6.298222e-02 -7.937498e-02 7.125155e-02
<VARIANCE> 39
 8.284379e+00 8.425840e+00 9.722441e+00 1.003411e+01 1.555684e+01 1.685371e+01 1.688819e+01 1.942694e+01 1.830808e+01 1.797824e+01 1.794647e+01 1.586688e+01 1.056286e+00 7.843296e-01 6.930258e-01 1.248842e+00 1.203580e+00 1.700061e+00 1.726452e+00 1.783414e+00 2.020532e+00 1.948635e+00 1.812154e+00 2.009436e+00 1.667893e+00 5.164511e-02 1.466223e-01 1.765138e-01 2.339426e-01 2.680611e-01 4.092447e-01 4.243736e-01 4.038089e-01 4.015562e-01 4.477921e-01 3.789563e-01 4.829305e-01 3.396356e-01 1.286308e-02
<GCONST> 8.710454e+01
<TRANSP> 5
 0.000000e+00 1.000000e+00 0.000000e+00 0.000000e+00 0.000000e+00
 0.000000e+00 5.394438e-01 4.605562e-01 0.000000e+00 0.000000e+00
 0.000000e+00 0.000000e+00 5.646610e-01 4.353389e-01 0.000000e+00
 0.000000e+00 0.000000e+00 0.000000e+00 7.948308e-01 2.051691e-01
 0.000000e+00 0.000000e+00 0.000000e+00 0.000000e+00 0.000000e+00
<ENDHMM>
~h "v"
<BEGINHMM>
<NUMSTATES> 5
<STATE> 2
<MEAN> 39
 -5.735231e+00 -8.491051e+00 -4.825624e+00 -1.581158e+01 -3.397924e+00 -2.341473e+00 2.846848e+00 -8.665667e+00 -3.324527e+00 -7.853754e+00 -3.101552e+00 -5.826535e+00 1.865376e+01 4.310009e-01 7.346073e-01 5.057831e-01 2.312191e-01 -5.280293e-01 -7.981060e-01 -2.749478e-01 4.332155e-01 2.072713e-01 3.914770e-01 4.393883e-03 -7.145914e-02 -2.327285e-01 4.022942e-02 1.157481e-01 1.191788e-01 4.547917e-01 6.668098e-02 -2.855910e-01 -2.217549e-01 -9.075357e-02 5.919496e-04 1.213749e-01 2.041812e-01 -1.038689e-02 -1.014559e-01
<VARIANCE> 39
 9.166576e+00 1.319353e+01 9.174743e+00 2.204996e+01 4.614002e+01 2.572713e+01 2.287849e+01 4.152648e+01 4.468510e+01 3.387798e+01 3.151318e+01 3.359271e+01 1.452192e+00 3.810426e-01 1.226599e+00 7.081044e-01 2.032471e+00 2.084811e+00 1.916220e+00 1.976287e+00 2.042603e+00 2.653230e+00 2.220563e+00 2.448545e+00 1.758561e+00 6.078307e-02 8.822252e-02 1.338669e-01 1.220653e-01 3.641182e-01 5.059302e-01 3.646454e-01 3.483588e-01 4.455484e-01 4.046234e-01 3.982119e-01 5.011868e-01 3.713481e-01 6.724456e-03
<GCONST> 9.358086e+01
<STATE> 3
<MEAN> 39
 -3.815868e+00 -4.504457e+00 -1.886156e+00 -1.152308e+01 -5.427552e+00 -7.270041e+00 4.146392e-01 -6.887449e+00 -3.078711e+00 -5.238234e+00 -1.085877e+00 -6.159744e+00 1.709076e+01 -1.374468e-01 6.925246e-01 3.467265e-01 1.544176e+00 1.107618e+00 -2.441924e-01 -9.823331e-01 -6.366926e-01 4.283071e-02 -4.631422e-02 8.342519e-01 2.949489e-01 -5.477953e-01 -2.485535e-01 -3.126398e-01 -3.107151e-01 -1.258388e-01 2.962566e-01 4.456775e-01 1.309187e-01 -1.846901e-01 -6.766377e-02 -1.762501e-01 -1.066150e-01 8.433716e-02 2.294771e-02
<VARIANCE> 39
 5.220836e+00 9.305130e+00 9.342282e+00 2.451197e+01 2.838489e+01 2.521569e+01 2.182660e+01 2.981164e+01 2.609634e+01 2.699935e+01 2.662897e+01 2.534451e+01 1.460891e+00 6.642767e-01 9.664338e-01 1.209886e+00 2.794380e+00 3.294272e+00 2.668534e+00 2.428492e+00 2.830135e+00 2.614847e+00 2.709168e+00 2.666121e+00 2.550913e+00 1.284793e-01 8.957364e-02 1.427544e-01 1.901820e-01 5.127252e-01 5.813767e-01 4.592791e-01 4.165771e-01 4.684691e-01 4.559826e-01 5.068939e-01 5.333682e-01 3.894633e-01 2.493367e-02
<GCONST> 9.782652e+01
<STATE> 4
<MEAN> 39
 -5.386334e+00 -5.192404e+00 -3.573931e+00 -9.616814e+00 -2.030645e+00 -5.147063e+00 2.028783e-01 -8.676928e+00 -2.555004e+00 -5.889354e+00 1.251968e-01 -5.005849e+00 1.580534e+01 -1.479917e-01 -6.329302e-02 -1.999452e-01 8.299977e-03 1.875335e-01 1.664416e-01 -1.747776e-01 -2.561671e-01 1.238337e-01 -1.241623e-01 6.079645e-02 5.865004e-02 -8.069059e-02 4.583206e-02 -4.804242e-02 -2.798301e-02 -2.302219e-01 -1.687509e-01 -3.895180e-03 8.686204e-02 7.980176e-02 7.565303e-03 1.200822e-02 -1.193557e-01 -4.769880e-02 9.504440e-02
<VARIANCE> 39
 7.170565e+00 7.656119e+00 9.227872e+00 1.223931e+01 1.931232e+01 2.150005e+01 1.849768e+01 1.905165e+01 2.341342e+01 2.296272e+01 2.213340e+01 1.678056e+01 1.457995e+00 4.733422e-01 6.694133e-01 1.002030e+00 1.501781e+00 2.052913e+00 1.753865e+00 1.929378e+00 2.005300e+00 2.040128e+00 2.226723e+00 2.223943e+00 1.668903e+00 1.201024e-01 8.908747e-02 1.556018e-01 1.933631e-01 3.825032e-01 4.299157e-01 3.744344e-01 4.138714e-01 4.166558e-01 4.269897e-01 4.499618e-01 4.509848e-01 3.505211e-01 2.095050e-02
<GCONST> 8.965694e+01
<TRANSP> 5
 0.000000e+00 1.000000e+00 0.000000e+00 0.000000e+00 0.000000e+00
 0.000000e+00 7.310187e-01 2.689813e-01 0.000000e+00 0.000000e+00
 0.000000e+00 0.000000e+00 5.517702e-01 4.482298e-01 0.000000e+00
 0.000000e+00 0.000000e+00 0.000000e+00 7.463454e-01 2.536546e-01
 0.000000e+00 0.000000e+00 0.000000e+00 0.000000e+00 0.000000e+00
<ENDHMM>
~h "w"
<BEGINHMM>
<NUMSTATES> 5
<STATE> 2
<MEAN> 39
 -3.178673e+00 -3.544454e+00 -4.221287e+00 -1.075535e+01 -2.286820e+00 -6.995687e+00 -2.335093e+00 -9.399637e+00 -2.962178e+00 -6.081105e+00 2.523939e-01 -5.074747e+00 1.621501e+01 7.219927e-01 5.659678e-01 -4.980941e-02 -5.280640e-01 -4.795887e-01 -4.252298e-01 -6.247909e-02 1.302173e-01 -2.051389e-01 -2.017873e-01 -2.688065e-01 -3.016506e-01 2.954647e-01 1.426004e-01 -8.905085e-03 -2.597176e-01 -2.240392e-01 -6.834276e-02 3.424518e-02 9.862079e-02 9.105758e-02 9.028339e-02 4.627331e-02 -8.707884e-02 -1.252331e-01 7.707994e-02
<VARIANCE> 39
 8.434221e+00 7.616848e+00 8.583504e+00 1.364419e+01 1.595174e+01 1.575919e+01 1.924395e+01 1.819819e+01 1.977297e+01 1.989147e+01 2.249893e+01 2.363063e+01 1.850527e+00 6.183512e-01 6.506388e-01 8.540211e-01 1.168928e+00 1.108601e+00 1.534394e+00 1.907033e+00 1.696722e+00 1.934165e+00 2.016318e+00 1.908974e+00 1.922223e+00 8.922617e-02 7.643647e-02 1.094892e-01 1.484826e-01 2.261824e-01 2.128405e-01 2.663313e-01 3.756301e-01 3.307399e-01 3.824074e-01 4.006365e-01 4.023808e-01 3.799354e-01 9.341802e-03
<GCONST> 8.433225e+01
<STATE> 3
<MEAN> 39
 -6.812298e-02 -1.806466e+00 -6.435490e+00 -1.446663e+01 -5.020923e+00 -8.083526e+00 -1.426552e+00 -8.507175e+00 -2.969976e+00 -6.537604e+00 -1.519462e+00 -6.828354e+00 1.769948e+01 6.750641e-01 -8.521786e-02 -1.357570e+00 -8.807948e-01 9.203184e-02 6.848798e-01 5.690044e-01 3.477382e-01 2.128304e-01 -6.171146e-02 -2.912487e-01 -3.878351e-01 3.610053e-01 -1.926253e-01 -3.689604e-01 -3.084343e-01 3.704689e-01 5.348654e-01 3.353916e-01 -7.116340e-02 -6.325473e-02 7.767484e-03 -4.984074e-02 2.148176e-02 4.821135e-02 -4.657982e-02
<VARIANCE> 39
 4.044644e+00 3.977406e+00 1.137071e+01 1.657975e+01 2.073170e+01 1.827411e+01 1.663972e+01 1.934427e+01 2.285716e+01 2.261963e+01 2.865111e+01 2.948791e+01 1.123580e+00 4.677731e-01 6.219312e-01 1.030251e+00 1.313222e+00 1.884758e+00 1.955161e+00 1.912386e+00 1.649050e+00 2.002077e+00 1.993283e+00 2.233600e+00 2.042497e+00 6.632499e-02 6.612717e-02 8.879081e-02 1.587644e-01 3.409708e-01 2.724802e-01 3.214976e-01 4.515303e-01 3.585716e-01 4.202848e-01 3.796580e-01 4.126713e-01 3.763861e-01 6.749651e-03
<GCONST> 8.521309e+01
<STATE> 4
<MEAN> 39
 5.542496e-01 -4.738955e+00 -1.318818e+01 -1.345905e+01 5.613669e-01 -2.996708e+00 -1.754415e+00 -8.755974e+00 -2.827910e+00 -6.918442e+00 -1.941903e+00 -8.272428e+00 1.845225e+01 -1.861058e-01 -1.169218e+00 -1.212034e+00 1.786163e+00 1.609206e+00 1.872883e-01 -1.245149e+00 -2.363411e-02 5.265508e-01 -2.292563e-01 -5.470288e-01 -3.761712e-01 1.090274e-01 -2.098308e-01 -1.225341e-01 4.226093e-01 5.926298e-01 -2.371419e-01 -6.257353e-01 -1.949500e-01 2.609134e-01 6.327502e-02 -2.232076e-01 -7.088707e-02 1.939164e-01 -5.024339e-02
<VARIANCE> 39
 3.736899e+00 7.991674e+00 1.626945e+01 2.419012e+01 2.542698e+01 2.322880e+01 2.488734e+01 2.072524e+01 3.405661e+01 2.467625e+01 3.239808e+01 2.799410e+01 1.366043e+00 2.213319e-01 4.593527e-01 1.153165e+00 1.696973e+00 1.619534e+00 2.480036e+00 1.890094e+00 2.162305e+00 2.171838e+00 1.708206e+00 2.073294e+00 1.795236e+00 2.038178e-02 4.811430e-02 6.728420e-02 1.623212e-01 3.243572e-01 4.328214e-01 3.392476e-01 5.500015e-01 4.066028e-01 4.563393e-01 3.820813e-01 4.087249e-01 4.115368e-01 3.291142e-03
<GCONST> 8.610857e+01
<TRANSP> 5
 0.000000e+00 1.000000e+00 0.000000e+00 0.000000e+00 0.000000e+00
 0.000000e+00 7.138301e-01 2.861699e-01 0.000000e+00 0.000000e+00
 0.000000e+00 0.000000e+00 7.018606e-01 2.981394e-01 0.000000e+00
 0.000000e+00 0.000000e+00 0.000000e+00 7.363630e-01 2.636369e-01
 0.000000e+00 0.000000e+00 0.000000e+00 0.000000e+00 0.000000e+00
<ENDHMM>
~h "z"
<BEGINHMM>
<NUMSTATES> 5
<STATE> 2
<MEAN> 39
 -6.301360e+00 -4.298810e+00 -4.880149e+00 -8.107947e+00 -8.230743e-01 -4.147491e+00 -8.513226e-01 -8.589825e+00 -3.501520e+00 -5.554880e+00 6.721612e-01 -4.466987e+00 1.506091e+01 -2.033682e-01 2.712548e-02 -1.576775e-01 1.777394e-01 9.946091e-02 3.186733e-01 -2.259852e-02 8.856173e-02 -1.628146e-02 1.133735e-01 4.039906e-02 9.889136e-02 -5.457770e-02 2.695718e-02 5.996042e-02 5.833117e-02 -6.980444e-02 -5.614172e-02 -8.359352e-02 -5.299111e-02 -5.539420e-02 9.456247e-03 7.038221e-03 -3.198983e-02 -2.640428e-02 4.015187e-02
<VARIANCE> 39
 5.689433e+00 9.521153e+00 1.130028e+01 1.283805e+01 1.439260e+01 1.519008e+01 1.791606e+01 1.824959e+01 1.985730e+01 1.799512e+01 1.880416e+01 1.693894e+01 1.131909e+00 4.163840e-01 6.820664e-01 9.419500e-01 9.200307e-01 1.269640e+00 1.729326e+00 1.921459e+00 1.822248e+00 1.894587e+00 1.709561e+00 1.991373e+00 1.529037e+00 4.552035e-02 7.330514e-02 1.414107e-01 1.760644e-01 2.064977e-01 2.501831e-01 3.740961e-01 4.405582e-01 3.762603e-01 3.744861e-01 3.363404e-01 4.224193e-01 3.086737e-01 8.642000e-03
<GCONST> 8.251711e+01
<STATE> 3
<MEAN> 39
 -7.791701e+00 -3.293987e+00 -6.188616e+00 -6.462428e+00 -1.489897e+00 -2.176015e+00 -1.454679e+00 -7.500046e+00 -3.327862e+00 -4.675244e+00 6.287124e-01 -4.268129e+00 1.498854e+01 1.300837e-01 7.019621e-01 4.528574e-01 -3.913260e-01 -3.959013e-01 -7.257972e-01 -5.041351e-01 -3.931073e-01 7.839981e-02 2.586533e-01 -1.878258e-01 -6.341486e-02 2.668849e-01 2.392176e-01 3.557125e-01 4.570324e-01 -4.833269e-01 -3.026690e-01 -6.829741e-01 -1.934393e-01 -2.829522e-01 8.522406e-02 6.769484e-02 -2.232641e-02 -1.252733e-01 1.888976e-01
<VARIANCE> 39
 7.264000e+00 1.025214e+01 1.679148e+01 1.222314e+01 1.876320e+01 1.603347e+01 1.852189e+01 1.893979e+01 2.445952e+01 1.809796e+01 1.939356e+01 1.503063e+01 1.001107e+00 5.137854e-01 7.722631e-01 1.178374e+00 1.155431e+00 1.237577e+00 2.245501e+00 1.869161e+00 2.101211e+00 2.024160e+00 1.769160e+00 1.966739e+00 1.894800e+00 7.960827e-02 9.885745e-02 1.547190e-01 2.320585e-01 2.434145e-01 2.680759e-01 4.031444e-01 3.652043e-01 4.047741e-01 4.183209e-01 3.582524e-01 4.539920e-01 4.888105e-01 1.036049e-02
<GCONST> 8.731853e+01
<STATE> 4
<MEAN> 39
 -6.328119e+00 -7.812588e-01 -3.372509e+00 -8.632910e+00 -2.771122e+00 -6.081308e+00 -3.591450e+00 -1.005189e+01 -3.647810e+00 -3.908757e+00 1.086057e-01 -4.470609e+00 1.618809e+01 5.834579e-01 1.418929e+00 1.530898e+00 -2.004592e+00 -1.258114e+00 -2.323031e+00 -7.699485e-01 -8.898106e-01 4.730495e-01 5.147451e-01 -1.375429e-01 -4.094906e-01 7.257704e-01 -5.678974e-02 -8.499712e-03 6.765383e-02 -4.552838e-01 -2.109620e-01 -1.502194e-01 1.505530e-01 1.919162e-01 2.683713e-01 -4.992184e-02 4.820947e-02 -1.270453e-01 7.075107e-02
<VARIANCE> 39
 7.316609e+00 8.249155e+00 1.291636e+01 1.512278e+01 2.321732e+01 2.038652e+01 1.817103e+01 1.845040e+01 3.271291e+01 3.048697e+01 2.330733e+01 2.475907e+01 1.281848e+00 6.505392e-01 9.255928e-01 1.554459e+00 1.357748e+00 1.704687e+00 2.388224e+00 2.304178e+00 2.426140e+00 2.989540e+00 2.264839e+00 2.854736e+00 3.369134e+00 5.764595e-02 1.099227e-01 1.786895e-01 2.419273e-01 2.816426e-01 3.180728e-01 4.417411e-01 4.024850e-01 3.924958e-01 4.170918e-01 4.114598e-01 4.179921e-01 3.734021e-01 1.157813e-02
<GCONST> 9.272296e+01
<TRANSP> 5
 0.000000e+00 1.000000e+00 0.000000e+00 0.000000e+00 0.000000e+00
 0.000000e+00 8.311877e-01 1.688123e-01 0.000000e+00 0.000000e+00
 0.000000e+00 0.000000e+00 6.066142e-01 3.933858e-01 0.000000e+00
 0.000000e+00 0.000000e+00 0.000000e+00 4.177856e-01 5.822145e-01
 0.000000e+00 0.000000e+00 0.000000e+00 0.000000e+00 0.000000e+00
<ENDHMM>
~h "ah"
<BEGINHMM>
<NUMSTATES> 5
<STATE> 2
<MEAN> 39
 -1.302860e+00 -9.786070e+00 -1.350473e+01 -3.282473e+00 2.552653e+00 -8.229847e+00 -5.634949e+00 -5.051959e+00 -8.578734e-01 -1.104244e+01 -4.398136e+00 -6.847855e+00 1.866388e+01 -6.731502e-01 -8.822116e-01 9.837629e-01 1.795252e+00 -1.092348e+00 -1.428064e+00 9.274157e-01 1.125675e+00 -9.115416e-01 -1.267889e+00 4.892070e-01 9.137554e-01 -6.953866e-03 -5.514977e-02 2.549098e-01 4.933546e-01 -5.548007e-01 -6.157682e-01 3.023311e-01 6.898093e-01 -3.619220e-01 -4.720456e-01 3.182967e-01 4.297025e-01 -1.020326e-01 -3.008679e-02
<VARIANCE> 39
 5.038699e+00 9.259069e+00 1.481643e+01 2.589580e+01 1.773513e+01 2.346063e+01 2.725803e+01 3.255790e+01 4.182290e+01 3.635115e+01 2.786139e+01 3.219775e+01 1.442590e+00 1.848210e-01 4.589486e-01 8.356400e-01 1.624357e+00 1.611150e+00 1.591810e+00 2.742340e+00 2.109355e+00 2.669147e+00 1.897001e+00 2.524268e+00 1.793391e+00 9.316267e-03 3.131970e-02 6.828185e-02 1.501546e-01 2.501156e-01 2.901046e-01 4.263203e-01 3.764761e-01 5.735397e-01 4.343351e-01 4.928221e-01 3.825517e-01 4.882829e-01 1.187705e-03
<GCONST> 8.476528e+01
<STATE> 3
<MEAN> 39
 -4.152254e+00 -1.129421e+01 -6.643148e+00 -1.983693e+00 -5.145641e+00 -8.060152e+00 1.935392e+00 -7.234136e+00 -6.460275e+00 -1.029759e+01 -5.856657e-01 -7.571070e+00 1.845136e+01 -5.140493e-01 4.826606e-01 1.664534e+00 -1.187861e+00 -1.257235e+00 1.092936e+00 8.450843e-01 -1.588360e+00 -2.444388e-01 1.092045e+00 1.486334e-01 -6.218448e-01 -1.063453e-01 1.593491e-01 4.067321e-01 -8.492172e-02 -5.192190e-01 5.102229e-01 2.157919e-01 -6.502415e-01 -1.922542e-01 4.900892e-01 1.468606e-01 -3.301772e-01 -2.130091e-03 -2.743834e-02
<VARIANCE> 39
 6.085917e+00 1.133613e+01 1.337521e+01 2.380284e+01 2.012690e+01 2.642731e+01 2.525228e+01 5.476415e+01 3.605663e+01 4.382852e+01 3.172943e+01 4.037888e+01 1.472217e+00 2.812988e-01 6.562096e-01 8.380206e-01 1.468589e+00 1.742112e+00 1.891213e+00 2.693386e+00 2.220938e+00 3.307098e+00 2.498415e+00 2.252585e+00 1.849127e+00 8.403232e-03 4.212958e-02 8.058560e-02 1.039947e-01 2.715714e-01 3.012638e-01 5.037920e-01 3.903962e-01 6.452231e-01 4.360430e-01 6.999786e-01 3.991061e-01 4.653659e-01 1.245178e-03
<GCONST> 8.827375e+01
<STATE> 4
<MEAN> 39
 -4.782360e+00 -6.576095e+00 -1.953268e+00 -8.975417e+00 -5.222114e+00 -4.970751e+00 -1.730166e+00 -1.287559e+01 -5.097046e+00 -1.013809e+01 -3.358135e+00 -8.719889e+00 1.813060e+01 2.569013e-01 1.371055e+00 8.111627e-01 -1.199367e+00 6.684581e-01 -1.246707e-01 -1.173229e+00 -3.673780e-01 3.572292e-01 2.527617e-01 -9.776710e-02 3.148317e-01 -1.653070e-01 1.234774e-01 -5.631808e-03 -2.485186e-01 3.106203e-01 2.943684e-01 -3.401303e-01 -1.471879e-01 2.591146e-01 -6.952483e-02 -1.435214e-01 8.714946e-02 1.260642e-01 -6.949913e-03
<VARIANCE> 39
 7.595088e+00 1.781557e+01 1.019960e+01 2.093388e+01 1.627811e+01 5.131762e+01 4.507237e+01 4.593230e+01 4.022742e+01 5.844730e+01 3.807983e+01 3.197791e+01 1.329554e+00 4.560340e-01 1.185909e+00 1.286758e+00 1.499623e+00 1.763871e+00 3.512618e+00 2.347518e+00 2.580986e+00 2.772224e+00 3.314704e+00 2.162782e+00 1.564308e+00 2.263617e-02 9.139322e-02 1.832080e-01 1.783543e-01 2.246339e-01 3.698008e-01 7.059034e-01 4.980699e-01 4.247545e-01 4.841612e-01 5.654002e-01 4.370250e-01 3.412128e-01 3.094828e-03
<GCONST> 9.560085e+01
<TRANSP> 5
 0.000000e+00 1.000000e+00 0.000000e+00 0.000000e+00 0.000000e+00
 0.000000e+00 7.428616e-01 2.571384e-01 0.000000e+00 0.000000e+00
 0.000000e+00 0.000000e+00 7.485535e-01 2.514466e-01 0.000000e+00
 0.000000e+00 0.000000e+00 0.000000e+00 6.684825e-01 3.315176e-01
 0.000000e+00 0.000000e+00 0.000000e+00 0.000000e+00 0.000000e+00
<ENDHMM>
~h "ao"
<BEGINHMM>
<NUMSTATES> 5
<STATE> 2
<MEAN> 39
 1.683378e+00 -3.324845e+00 -1.230652e+01 -1.732721e+01 -4.149979e+00 -5.962666e+00 -3.028745e+00 -8.968360e+00 -1.484663e+00 -3.840399e+00 5.639216e-01 -6.758468e+00 1.901506e+01 1.466021e-01 -2.348217e-01 -2.388431e-01 3.162592e-02 1.321540e-01 6.383337e-02 -1.818888e-01 1.650588e-01 3.551952e-01 1.223251e-01 -1.586063e-01 -1.746954e-01 7.761064e-02 -1.857069e-01 -1.828791e-01 1.756508e-01 2.899729e-01 7.128569e-02 -6.686046e-02 8.363083e-03 1.374613e-01 7.703497e-02 -1.061562e-01 -8.550721e-02 6.260303e-02 -7.319918e-02
<VARIANCE> 39
 3.894172e+00 1.020853e+01 9.188524e+00 1.328705e+01 2.451154e+01 1.618846e+01 1.838232e+01 1.623366e+01 2.417447e+01 2.559682e+01 3.953833e+01 3.947710e+01 9.883148e-01 3.857891e-01 8.030363e-01 8.813061e-01 1.387203e+00 1.460110e+00 1.292996e+00 1.576815e+00 1.561527e+00 2.173420e+00 1.894187e+00 2.130388e+00 1.933087e+00 6.062773e-02 9.878878e-02 7.839487e-02 1.791459e-01 1.626434e-01 2.450987e-01 2.756699e-01 3.061282e-01 2.877961e-01 3.820398e-01 3.630403e-01 4.197778e-01 3.848595e-01 1.259934e-02
<GCONST> 8.451584e+01
<STATE> 3
<MEAN> 39
 2.958341e-01 -9.844540e+00 -9.189481e+00 -9.835859e+00 -5.191886e+00 -9.416960e+00 -4.340048e+00 -4.503146e+00 2.558238e+00 -5.680179e+00 -3.840708e+00 -7.899107e+00 1.886339e+01 -6.183020e-01 -3.486005e-01 1.143750e+00 1.019114e+00 -5.051329e-01 -3.585466e-01 7.020471e-01 4.337906e-01 -4.580300e-01 -8.058113e-01 -1.656754e-01 4.540191e-01 -1.983847e-01 -1.339056e-01 2.764513e-01 9.489167e-02 -1.903729e-01 -4.233163e-02 2.366822e-01 2.688770e-01 -2.722800e-01 -3.812799e-01 6.943275e-04 3.204316e-01 1.195110e-01 -6.481858e-02
<VARIANCE> 39
 8.820622e+00 1.729178e+01 3.120273e+01 2.246766e+01 5.557203e+01 3.976814e+01 3.327335e+01 4.050993e+01 3.917462e+01 3.283385e+01 3.897787e+01 2.903284e+01 1.530221e+00 4.940838e-01 2.324446e+00 1.742779e+00 2.801963e+00 4.574355e+00 3.906603e+00 3.294028e+00 4.560816e+00 4.072814e+00 3.205251e+00 4.153992e+00 2.242389e+00 6.944001e-02 7.625845e-02 2.312466e-01 3.962591e-01 4.337719e-01 9.862396e-01 6.937313e-01 7.182230e-01 7.912945e-01 7.801208e-01 6.993325e-01 7.975633e-01 5.022986e-01 6.236359e-03
<GCONST> 1.088895e+02
<STATE> 4
<MEAN> 39
 -3.059795e+00 -9.167917e+00 -4.579517e+00 -8.159411e+00 -4.486714e+00 -6.492423e+00 5.292773e-02 -7.250237e+00 -3.203553e+00 -8.549183e+00 -2.183716e+00 -6.313022e+00 1.708559e+01 -6.875724e-01 5.471349e-01 5.510222e-01 -6.154764e-02 2.076336e-01 6.485905e-01 2.861518e-01 -6.151862e-01 -4.995244e-01 2.319338e-01 4.911271e-01 2.137099e-01 -3.266657e-01 1.712569e-02 3.330838e-02 -2.312248e-01 -1.382277e-01 1.482819e-01 3.448086e-02 -1.658879e-01 1.020798e-02 1.505266e-01 1.594824e-01 -3.390075e-02 -1.863096e-02 -1.085034e-03
<VARIANCE> 39
 1.047837e+01 2.531758e+01 1.863320e+01 1.839935e+01 2.951017e+01 2.973181e+01 2.380845e+01 4.062077e+01 3.318110e+01 2.971085e+01 2.702660e+01 2.745081e+01 2.093202e+00 4.577811e-01 1.296442e+00 1.696599e+00 1.436813e+00 3.168237e+00 2.591048e+00 2.594491e+00 2.807828e+00 2.829821e+00 2.392889e+00 2.214892e+00 2.057272e+00 6.379206e-02 6.331772e-02 2.483381e-01 2.186261e-01 2.592484e-01 4.853030e-01 4.436008e-01 4.400387e-01 5.271653e-01 4.902711e-01 4.506353e-01 4.374120e-01 3.740907e-01 8.148138e-03
<GCONST> 9.797561e+01
<TRANSP> 5
 0.000000e+00 1.000000e+00 0.000000e+00 0.000000e+00 0.000000e+00
 0.000000e+00 9.081556e-01 9.184444e-02 0.000000e+00 0.000000e+00
 0.000000e+00 0.000000e+00 8.070384e-01 1.929617e-01 0.000000e+00
 0.000000e+00 0.000000e+00 0.000000e+00 8.296537e-01 1.703463e-01
 0.000000e+00 0.000000e+00 0.000000e+00 0.000000e+00 0.000000e+00
<ENDHMM>
~h "ay"
<BEGINHMM>
<NUMSTATES> 5
<STATE> 2
<MEAN> 39
 -5.210576e+00 -1.307381e+01 -9.526425e+00 -3.846607e+00 -1.281726e+00 -7.980081e+00 1.287943e+00 -7.711482e+00 -6.726887e+00 -9.312939e+00 -2.181023e+00 -5.257120e+00 1.910475e+01 -2.487276e-01 -5.363471e-01 1.155848e-01 9.399775e-01 1.038117e-02 -2.072409e-01 1.593676e-01 -1.577882e-01 -2.200844e-01 9.269668e-02 5.951656e-01 4.699043e-02 3.156959e-02 7.555310e-02 2.832755e-01 1.829756e-01 -2.420789e-01 -1.116223e-01 5.324252e-03 -1.143733e-01 2.020530e-02 8.992542e-02 3.378072e-02 -2.170066e-02 -1.175732e-01 -4.714156e-02
<VARIANCE> 39
 8.184127e+00 1.232667e+01 3.343436e+01 1.991065e+01 3.645190e+01 2.700936e+01 3.094848e+01 5.139451e+01 4.333818e+01 4.252872e+01 2.805776e+01 2.875721e+01 1.201146e+00 2.198711e-01 4.126035e-01 8.220533e-01 9.110333e-01 1.145512e+00 9.256091e-01 1.042490e+00 1.334159e+00 1.525419e+00 1.348122e+00 9.738705e-01 9.362658e-01 1.251229e-02 4.315661e-02 7.699751e-02 9.487062e-02 1.218391e-01 1.873581e-01 1.687868e-01 1.992435e-01 2.084553e-01 2.570072e-01 2.395961e-01 2.093028e-01 1.838460e-01 3.647160e-03
<GCONST> 7.693743e+01
<STATE> 3
<MEAN> 39
 -6.131101e+00 -1.402889e+01 -6.708234e+00 -2.606986e+00 -1.927248e+00 -7.830269e+00 2.469486e+00 -9.273787e+00 -6.830817e+00 -6.913753e+00 -5.398134e-01 -6.147603e+00 1.886278e+01 -1.130672e-01 5.057298e-02 4.110315e-01 -2.432499e-01 -2.338625e-01 3.078911e-01 7.141630e-02 -2.940328e-01 4.028308e-02 2.950590e-01 -2.346857e-02 -1.154467e-01 -3.626097e-02 2.154726e-03 1.097628e-01 3.910039e-02 -2.248643e-01 -2.136471e-02 1.356225e-01 -3.649932e-02 -3.667958e-02 7.715057e-02 -1.446806e-03 -1.177238e-01 1.337153e-02 -9.327272e-03
<VARIANCE> 39
 8.066224e+00 1.138909e+01 2.347858e+01 2.702966e+01 2.997717e+01 2.842537e+01 2.087234e+01 3.658593e+01 4.478850e+01 4.574388e+01 2.731415e+01 2.985084e+01 1.131604e+00 9.661441e-02 1.617876e-01 3.882687e-01 5.754014e-01 5.467449e-01 6.614307e-01 6.206425e-01 6.733469e-01 7.020538e-01 7.555724e-01 6.973448e-01 6.776727e-01 4.788778e-03 1.536718e-02 3.249965e-02 4.946416e-02 7.579611e-02 7.979476e-02 9.506267e-02 1.019185e-01 1.048852e-01 1.236667e-01 1.196671e-01 1.111133e-01 1.105018e-01 5.293888e-04
<GCONST> 5.745152e+01
<STATE> 4
<MEAN> 39
 -6.896349e+00 -1.085699e+01 -2.979636e+00 -8.884673e+00 -3.185547e+00 -2.106355e+00 1.275395e+00 -1.172178e+01 -3.699770e+00 -5.745943e+00 -2.506738e+00 -5.869809e+00 1.838459e+01 -6.959946e-02 1.120169e+00 3.140374e-01 -1.652949e+00 8.689821e-02 7.419869e-01 -5.720455e-01 1.744231e-01 7.118517e-01 -4.127075e-01 -4.707235e-01 2.303358e-01 -9.865993e-02 8.700169e-02 2.105894e-01 -1.031600e-01 -2.240270e-02 9.053248e-02 -2.700135e-01 -9.217405e-02 2.956941e-01 -2.114441e-02 -1.481355e-01 9.629209e-02 -2.858711e-03 -1.612987e-02
<VARIANCE> 39
 8.530996e+00 1.824303e+01 1.323194e+01 3.157216e+01 3.240299e+01 2.389717e+01 3.065767e+01 3.256990e+01 6.098140e+01 3.606743e+01 2.836479e+01 3.392671e+01 1.409928e+00 1.965154e-01 4.817266e-01 5.964305e-01 1.131683e+00 1.479654e+00 1.337561e+00 1.274162e+00 1.426607e+00 1.563115e+00 1.629380e+00 1.423205e+00 1.249000e+00 7.261286e-03 2.667946e-02 6.390877e-02 6.856352e-02 1.708191e-01 1.765617e-01 2.076017e-01 2.315710e-01 1.890862e-01 2.903711e-01 2.377743e-01 2.419090e-01 2.061715e-01 8.991114e-04
<GCONST> 7.640011e+01
<TRANSP> 5
 0.000000e+00 1.000000e+00 0.000000e+00 0.000000e+00 0.000000e+00
 0.000000e+00 6.906592e-01 3.093409e-01 0.000000e+00 0.000000e+00
 0.000000e+00 0.000000e+00 8.707597e-01 1.292403e-01 0.000000e+00
 0.000000e+00 0.000000e+00 0.000000e+00 7.785948e-01 2.214052e-01
 0.000000e+00 0.000000e+00 0.000000e+00 0.000000e+00 0.000000e+00
<ENDHMM>
~h "eh"
<BEGINHMM>
<NUMSTATES> 5
<STATE> 2
<MEAN> 39
 -8.539684e+00 -4.512314e+00 -6.739148e+00 -9.093126e+00 -2.205078e+00 -3.583861e+00 -6.545867e-01 -8.514540e+00 -2.441612e+00 -4.799804e+00 -2.177939e-01 -3.556314e+00 1.519915e+01 1.539973e+00 3.599406e-01 1.327369e+00 -1.801097e+00 -1.559259e+00 -1.594635e+00 1.055318e+00 -1.719169e-01 5.037703e-01 2.669290e-01 -7.729253e-01 -8.893746e-01 9.019298e-01 1.514035e-01 -9.666669e-02 -2.377039e-03 -4.901213e-01 -5.364527e-01 -1.696472e-01 4.115368e-01 1.840724e-01 2.292786e-02 -7.835066e-02 -3.236727e-01 -3.036151e-01 2.365665e-01
<VARIANCE> 39
 7.792462e+00 7.367541e+00 1.335315e+01 1.077945e+01 1.494306e+01 1.480935e+01 1.824818e+01 1.723738e+01 1.775278e+01 2.200146e+01 2.095441e+01 1.813695e+01 1.393105e+00 7.374022e-01 9.560826e-01 1.381322e+00 1.680571e+00 2.455042e+00 2.640251e+00 2.352614e+00 2.621616e+00 2.172381e+00 4.659799e+00 2.274475e+00 2.208039e+00 1.061751e-01 1.722850e-01 1.501317e-01 2.813527e-01 2.860045e-01 4.801239e-01 4.682697e-01 4.323640e-01 4.539080e-01 4.617306e-01 5.069140e-01 3.907745e-01 4.934381e-01 1.500200e-02
<GCONST> 9.336069e+01
<STATE> 3
<MEAN> 39
 -3.966096e+00 -3.644986e+00 -3.675362e+00 -1.583244e+01 -1.022655e+01 -9.641590e+00 3.626996e+00 -7.940116e+00 -1.447967e+00 -3.994826e+00 -4.328922e+00 -7.325070e+00 1.845721e+01 3.201652e-01 -5.087286e-01 -1.125469e-01 -1.826792e+00 -1.262029e+00 -7.840306e-03 1.677747e+00 2.904729e-01 5.797752e-02 -7.133132e-01 -1.381164e+00 -9.484495e-01 8.380551e-01 -5.504926e-01 -3.686606e-01 -4.811583e-01 5.071594e-01 8.326247e-01 8.729978e-01 -1.591802e-01 2.089329e-03 -2.899204e-01 -2.660027e-01 2.685374e-01 3.457706e-01 -2.169693e-01
<VARIANCE> 39
 7.108669e+00 6.499503e+00 8.772431e+00 2.048644e+01 2.239098e+01 2.578322e+01 2.952703e+01 2.912706e+01 3.192883e+01 7.641611e+01 2.568048e+01 2.602392e+01 1.213134e+00 1.219360e+00 9.532588e-01 1.246807e+00 1.758194e+00 3.945345e+00 3.895481e+00 2.149499e+00 2.417659e+00 3.329727e+00 4.123153e+00 2.532259e+00 3.411875e+00 1.470080e-01 1.040543e-01 1.218380e-01 1.774986e-01 2.558641e-01 3.818550e-01 3.242693e-01 3.310761e-01 3.206695e-01 3.255949e-01 6.936111e-01 4.356178e-01 3.962469e-01 1.196345e-02
<GCONST> 9.702697e+01
<STATE> 4
<MEAN> 39
 -5.357318e+00 -7.011267e+00 -5.176873e+00 -1.314220e+01 -7.777272e+00 -7.128534e+00 4.996642e+00 -5.283905e+00 -4.245003e+00 -6.332825e+00 -3.073792e+00 -6.937191e+00 1.874730e+01 -6.966245e-02 -2.908387e-01 -5.790749e-02 3.496001e-01 5.884144e-01 4.369479e-01 -1.394099e-01 -1.891649e-02 -3.344921e-01 -2.542370e-01 4.527672e-01 1.484572e-01 -1.518040e-02 3.549999e-02 1.112602e-01 1.171981e-01 2.023626e-01 1.147588e-01 -1.229615e-01 -2.561239e-01 -6.209209e-02 1.442056e-02 1.587265e-01 1.637777e-01 1.129201e-01 -8.609127e-02
<VARIANCE> 39
 8.495529e+00 8.295763e+00 1.182549e+01 3.055928e+01 3.352030e+01 3.859481e+01 4.501224e+01 4.629601e+01 4.388737e+01 5.335788e+01 3.721354e+01 3.156349e+01 1.849146e+00 6.008020e-01 9.862600e-01 9.155937e-01 1.219659e+00 2.716131e+00 2.846952e+00 4.044414e+00 2.918533e+00 2.643211e+00 2.581190e+00 2.603932e+00 1.675905e+00 1.486608e-01 1.112712e-01 1.662625e-01 1.828209e-01 3.264205e-01 6.277500e-01 4.973559e-01 8.415807e-01 6.104983e-01 5.582353e-01 5.226250e-01 5.676428e-01 3.797986e-01 3.610130e-02
<GCONST> 1.029337e+02
<TRANSP> 5
 0.000000e+00 1.000000e+00 0.000000e+00 0.000000e+00 0.000000e+00
 0.000000e+00 4.950728e-01 5.049272e-01 0.000000e+00 0.000000e+00
 0.000000e+00 0.000000e+00 5.997096e-01 4.002904e-01 0.000000e+00
 0.000000e+00 0.000000e+00 0.000000e+00 8.216806e-01 1.783194e-01
 0.000000e+00 0.000000e+00 0.000000e+00 0.000000e+00 0.000000e+00
<ENDHMM>
~h "ey"
<BEGINHMM>
<NUMSTATES> 5
<STATE> 2
<MEAN> 39
 -7.759026e+00 -6.457338e+00 -5.508722e+00 -1.401249e+01 3.489700e-01 -3.620284e+00 -6.573041e-02 -8.819769e+00 -2.874782e+00 -7.027312e+00 -7.763538e-01 -4.605418e+00 1.626993e+01 -2.789475e-01 6.089898e-01 -1.602743e-02 -1.171608e+00 3.162313e-01 2.278629e-02 2.396514e-01 2.819947e-01 1.324980e-01 -2.812396e-01 -3.460446e-01 4.240952e-02 3.047421e-01 2.633680e-02 2.683117e-01 -5.043392e-02 -2.039165e-01 -5.564557e-02 -2.147812e-01 -3.908187e-02 1.973645e-01 1.505750e-01 -3.190644e-03 -6.657805e-03 -1.295556e-01 8.439924e-02
<VARIANCE> 39
 6.220466e+00 1.309886e+01 1.073962e+01 2.494217e+01 3.427487e+01 1.851090e+01 2.240236e+01 2.327150e+01 2.767857e+01 2.506777e+01 2.535414e+01 2.360176e+01 3.430329e+00 5.257721e-01 1.126847e+00 1.088765e+00 2.249054e+00 2.252708e+00 2.405512e+00 2.411525e+00 2.530531e+00 3.038994e+00 2.376711e+00 2.062527e+00 2.231261e+00 1.588527e-01 8.756469e-02 1.595086e-01 1.781274e-01 4.323473e-01 3.504229e-01 4.441160e-01 4.770941e-01 4.564248e-01 5.857500e-01 4.630452e-01 4.265455e-01 4.372097e-01 2.326394e-02
<GCONST> 9.711655e+01
<STATE> 3
<MEAN> 39
 -8.595219e+00 2.584644e-01 -5.903971e+00 -2.131730e+01 -1.073160e+00 -6.625506e+00 1.202109e+00 -4.660626e+00 -1.691247e-01 -7.329044e+00 -2.234507e+00 -6.277249e+00 1.822793e+01 -1.489544e-01 1.286053e+00 -8.008914e-02 -7.952715e-01 -2.551039e-01 -1.144215e+00 -2.196432e-01 4.798410e-01 5.690552e-01 2.972996e-01 1.050747e-01 -2.895425e-01 2.617926e-01 6.606309e-02 -6.620384e-02 4.763412e-02 4.212291e-01 -1.738318e-02 -1.652061e-01 -1.541935e-01 -2.302951e-01 -1.151315e-01 1.670402e-01 2.217947e-01 9.105189e-02 -8.175936e-02
<VARIANCE> 39
 8.678823e+00 1.227195e+01 2.604974e+01 1.953665e+01 4.386831e+01 2.289141e+01 2.869879e+01 1.816731e+01 3.154016e+01 1.977988e+01 2.337145e+01 2.338669e+01 1.519066e+00 5.275429e-01 9.530584e-01 9.956323e-01 2.056018e+00 1.483973e+00 1.723139e+00 2.094553e+00 1.483579e+00 1.853483e+00 1.739830e+00 2.102124e+00 1.479382e+00 1.367513e-01 8.301222e-02 1.183187e-01 1.477960e-01 2.271391e-01 2.498323e-01 2.853290e-01 2.365401e-01 2.379843e-01 3.819741e-01 2.783886e-01 3.037767e-01 2.606172e-01 1.040116e-02
<GCONST> 8.844247e+01
<STATE> 4
<MEAN> 39
 -8.064408e+00 5.943269e+00 -5.129496e+00 -1.718038e+01 -2.333269e+00 -1.475993e+01 -2.756000e+00 -8.055117e+00 -1.079623e+00 -4.100154e+00 1.119059e+00 -5.367535e+00 1.825073e+01 2.370868e-01 -2.448821e-01 2.180508e-01 1.045573e+00 1.499875e-01 -1.510388e-01 -4.413894e-01 -8.609612e-01 -6.178492e-01 -9.948790e-03 1.928830e-01 2.085340e-01 -2.072141e-01 3.802042e-02 -3.993921e-01 -5.694204e-03 9.197581e-02 5.750550e-02 4.330124e-01 1.170587e-01 2.210464e-02 -5.515122e-02 -1.452229e-01 -9.684801e-02 6.518133e-03 -7.331605e-02
<VARIANCE> 39
 9.077139e+00 1.173112e+01 2.239821e+01 2.950059e+01 1.908955e+01 2.297571e+01 5.463708e+01 3.333736e+01 4.195921e+01 2.589227e+01 3.220682e+01 2.810685e+01 1.684195e+00 3.580577e-01 1.903672e+00 5.794765e-01 1.130637e+00 1.226614e+00 2.973755e+00 1.710020e+00 1.619557e+00 2.641860e+00 1.989005e+00 2.146757e+00 1.674873e+00 6.220143e-02 6.131596e-02 1.524127e-01 1.056938e-01 2.075880e-01 1.863827e-01 3.407860e-01 3.312832e-01 3.660690e-01 4.703945e-01 3.364069e-01 3.808008e-01 3.341352e-01 5.904761e-03
<GCONST> 9.002199e+01
<TRANSP> 5
 0.000000e+00 1.000000e+00 0.000000e+00 0.000000e+00 0.000000e+00
 0.000000e+00 7.902179e-01 2.097820e-01 0.000000e+00 0.000000e+00
 0.000000e+00 0.000000e+00 8.049081e-01 1.950919e-01 0.000000e+00
 0.000000e+00 0.000000e+00 0.000000e+00 8.861825e-01 1.138175e-01
 0.000000e+00 0.000000e+00 0.000000e+00 0.000000e+00 0.000000e+00
<ENDHMM>
~h "ia"
<BEGINHMM>
<NUMSTATES> 5
<STATE> 2
<MEAN> 39
 -5.766871e+00 2.455040e+00 -6.668817e-01 -1.497988e+01 -5.754189e+00 -1.164374e+01 -4.039612e+00 -1.039528e+01 -5.490621e-01 -3.228530e+00 -1.826501e-01 -6.285603e+00 1.794899e+01 -9.786370e-02 7.339447e-01 6.359141e-01 -1.808917e+00 -8.074349e-01 -1.069053e+00 -2.164388e-01 2.955717e-01 7.815299e-01 1.359456e-01 9.855343e-03 -4.509919e-01 4.898644e-01 -1.179638e-01 -4.719700e-01 -2.303210e-01 3.202624e-01 1.597934e-01 6.866504e-01 9.366228e-02 3.484869e-01 -1.023648e-01 -1.538504e-01 8.103108e-02 7.384752e-02 -1.420122e-01
<VARIANCE> 39
 7.203224e+00 7.357696e+00 1.201568e+01 1.673230e+01 2.997033e+01 2.039285e+01 2.660084e+01 2.491369e+01 4.089500e+01 3.594377e+01 3.999451e+01 6.184345e+01 9.875409e-01 6.534926e-01 1.227744e+00 1.847871e+00 1.809552e+00 2.331775e+00 2.533064e+00 2.266508e+00 2.857468e+00 2.235716e+00 2.544705e+00 2.264410e+00 2.798615e+00 7.681532e-02 9.871472e-02 1.186687e-01 2.442525e-01 2.818876e-01 2.831692e-01 3.468884e-01 4.293972e-01 3.418365e-01 5.187544e-01 5.202128e-01 4.803537e-01 5.958862e-01 6.688253e-03
<GCONST> 9.567612e+01
<STATE> 3
<MEAN> 39
 -6.277890e+00 1.734342e+00 6.898197e-01 -1.856208e+01 -6.501193e+00 -1.008401e+01 -5.318010e+00 -7.568351e+00 4.415229e-02 -3.436895e+00 1.575305e-01 -6.895954e+00 1.855640e+01 3.512921e-01 -1.184268e+00 6.971092e-01 -1.502572e-01 -1.067865e+00 1.208869e+00 -1.864384e-01 3.802270e-01 1.426780e-01 -2.315101e-01 8.862301e-02 -8.531883e-02 5.697435e-02 2.049761e-01 -4.240513e-01 -8.173676e-02 5.810503e-01 -2.549297e-01 2.090605e-01 2.727415e-01 -1.575461e-01 -4.044277e-02 -5.702732e-02 -2.964824e-02 6.687029e-02 -6.504936e-02
<VARIANCE> 39
 6.615058e+00 1.380876e+01 1.886234e+01 2.247566e+01 5.733409e+01 3.595967e+01 3.517486e+01 5.150642e+01 2.845728e+01 2.798978e+01 3.057972e+01 4.813865e+01 9.568236e-01 4.851771e-01 1.347826e+00 9.776773e-01 2.150787e+00 2.904753e+00 2.663292e+00 2.232452e+00 2.065011e+00 2.318894e+00 1.866526e+00 1.821828e+00 1.889611e+00 2.455334e-02 5.552641e-02 1.208452e-01 2.583045e-01 3.451181e-01 4.033489e-01 6.418644e-01 4.970177e-01 4.711173e-01 4.195150e-01 3.096566e-01 3.013270e-01 3.499697e-01 4.445347e-03
<GCONST> 9.426138e+01
<STATE> 4
<MEAN> 39
 -2.128893e+00 -8.880350e+00 4.317806e-01 -1.108016e+01 -1.590486e+01 -7.019760e+00 -3.541479e-01 -6.959863e+00 7.508790e-01 -4.852706e+00 -1.674801e-02 -6.146485e+00 1.879267e+01 4.669439e-01 -1.160900e+00 -5.563127e-01 9.857259e-01 -3.294877e-01 -8.892335e-02 9.038776e-01 4.277295e-01 5.100028e-02 -2.611102e-01 -1.937138e-01 1.642838e-01 1.306405e-02 -1.161428e-01 1.854811e-01 -1.178732e-01 -1.604340e-01 3.708402e-01 -8.368663e-02 -9.988160e-02 8.085819e-02 -7.351713e-02 -1.855370e-02 -2.768794e-02 1.045545e-02 -2.185792e-03
<VARIANCE> 39
 6.517977e+00 2.323784e+01 1.649578e+01 5.024366e+01 5.352316e+01 6.925421e+01 3.098994e+01 3.509546e+01 2.118678e+01 1.974024e+01 1.963911e+01 3.527104e+01 1.098327e+00 3.588527e-01 6.505480e-01 7.240602e-01 1.874762e+00 2.485747e+00 3.015643e+00 2.024558e+00 2.430208e+00 1.722002e+00 1.374938e+00 1.298038e+00 1.250676e+00 1.014142e-02 3.362612e-02 6.200709e-02 1.538913e-01 2.707753e-01 3.179503e-01 5.428100e-01 3.541489e-01 3.539093e-01 2.886946e-01 2.493606e-01 2.301148e-01 2.160015e-01 1.715970e-03
<GCONST> 8.532625e+01
<TRANSP> 5
 0.000000e+00 1.000000e+00 0.000000e+00 0.000000e+00 0.000000e+00
 0.000000e+00 6.407943e-01 3.592057e-01 0.000000e+00 0.000000e+00
 0.000000e+00 0.000000e+00 7.661501e-01 2.338499e-01 0.000000e+00
 0.000000e+00 0.000000e+00 0.000000e+00 8.426969e-01 1.573031e-01
 0.000000e+00 0.000000e+00 0.000000e+00 0.000000e+00 0.000000e+00
<ENDHMM>
~h "ih"
<BEGINHMM>
<NUMSTATES> 5
<STATE> 2
<MEAN> 39
 -8.905074e+00 -3.567366e+00 -7.048916e+00 -8.624190e+00 -3.229624e+00 -4.229329e+00 -2.217314e+00 -8.163015e+00 -3.348908e+00 -4.153569e+00 -1.625558e-01 -3.148118e+00 1.508689e+01 1.136914e+00 9.549162e-01 1.741793e+00 -1.788537e+00 -1.552916e+00 -1.744939e+00 -1.070461e-04 -1.723603e-01 5.954238e-01 5.977480e-01 -6.183265e-01 -6.761501e-01 8.482190e-01 1.100577e-01 1.107607e-01 3.064043e-01 -6.965283e-01 -5.275410e-01 -2.849203e-01 9.120621e-02 1.302234e-01 2.869616e-01 9.158173e-02 -1.884345e-01 -3.868830e-01 1.957143e-01
<VARIANCE> 39
 8.782585e+00 9.042839e+00 1.406188e+01 1.356079e+01 2.137301e+01 2.004961e+01 1.675442e+01 1.750571e+01 2.300626e+01 3.238195e+01 2.284680e+01 1.933663e+01 1.876232e+00 7.820311e-01 1.047562e+00 1.844002e+00 2.241769e+00 2.420024e+00 3.091466e+00 2.167312e+00 1.995719e+00 2.845887e+00 4.517573e+00 2.534237e+00 2.557955e+00 1.521739e-01 1.819637e-01 1.578765e-01 3.304170e-01 2.908257e-01 5.231501e-01 4.934143e-01 4.078153e-01 4.647932e-01 5.285750e-01 5.342113e-01 4.708552e-01 4.639821e-01 2.085379e-02
<GCONST> 9.804894e+01
<STATE> 3
<MEAN> 39
 -5.440301e+00 -9.950930e-01 -1.074093e+00 -1.743723e+01 -1.111784e+01 -1.085015e+01 -1.224046e+00 -8.494139e+00 -8.433400e-01 -2.081348e+00 -3.638321e+00 -7.930790e+00 1.848597e+01 -8.496642e-03 4.835167e-01 8.893231e-01 -2.364137e+00 -1.144143e+00 -5.097851e-01 5.890441e-02 4.471974e-01 9.431547e-01 8.675829e-03 -7.780528e-01 -1.094862e+00 6.251933e-01 -3.582193e-01 -2.501619e-01 -4.131714e-01 4.515591e-01 7.687068e-01 7.068120e-01 -1.777669e-01 1.832246e-01 -1.400630e-01 -2.292990e-01 3.375498e-01 3.467737e-01 -2.652601e-01
<VARIANCE> 39
 8.237195e+00 7.388230e+00 1.314039e+01 2.621894e+01 3.033004e+01 1.824083e+01 2.460010e+01 1.805775e+01 4.050474e+01 8.635642e+01 2.730279e+01 3.973759e+01 1.298663e+00 9.652023e-01 8.806697e-01 1.933429e+00 1.881125e+00 4.042885e+00 3.418815e+00 2.790157e+00 2.555562e+00 3.097981e+00 4.127838e+00 3.042423e+00 3.168128e+00 2.105478e-01 1.536062e-01 1.245724e-01 2.619408e-01 4.221466e-01 4.128492e-01 5.249878e-01 5.318156e-01 4.202123e-01 5.987079e-01 9.980996e-01 4.722124e-01 5.592856e-01 1.570362e-02
<GCONST> 1.032402e+02
<STATE> 4
<MEAN> 39
 -7.075576e+00 -1.085424e+00 -8.945810e-01 -2.142501e+01 -6.335163e+00 -7.937758e+00 -2.691239e+00 -5.268132e+00 6.951115e-01 -4.443335e+00 -2.150346e+00 -7.192043e+00 1.831905e+01 2.965130e-02 -2.946927e-01 3.031665e-02 5.659972e-01 1.047058e+00 6.075081e-01 -6.224483e-01 1.103260e-01 -3.789506e-01 -2.944902e-01 6.854907e-01 5.345852e-01 -3.433495e-01 8.076613e-02 -2.446270e-01 -2.726244e-01 6.666504e-01 1.780593e-01 1.011174e-01 2.009916e-01 -2.526007e-01 -1.822438e-01 -2.927919e-02 1.200364e-01 1.380547e-01 -1.676959e-01
<VARIANCE> 39
 6.500211e+00 1.073524e+01 1.807553e+01 1.846720e+01 6.510490e+01 3.409492e+01 4.015214e+01 2.413029e+01 3.186186e+01 4.342981e+01 3.828321e+01 3.645279e+01 1.367437e+00 5.212469e-01 7.045527e-01 1.118335e+00 3.303746e+00 2.189598e+00 2.763808e+00 3.080518e+00 2.207565e+00 2.795711e+00 2.997330e+00 2.596014e+00 2.434594e+00 1.350003e-01 9.057014e-02 1.512550e-01 3.299366e-01 4.507064e-01 5.483401e-01 5.807346e-01 8.476914e-01 4.367259e-01 5.732330e-01 4.799447e-01 5.352030e-01 4.444380e-01 1.487437e-02
<GCONST> 1.018216e+02
<TRANSP> 5
 0.000000e+00 1.000000e+00 0.000000e+00 0.000000e+00 0.000000e+00
 0.000000e+00 5.720563e-01 4.279437e-01 0.000000e+00 0.000000e+00
 0.000000e+00 0.000000e+00 6.770675e-01 3.229324e-01 0.000000e+00
 0.000000e+00 0.000000e+00 0.000000e+00 8.239819e-01 1.760181e-01
 0.000000e+00 0.000000e+00 0.000000e+00 0.000000e+00 0.000000e+00
<ENDHMM>
~h "iy"
<BEGINHMM>
<NUMSTATES> 5
<STATE> 2
<MEAN> 39
 -7.721553e+00 5.292239e+00 -3.462096e-01 -1.744524e+01 -1.987243e+00 -1.240071e+01 -8.252616e+00 -8.299141e+00 -3.569172e+00 -5.792124e+00 1.103140e+00 -5.729652e+00 1.834524e+01 1.319217e-01 2.173700e-01 -7.558868e-01 1.074738e+00 6.123514e-01 -4.555084e-01 7.201435e-01 -3.203891e-01 -5.580620e-01 4.101676e-02 -2.007326e-01 -7.874762e-02 -1.601169e-01 1.552928e-01 -4.797617e-01 1.307541e-01 1.825717e-01 -3.505860e-01 4.171423e-01 1.190953e-01 -6.382035e-02 1.610387e-01 -1.485263e-02 -2.135439e-02 -9.423612e-03 -3.738260e-02
<VARIANCE> 39
 6.239745e+00 1.274114e+01 1.573836e+01 2.646438e+01 2.601860e+01 2.753709e+01 4.260974e+01 4.626827e+01 3.240783e+01 4.539814e+01 4.215044e+01 3.915492e+01 1.251339e+00 3.588386e-01 1.592184e+00 9.327028e-01 1.456338e+00 2.067625e+00 2.425406e+00 2.156041e+00 2.751608e+00 1.914069e+00 1.549548e+00 1.447779e+00 1.522180e+00 2.313898e-02 6.346237e-02 1.452581e-01 1.686284e-01 2.890664e-01 3.428871e-01 3.626193e-01 5.056434e-01 4.158602e-01 3.518057e-01 3.013491e-01 2.769524e-01 2.750481e-01 3.872525e-03
<GCONST> 9.069859e+01
<STATE> 3
<MEAN> 39
 -5.299242e+00 2.030644e+00 -2.419491e+00 -1.216943e+01 -1.179886e+00 -1.136515e+01 -4.058772e+00 -9.539704e+00 -4.442590e+00 -5.296731e+00 -1.387292e+00 -6.736509e+00 1.702065e+01 9.216879e-02 -1.341887e+00 -4.543818e-01 1.071612e+00 9.792529e-02 1.303490e+00 1.009465e+00 -7.662368e-02 3.124262e-01 -7.132018e-02 2.248383e-02 2.357776e-01 -4.012878e-01 -1.874556e-01 -1.567722e-01 -6.315665e-02 -2.200899e-01 -4.058526e-02 2.063321e-01 5.765262e-02 1.472171e-01 1.698764e-01 -2.472423e-02 1.436245e-01 6.785893e-02 -3.639920e-02
<VARIANCE> 39
 5.957730e+00 1.391158e+01 1.109730e+01 2.011663e+01 2.010592e+01 2.964433e+01 3.624953e+01 3.115144e+01 2.988938e+01 3.706570e+01 3.653025e+01 3.401573e+01 1.487330e+00 7.305098e-01 1.475703e+00 1.280238e+00 1.519908e+00 1.608956e+00 2.653446e+00 3.283827e+00 3.052320e+00 3.097219e+00 2.962673e+00 2.736932e+00 2.290633e+00 7.989303e-02 9.336753e-02 1.684556e-01 1.817886e-01 2.464411e-01 3.118563e-01 3.852050e-01 4.426354e-01 5.084277e-01 4.944225e-01 4.260338e-01 4.323539e-01 3.582897e-01 7.330402e-03
<GCONST> 9.627023e+01
<STATE> 4
<MEAN> 39
 -5.671753e+00 -1.970780e+00 -4.221510e+00 -9.949875e+00 -1.173455e-01 -7.508548e+00 -1.445640e-01 -9.829754e+00 -2.541337e+00 -5.868650e+00 -1.047997e+00 -5.766096e+00 1.571726e+01 -2.169141e-01 -1.018284e+00 -3.894773e-01 3.141495e-01 -2.872675e-02 8.011230e-01 3.717040e-01 8.045875e-02 1.827156e-01 -2.183823e-01 2.257903e-01 1.815215e-01 -2.584718e-01 -3.691986e-02 1.248600e-01 1.455955e-02 -2.051388e-01 -5.857204e-02 -2.171434e-01 -1.872085e-01 2.523690e-02 -4.975091e-02 4.428978e-02 2.644460e-02 1.618672e-02 5.005693e-02
<VARIANCE> 39
 6.164360e+00 1.643373e+01 1.019638e+01 1.327023e+01 1.661854e+01 3.081072e+01 2.079048e+01 2.522459e+01 2.226805e+01 2.307959e+01 2.699829e+01 2.382180e+01 1.564254e+00 4.267697e-01 7.503607e-01 1.203939e+00 1.502106e+00 1.650575e+00 2.255490e+00 2.284318e+00 1.989505e+00 2.198809e+00 2.252725e+00 2.398872e+00 1.802787e+00 5.425671e-02 7.056658e-02 1.521202e-01 1.771769e-01 2.524189e-01 3.274843e-01 4.751992e-01 4.030377e-01 3.532358e-01 4.252460e-01 3.942551e-01 4.108687e-01 3.227338e-01 8.642131e-03
<GCONST> 8.928344e+01
<TRANSP> 5
 0.000000e+00 1.000000e+00 0.000000e+00 0.000000e+00 0.000000e+00
 0.000000e+00 8.247150e-01 1.752850e-01 0.000000e+00 0.000000e+00
 0.000000e+00 0.000000e+00 6.529227e-01 3.470772e-01 0.000000e+00
 0.000000e+00 0.000000e+00 0.000000e+00 7.516597e-01 2.483403e-01
 0.000000e+00 0.000000e+00 0.000000e+00 0.000000e+00 0.000000e+00
<ENDHMM>
~h "ow"
<BEGINHMM>
<NUMSTATES> 5
<STATE> 2
<MEAN> 39
 -4.075990e+00 -1.093423e+01 -6.989400e+00 -9.057208e+00 -4.522039e+00 -7.238770e+00 3.079471e+00 -5.406731e+00 -4.984247e+00 -7.281200e+00 -1.356730e+00 -5.033395e+00 1.802216e+01 3.483406e-01 -1.242214e-01 -6.976117e-01 2.536931e-01 4.407211e-01 -6.827294e-01 1.119247e-01 5.936362e-01 -1.158317e-01 -5.380729e-01 -3.268965e-01 4.587185e-03 2.112989e-01 6.719176e-02 1.230981e-01 -9.321049e-04 -5.578849e-02 -5.528592e-03 -3.380785e-02 -1.465635e-01 -1.962698e-02 2.005271e-01 2.996467e-02 -6.447347e-02 -5.838438e-02 -6.127538e-03
<VARIANCE> 39
 9.294433e+00 1.357864e+01 1.391143e+01 1.827999e+01 3.121048e+01 2.948127e+01 2.875851e+01 5.797549e+01 4.676292e+01 3.870365e+01 2.683483e+01 3.175594e+01 2.827463e+00 4.630630e-01 8.146001e-01 8.345752e-01 8.956228e-01 1.444377e+00 1.702336e+00 2.028472e+00 2.480707e+00 2.223809e+00 1.972478e+00 1.967053e+00 1.647316e+00 1.538713e-01 6.634655e-02 1.033136e-01 1.335626e-01 1.342834e-01 2.072525e-01 2.433141e-01 3.213515e-01 3.733793e-01 3.928990e-01 4.015773e-01 3.539089e-01 2.815023e-01 1.827214e-02
<GCONST> 9.135065e+01
<STATE> 3
<MEAN> 39
 -1.385035e+00 -9.725153e+00 -1.127008e+01 -8.838531e+00 -1.880650e+00 -1.155371e+01 6.459421e-01 -1.041142e+00 -1.605199e+00 -9.845535e+00 -4.170331e+00 -5.519883e+00 1.876899e+01 2.913637e-01 5.905466e-01 -3.092039e-01 -2.385475e-01 3.405507e-01 -2.016577e-01 -7.755372e-01 -7.251597e-02 7.943074e-01 3.581468e-01 -3.066335e-01 -4.302663e-01 -1.960916e-02 -7.411391e-02 7.043804e-02 1.968140e-01 -5.689882e-02 -8.572726e-02 2.251172e-01 -1.295949e-02 -3.058663e-01 -4.414602e-02 2.247823e-01 1.281937e-01 -3.242024e-02 -4.800890e-02
<VARIANCE> 39
 5.951252e+00 9.735435e+00 1.778786e+01 1.437520e+01 2.195322e+01 2.554693e+01 4.422834e+01 4.577211e+01 4.744286e+01 3.220908e+01 3.005181e+01 3.513330e+01 1.552694e+00 2.479434e-01 3.918930e-01 6.811794e-01 6.752944e-01 1.025636e+00 1.327291e+00 1.694919e+00 2.096421e+00 1.935903e+00 2.038116e+00 1.592209e+00 1.326099e+00 5.545234e-02 4.004263e-02 5.057904e-02 1.140797e-01 1.030390e-01 1.596446e-01 2.414927e-01 3.194330e-01 3.165222e-01 3.396286e-01 2.899894e-01 2.782128e-01 2.228260e-01 5.071309e-03
<GCONST> 8.107760e+01
<STATE> 4
<MEAN> 39
 -1.040649e+00 -5.051717e+00 -8.875851e+00 -1.162449e+01 -1.842380e+00 -8.611564e+00 -3.279374e+00 -6.634496e+00 5.479239e-01 -4.753829e+00 -1.472935e+00 -7.028035e+00 1.768213e+01 -3.205605e-01 2.720575e-01 5.492233e-01 6.168710e-02 -3.248220e-02 3.874045e-01 4.932956e-02 -5.622237e-01 -3.242464e-01 2.116960e-01 4.023501e-01 1.802002e-01 -2.197810e-01 -9.362462e-02 -9.463648e-02 2.360979e-02 5.599861e-02 -3.710185e-03 4.590502e-02 1.189443e-01 7.026906e-02 -8.992720e-02 -9.350175e-02 1.216683e-02 9.087199e-02 -2.417471e-02
<VARIANCE> 39
 8.578959e+00 8.460545e+00 2.567566e+01 1.690571e+01 1.956423e+01 2.963782e+01 3.227773e+01 3.121885e+01 3.361374e+01 3.580714e+01 3.469262e+01 3.147071e+01 2.988541e+00 3.889592e-01 5.688027e-01 8.476899e-01 1.032060e+00 1.316681e+00 1.607802e+00 1.871090e+00 2.082069e+00 2.194553e+00 2.136395e+00 1.787482e+00 1.799224e+00 5.180401e-02 5.010442e-02 7.405979e-02 1.430068e-01 1.626395e-01 2.368707e-01 2.920384e-01 3.066418e-01 3.237139e-01 3.941173e-01 3.482827e-01 3.235556e-01 3.115416e-01 5.564045e-03
<GCONST> 8.690683e+01
<TRANSP> 5
 0.000000e+00 1.000000e+00 0.000000e+00 0.000000e+00 0.000000e+00
 0.000000e+00 8.028408e-01 1.971591e-01 0.000000e+00 0.000000e+00
 0.000000e+00 0.000000e+00 7.928634e-01 2.071366e-01 0.000000e+00
 0.000000e+00 0.000000e+00 0.000000e+00 8.934565e-01 1.065435e-01
 0.000000e+00 0.000000e+00 0.000000e+00 0.000000e+00 0.000000e+00
<ENDHMM>
~h "th"
<BEGINHMM>
<NUMSTATES> 5
<STATE> 2
<MEAN> 39
 -7.675814e+00 -6.458749e+00 -5.559747e+00 -1.004661e+01 -8.578410e-01 -4.784085e+00 -4.683442e-01 -8.519007e+00 -2.516254e+00 -5.476110e+00 1.045192e+00 -3.667090e+00 1.472235e+01 -2.249826e-01 -5.173284e-02 -4.759473e-02 -8.242276e-02 7.364040e-02 -3.055021e-03 7.627331e-02 7.697783e-03 -5.689256e-02 2.695257e-02 3.769335e-02 1.132478e-01 -2.577177e-02 1.406098e-01 9.657647e-02 1.441347e-01 -1.519512e-02 -1.132197e-01 -1.130305e-01 -1.087122e-01 -1.109215e-02 -1.972169e-02 -2.350895e-02 -4.991748e-02 -8.857817e-02 7.793692e-02
<VARIANCE> 39
 4.367683e+00 5.449806e+00 7.876542e+00 9.031631e+00 1.297759e+01 1.394554e+01 1.553182e+01 1.733730e+01 1.828915e+01 1.697838e+01 1.494614e+01 1.456408e+01 1.002143e+00 4.508842e-01 7.516596e-01 1.023490e+00 1.152482e+00 1.434296e+00 1.690304e+00 1.834422e+00 2.208724e+00 2.145326e+00 1.959348e+00 1.673637e+00 1.723361e+00 6.373464e-02 9.800319e-02 1.637566e-01 2.196882e-01 2.435342e-01 3.558089e-01 3.765133e-01 3.990246e-01 4.978961e-01 4.391597e-01 4.111405e-01 3.572010e-01 3.902003e-01 9.787488e-03
<GCONST> 8.314384e+01
<STATE> 3
<MEAN> 39
 -7.924777e+00 -5.562191e+00 -3.857003e+00 -1.058428e+01 -1.280262e+00 -5.347443e+00 -9.489505e-01 -8.284004e+00 -2.695559e+00 -5.542788e+00 8.630711e-01 -3.928816e+00 1.533120e+01 1.213586e+00 1.873776e-01 1.189786e+00 5.775828e-02 -1.699566e+00 -1.201705e+00 -6.374260e-01 -1.317336e-01 1.834497e-01 -7.594836e-02 -2.714852e-01 -4.652869e-01 5.180023e-01 3.823919e-01 -1.360767e-01 2.286763e-01 8.982316e-02 -7.404193e-01 -4.175199e-01 -5.845539e-02 -6.952508e-02 1.246886e-01 4.422704e-02 -6.464395e-02 -7.044850e-02 1.300457e-01
<VARIANCE> 39
 8.622470e+00 7.782061e+00 1.107320e+01 1.423889e+01 1.879667e+01 1.771356e+01 1.750838e+01 1.923079e+01 2.141056e+01 1.942889e+01 2.203107e+01 1.437437e+01 1.302414e+00 1.002367e+00 1.237032e+00 1.273852e+00 2.291276e+00 3.186298e+00 3.830914e+00 2.344398e+00 2.980265e+00 2.790973e+00 2.762363e+00 3.478416e+00 2.724400e+00 1.081021e-01 1.765689e-01 2.325754e-01 3.025635e-01 4.952808e-01 4.812587e-01 6.858644e-01 4.775357e-01 5.688695e-01 5.498459e-01 5.878000e-01 6.673527e-01 5.053464e-01 1.478833e-02
<GCONST> 9.849004e+01
<STATE> 4
<MEAN> 39
 -1.968593e+00 -6.590520e+00 4.244968e-01 -8.359464e+00 -1.100853e+01 -1.319319e+01 -2.875289e+00 -9.030751e+00 -2.066109e+00 -5.257002e+00 3.470384e-01 -5.020618e+00 1.760304e+01 9.175555e-01 -4.212500e-01 1.227690e+00 -2.781940e-02 -2.589851e+00 -7.924306e-01 -1.575614e-01 -2.810577e-01 4.521501e-01 2.564031e-01 3.008400e-02 -3.176970e-01 5.470632e-01 -4.534754e-01 8.783102e-03 -1.330038e-01 -3.178238e-01 4.435717e-01 7.259621e-01 5.061186e-02 9.486118e-03 8.467702e-02 3.254927e-02 1.285754e-01 3.624191e-02 -1.134135e-01
<VARIANCE> 39
 5.988808e+00 1.437494e+01 1.489477e+01 3.435257e+01 3.130594e+01 4.399229e+01 2.273019e+01 2.508251e+01 2.774154e+01 2.440618e+01 3.213105e+01 2.653567e+01 1.297276e+00 1.210884e+00 1.173944e+00 1.991435e+00 3.988615e+00 3.399791e+00 6.645157e+00 3.196952e+00 3.773724e+00 3.004807e+00 2.817414e+00 3.761391e+00 2.978418e+00 9.108556e-02 1.331950e-01 3.244677e-01 3.580513e-01 7.302936e-01 9.202753e-01 9.749190e-01 7.456748e-01 7.228156e-01 5.678869e-01 5.427087e-01 5.759853e-01 4.657433e-01 1.343434e-02
<GCONST> 1.076463e+02
<TRANSP> 5
 0.000000e+00 1.000000e+00 0.000000e+00 0.000000e+00 0.000000e+00
 0.000000e+00 8.706268e-01 1.293732e-01 0.000000e+00 0.000000e+00
 0.000000e+00 0.000000e+00 6.395884e-01 3.604115e-01 0.000000e+00
 0.000000e+00 0.000000e+00 0.000000e+00 6.830928e-01 3.169071e-01
 0.000000e+00 0.000000e+00 0.000000e+00 0.000000e+00 0.000000e+00
<ENDHMM>
~h "uw"
<BEGINHMM>
<NUMSTATES> 5
<STATE> 2
<MEAN> 39
 -6.095849e+00 -6.681389e-02 2.149703e-01 -1.404083e+01 -4.693884e+00 -7.628931e+00 -5.484004e+00 -9.772905e+00 -2.286098e+00 -5.327662e+00 -1.590525e-01 -5.913721e+00 1.742179e+01 1.162081e+00 9.771625e-01 1.510417e+00 -1.001073e+00 -1.694120e+00 -1.595748e+00 -1.047230e+00 -6.013401e-01 -7.744596e-02 4.266000e-02 -5.612427e-01 -9.985049e-01 6.932536e-01 -2.459893e-01 -1.391041e-01 -4.127617e-01 1.769938e-01 3.255847e-02 3.217851e-02 1.583801e-01 1.219733e-01 -8.649928e-03 3.106697e-03 5.351308e-02 5.309542e-02 -7.558595e-02
<VARIANCE> 39
 1.302483e+01 1.148691e+01 2.114298e+01 1.999744e+01 4.124458e+01 3.379818e+01 3.016695e+01 2.613321e+01 2.711884e+01 4.631503e+01 3.601044e+01 3.996898e+01 2.621549e+00 1.425322e+00 1.133438e+00 1.964475e+00 2.335654e+00 2.400055e+00 2.342226e+00 3.032220e+00 3.027647e+00 3.538986e+00 4.238283e+00 5.356702e+00 3.282907e+00 1.335958e-01 2.549690e-01 2.335820e-01 3.205369e-01 3.823498e-01 6.662037e-01 5.847590e-01 5.895166e-01 5.860161e-01 5.544286e-01 6.993057e-01 8.118725e-01 5.582638e-01 4.330787e-02
<GCONST> 1.097186e+02
<STATE> 3
<MEAN> 39
 -3.720772e+00 5.345400e-01 9.927725e-01 -1.412709e+01 -7.989055e+00 -1.180485e+01 -6.497023e+00 -1.020533e+01 -3.647262e+00 -5.573052e+00 -5.157728e-01 -8.455075e+00 1.857903e+01 2.116611e-01 -2.519102e-01 -3.083325e-01 5.460686e-01 2.811488e-01 1.989655e-03 1.926425e-01 2.288483e-02 -9.436829e-02 1.811758e-03 1.807996e-01 1.779297e-01 -1.028180e-01 -6.540899e-02 -8.468950e-02 -1.005625e-01 7.370753e-02 1.883433e-01 1.900110e-01 9.847873e-02 2.716850e-02 5.006108e-02 -2.106518e-03 3.148289e-02 1.239415e-01 -6.977973e-02
<VARIANCE> 39
 6.296942e+00 7.933415e+00 1.126281e+01 3.268697e+01 3.753722e+01 2.281230e+01 3.398460e+01 3.141921e+01 4.008331e+01 4.966115e+01 5.938789e+01 4.134947e+01 1.046760e+00 2.544587e-01 3.501708e-01 6.826643e-01 1.113543e+00 1.405521e+00 1.555612e+00 1.596195e+00 1.785196e+00 1.882552e+00 1.747684e+00 1.872169e+00 1.686436e+00 3.719471e-02 5.917634e-02 7.296053e-02 1.138539e-01 2.099781e-01 2.267102e-01 2.824287e-01 2.930088e-01 3.340337e-01 3.670268e-01 3.532462e-01 3.766574e-01 3.265698e-01 6.732752e-03
<GCONST> 8.546681e+01
<STATE> 4
<MEAN> 39
 -2.939351e+00 -2.383030e+00 -2.502456e+00 -1.037776e+01 -3.141467e+00 -8.834021e+00 -3.362363e+00 -9.208402e+00 -2.067802e+00 -5.036778e+00 5.545958e-01 -5.122542e+00 1.661267e+01 -4.751073e-01 -5.119011e-01 -3.898121e-01 2.646945e-01 6.431602e-01 8.661066e-01 6.144146e-01 2.212513e-01 -8.678213e-04 -1.623313e-02 -6.475938e-03 2.867114e-01 -3.199244e-01 -8.591609e-02 -4.573333e-02 -2.643618e-03 -9.371953e-02 -9.958506e-02 -6.781254e-03 2.202465e-02 1.746237e-02 -1.608863e-02 -2.696609e-02 -3.272297e-02 -4.580358e-02 3.217930e-03
<VARIANCE> 39
 5.745627e+00 7.569118e+00 7.732283e+00 1.929998e+01 1.858965e+01 2.543061e+01 2.551989e+01 2.950820e+01 3.113299e+01 2.887681e+01 3.285856e+01 3.117528e+01 1.859081e+00 4.807874e-01 5.213529e-01 7.843532e-01 1.087971e+00 1.560224e+00 2.137644e+00 2.312426e+00 2.475137e+00 2.342758e+00 2.423272e+00 2.444092e+00 2.220282e+00 5.999710e-02 6.167076e-02 7.784599e-02 1.329852e-01 1.945891e-01 2.735025e-01 3.948658e-01 3.801086e-01 4.261121e-01 3.853661e-01 4.076364e-01 4.387810e-01 3.563461e-01 6.723516e-03
<GCONST> 8.786428e+01
<TRANSP> 5
 0.000000e+00 1.000000e+00 0.000000e+00 0.000000e+00 0.000000e+00
 0.000000e+00 7.645912e-01 2.354089e-01 0.000000e+00 0.000000e+00
 0.000000e+00 0.000000e+00 8.908740e-01 1.091261e-01 0.000000e+00
 0.000000e+00 0.000000e+00 0.000000e+00 8.437911e-01 1.562089e-01
 0.000000e+00 0.000000e+00 0.000000e+00 0.000000e+00 0.000000e+00
<ENDHMM>
~h "sil"
<BEGINHMM>
<NUMSTATES> 5
<STATE> 2
<MEAN> 39
 -6.882251e+00 -7.211071e+00 -5.605356e+00 -1.008640e+01 -1.107734e+00 -4.315154e+00 -3.015107e-01 -8.455571e+00 -2.676853e+00 -5.609866e+00 9.520672e-01 -4.060338e+00 1.513237e+01 -5.136923e-02 -4.788607e-02 -4.236685e-02 -2.595671e-02 -1.362038e-02 -7.141898e-03 2.081080e-03 -1.322625e-02 -1.293770e-02 -7.616404e-03 1.317313e-02 9.519479e-03 -1.710343e-02 1.429169e-02 1.686569e-02 6.344168e-03 8.156194e-03 1.112611e-02 2.133930e-03 -6.647951e-03 -2.423507e-03 -1.056446e-02 -7.349612e-03 -1.582156e-02 1.552114e-03 7.928348e-03
<VARIANCE> 39
 2.850740e+00 3.719666e+00 6.203229e+00 8.040601e+00 1.261699e+01 1.333487e+01 1.368949e+01 1.504986e+01 1.591750e+01 1.418890e+01 1.491862e+01 1.238071e+01 1.247304e+00 1.493247e-01 3.416229e-01 5.939004e-01 8.862589e-01 1.186902e+00 1.467831e+00 1.403540e+00 1.585146e+00 1.650137e+00 1.497784e+00 1.551060e+00 1.448786e+00 7.211377e-03 2.907535e-02 6.656934e-02 1.116532e-01 1.673597e-01 2.307035e-01 2.823988e-01 2.664291e-01 3.012647e-01 3.167931e-01 2.857266e-01 2.976154e-01 2.846196e-01 1.644627e-03
<GCONST> 6.701896e+01
<STATE> 3
<MEAN> 39
 -7.142851e+00 -7.292819e+00 -5.958884e+00 -1.014953e+01 -8.085895e-01 -4.336896e+00 -2.771007e-01 -8.617305e+00 -2.671414e+00 -5.531431e+00 1.028218e+00 -4.005586e+00 1.418430e+01 4.094147e-03 1.318447e-02 -2.389004e-03 2.760042e-03 -4.447069e-03 5.474766e-03 1.185285e-03 -3.280260e-03 -6.917507e-04 2.222230e-02 3.747361e-03 -6.357461e-03 9.379619e-04 -3.742853e-03 4.322624e-03 1.991243e-03 5.321461e-03 -7.239752e-03 -4.160965e-03 -2.782102e-03 8.909991e-03 6.660314e-03 1.771655e-03 -4.695996e-04 -7.913649e-03 6.346145e-04
<VARIANCE> 39
 2.938358e+00 3.369639e+00 5.943304e+00 8.331893e+00 1.250453e+01 1.422730e+01 1.552186e+01 1.608474e+01 1.639538e+01 1.398235e+01 1.564583e+01 1.337617e+01 5.450718e-01 1.388112e-01 3.184276e-01 5.880907e-01 9.158302e-01 1.203468e+00 1.680946e+00 1.690929e+00 1.805023e+00 1.738921e+00 1.438364e+00 1.631053e+00 1.484097e+00 4.827618e-03 2.900687e-02 6.696686e-02 1.240221e-01 1.901745e-01 2.567217e-01 3.613304e-01 3.552979e-01 3.813626e-01 3.635624e-01 2.926332e-01 3.367020e-01 3.116744e-01 1.099888e-03
<GCONST> 6.762031e+01
<STATE> 4
<MEAN> 39
 -8.060712e+00 -6.415591e+00 -5.878629e+00 -1.022001e+01 -1.285596e+00 -4.439039e+00 -6.562617e-01 -8.792940e+00 -2.382493e+00 -5.729531e+00 1.175471e+00 -4.354093e+00 1.449243e+01 -2.419304e-02 5.498480e-02 -6.938236e-03 7.785022e-03 -2.848466e-02 -2.948666e-02 -3.214893e-02 4.052511e-02 -1.199614e-02 -5.194973e-02 -4.701778e-02 -2.304787e-02 1.152442e-02 1.942553e-02 3.251109e-02 1.945252e-02 -2.904490e-03 2.676260e-03 -7.494661e-03 -1.457868e-02 -1.762222e-02 -1.989753e-02 -2.798343e-02 -3.043950e-02 9.637455e-03 1.611066e-02
<VARIANCE> 39
 4.595093e+00 5.353709e+00 7.791736e+00 9.741126e+00 1.187505e+01 1.365209e+01 1.508597e+01 1.710125e+01 1.743275e+01 1.596966e+01 1.578120e+01 1.335089e+01 1.072093e+00 3.074365e-01 5.260752e-01 8.330793e-01 1.140913e+00 1.204023e+00 1.565998e+00 1.477219e+00 2.034046e+00 2.094883e+00 1.779293e+00 1.787547e+00 1.498882e+00 1.223248e-02 6.618817e-02 1.114857e-01 1.633840e-01 2.238089e-01 2.255247e-01 3.056479e-01 2.691806e-01 3.962745e-01 3.970492e-01 3.360373e-01 3.358685e-01 2.725526e-01 3.954331e-03
<GCONST> 7.559057e+01
<TRANSP> 5
 0.000000e+00 1.000000e+00 0.000000e+00 0.000000e+00 0.000000e+00
 0.000000e+00 8.876931e-01 1.123069e-01 0.000000e+00 0.000000e+00
 0.000000e+00 0.000000e+00 9.357236e-01 6.427638e-02 0.000000e+00
 0.000000e+00 0.000000e+00 0.000000e+00 7.860495e-01 2.139505e-01
 0.000000e+00 0.000000e+00 0.000000e+00 0.000000e+00 0.000000e+00
<ENDHMM>
