~o
<STREAMINFO> 1 39
<VECSIZE> 39<NULLD><MFCC_E_D_A><DIAGC>
~h "f"
<BEGINHMM>
<NUMSTATES> 5
<STATE> 2
<MEAN> 39
 -7.519296e+00 -6.549138e+00 -5.845038e+00 -1.009012e+01 -1.333699e+00 -4.788063e+00 -5.368395e-01 -8.710073e+00 -2.389825e+00 -5.680439e+00 1.050633e+00 -4.320437e+00 1.504348e+01 -5.548222e-02 -1.304625e-01 -1.557340e-01 -3.841582e-02 -1.890776e-02 -6.485725e-03 5.679227e-02 8.702477e-02 -2.411177e-02 1.164260e-02 6.649897e-02 7.873210e-02 -1.962837e-04 2.018665e-01 -2.078026e-03 -7.203781e-02 -5.971316e-03 1.360424e-02 -1.107600e-01 -6.773104e-02 5.075616e-02 -1.992749e-02 -4.816082e-02 -9.853826e-02 -7.675456e-02 1.039611e-01
<VARIANCE> 39
 8.073206e+00 5.089565e+00 7.842414e+00 9.890972e+00 1.215498e+01 1.491753e+01 1.457722e+01 1.701996e+01 1.618811e+01 1.523016e+01 1.671677e+01 1.422198e+01 1.754819e+00 8.976131e-01 6.145802e-01 1.050132e+00 1.041237e+00 1.271729e+00 1.774067e+00 1.530799e+00 2.120382e+00 1.988306e+00 1.656127e+00 1.964203e+00 1.607464e+00 1.440271e-01 1.579591e-01 1.524369e-01 2.379417e-01 2.367545e-01 2.821785e-01 3.889865e-01 3.141776e-01 4.383983e-01 4.249427e-01 3.426180e-01 4.058512e-01 3.226669e-01 1.885861e-02
<GCONST> 8.516327e+01
<STATE> 3
<MEAN> 39
 -6.419394e+00 -7.052049e+00 -6.767194e+00 -1.027663e+01 -1.255816e+00 -5.405477e+00 -7.301136e-01 -7.745368e+00 -2.541902e+00 -5.785166e+00 6.716422e-01 -4.407380e+00 1.570544e+01 9.601379e-01 -2.495841e-01 -7.212244e-01 -1.107071e-01 9.415473e-02 -5.439143e-01 -1.283083e-01 3.945953e-01 -1.709274e-01 -1.829617e-01 -3.747779e-01 -2.135399e-01 5.247058e-01 1.967913e-01 -7.479820e-02 -1.992608e-01 -2.872331e-02 3.163590e-02 -1.023478e-01 -2.213469e-02 2.122110e-02 -7.754656e-02 -2.868958e-02 -9.085870e-02 -7.211651e-02 1.170233e-01
<VARIANCE> 39
 1.288848e+01 7.641492e+00 1.165614e+01 1.065798e+01 1.222852e+01 1.636558e+01 1.575891e+01 2.435807e+01 1.864027e+01 1.670511e+01 1.811269e+01 1.473482e+01 3.164910e+00 1.470255e+00 1.355245e+00 1.609408e+00 1.630776e+00 1.492505e+00 2.081396e+00 1.908702e+00 3.284303e+00 2.497783e+00 2.276885e+00 2.255800e+00 1.848911e+00 2.652845e-01 2.796533e-01 2.039931e-01 3.008479e-01 3.202636e-01 2.813074e-01 3.996581e-01 3.408335e-01 5.441899e-01 4.706107e-01 4.087620e-01 4.311301e-01 3.812408e-01 3.912833e-02
<GCONST> 9.551244e+01
<STATE> 4
<MEAN> 39
 -2.470506e+00 -8.868078e+00 -1.085724e+01 -1.057017e+01 -4.115024e-01 -7.534725e+00 -8.488474e-01 -5.621704e+00 -3.754911e+00 -6.882239e+00 -1.187472e+00 -4.865815e+00 1.822375e+01 5.747824e-01 -5.058264e-01 -6.706892e-01 1.222396e-01 1.338229e-01 -3.962236e-01 6.587249e-02 1.091771e-01 -4.220444e-01 -1.097040e-01 -1.954512e-01 -8.072814e-02 4.619561e-01 -2.042079e-01 6.629463e-02 1.875302e-01 3.369943e-02 -5.900428e-02 1.449829e-01 1.707713e-02 -1.762372e-01 6.930670e-02 1.311072e-01 1.428389e-01 1.473126e-02 -9.231615e-02
<VARIANCE> 39
 1.440941e+01 2.746654e+01 2.213800e+01 2.614816e+01 2.146204e+01 1.933332e+01 2.238612e+01 4.272740e+01 2.918620e+01 2.977236e+01 3.146449e+01 2.222153e+01 3.696995e+00 1.666571e+00 1.715403e+00 1.883563e+00 2.252412e+00 1.672230e+00 1.788275e+00 1.953013e+00 2.779159e+00 2.887363e+00 2.557027e+00 2.588368e+00 2.188870e+00 2.491058e-01 2.393450e-01 1.815889e-01 3.287852e-01 2.429415e-01 2.689557e-01 3.106048e-01 3.298156e-01 5.544031e-01 4.958572e-01 4.219358e-01 4.206412e-01 3.587728e-01 3.942561e-02
<GCONST> 1.026281e+02
<TRANSP> 5
 0.000000e+00 1.000000e+00 0.000000e+00 0.000000e+00 0.000000e+00
 0.000000e+00 7.656794e-01 2.343205e-01 0.000000e+00 0.000000e+00
 0.000000e+00 0.000000e+00 6.502756e-01 3.497244e-01 0.000000e+00
 0.000000e+00 0.000000e+00 0.000000e+00 7.113504e-01 2.886496e-01
 0.000000e+00 0.000000e+00 0.000000e+00 0.000000e+00 0.000000e+00
<ENDHMM>
~h "k"
<BEGINHMM>
<NUMSTATES> 5
<STATE> 2
<MEAN> 39
 -7.517120e+00 -4.459631e+00 -3.513755e+00 -1.364072e+01 -3.165083e+00 -4.453315e+00 -2.422647e+00 -7.637021e+00 -1.407685e+00 -5.210151e+00 1.282154e-01 -4.674882e+00 1.572173e+01 -1.449678e-01 -7.271321e-01 -7.462191e-01 1.186806e+00 5.022259e-01 4.812954e-01 5.852925e-01 -2.902268e-01 -1.973596e-01 -1.457928e-01 2.525045e-01 3.004441e-01 -4.218185e-01 -4.082788e-02 5.164932e-02 2.622834e-02 -1.170176e-01 -1.887158e-01 -1.246473e-01 8.006949e-02 2.321929e-02 2.198144e-02 6.945027e-02 -1.081596e-01 -9.675867e-02 6.114786e-02
<VARIANCE> 39
 9.176106e+00 1.420000e+01 1.954346e+01 4.143147e+01 3.454487e+01 2.563880e+01 3.240658e+01 2.556458e+01 2.188132e+01 2.647846e+01 2.309822e+01 1.907278e+01 3.200552e+00 7.882862e-01 1.460402e+00 2.458251e+00 3.651470e+00 4.096874e+00 3.010987e+00 4.156849e+00 2.646344e+00 2.583783e+00 2.877975e+00 2.629154e+00 2.328224e+00 2.156276e-01 1.265958e-01 2.393864e-01 4.843202e-01 7.298689e-01 6.562700e-01 5.478930e-01 8.562774e-01 5.571714e-01 5.128270e-01 5.249503e-01 5.113289e-01 4.255033e-01 3.553041e-02
<GCONST> 1.074186e+02
<STATE> 3
<MEAN> 39
 -8.030951e+00 -5.844059e+00 -4.820506e+00 -1.167106e+01 -2.868049e+00 -3.757658e+00 -1.118426e+00 -8.175879e+00 -1.754263e+00 -5.151132e+00 2.805970e-01 -4.254864e+00 1.501956e+01 -1.835907e-01 -3.612214e-01 -4.161085e-01 6.926808e-01 7.567526e-02 2.417325e-01 3.088019e-01 -1.349485e-01 -1.158635e-01 -8.792681e-03 7.933842e-02 7.671136e-02 -2.034645e-01 1.297071e-02 1.332916e-01 1.210017e-01 -1.609646e-01 -9.432697e-02 -8.683093e-02 -1.221293e-01 3.366842e-02 2.852706e-02 2.816125e-02 -4.204624e-02 -7.195906e-02 7.832593e-02
<VARIANCE> 39
 8.634684e+00 1.105966e+01 1.343537e+01 2.879254e+01 2.506449e+01 1.834423e+01 2.092644e+01 2.113086e+01 1.928396e+01 2.210665e+01 2.000048e+01 1.705631e+01 2.217669e+00 7.020306e-01 1.176449e+00 1.851990e+00 2.720379e+00 2.865592e+00 2.188047e+00 2.803055e+00 2.354249e+00 2.203355e+00 2.331095e+00 2.069633e+00 1.922647e+00 1.303269e-01 1.110988e-01 2.010947e-01 4.019041e-01 4.865104e-01 5.709825e-01 4.573260e-01 5.982912e-01 4.870714e-01 4.488094e-01 4.523479e-01 4.273247e-01 3.725971e-01 2.315556e-02
<GCONST> 9.802228e+01
<STATE> 4
<MEAN> 39
 -8.458909e+00 -6.262524e+00 -6.102190e+00 -9.492312e+00 -2.734059e+00 -3.063014e+00 -8.625940e-01 -8.432476e+00 -2.497577e+00 -4.910507e+00 6.872440e-01 -4.228707e+00 1.468795e+01 -6.656395e-02 -3.821927e-02 -1.487003e-01 2.580106e-01 4.425977e-02 8.006887e-02 1.064297e-02 -5.644777e-02 -9.773753e-02 5.125972e-03 6.356589e-03 -3.474369e-04 -4.268932e-02 2.166907e-02 3.777244e-02 3.879965e-02 -6.030748e-02 -3.048231e-03 -4.491741e-02 -2.052607e-02 4.931601e-03 -8.462497e-03 2.436425e-03 -9.845991e-03 -6.829084e-03 2.095420e-02
<VARIANCE> 39
 7.004584e+00 9.076421e+00 1.176045e+01 1.737510e+01 1.942456e+01 1.716049e+01 1.684607e+01 1.724743e+01 1.814212e+01 1.737549e+01 1.566995e+01 1.404953e+01 1.322515e+00 4.814198e-01 8.589900e-01 1.160918e+00 1.546538e+00 1.830818e+00 1.780516e+00 1.976843e+00 1.924774e+00 1.964659e+00 1.856598e+00 1.736306e+00 1.469947e+00 4.194129e-02 7.967050e-02 1.679447e-01 2.333122e-01 2.900812e-01 3.506577e-01 3.639099e-01 4.106734e-01 3.872029e-01 4.007908e-01 3.776359e-01 3.525521e-01 3.093098e-01 7.670074e-03
<GCONST> 8.545806e+01
<TRANSP> 5
 0.000000e+00 1.000000e+00 0.000000e+00 0.000000e+00 0.000000e+00
 0.000000e+00 5.835840e-01 4.164160e-01 0.000000e+00 0.000000e+00
 0.000000e+00 0.000000e+00 5.340337e-01 4.659663e-01 0.000000e+00
 0.000000e+00 0.000000e+00 0.000000e+00 7.993081e-01 2.006920e-01
 0.000000e+00 0.000000e+00 0.000000e+00 0.000000e+00 0.000000e+00
<ENDHMM>
~h "n"
<BEGINHMM>
<NUMSTATES> 5
<STATE> 2
<MEAN> 39
 -4.434443e+00 -3.251594e+00 -1.758247e+00 -1.013255e+01 -2.126678e+00 -6.510800e+00 -2.688556e+00 -1.063313e+01 -4.485010e+00 -8.537848e+00 -2.884210e+00 -7.578591e+00 1.733169e+01 1.941187e-01 4.676771e-01 1.899186e-01 2.697591e-02 3.153993e-01 -1.590550e-01 -2.131634e-01 -9.572475e-02 -2.257348e-01 1.567323e-02 1.138246e-02 -2.864207e-02 -4.120880e-02 -1.732547e-02 -1.331631e-01 -8.044165e-02 9.906676e-02 -4.446600e-02 1.032932e-02 1.105380e-01 3.376925e-02 -1.060522e-02 3.744247e-02 3.742844e-02 2.346969e-02 -3.175324e-03
<VARIANCE> 39
 9.820292e+00 1.608346e+01 1.262815e+01 2.006170e+01 2.775301e+01 3.111130e+01 3.043731e+01 2.966789e+01 4.054398e+01 3.789982e+01 3.473106e+01 3.636910e+01 1.894996e+00 6.078768e-01 1.395428e+00 1.245463e+00 1.726577e+00 2.204253e+00 2.494184e+00 2.615701e+00 2.378131e+00 2.731202e+00 2.434551e+00 2.156491e+00 1.868498e+00 7.829206e-02 9.524606e-02 1.987757e-01 2.163425e-01 2.868471e-01 3.880782e-01 4.490110e-01 4.611807e-01 4.164367e-01 5.041182e-01 4.633091e-01 4.004319e-01 3.429856e-01 7.689097e-03
<GCONST> 9.738149e+01
<STATE> 3
<MEAN> 39
 -3.928729e+00 -2.776197e+00 -1.556399e+00 -9.442826e+00 -1.509125e+00 -6.577798e+00 -2.345056e+00 -1.049492e+01 -4.708324e+00 -7.510849e+00 -2.122689e+00 -6.906464e+00 1.699783e+01 -7.790242e-02 -1.650006e-01 -1.558274e-01 1.766470e-01 7.297694e-02 1.691889e-01 2.093109e-01 2.060435e-02 8.494979e-03 1.100429e-01 1.055557e-01 1.104984e-01 -8.675983e-02 -9.064873e-02 -1.777776e-01 -1.208908e-01 2.627692e-02 -5.395352e-02 7.302407e-02 9.614377e-02 5.709878e-02 6.421503e-02 -2.540241e-03 3.045597e-02 3.421864e-02 -1.028819e-02
<VARIANCE> 39
 7.547301e+00 1.312883e+01 1.211280e+01 1.598533e+01 2.395164e+01 2.761097e+01 2.643308e+01 2.631137e+01 3.690786e+01 3.153415e+01 3.106041e+01 3.290813e+01 1.826975e+00 6.307632e-01 1.333353e+00 1.217808e+00 1.446697e+00 2.039656e+00 2.374738e+00 2.405486e+00 2.192719e+00 2.604748e+00 2.077390e+00 2.074018e+00 1.770951e+00 8.624112e-02 8.927418e-02 1.781660e-01 2.035710e-01 2.689588e-01 3.494709e-01 4.249040e-01 4.301376e-01 4.014055e-01 4.492933e-01 4.033543e-01 3.779986e-01 3.206519e-01 7.685977e-03
<GCONST> 9.394614e+01
<STATE> 4
<MEAN> 39
 -4.849596e+00 -4.354127e+00 -2.833748e+00 -8.759868e+00 -8.995436e-01 -4.958742e+00 -1.145834e+00 -9.826101e+00 -3.886530e+00 -6.882118e+00 -1.110279e+00 -6.041124e+00 1.625474e+01 -2.568259e-01 -4.037514e-01 -3.498568e-01 8.851852e-02 -3.122130e-02 2.082843e-01 2.367483e-01 1.312457e-01 1.229865e-01 8.643410e-02 1.567661e-01 1.450711e-01 -9.344635e-02 -2.136681e-02 -3.377526e-02 -4.053807e-02 -1.153640e-02 -2.731071e-02 -3.118902e-02 -1.144589e-02 2.454856e-02 8.503022e-03 3.839117e-04 1.781484e-02 1.130736e-02 7.601361e-03
<VARIANCE> 39
 8.009856e+00 1.306791e+01 1.275775e+01 1.397032e+01 2.093187e+01 2.596716e+01 2.350941e+01 2.421475e+01 3.108788e+01 2.367283e+01 2.627781e+01 2.614388e+01 2.418499e+00 4.420424e-01 9.276494e-01 9.705718e-01 1.331826e+00 1.475577e+00 1.876505e+00 1.805671e+00 2.004932e+00 2.189348e+00 1.772097e+00 1.792722e+00 1.635103e+00 6.692143e-02 6.909876e-02 1.339641e-01 1.616530e-01 2.365862e-01 2.852193e-01 3.578044e-01 3.506915e-01 3.726765e-01 3.901086e-01 3.321262e-01 3.360332e-01 2.899323e-01 6.746438e-03
<GCONST> 8.793316e+01
<TRANSP> 5
 0.000000e+00 1.000000e+00 0.000000e+00 0.000000e+00 0.000000e+00
 0.000000e+00 7.020266e-01 2.979734e-01 0.000000e+00 0.000000e+00
 0.000000e+00 0.000000e+00 6.627020e-01 3.372980e-01 0.000000e+00
 0.000000e+00 0.000000e+00 0.000000e+00 7.913493e-01 2.086507e-01
 0.000000e+00 0.000000e+00 0.000000e+00 0.000000e+00 0.000000e+00
<ENDHMM>
~h "r"
<BEGINHMM>
<NUMSTATES> 5
<STATE> 2
<MEAN> 39
 -3.311446e+00 -5.614097e+00 1.148350e+00 -1.222840e+01 -1.153542e+01 -9.681982e+00 -2.651355e+00 -7.789809e+00 -1.180001e-01 -4.732696e+00 5.763498e-02 -5.573130e+00 1.835404e+01 -1.891649e-02 -1.354879e-01 2.666838e-01 -3.205892e-01 -1.684648e-01 3.519168e-01 -1.655022e-01 7.444853e-02 1.105473e-01 -7.436714e-02 3.810888e-02 -9.050070e-02 6.418257e-02 -9.612642e-02 1.224491e-01 -1.168270e-01 -3.754277e-02 2.579726e-01 9.020515e-02 -2.146512e-02 -1.917396e-02 -5.345757e-02 -2.777615e-02 5.609526e-03 1.071228e-02 -4.622621e-02
<VARIANCE> 39
 1.087894e+01 3.378886e+01 2.347006e+01 5.411340e+01 6.335990e+01 5.842930e+01 4.521951e+01 4.456130e+01 3.113523e+01 3.290860e+01 3.622239e+01 3.761398e+01 1.479755e+00 7.757467e-01 2.096047e+00 1.806820e+00 3.863420e+00 4.679625e+00 4.967332e+00 4.120047e+00 3.436959e+00 2.778421e+00 2.080247e+00 1.855682e+00 1.919384e+00 5.518474e-02 1.118829e-01 2.158809e-01 2.913491e-01 5.937811e-01 7.191457e-01 9.475242e-01 7.833115e-01 6.282373e-01 5.150882e-01 3.855951e-01 3.666836e-01 3.593871e-01 7.529972e-03
<GCONST> 1.083481e+02
<STATE> 3
<MEAN> 39
 -3.543321e+00 -5.512742e+00 1.438788e+00 -1.402764e+01 -1.088724e+01 -8.466963e+00 -3.434726e+00 -7.072521e+00 1.210235e-01 -5.111654e+00 2.152817e-02 -5.952866e+00 1.843096e+01 -2.717930e-01 4.028721e-01 -2.743205e-01 -3.948250e-01 8.435423e-01 1.433281e-01 -1.660056e-01 1.629425e-01 -1.421563e-01 -1.388889e-01 2.591756e-03 -5.766288e-02 -4.109381e-02 -3.975495e-02 9.776769e-02 -1.860610e-01 1.041082e-01 2.239345e-01 -1.141363e-01 7.438425e-02 -1.084084e-03 -1.037872e-01 -1.100198e-02 -5.563891e-03 2.307451e-02 -2.874628e-02
<VARIANCE> 39
 9.724149e+00 3.744483e+01 2.556001e+01 5.683817e+01 6.629533e+01 5.734693e+01 4.982383e+01 4.964210e+01 3.221335e+01 3.358335e+01 3.683997e+01 3.842655e+01 1.432222e+00 7.209961e-01 2.266062e+00 1.650239e+00 3.841029e+00 4.506220e+00 5.178102e+00 4.578955e+00 3.449894e+00 2.724369e+00 2.101676e+00 1.753899e+00 1.725087e+00 4.663787e-02 7.707796e-02 1.887077e-01 2.424516e-01 5.073258e-01 7.013779e-01 8.584005e-01 7.350430e-01 5.943573e-01 4.968186e-01 3.650752e-01 3.434830e-01 3.197935e-01 4.568958e-03
<GCONST> 1.065816e+02
<STATE> 4
<MEAN> 39
 -4.475066e+00 -3.542212e+00 -8.507049e-01 -1.461062e+01 -6.798715e+00 -8.747482e+00 -3.032956e+00 -6.537586e+00 -8.625402e-01 -5.292788e+00 -4.940758e-01 -6.385594e+00 1.809876e+01 -2.439898e-01 4.134513e-01 -6.467444e-01 1.587382e-01 9.850681e-01 -1.262586e-01 1.354723e-01 -3.987435e-03 -3.187521e-01 -1.210171e-01 7.240875e-04 5.940321e-02 -1.059863e-01 4.122638e-02 -5.542292e-02 -5.638828e-02 1.346948e-01 -5.749794e-02 -2.815267e-02 4.676470e-02 -2.142496e-02 -7.490766e-04 6.025103e-04 1.909134e-03 3.595362e-02 -1.098467e-02
<VARIANCE> 39
 1.288367e+01 5.161317e+01 2.657331e+01 4.894260e+01 5.074216e+01 5.091773e+01 4.924014e+01 4.436089e+01 3.437949e+01 3.687255e+01 3.621910e+01 3.716513e+01 1.737713e+00 5.510792e-01 1.628202e+00 1.164130e+00 2.220401e+00 2.962938e+00 3.858559e+00 3.202206e+00 2.761523e+00 2.393819e+00 2.325690e+00 1.681027e+00 1.745819e+00 4.906821e-02 7.089876e-02 1.667588e-01 1.908722e-01 3.279974e-01 4.574514e-01 6.077204e-01 5.281157e-01 4.617774e-01 4.458008e-01 3.927297e-01 3.170927e-01 3.156479e-01 4.997888e-03
<GCONST> 1.017896e+02
<TRANSP> 5
 0.000000e+00 1.000000e+00 0.000000e+00 0.000000e+00 0.000000e+00
 0.000000e+00 6.846156e-01 3.153844e-01 0.000000e+00 0.000000e+00
 0.000000e+00 0.000000e+00 6.358587e-01 3.641413e-01 0.000000e+00
 0.000000e+00 0.000000e+00 0.000000e+00 6.275989e-01 3.724011e-01
 0.000000e+00 0.000000e+00 0.000000e+00 0.000000e+00 0.000000e+00
<ENDHMM>
~h "s"
<BEGINHMM>
<NUMSTATES> 5
<STATE> 2
<MEAN> 39
 -8.037153e+00 -5.561022e+00 -6.394094e+00 -9.163883e+00 -2.005419e+00 -3.446825e+00 -9.956494e-01 -8.244498e+00 -2.876194e+00 -5.141499e+00 7.602732e-01 -4.072958e+00 1.473124e+01 -3.052391e-01 -1.318812e-01 -3.274268e-01 9.541701e-02 2.312982e-03 2.342446e-01 2.852581e-02 3.539554e-02 -2.585340e-02 6.619325e-02 4.856212e-02 1.765653e-01 -1.151857e-01 7.777598e-02 6.305800e-02 6.673321e-02 -6.822093e-02 -5.559463e-02 -1.180596e-01 -4.962399e-02 -1.990544e-02 -2.014874e-02 -2.391358e-02 -4.477843e-02 -4.797568e-02 5.182694e-02
<VARIANCE> 39
 8.366051e+00 9.176250e+00 1.216683e+01 1.333470e+01 1.617107e+01 1.790997e+01 1.725109e+01 1.690354e+01 1.952486e+01 1.667728e+01 1.709635e+01 1.430389e+01 1.305702e+00 6.692188e-01 7.649162e-01 1.118090e+00 1.257066e+00 1.683879e+00 2.224883e+00 1.855107e+00 1.960544e+00 2.274145e+00 1.894578e+00 1.838192e+00 1.654869e+00 6.928689e-02 1.005181e-01 1.532708e-01 2.110929e-01 2.635462e-01 3.363517e-01 4.275450e-01 3.827600e-01 4.039049e-01 4.560360e-01 3.613849e-01 3.478894e-01 3.178445e-01 9.832921e-03
<GCONST> 8.669405e+01
<STATE> 3
<MEAN> 39
 -8.593134e+00 -5.604412e+00 -7.074546e+00 -8.938480e+00 -2.197201e+00 -3.253385e+00 -1.270786e+00 -8.181334e+00 -3.064491e+00 -5.132045e+00 7.430772e-01 -3.814651e+00 1.461069e+01 -4.872974e-02 1.557413e-02 -1.059677e-01 1.942896e-02 -5.366157e-02 -2.655243e-02 -3.262985e-02 -5.228771e-03 -2.621395e-02 -2.655574e-03 -2.473762e-02 4.284808e-02 2.684756e-04 9.307542e-02 6.516058e-02 8.825084e-02 -8.348592e-02 -4.195208e-02 -9.428253e-02 5.608347e-03 -4.682562e-03 1.614528e-02 -2.411074e-02 -4.621562e-02 -6.494851e-02 5.366389e-02
<VARIANCE> 39
 7.161201e+00 8.350173e+00 1.122677e+01 1.299739e+01 1.590642e+01 1.750629e+01 1.663367e+01 1.692665e+01 1.806340e+01 1.629424e+01 1.575239e+01 1.389063e+01 1.067734e+00 4.582199e-01 6.126819e-01 8.964258e-01 1.132497e+00 1.416788e+00 1.898287e+00 1.636981e+00 1.835340e+00 1.965715e+00 1.730749e+00 1.660241e+00 1.513131e+00 4.627490e-02 8.601379e-02 1.243440e-01 1.763367e-01 2.633447e-01 3.196815e-01 4.123841e-01 3.628182e-01 3.950976e-01 4.030670e-01 3.657907e-01 3.443120e-01 3.306297e-01 1.122199e-02
<GCONST> 8.291239e+01
<STATE> 4
<MEAN> 39
 -8.399795e+00 -5.554456e+00 -7.076143e+00 -9.125459e+00 -2.361514e+00 -3.516438e+00 -1.070607e+00 -8.043078e+00 -3.093052e+00 -5.217252e+00 5.569486e-01 -3.904577e+00 1.475162e+01 1.629488e-01 1.375014e-01 9.809212e-02 -2.007882e-01 -1.257971e-01 -2.275831e-01 5.402234e-02 -2.956345e-02 3.115869e-02 -4.086803e-02 -1.569891e-01 -7.054937e-02 1.260399e-01 1.036138e-01 6.549066e-02 1.049613e-01 -1.632002e-01 -9.053944e-02 -1.236670e-01 3.270470e-02 -2.883557e-03 4.219659e-02 1.776504e-03 -6.762763e-02 -7.973607e-02 7.908893e-02
<VARIANCE> 39
 7.321434e+00 8.281159e+00 1.140287e+01 1.384011e+01 1.744947e+01 1.856804e+01 1.664503e+01 1.726376e+01 1.812103e+01 1.859304e+01 1.687982e+01 1.469589e+01 1.416475e+00 5.356929e-01 6.402216e-01 9.297564e-01 1.361143e+00 1.558088e+00 2.125539e+00 1.692805e+00 1.912520e+00 1.959506e+00 1.979416e+00 1.792833e+00 1.756215e+00 1.023802e-01 9.744330e-02 1.242026e-01 1.904281e-01 2.806315e-01 3.427479e-01 4.372065e-01 3.421994e-01 3.964368e-01 4.013598e-01 3.876055e-01 3.684137e-01 3.715997e-01 1.690607e-02
<GCONST> 8.655922e+01
<TRANSP> 5
 0.000000e+00 1.000000e+00 0.000000e+00 0.000000e+00 0.000000e+00
 0.000000e+00 6.754324e-01 3.245676e-01 0.000000e+00 0.000000e+00
 0.000000e+00 0.000000e+00 6.414126e-01 3.585874e-01 0.000000e+00
 0.000000e+00 0.000000e+00 0.000000e+00 6.711881e-01 3.288119e-01
 0.000000e+00 0.000000e+00 0.000000e+00 0.000000e+00 0.000000e+00
<ENDHMM>
~h "t"
<BEGINHMM>
<NUMSTATES> 5
<STATE> 2
<MEAN> 39
 -7.510971e+00 -3.523586e+00 -5.013618e+00 -1.077099e+01 -1.401898e+00 -6.925846e+00 -1.871834e+00 -9.138817e+00 -3.010283e+00 -5.777606e+00 7.240086e-01 -4.429056e+00 1.549583e+01 -2.993901e-01 -4.017893e-01 -1.568383e-01 2.147632e-01 -3.091015e-02 6.274196e-01 1.103212e-01 1.687827e-01 1.560008e-01 -2.762556e-03 1.258098e-01 1.821838e-01 -1.632789e-01 -2.113692e-02 1.040021e-01 -1.388592e-02 -9.147764e-02 -7.031097e-04 -4.124955e-02 -1.792223e-02 2.986061e-02 3.603669e-02 2.730893e-02 -1.649277e-02 -3.117718e-02 4.196393e-02
<VARIANCE> 39
 1.071459e+01 2.030360e+01 1.486516e+01 1.745633e+01 1.696620e+01 2.901123e+01 2.400136e+01 2.180784e+01 2.495328e+01 2.053404e+01 2.150881e+01 2.126305e+01 2.284142e+00 1.023935e+00 2.560362e+00 1.463390e+00 1.809785e+00 1.664438e+00 3.193472e+00 2.654909e+00 2.204647e+00 2.868915e+00 2.298144e+00 2.673483e+00 2.072869e+00 1.669715e-01 1.750889e-01 3.375387e-01 2.722231e-01 3.291032e-01 3.213362e-01 5.950072e-01 4.666948e-01 4.399595e-01 5.134803e-01 4.395502e-01 5.159877e-01 3.684457e-01 1.832391e-02
<GCONST> 9.982499e+01
<STATE> 3
<MEAN> 39
 -8.251869e+00 -3.812331e+00 -5.313990e+00 -1.080091e+01 -1.530997e+00 -5.829390e+00 -1.895534e+00 -8.646404e+00 -2.461856e+00 -5.593744e+00 9.639798e-01 -4.060909e+00 1.534172e+01 -1.753820e-01 -1.416388e-01 -3.321255e-02 -3.923615e-02 -4.274066e-02 3.563212e-01 -2.274998e-04 1.727259e-01 1.696591e-01 5.023519e-02 4.246616e-02 8.171923e-02 -3.936067e-02 8.446801e-02 9.861148e-02 8.774147e-02 -9.399518e-02 -1.465561e-02 -1.271683e-01 -3.388305e-02 -3.613230e-02 -3.034103e-02 2.000535e-03 -2.334647e-02 -4.809833e-02 4.987429e-02
<VARIANCE> 39
 1.090366e+01 1.684737e+01 1.549555e+01 1.865077e+01 1.674224e+01 2.489960e+01 2.170295e+01 2.111046e+01 2.265526e+01 2.098959e+01 1.968015e+01 2.022810e+01 2.099602e+00 1.075832e+00 2.030499e+00 1.553607e+00 1.748340e+00 1.802984e+00 2.704820e+00 2.432698e+00 2.228780e+00 2.645046e+00 2.319784e+00 2.445158e+00 1.961210e+00 1.620491e-01 1.876404e-01 3.177886e-01 2.757079e-01 3.225661e-01 3.528462e-01 5.126291e-01 4.744744e-01 4.422175e-01 5.209011e-01 4.537442e-01 4.970981e-01 3.675007e-01 1.908871e-02
<GCONST> 9.861537e+01
<STATE> 4
<MEAN> 39
 -7.927238e+00 -4.061738e+00 -5.247938e+00 -1.117783e+01 -1.855901e+00 -5.560255e+00 -1.890449e+00 -8.471872e+00 -1.969760e+00 -5.488125e+00 1.294821e+00 -4.036483e+00 1.538228e+01 7.284488e-02 -9.587482e-04 1.321477e-01 -1.007609e-01 -2.273378e-02 9.495979e-02 -9.498072e-03 2.709882e-02 6.952332e-03 -1.729977e-02 -2.524894e-02 -1.654070e-02 3.823547e-02 1.007575e-01 6.202415e-02 7.881998e-02 -4.233863e-02 -3.521691e-02 -1.025442e-01 -2.931080e-02 -5.123898e-02 -5.138921e-02 -5.779295e-03 -3.015907e-02 -4.961897e-02 4.286191e-02
<VARIANCE> 39
 1.118407e+01 1.499002e+01 1.524024e+01 1.920859e+01 1.764558e+01 2.395127e+01 1.950379e+01 1.965242e+01 2.181934e+01 1.937321e+01 1.945194e+01 1.828064e+01 2.437385e+00 8.253013e-01 1.082567e+00 1.251206e+00 1.393504e+00 1.664964e+00 2.048697e+00 1.953643e+00 2.032057e+00 2.030229e+00 1.934636e+00 2.077594e+00 1.785720e+00 9.582642e-02 1.413314e-01 1.969832e-01 2.245902e-01 2.682330e-01 3.546853e-01 4.061387e-01 3.968047e-01 3.989763e-01 4.401968e-01 3.717669e-01 4.457097e-01 3.529208e-01 1.390046e-02
<GCONST> 9.256110e+01
<TRANSP> 5
 0.000000e+00 1.000000e+00 0.000000e+00 0.000000e+00 0.000000e+00
 0.000000e+00 6.248201e-01 3.751799e-01 0.000000e+00 0.000000e+00
 0.000000e+00 0.000000e+00 6.263059e-01 3.736941e-01 0.000000e+00
 0.000000e+00 0.000000e+00 0.000000e+00 7.400711e-01 2.599289e-01
 0.000000e+00 0.000000e+00 0.000000e+00 0.000000e+00 0.000000e+00
<ENDHMM>
~h "v"
<BEGINHMM>
<NUMSTATES> 5
<STATE> 2
<MEAN> 39
 -5.278624e+00 -7.487235e+00 -4.119013e+00 -1.396148e+01 -3.858995e+00 -4.052745e+00 2.061420e+00 -7.735629e+00 -3.885012e+00 -6.830724e+00 -2.320013e+00 -6.039538e+00 1.811130e+01 1.956385e-01 6.461824e-01 3.355953e-01 2.117722e-01 -1.316409e-01 -4.523441e-01 -3.290414e-01 1.224171e-01 3.121481e-01 1.225205e-01 9.007572e-02 -2.586958e-02 -2.275014e-01 -1.885793e-02 -1.377796e-02 7.335268e-03 2.920809e-01 9.344213e-02 -1.111910e-01 -1.192437e-01 -1.145798e-01 -8.113295e-03 6.634696e-02 1.195261e-01 2.108933e-02 -5.407412e-02
<VARIANCE> 39
 8.662356e+00 1.758666e+01 1.114208e+01 2.799638e+01 4.075349e+01 3.095971e+01 2.438125e+01 3.920104e+01 3.957411e+01 3.326904e+01 3.144082e+01 2.775586e+01 2.384635e+00 5.611340e-01 1.299163e+00 9.048917e-01 2.541760e+00 2.869502e+00 2.324202e+00 2.048403e+00 2.465344e+00 2.697198e+00 2.416205e+00 2.478164e+00 1.831309e+00 1.184579e-01 1.094209e-01 1.652446e-01 1.759336e-01 5.034461e-01 5.594774e-01 4.841036e-01 4.008404e-01 4.554102e-01 4.279892e-01 4.460076e-01 5.217907e-01 3.621300e-01 1.809730e-02
<GCONST> 9.978172e+01
<STATE> 3
<MEAN> 39
 -4.829480e+00 -5.629207e+00 -3.197551e+00 -1.212733e+01 -3.627509e+00 -5.449431e+00 8.628679e-01 -7.943560e+00 -3.062975e+00 -6.110129e+00 -1.497150e+00 -5.883736e+00 1.708873e+01 1.234687e-03 4.149922e-01 1.363325e-01 6.428117e-01 2.682010e-01 -2.535383e-01 -4.301442e-01 -2.400675e-01 1.632710e-01 1.090719e-01 3.135470e-01 6.805722e-02 -2.954784e-01 -6.789363e-02 -1.151165e-01 -9.963977e-02 1.731175e-02 9.189849e-02 8.296716e-02 -5.667866e-03 -6.390286e-02 -5.696106e-02 -2.437573e-02 1.566886e-02 3.301090e-02 9.348975e-03
<VARIANCE> 39
 7.616922e+00 1.306913e+01 1.062026e+01 2.529851e+01 3.335121e+01 2.762815e+01 2.282541e+01 3.222800e+01 3.121059e+01 2.871893e+01 2.825042e+01 2.455957e+01 2.419782e+00 6.424160e-01 1.100264e+00 1.125807e+00 2.548128e+00 3.005582e+00 2.401198e+00 2.224359e+00 2.502721e+00 2.367980e+00 2.562255e+00 2.595176e+00 1.943334e+00 1.474778e-01 1.122848e-01 1.866823e-01 2.079861e-01 5.317765e-01 5.677741e-01 4.781117e-01 4.190683e-01 4.755030e-01 4.257481e-01 4.735148e-01 5.085660e-01 3.594531e-01 2.402106e-02
<GCONST> 9.941571e+01
<STATE> 4
<MEAN> 39
 -5.456205e+00 -5.451849e+00 -3.959242e+00 -1.054449e+01 -2.345338e+00 -5.428445e+00 4.812010e-02 -8.915709e+00 -2.680931e+00 -6.117010e+00 -6.414269e-01 -5.337960e+00 1.607866e+01 -5.787395e-02 8.652464e-02 -1.021900e-01 1.934577e-01 1.541460e-01 -4.391456e-02 -2.290421e-01 -1.573756e-01 2.187414e-02 -4.221134e-02 1.263639e-01 4.159380e-02 -1.067351e-01 7.310615e-03 -2.731680e-02 -2.879455e-02 -8.962544e-02 -2.381980e-02 2.496724e-02 3.136987e-02 3.348570e-02 -2.120436e-02 -2.730523e-02 -5.203057e-02 -1.527936e-02 4.431297e-02
<VARIANCE> 39
 8.958452e+00 1.119371e+01 1.110557e+01 1.637038e+01 2.200827e+01 2.253262e+01 2.072984e+01 2.353854e+01 2.620583e+01 2.569519e+01 2.583653e+01 2.076381e+01 2.206725e+00 5.218127e-01 8.222715e-01 1.039872e+00 1.857327e+00 2.019424e+00 1.874169e+00 1.981254e+00 2.056060e+00 2.169780e+00 2.339362e+00 2.376649e+00 1.753893e+00 1.206225e-01 8.946726e-02 1.566041e-01 1.972130e-01 3.666192e-01 3.980784e-01 3.720368e-01 3.904383e-01 3.987409e-01 4.232751e-01 4.536809e-01 4.745736e-01 3.426917e-01 1.715890e-02
<GCONST> 9.276183e+01
<TRANSP> 5
 0.000000e+00 1.000000e+00 0.000000e+00 0.000000e+00 0.000000e+00
 0.000000e+00 6.126649e-01 3.873351e-01 0.000000e+00 0.000000e+00
 0.000000e+00 0.000000e+00 5.945402e-01 4.054598e-01 0.000000e+00
 0.000000e+00 0.000000e+00 0.000000e+00 7.508972e-01 2.491027e-01
 0.000000e+00 0.000000e+00 0.000000e+00 0.000000e+00 0.000000e+00
<ENDHMM>
~h "w"
<BEGINHMM>
<NUMSTATES> 5
<STATE> 2
<MEAN> 39
 -2.406666e+00 -3.600475e+00 -5.455390e+00 -1.162821e+01 -2.213042e+00 -6.935339e+00 -1.940042e+00 -8.851794e+00 -2.888503e+00 -6.025404e+00 -2.269811e-01 -5.379421e+00 1.660716e+01 5.676024e-01 3.146211e-01 -2.572482e-01 -3.565970e-01 -2.105898e-01 -1.026691e-01 4.666848e-03 1.160514e-01 -1.164740e-01 -2.431158e-01 -2.045678e-01 -2.564239e-01 2.362044e-01 4.719193e-02 -3.735572e-02 -1.470504e-01 -6.291749e-02 2.154242e-02 4.914458e-02 3.093022e-02 2.190142e-02 3.550559e-02 8.130712e-03 -5.120455e-02 -8.070415e-02 4.033249e-02
<VARIANCE> 39
 1.085417e+01 9.629364e+00 1.448093e+01 1.925568e+01 1.873310e+01 1.894298e+01 1.998016e+01 2.076514e+01 2.280033e+01 2.200722e+01 2.426609e+01 2.606424e+01 2.555397e+00 5.326977e-01 7.516519e-01 1.102412e+00 1.374625e+00 1.396224e+00 1.830682e+00 2.010767e+00 1.715682e+00 1.872375e+00 1.968380e+00 1.901932e+00 1.880573e+00 8.513640e-02 9.457681e-02 1.257932e-01 1.588162e-01 2.775497e-01 2.655107e-01 3.251277e-01 3.839519e-01 3.624521e-01 3.838299e-01 3.833401e-01 3.759080e-01 3.449367e-01 1.104544e-02
<GCONST> 8.881563e+01
<STATE> 3
<MEAN> 39
 -7.298954e-01 -2.972787e+00 -6.967122e+00 -1.300681e+01 -2.865462e+00 -7.034710e+00 -1.814375e+00 -8.602303e+00 -3.068945e+00 -6.570109e+00 -1.250323e+00 -6.605407e+00 1.745275e+01 5.318686e-01 -4.046170e-02 -8.349767e-01 -3.146960e-01 1.040187e-01 2.369093e-01 3.252662e-02 1.668938e-01 1.230887e-01 -1.263207e-01 -3.288477e-01 -3.942811e-01 2.855035e-01 -1.050912e-01 -2.125000e-01 -1.747466e-01 2.087062e-01 2.041014e-01 1.042295e-01 -3.432840e-02 2.234172e-02 7.833232e-02 5.106851e-03 -1.233628e-02 3.008030e-02 -1.573590e-02
<VARIANCE> 39
 6.824063e+00 7.944816e+00 2.093244e+01 2.240978e+01 2.343789e+01 2.209795e+01 1.943395e+01 2.007742e+01 2.509518e+01 2.398195e+01 2.778615e+01 2.833310e+01 1.857998e+00 5.907750e-01 9.853151e-01 1.325968e+00 2.125359e+00 2.112078e+00 2.252671e+00 2.225085e+00 1.837142e+00 2.144998e+00 2.056971e+00 2.071064e+00 1.973857e+00 8.864148e-02 7.482684e-02 1.135750e-01 1.988805e-01 4.012662e-01 3.489838e-01 4.107490e-01 4.534035e-01 3.742501e-01 4.219123e-01 4.069137e-01 3.885649e-01 3.773327e-01 8.187663e-03
<GCONST> 9.215800e+01
<STATE> 4
<MEAN> 39
 2.910614e-02 -5.062823e+00 -1.094006e+01 -1.172050e+01 -1.064747e+00 -6.240329e+00 -2.556125e+00 -7.997772e+00 -2.589223e+00 -7.558118e+00 -2.711417e+00 -8.225140e+00 1.838868e+01 -6.499124e-02 -6.983377e-01 -7.005823e-01 9.247233e-01 5.646337e-01 5.630104e-02 -2.613209e-01 2.615319e-01 1.628489e-01 -3.349269e-01 -2.426426e-01 -1.069438e-01 1.209571e-01 -1.440189e-01 -9.797002e-02 1.840395e-01 2.587906e-01 -6.882667e-02 -1.553160e-01 7.688663e-03 3.742671e-02 -5.696688e-02 -8.080772e-02 4.405017e-02 8.794294e-02 -3.660898e-02
<VARIANCE> 39
 5.105286e+00 1.725778e+01 2.916459e+01 3.943246e+01 3.142181e+01 3.202708e+01 2.524549e+01 2.570045e+01 3.275165e+01 2.762931e+01 3.327099e+01 3.126491e+01 1.415073e+00 4.546034e-01 9.255604e-01 1.986884e+00 3.185302e+00 2.779879e+00 2.783941e+00 2.822096e+00 2.384662e+00 2.430978e+00 2.153967e+00 2.321149e+00 2.035800e+00 5.158462e-02 6.137457e-02 1.347841e-01 2.875861e-01 5.336054e-01 5.530799e-01 5.343319e-01 6.281890e-01 4.535756e-01 4.938776e-01 4.261750e-01 4.717900e-01 4.138198e-01 4.738456e-03
<GCONST> 9.818337e+01
<TRANSP> 5
 0.000000e+00 1.000000e+00 0.000000e+00 0.000000e+00 0.000000e+00
 0.000000e+00 6.610587e-01 3.389414e-01 0.000000e+00 0.000000e+00
 0.000000e+00 0.000000e+00 6.365232e-01 3.634768e-01 0.000000e+00
 0.000000e+00 0.000000e+00 0.000000e+00 8.067921e-01 1.932078e-01
 0.000000e+00 0.000000e+00 0.000000e+00 0.000000e+00 0.000000e+00
<ENDHMM>
~h "z"
<BEGINHMM>
<NUMSTATES> 5
<STATE> 2
<MEAN> 39
 -5.762765e+00 -4.026957e+00 -4.484606e+00 -8.421016e+00 -1.522094e+00 -4.803565e+00 -9.947103e-01 -8.628659e+00 -3.341302e+00 -5.373916e+00 4.850661e-01 -4.657515e+00 1.532872e+01 -9.881306e-02 2.239240e-01 7.739976e-03 1.334064e-01 8.199093e-02 2.008913e-01 -1.091112e-01 -5.300056e-02 -7.324405e-02 9.795268e-02 6.337104e-02 3.260791e-02 -1.575332e-02 2.794404e-02 4.643958e-02 6.937310e-02 -9.311523e-02 -3.470883e-02 -9.329817e-02 -2.941111e-02 -3.856281e-02 2.326570e-02 -6.026710e-03 -4.407550e-02 -5.329631e-02 4.079417e-02
<VARIANCE> 39
 7.170378e+00 1.402317e+01 1.330109e+01 1.580444e+01 1.904162e+01 2.126092e+01 1.803542e+01 1.746227e+01 2.366634e+01 1.910714e+01 2.056484e+01 2.075085e+01 1.714940e+00 4.214267e-01 8.842053e-01 1.043653e+00 1.194898e+00 1.361943e+00 1.962428e+00 1.852843e+00 1.788948e+00 1.973967e+00 1.696281e+00 2.027262e+00 1.609730e+00 7.409681e-02 7.460600e-02 1.649163e-01 2.082323e-01 2.258150e-01 2.782767e-01 4.249773e-01 4.003473e-01 3.585921e-01 3.888999e-01 3.374807e-01 4.316703e-01 3.292240e-01 1.157875e-02
<GCONST> 8.733423e+01
<STATE> 3
<MEAN> 39
 -6.287716e+00 -2.759945e+00 -4.531677e+00 -7.871110e+00 -1.744447e+00 -4.018280e+00 -1.659761e+00 -8.572491e+00 -3.239629e+00 -4.797192e+00 7.519459e-01 -4.494177e+00 1.548454e+01 -1.816248e-02 4.957240e-01 2.908359e-01 -3.410410e-01 -2.656164e-01 -3.960305e-01 -2.686810e-01 -1.820198e-01 1.497090e-01 2.092102e-01 -8.573823e-02 -1.160112e-01 1.778851e-01 6.914458e-02 1.455427e-01 1.883897e-01 -2.633348e-01 -1.645581e-01 -3.216265e-01 -6.782392e-02 -6.401091e-02 1.029375e-01 3.561855e-02 -5.885380e-02 -9.732749e-02 9.599475e-02
<VARIANCE> 39
 7.896905e+00 1.087416e+01 1.484414e+01 1.798713e+01 2.102770e+01 2.163839e+01 1.936035e+01 1.946662e+01 2.615508e+01 2.090210e+01 2.214308e+01 1.997254e+01 1.864554e+00 5.108745e-01 1.017075e+00 1.347633e+00 1.565675e+00 1.505154e+00 2.656472e+00 1.945653e+00 1.968425e+00 2.165699e+00 1.747204e+00 2.128088e+00 1.889435e+00 1.348356e-01 9.840322e-02 1.909446e-01 2.551285e-01 2.859201e-01 2.791319e-01 4.685890e-01 3.873198e-01 3.823718e-01 3.889261e-01 3.501003e-01 4.365384e-01 3.862327e-01 1.701288e-02
<GCONST> 9.194329e+01
<STATE> 4
<MEAN> 39
 -6.000736e+00 -4.407039e-01 -2.995261e+00 -9.985931e+00 -3.260055e+00 -6.515731e+00 -2.745372e+00 -9.001741e+00 -2.173682e+00 -4.069722e+00 3.216655e-01 -5.300358e+00 1.646133e+01 1.387475e-01 8.842370e-01 7.330724e-01 -1.148116e+00 -7.204419e-01 -1.194651e+00 -4.057667e-01 -2.191524e-01 4.306261e-01 3.117791e-01 -1.073728e-01 -3.022567e-01 4.281121e-01 3.609856e-03 -5.852052e-02 4.541723e-02 -1.907785e-01 -1.199759e-01 -4.456319e-02 3.917071e-02 8.162852e-02 9.637060e-02 -2.407515e-02 3.429740e-02 -1.696493e-02 3.272510e-02
<VARIANCE> 39
 8.018757e+00 1.218792e+01 1.614039e+01 2.897344e+01 3.124979e+01 3.141612e+01 2.120328e+01 2.401621e+01 3.457746e+01 2.872797e+01 2.625209e+01 3.193856e+01 2.597887e+00 6.581017e-01 1.250179e+00 1.713095e+00 2.171612e+00 2.010459e+00 3.281428e+00 1.924835e+00 2.459667e+00 2.390975e+00 2.103012e+00 2.299517e+00 2.654967e+00 1.595237e-01 1.166823e-01 2.421316e-01 2.955858e-01 3.894514e-01 2.983913e-01 6.256956e-01 3.781429e-01 4.085998e-01 4.335815e-01 4.050220e-01 4.266545e-01 4.344735e-01 2.477921e-02
<GCONST> 9.986871e+01
<TRANSP> 5
 0.000000e+00 1.000000e+00 0.000000e+00 0.000000e+00 0.000000e+00
 0.000000e+00 7.533637e-01 2.466363e-01 0.000000e+00 0.000000e+00
 0.000000e+00 0.000000e+00 5.846708e-01 4.153293e-01 0.000000e+00
 0.000000e+00 0.000000e+00 0.000000e+00 6.320664e-01 3.679336e-01
 0.000000e+00 0.000000e+00 0.000000e+00 0.000000e+00 0.000000e+00
<ENDHMM>
~h "ah"
<BEGINHMM>
<NUMSTATES> 5
<STATE> 2
<MEAN> 39
 -1.576115e+00 -8.747005e+00 -1.130957e+01 -5.430422e+00 -3.012025e-02 -7.079460e+00 -3.044904e+00 -7.091142e+00 -3.069774e+00 -1.013261e+01 -3.540486e+00 -8.190670e+00 1.859771e+01 -5.255056e-01 -5.625647e-01 6.456856e-01 1.055681e+00 -5.381607e-01 -4.526457e-01 3.371666e-01 9.625036e-02 -3.585127e-01 -4.870689e-01 1.075541e-01 1.500459e-01 1.031108e-03 -3.487033e-02 2.048469e-01 3.291417e-01 -3.086837e-01 -2.725172e-01 7.718118e-02 1.871296e-01 -1.651357e-01 -1.141036e-01 1.261976e-01 1.135486e-01 2.885766e-03 -3.162352e-02
<VARIANCE> 39
 7.360229e+00 1.786385e+01 2.776472e+01 4.463372e+01 3.002626e+01 3.121852e+01 3.429227e+01 4.000293e+01 4.536741e+01 3.822086e+01 3.224768e+01 3.522758e+01 1.340102e+00 3.505377e-01 1.147132e+00 1.983860e+00 3.758226e+00 3.199088e+00 3.295019e+00 3.776044e+00 3.746542e+00 3.326902e+00 2.982253e+00 2.576673e+00 2.417745e+00 1.982916e-02 6.115686e-02 1.363824e-01 2.514037e-01 5.854995e-01 5.885716e-01 6.921411e-01 7.733379e-01 7.020823e-01 6.738175e-01 6.207535e-01 5.184334e-01 5.145775e-01 2.256026e-03
<GCONST> 1.023392e+02
<STATE> 3
<MEAN> 39
 -3.559005e+00 -8.888219e+00 -6.947481e+00 -4.822666e+00 -3.097452e+00 -7.460557e+00 -1.476428e+00 -8.858747e+00 -4.875714e+00 -1.126747e+01 -3.234941e+00 -8.400078e+00 1.842093e+01 -3.118986e-01 4.224513e-01 1.214405e+00 -4.160926e-01 -6.485206e-01 7.710060e-02 3.037575e-01 -5.513783e-01 -3.647448e-01 1.779568e-01 1.756993e-01 -3.980398e-03 -8.833551e-02 9.700609e-02 2.099820e-01 2.808933e-03 -2.681855e-01 1.619152e-01 1.015045e-01 -1.542480e-01 -1.165192e-01 6.472227e-02 1.627865e-01 -2.169822e-02 -2.878994e-02 -2.029594e-02
<VARIANCE> 39
 8.095806e+00 2.038964e+01 2.995748e+01 3.765612e+01 2.925541e+01 3.386304e+01 3.706947e+01 5.504824e+01 4.576464e+01 4.569676e+01 3.474967e+01 3.644854e+01 1.344337e+00 5.047138e-01 1.450742e+00 1.393846e+00 3.045708e+00 2.809974e+00 3.569411e+00 3.772248e+00 3.619450e+00 3.444053e+00 3.566558e+00 2.604060e+00 2.243896e+00 1.720502e-02 6.932045e-02 1.822008e-01 2.184647e-01 4.679919e-01 5.482110e-01 7.100507e-01 7.295907e-01 6.869169e-01 6.532702e-01 7.111665e-01 5.212345e-01 4.561526e-01 2.396986e-03
<GCONST> 1.031583e+02
<STATE> 4
<MEAN> 39
 -4.077005e+00 -5.170370e+00 -3.003352e+00 -8.419229e+00 -3.235760e+00 -7.585776e+00 -2.809360e+00 -1.169090e+01 -5.878173e+00 -1.059784e+01 -3.298211e+00 -8.584930e+00 1.791430e+01 5.047359e-03 5.786681e-01 5.325590e-01 -4.662053e-01 1.723855e-01 3.320768e-02 -1.815621e-01 -2.633451e-01 -4.848240e-02 4.537012e-01 1.542842e-01 1.617955e-01 -1.544169e-01 1.256203e-02 -6.003061e-02 -1.674419e-01 5.798259e-02 1.214512e-01 2.818595e-02 -1.903334e-02 8.999994e-02 9.195026e-02 9.267507e-03 3.979944e-03 4.275068e-02 -1.418840e-02
<VARIANCE> 39
 7.800126e+00 2.414264e+01 2.051643e+01 2.917526e+01 2.200483e+01 3.740140e+01 3.833083e+01 4.825177e+01 4.025667e+01 4.864836e+01 3.647157e+01 3.676241e+01 1.490292e+00 5.444155e-01 1.454697e+00 1.724403e+00 1.802811e+00 2.282516e+00 3.256876e+00 3.035711e+00 2.910822e+00 3.117035e+00 3.104332e+00 2.429997e+00 2.071887e+00 4.350260e-02 8.359438e-02 2.077709e-01 1.998043e-01 3.096584e-01 4.190128e-01 6.015274e-01 5.487694e-01 5.016769e-01 5.434566e-01 5.656924e-01 4.541073e-01 3.783774e-01 5.478364e-03
<GCONST> 1.009109e+02
<TRANSP> 5
 0.000000e+00 1.000000e+00 0.000000e+00 0.000000e+00 0.000000e+00
 0.000000e+00 7.353337e-01 2.646664e-01 0.000000e+00 0.000000e+00
 0.000000e+00 0.000000e+00 7.380891e-01 2.619109e-01 0.000000e+00
 0.000000e+00 0.000000e+00 0.000000e+00 8.039854e-01 1.960146e-01
 0.000000e+00 0.000000e+00 0.000000e+00 0.000000e+00 0.000000e+00
<ENDHMM>
~h "ao"
<BEGINHMM>
<NUMSTATES> 5
<STATE> 2
<MEAN> 39
 1.199346e+00 -4.462138e+00 -1.166312e+01 -1.577984e+01 -3.784954e+00 -6.699439e+00 -3.631659e+00 -8.332094e+00 -7.004386e-01 -4.399669e+00 -5.546677e-01 -7.260317e+00 1.879988e+01 2.955502e-01 -1.351786e-01 -2.246436e-01 -5.501395e-02 -8.681048e-02 -2.958043e-02 -1.061899e-01 1.783279e-01 2.337702e-01 2.043897e-02 -1.808555e-01 -1.919017e-01 1.469096e-01 -1.951219e-01 -1.049211e-01 1.708516e-01 1.965225e-01 2.380894e-02 1.633574e-02 9.668640e-02 5.391346e-02 -1.954741e-02 -5.637873e-02 1.810121e-02 9.261414e-02 -7.815181e-02
<VARIANCE> 39
 1.029125e+01 1.587455e+01 1.498524e+01 2.326549e+01 2.580613e+01 1.952521e+01 2.159161e+01 2.158081e+01 2.851593e+01 2.794078e+01 4.335834e+01 3.902399e+01 1.796514e+00 1.131811e+00 1.133827e+00 1.661306e+00 1.946889e+00 1.963820e+00 1.841452e+00 2.158749e+00 2.161865e+00 2.694470e+00 2.532386e+00 2.818468e+00 2.607042e+00 1.673220e-01 1.396054e-01 1.358649e-01 2.467734e-01 2.362183e-01 3.544379e-01 3.728555e-01 4.237655e-01 4.094428e-01 5.017201e-01 4.762009e-01 5.273299e-01 4.587561e-01 1.695496e-02
<GCONST> 9.855927e+01
<STATE> 3
<MEAN> 39
 -1.147273e-01 -7.196178e+00 -9.373039e+00 -1.232653e+01 -4.786626e+00 -7.264893e+00 -2.920323e+00 -6.712323e+00 1.496682e-01 -5.402664e+00 -1.914112e+00 -7.175394e+00 1.856603e+01 -4.909448e-01 -1.927976e-01 5.190825e-01 6.004368e-01 -5.520783e-02 2.113210e-02 2.556129e-01 1.473404e-01 -8.678980e-02 -2.603374e-01 -8.502404e-02 1.554861e-01 -1.717723e-01 -6.573647e-02 5.455923e-02 2.735813e-02 -9.367333e-03 1.163823e-02 4.289188e-02 5.186897e-02 -4.822521e-02 -8.937515e-02 4.782407e-04 7.276065e-02 4.766028e-02 -3.393427e-02
<VARIANCE> 39
 1.549549e+01 2.613320e+01 2.711435e+01 3.395764e+01 4.072747e+01 3.071871e+01 2.906688e+01 3.389708e+01 3.695178e+01 3.116353e+01 3.981377e+01 3.211205e+01 2.235961e+00 6.960050e-01 1.899331e+00 2.169001e+00 2.276828e+00 3.956524e+00 3.064847e+00 2.918121e+00 3.357073e+00 3.660850e+00 2.769857e+00 3.389847e+00 2.238996e+00 9.237055e-02 1.054765e-01 2.505453e-01 3.617015e-01 3.855662e-01 7.443101e-01 5.768161e-01 5.684484e-01 6.465752e-01 6.841511e-01 5.451062e-01 6.809820e-01 4.466453e-01 1.057351e-02
<GCONST> 1.079770e+02
<STATE> 4
<MEAN> 39
 -2.516692e+00 -7.992381e+00 -6.491078e+00 -9.885990e+00 -4.076292e+00 -6.203023e+00 -1.079543e+00 -7.134297e+00 -1.996903e+00 -7.246135e+00 -1.730386e+00 -6.263902e+00 1.727151e+01 -5.049630e-01 1.272400e-01 4.142457e-01 1.969794e-01 1.007226e-01 2.493305e-01 2.099711e-01 -2.153557e-01 -2.906933e-01 2.328142e-03 2.157053e-01 2.062149e-01 -2.302411e-01 1.043149e-02 2.925717e-02 -7.819290e-02 -8.637409e-02 4.484420e-02 2.282255e-02 -4.896386e-02 -2.353347e-02 3.403622e-02 6.777933e-02 9.640360e-03 -5.102347e-03 2.356728e-03
<VARIANCE> 39
 1.471725e+01 2.263791e+01 2.390343e+01 2.652014e+01 3.094712e+01 2.782298e+01 2.516407e+01 3.593798e+01 3.400411e+01 3.004995e+01 3.083764e+01 2.797772e+01 2.765430e+00 4.130382e-01 1.331346e+00 1.492528e+00 1.671746e+00 2.888491e+00 2.599533e+00 2.498985e+00 2.954545e+00 2.821172e+00 2.430897e+00 2.680358e+00 2.105115e+00 6.321043e-02 7.203835e-02 2.027353e-01 2.381938e-01 2.759309e-01 5.237548e-01 4.706458e-01 4.536734e-01 5.245008e-01 5.202042e-01 4.495827e-01 5.327147e-01 4.084767e-01 8.809332e-03
<GCONST> 9.994113e+01
<TRANSP> 5
 0.000000e+00 1.000000e+00 0.000000e+00 0.000000e+00 0.000000e+00
 0.000000e+00 8.708817e-01 1.291183e-01 0.000000e+00 0.000000e+00
 0.000000e+00 0.000000e+00 8.151466e-01 1.848534e-01 0.000000e+00
 0.000000e+00 0.000000e+00 0.000000e+00 8.659015e-01 1.340985e-01
 0.000000e+00 0.000000e+00 0.000000e+00 0.000000e+00 0.000000e+00
<ENDHMM>
~h "ay"
<BEGINHMM>
<NUMSTATES> 5
<STATE> 2
<MEAN> 39
 -5.566326e+00 -1.342247e+01 -8.243153e+00 -3.426631e+00 -1.491159e+00 -8.115797e+00 1.931972e+00 -8.556251e+00 -6.781598e+00 -8.356152e+00 -1.670063e+00 -5.692716e+00 1.899782e+01 -2.192519e-01 -4.228949e-01 1.598911e-01 5.714180e-01 -3.953046e-02 -2.204379e-02 1.201691e-01 -2.083328e-01 -4.335252e-02 1.639446e-01 3.053877e-01 -2.128040e-02 2.668639e-02 4.760435e-02 2.058641e-01 1.089512e-01 -1.983073e-01 -4.865566e-02 3.265304e-02 -9.391820e-02 2.003819e-02 5.656915e-02 1.492683e-02 -2.983428e-02 -4.918966e-02 -3.660346e-02
<VARIANCE> 39
 7.505534e+00 1.484096e+01 3.064184e+01 2.509462e+01 3.241748e+01 2.907678e+01 2.550063e+01 4.389273e+01 4.660506e+01 4.295119e+01 2.731229e+01 3.099848e+01 1.207871e+00 2.093882e-01 6.071547e-01 7.172887e-01 1.068945e+00 9.427271e-01 8.917047e-01 9.105889e-01 1.145800e+00 1.273941e+00 1.167457e+00 9.706902e-01 8.468770e-01 1.914775e-02 3.784935e-02 8.130088e-02 8.694891e-02 1.306318e-01 1.635773e-01 1.562511e-01 1.807528e-01 1.855585e-01 2.250131e-01 1.943547e-01 1.759266e-01 1.607692e-01 3.993777e-03
<GCONST> 7.568090e+01
<STATE> 3
<MEAN> 39
 -6.072189e+00 -1.382157e+01 -6.557490e+00 -3.274005e+00 -2.112879e+00 -7.268457e+00 2.224022e+00 -9.419273e+00 -6.631589e+00 -7.238255e+00 -9.138290e-01 -6.126595e+00 1.887829e+01 -1.357358e-01 9.765020e-02 3.898969e-01 -2.795609e-01 -1.962942e-01 3.321917e-01 2.998785e-02 -2.317663e-01 8.862752e-02 2.117320e-01 9.853216e-03 -8.949599e-02 -3.201771e-02 1.547155e-02 1.498819e-01 3.423219e-02 -2.248393e-01 -1.292023e-02 8.788902e-02 -4.720873e-02 3.682533e-03 7.289162e-02 -1.347223e-02 -8.470327e-02 6.529821e-03 -1.341513e-02
<VARIANCE> 39
 8.005991e+00 1.298792e+01 2.558586e+01 2.942424e+01 3.035037e+01 2.946157e+01 2.325182e+01 3.791378e+01 5.195278e+01 4.431823e+01 2.686304e+01 2.920739e+01 1.205008e+00 1.380944e-01 3.995005e-01 5.037588e-01 1.075923e+00 7.558706e-01 8.450789e-01 7.945943e-01 8.477983e-01 9.879932e-01 9.377066e-01 9.122686e-01 7.793702e-01 9.071739e-03 2.321073e-02 5.119075e-02 6.578419e-02 1.000710e-01 1.124111e-01 1.270916e-01 1.356071e-01 1.462562e-01 1.634831e-01 1.522558e-01 1.419102e-01 1.332109e-01 1.040065e-03
<GCONST> 6.718559e+01
<STATE> 4
<MEAN> 39
 -6.721303e+00 -1.152670e+01 -4.218735e+00 -7.329238e+00 -2.467254e+00 -4.279039e+00 1.576831e+00 -1.076677e+01 -4.719590e+00 -6.311976e+00 -1.744619e+00 -6.024759e+00 1.849334e+01 -2.322193e-02 7.714653e-01 3.186117e-01 -1.065503e+00 -8.084118e-02 4.812209e-01 -2.616476e-01 4.713400e-02 3.495075e-01 -7.477523e-02 -2.723794e-01 4.627921e-02 -8.560229e-02 5.577595e-02 1.301913e-01 -2.345020e-02 -3.195111e-02 1.747697e-02 -1.080009e-01 -5.419404e-02 1.099203e-01 2.326511e-02 -4.619295e-02 4.656487e-03 -2.624027e-03 -1.566966e-02
<VARIANCE> 39
 8.465022e+00 2.112369e+01 1.752594e+01 4.416439e+01 3.171745e+01 2.922057e+01 2.773686e+01 3.457725e+01 5.522594e+01 4.087301e+01 2.815350e+01 2.990788e+01 1.394699e+00 2.062707e-01 6.885712e-01 5.985892e-01 1.373235e+00 1.229245e+00 1.320682e+00 1.178799e+00 1.295338e+00 1.520150e+00 1.461130e+00 1.225355e+00 1.098358e+00 1.011698e-02 3.042348e-02 7.161519e-02 7.642501e-02 1.929922e-01 1.578206e-01 2.176944e-01 2.006106e-01 2.003485e-01 2.393366e-01 2.211476e-01 2.175723e-01 1.792664e-01 1.345610e-03
<GCONST> 7.754044e+01
<TRANSP> 5
 0.000000e+00 1.000000e+00 0.000000e+00 0.000000e+00 0.000000e+00
 0.000000e+00 7.706148e-01 2.293852e-01 0.000000e+00 0.000000e+00
 0.000000e+00 0.000000e+00 7.676701e-01 2.323299e-01 0.000000e+00
 0.000000e+00 0.000000e+00 0.000000e+00 8.545780e-01 1.454220e-01
 0.000000e+00 0.000000e+00 0.000000e+00 0.000000e+00 0.000000e+00
<ENDHMM>
~h "eh"
<BEGINHMM>
<NUMSTATES> 5
<STATE> 2
<MEAN> 39
 -7.665954e+00 -4.611957e+00 -6.247236e+00 -1.039726e+01 -3.754086e+00 -4.482261e+00 6.347831e-01 -8.319718e+00 -2.350555e+00 -4.895342e+00 -8.016564e-01 -3.984426e+00 1.583451e+01 9.385341e-01 1.295468e-01 7.925872e-01 -1.281951e+00 -1.028757e+00 -9.477041e-01 1.016733e+00 -6.478799e-02 2.686389e-01 1.063959e-02 -6.066227e-01 -6.089649e-01 6.889904e-01 7.607141e-02 -8.810819e-02 -2.115061e-02 -2.541416e-01 -2.378829e-01 -6.206171e-02 1.913690e-01 9.184824e-02 -1.049918e-02 -6.579925e-02 -1.626756e-01 -1.564135e-01 1.362486e-01
<VARIANCE> 39
 1.002598e+01 8.124644e+00 1.275290e+01 1.882667e+01 2.420038e+01 2.352935e+01 2.690725e+01 2.077070e+01 2.124337e+01 3.112328e+01 2.042123e+01 2.037394e+01 3.105166e+00 1.187438e+00 8.711634e-01 1.398116e+00 2.196609e+00 3.116809e+00 3.243246e+00 2.525589e+00 2.337704e+00 2.266552e+00 3.508496e+00 2.453888e+00 2.647385e+00 2.236238e-01 2.400579e-01 1.674197e-01 2.828944e-01 3.709661e-01 6.241699e-01 6.008843e-01 4.374057e-01 4.291762e-01 4.570377e-01 4.923825e-01 4.117340e-01 4.640473e-01 4.273615e-02
<GCONST> 1.011574e+02
<STATE> 3
<MEAN> 39
 -5.568181e+00 -4.886933e+00 -4.989569e+00 -1.377864e+01 -7.199566e+00 -6.863093e+00 3.857674e+00 -7.645024e+00 -2.424850e+00 -4.452150e+00 -2.772441e+00 -5.834044e+00 1.786217e+01 5.334832e-01 -2.975971e-01 2.526880e-01 -1.187653e+00 -8.621504e-01 -3.519363e-01 1.023795e+00 2.017812e-01 -1.499762e-02 -2.742965e-01 -6.966802e-01 -6.212803e-01 6.313756e-01 -2.133147e-01 -1.540869e-01 -2.108052e-01 1.933098e-01 2.729557e-01 3.161813e-01 -1.114328e-01 5.101581e-02 -1.170610e-01 -1.200201e-01 8.542071e-02 1.013829e-01 -9.029863e-02
<VARIANCE> 39
 1.058048e+01 9.303596e+00 1.081405e+01 2.493842e+01 3.542979e+01 3.477168e+01 3.822918e+01 2.833998e+01 3.195568e+01 5.487030e+01 2.920299e+01 2.941514e+01 3.397636e+00 1.407497e+00 1.022178e+00 1.490030e+00 2.465976e+00 3.898595e+00 4.018323e+00 2.701092e+00 2.366493e+00 2.786577e+00 3.588848e+00 2.935659e+00 2.900511e+00 2.748942e-01 2.214375e-01 1.736065e-01 2.545123e-01 3.853947e-01 6.829552e-01 6.727307e-01 4.759675e-01 3.771113e-01 4.045690e-01 5.690812e-01 4.939373e-01 4.720969e-01 4.305676e-02
<GCONST> 1.066954e+02
<STATE> 4
<MEAN> 39
 -4.978767e+00 -6.319557e+00 -4.160421e+00 -1.334133e+01 -6.557384e+00 -6.569637e+00 3.541754e+00 -6.645041e+00 -3.206302e+00 -6.354557e+00 -2.578969e+00 -6.306828e+00 1.836472e+01 9.445365e-02 -8.796731e-02 1.081679e-01 2.473691e-01 2.895872e-01 4.860711e-02 -1.290129e-01 2.273319e-03 -1.707300e-01 -1.461653e-01 1.426834e-01 9.962479e-03 -2.509383e-02 -3.285560e-02 3.583776e-02 -2.056735e-03 1.486232e-01 1.305728e-01 1.773912e-02 -1.218869e-01 -5.074535e-02 -1.223825e-02 5.583901e-02 9.051225e-02 7.909407e-02 -6.296600e-02
<VARIANCE> 39
 8.737096e+00 9.658792e+00 1.207814e+01 2.990933e+01 3.996828e+01 4.040688e+01 3.672901e+01 4.319257e+01 4.096000e+01 5.336345e+01 3.645768e+01 3.270971e+01 2.483562e+00 6.820288e-01 1.093813e+00 1.049003e+00 2.258275e+00 3.384160e+00 3.020393e+00 3.908094e+00 2.906003e+00 2.823653e+00 3.050423e+00 3.183491e+00 2.270478e+00 2.649542e-01 1.511878e-01 1.919836e-01 2.183549e-01 4.240095e-01 7.236196e-01 6.057918e-01 7.229400e-01 5.956981e-01 5.459325e-01 5.880460e-01 6.140148e-01 4.452468e-01 4.344190e-02
<GCONST> 1.074128e+02
<TRANSP> 5
 0.000000e+00 1.000000e+00 0.000000e+00 0.000000e+00 0.000000e+00
 0.000000e+00 4.621166e-01 5.378834e-01 0.000000e+00 0.000000e+00
 0.000000e+00 0.000000e+00 6.087016e-01 3.912984e-01 0.000000e+00
 0.000000e+00 0.000000e+00 0.000000e+00 8.857284e-01 1.142715e-01
 0.000000e+00 0.000000e+00 0.000000e+00 0.000000e+00 0.000000e+00
<ENDHMM>
~h "ey"
<BEGINHMM>
<NUMSTATES> 5
<STATE> 2
<MEAN> 39
 -7.648251e+00 -4.806316e+00 -5.361925e+00 -1.545365e+01 -1.992208e-01 -4.480125e+00 -2.630337e-01 -7.855414e+00 -2.174973e+00 -7.090339e+00 -1.018739e+00 -5.046098e+00 1.654157e+01 -2.622789e-01 6.450835e-01 -7.884558e-02 -9.758288e-01 2.499731e-01 -2.234775e-01 1.190508e-01 3.017633e-01 1.719545e-01 -1.520127e-01 -1.215500e-01 -4.157669e-02 2.452142e-01 2.220533e-02 1.662087e-01 -9.134670e-03 -7.093851e-02 -8.006025e-02 -1.829631e-01 -2.009902e-02 8.965932e-02 6.073720e-02 4.711863e-02 3.433127e-02 -9.044140e-02 5.304373e-02
<VARIANCE> 39
 7.013617e+00 2.057394e+01 1.405202e+01 3.184387e+01 3.311961e+01 2.150692e+01 2.189844e+01 2.477305e+01 2.969274e+01 2.515157e+01 2.549398e+01 2.403935e+01 3.749847e+00 4.614565e-01 1.101386e+00 1.001977e+00 2.287219e+00 1.920883e+00 2.204920e+00 2.414776e+00 2.283792e+00 2.731613e+00 2.139227e+00 2.009037e+00 1.989395e+00 1.357352e-01 8.561517e-02 1.793670e-01 1.676091e-01 4.527269e-01 3.081744e-01 4.123257e-01 4.128245e-01 4.423055e-01 5.154823e-01 4.230338e-01 3.900027e-01 4.033844e-01 2.189033e-02
<GCONST> 9.671780e+01
<STATE> 3
<MEAN> 39
 -8.523391e+00 -8.619819e-01 -5.597012e+00 -1.914291e+01 -8.331267e-01 -6.747503e+00 1.660138e-01 -5.806250e+00 -8.392237e-01 -6.802732e+00 -1.265258e+00 -5.518811e+00 1.766674e+01 -1.753184e-01 1.115041e+00 -5.515184e-02 -7.791152e-01 -9.991401e-02 -8.554362e-01 -1.059691e-01 3.685702e-01 3.765444e-01 1.528261e-01 1.366641e-01 -1.731536e-01 2.862304e-01 5.696732e-02 -2.574577e-03 2.306540e-02 2.295662e-01 -3.142475e-02 -1.160278e-01 -8.712267e-02 -1.084411e-01 -4.961855e-02 8.274268e-02 1.004707e-01 1.576743e-02 -3.755030e-02
<VARIANCE> 39
 8.277756e+00 2.732052e+01 2.099705e+01 3.071351e+01 3.617040e+01 2.912659e+01 3.281537e+01 2.307487e+01 3.400650e+01 2.164543e+01 2.392462e+01 2.284854e+01 2.773257e+00 5.634466e-01 1.329506e+00 1.021978e+00 2.651200e+00 1.624302e+00 2.162655e+00 2.212906e+00 1.949976e+00 2.612561e+00 1.936278e+00 2.289341e+00 1.660700e+00 1.716006e-01 8.818184e-02 1.860629e-01 1.509369e-01 3.708513e-01 2.463096e-01 3.467447e-01 3.027940e-01 3.408639e-01 4.718671e-01 3.316823e-01 3.845713e-01 3.105536e-01 1.913475e-02
<GCONST> 9.604255e+01
<STATE> 4
<MEAN> 39
 -8.274207e+00 3.902490e+00 -5.585048e+00 -1.716203e+01 -1.379147e+00 -1.250209e+01 -1.744238e+00 -7.578131e+00 -1.378607e+00 -4.870598e+00 7.440014e-01 -5.279322e+00 1.795928e+01 1.505296e-01 -1.771389e-01 1.088031e-01 6.777225e-01 3.947937e-02 -1.059358e-01 -2.328107e-01 -4.576482e-01 -3.066129e-01 7.519013e-02 1.409074e-01 1.082612e-01 -1.594827e-01 2.566358e-02 -2.405324e-01 1.776744e-03 9.127270e-02 9.392871e-03 2.259144e-01 4.782832e-02 -5.087425e-03 -1.903621e-02 -5.174465e-02 -3.573653e-02 1.725528e-02 -4.980898e-02
<VARIANCE> 39
 8.524450e+00 2.819260e+01 1.980243e+01 3.363887e+01 2.195445e+01 4.020097e+01 4.920056e+01 3.132692e+01 4.083192e+01 2.511576e+01 2.919350e+01 2.600009e+01 2.515095e+00 3.906692e-01 2.579673e+00 6.395209e-01 1.635747e+00 1.198681e+00 3.551985e+00 2.053693e+00 2.093059e+00 2.833742e+00 2.038868e+00 2.129693e+00 1.830479e+00 1.125419e-01 6.427675e-02 2.446119e-01 1.088916e-01 2.502258e-01 1.804526e-01 4.570198e-01 3.357888e-01 3.624183e-01 4.730755e-01 3.552878e-01 3.754458e-01 3.382241e-01 1.028122e-02
<GCONST> 9.537977e+01
<TRANSP> 5
 0.000000e+00 1.000000e+00 0.000000e+00 0.000000e+00 0.000000e+00
 0.000000e+00 7.219818e-01 2.780182e-01 0.000000e+00 0.000000e+00
 0.000000e+00 0.000000e+00 7.482908e-01 2.517092e-01 0.000000e+00
 0.000000e+00 0.000000e+00 0.000000e+00 9.067491e-01 9.325099e-02
 0.000000e+00 0.000000e+00 0.000000e+00 0.000000e+00 0.000000e+00
<ENDHMM>
~h "ia"
<BEGINHMM>
<NUMSTATES> 5
<STATE> 2
<MEAN> 39
 -5.791550e+00 1.525004e+00 -1.133675e+00 -1.416054e+01 -6.064811e+00 -9.865007e+00 -4.022205e+00 -9.509741e+00 -9.025683e-01 -3.177908e+00 2.324325e-01 -5.923318e+00 1.781880e+01 1.068989e-01 3.101409e-01 6.629152e-01 -1.307905e+00 -9.770684e-01 -7.184851e-01 -1.742289e-01 1.412960e-01 5.962086e-01 9.647191e-02 3.276713e-02 -2.972207e-01 4.022032e-01 -1.042102e-02 -3.724701e-01 -1.145718e-01 2.074773e-01 1.152070e-02 3.998580e-01 1.104212e-01 1.540860e-01 -2.764392e-02 -1.067893e-01 5.323617e-02 6.199558e-02 -7.767974e-02
<VARIANCE> 39
 7.650418e+00 1.115986e+01 1.616772e+01 3.134689e+01 4.134501e+01 2.893236e+01 2.354729e+01 3.089263e+01 3.747634e+01 3.117340e+01 3.250525e+01 4.853975e+01 1.949360e+00 6.155278e-01 1.765918e+00 1.652218e+00 2.426018e+00 2.262945e+00 3.758941e+00 1.941566e+00 2.643519e+00 2.329131e+00 2.271929e+00 2.207674e+00 2.599233e+00 1.111499e-01 9.842455e-02 1.771424e-01 2.604429e-01 4.233893e-01 2.981021e-01 5.609636e-01 3.664040e-01 3.849959e-01 4.556865e-01 4.232456e-01 4.057958e-01 4.647260e-01 1.437553e-02
<GCONST> 1.000308e+02
<STATE> 3
<MEAN> 39
 -5.460553e+00 5.366521e-01 7.872343e-03 -1.607217e+01 -8.640335e+00 -9.755792e+00 -4.074189e+00 -8.718489e+00 1.464179e-01 -3.437647e+00 3.924889e-01 -6.498042e+00 1.847320e+01 2.370761e-01 -7.040262e-01 3.890908e-01 -3.359600e-01 -9.683634e-01 2.482450e-01 1.368727e-01 3.441069e-01 3.881482e-01 -1.195658e-01 3.527799e-02 -1.076638e-01 1.748563e-01 6.845150e-02 -3.316974e-01 -1.046627e-01 3.783587e-01 3.226298e-02 2.516132e-01 1.206316e-01 4.698365e-02 -1.016967e-01 -5.764356e-02 -1.770030e-02 9.173387e-02 -7.688072e-02
<VARIANCE> 39
 7.892067e+00 2.024751e+01 1.793940e+01 3.444507e+01 6.840870e+01 3.587057e+01 2.626242e+01 4.268194e+01 3.001837e+01 2.906732e+01 3.085444e+01 4.953067e+01 1.388476e+00 5.449567e-01 1.787736e+00 1.350680e+00 2.973049e+00 2.383887e+00 3.698256e+00 2.206731e+00 2.274012e+00 2.231694e+00 2.107094e+00 1.992476e+00 2.072659e+00 6.655588e-02 7.797021e-02 1.690450e-01 2.467915e-01 3.896024e-01 3.807757e-01 6.520087e-01 3.751941e-01 4.408271e-01 3.967100e-01 3.611567e-01 3.616427e-01 4.114500e-01 8.001569e-03
<GCONST> 9.930683e+01
<STATE> 4
<MEAN> 39
 -2.875318e+00 -7.589108e+00 -7.620533e-01 -1.235688e+01 -1.363153e+01 -7.843850e+00 -8.474841e-01 -6.259670e+00 4.020017e-01 -5.255738e+00 -4.838172e-01 -6.356044e+00 1.890614e+01 2.834355e-01 -8.525074e-01 -2.488770e-01 4.683165e-01 -1.247618e-01 8.608587e-02 3.454337e-01 4.545955e-01 1.824180e-03 -2.550816e-01 -1.176405e-01 1.002786e-01 1.838395e-02 -3.582998e-02 6.850219e-02 -5.335543e-02 -2.624302e-03 1.851955e-01 -2.619312e-03 -5.371499e-02 3.774075e-04 -5.858982e-02 -1.768515e-02 5.070150e-03 6.149730e-03 -1.984930e-02
<VARIANCE> 39
 9.474563e+00 4.590728e+01 1.899893e+01 5.332459e+01 7.299777e+01 6.591654e+01 3.482721e+01 3.939754e+01 3.153555e+01 2.796557e+01 2.715339e+01 4.327896e+01 1.061711e+00 4.093786e-01 1.122653e+00 1.085774e+00 2.114323e+00 2.743395e+00 3.080952e+00 2.204525e+00 2.284345e+00 2.033864e+00 1.642287e+00 1.556122e+00 1.379517e+00 2.046040e-02 5.049795e-02 1.249741e-01 1.674516e-01 3.342211e-01 3.771633e-01 5.104027e-01 3.536153e-01 3.826448e-01 3.423523e-01 2.876333e-01 2.760400e-01 2.584843e-01 3.488275e-03
<GCONST> 9.395982e+01
<TRANSP> 5
 0.000000e+00 1.000000e+00 0.000000e+00 0.000000e+00 0.000000e+00
 0.000000e+00 5.296047e-01 4.703954e-01 0.000000e+00 0.000000e+00
 0.000000e+00 0.000000e+00 5.773051e-01 4.226949e-01 0.000000e+00
 0.000000e+00 0.000000e+00 0.000000e+00 8.505718e-01 1.494281e-01
 0.000000e+00 0.000000e+00 0.000000e+00 0.000000e+00 0.000000e+00
<ENDHMM>
~h "ih"
<BEGINHMM>
<NUMSTATES> 5
<STATE> 2
<MEAN> 39
 -8.241083e+00 -3.240216e+00 -6.121588e+00 -1.060688e+01 -4.531732e+00 -5.220602e+00 -1.788900e+00 -8.022538e+00 -2.348133e+00 -4.548006e+00 -5.384402e-01 -4.360989e+00 1.567599e+01 4.694643e-01 6.553429e-01 8.910511e-01 -1.308010e+00 -8.791473e-01 -9.198993e-01 -1.380124e-03 4.705441e-02 4.928932e-01 2.885626e-01 -4.943420e-01 -4.580832e-01 5.644052e-01 4.731142e-02 3.966193e-02 1.745729e-01 -3.457872e-01 -1.758233e-01 -1.090153e-01 3.268394e-02 9.491064e-02 1.157072e-01 1.083281e-01 -7.181791e-02 -1.495565e-01 9.177256e-02
<VARIANCE> 39
 1.009064e+01 9.748237e+00 1.950185e+01 3.277932e+01 2.960391e+01 2.842473e+01 1.752481e+01 1.878783e+01 2.969103e+01 3.874033e+01 2.583461e+01 2.383548e+01 3.697671e+00 1.028280e+00 8.946272e-01 1.880813e+00 2.873458e+00 3.049553e+00 3.081806e+00 2.003759e+00 2.155921e+00 2.909194e+00 3.536470e+00 2.404465e+00 2.833957e+00 2.491077e-01 1.858508e-01 1.669022e-01 3.656338e-01 4.765298e-01 6.468359e-01 6.214247e-01 4.034770e-01 4.566385e-01 5.663892e-01 5.456341e-01 4.474592e-01 4.931243e-01 4.692765e-02
<GCONST> 1.046362e+02
<STATE> 3
<MEAN> 39
 -7.094926e+00 -1.689992e+00 -2.508348e+00 -1.606532e+01 -7.880424e+00 -8.173746e+00 -1.746593e+00 -7.464592e+00 -7.987337e-01 -3.254992e+00 -1.927749e+00 -6.726563e+00 1.751486e+01 1.752703e-01 3.115002e-01 7.699769e-01 -1.350083e+00 -5.132107e-01 -4.246711e-01 -1.088894e-01 2.549398e-01 3.737119e-01 1.598299e-01 -2.956107e-01 -4.812727e-01 3.744444e-01 -1.048461e-01 -1.455776e-01 -1.725830e-01 2.388319e-01 2.807231e-01 2.596243e-01 -6.005369e-02 1.758662e-02 -1.015443e-01 -1.067018e-01 1.313095e-01 1.348377e-01 -1.298702e-01
<VARIANCE> 39
 9.616284e+00 9.849408e+00 2.661354e+01 4.891568e+01 4.639208e+01 3.197447e+01 2.628373e+01 2.108866e+01 3.611316e+01 6.236603e+01 3.131414e+01 4.043721e+01 3.995425e+00 1.056888e+00 1.029816e+00 2.636709e+00 3.930287e+00 4.624413e+00 4.098733e+00 3.088250e+00 2.473203e+00 3.315459e+00 4.128980e+00 2.884672e+00 3.301135e+00 3.830009e-01 1.995097e-01 1.726572e-01 4.373899e-01 7.246140e-01 8.259451e-01 7.403291e-01 6.175869e-01 4.854044e-01 6.167484e-01 7.985638e-01 5.207149e-01 5.922880e-01 5.372685e-02
<GCONST> 1.135543e+02
<STATE> 4
<MEAN> 39
 -7.170875e+00 -1.981964e+00 -1.587929e+00 -1.846006e+01 -6.284303e+00 -7.354567e+00 -2.554106e+00 -6.523258e+00 -4.527820e-01 -4.399757e+00 -1.843420e+00 -6.875225e+00 1.760337e+01 -3.168322e-02 -3.526481e-01 -1.469029e-01 4.490021e-01 6.910812e-01 5.134078e-01 -1.931751e-01 -1.969423e-02 -1.544908e-01 -2.094568e-01 3.747649e-01 3.540866e-01 -2.838464e-01 -8.532561e-03 -1.633935e-01 -1.927077e-01 3.871686e-01 1.239698e-01 9.369229e-02 1.164580e-01 -1.081762e-01 -7.921633e-02 -2.243515e-02 9.846336e-02 1.108927e-01 -1.129221e-01
<VARIANCE> 39
 7.565530e+00 1.286464e+01 2.162209e+01 4.095573e+01 6.078761e+01 3.459010e+01 3.633572e+01 2.539313e+01 3.146097e+01 4.678661e+01 3.497669e+01 3.448426e+01 3.544469e+00 6.810618e-01 1.164425e+00 2.186235e+00 4.610288e+00 3.517186e+00 3.252207e+00 3.871222e+00 2.469696e+00 3.119453e+00 3.231067e+00 3.105580e+00 2.706565e+00 2.829144e-01 1.369544e-01 1.975800e-01 4.104077e-01 7.209995e-01 7.004245e-01 6.462024e-01 8.192853e-01 4.913618e-01 5.884282e-01 5.903823e-01 5.994712e-01 5.111791e-01 3.835060e-02
<GCONST> 1.110936e+02
<TRANSP> 5
 0.000000e+00 1.000000e+00 0.000000e+00 0.000000e+00 0.000000e+00
 0.000000e+00 6.222734e-01 3.777266e-01 0.000000e+00 0.000000e+00
 0.000000e+00 0.000000e+00 7.657720e-01 2.342280e-01 0.000000e+00
 0.000000e+00 0.000000e+00 0.000000e+00 8.054937e-01 1.945064e-01
 0.000000e+00 0.000000e+00 0.000000e+00 0.000000e+00 0.000000e+00
<ENDHMM>
~h "iy"
<BEGINHMM>
<NUMSTATES> 5
<STATE> 2
<MEAN> 39
 -7.169246e+00 3.914061e+00 -3.900123e-02 -1.614228e+01 -2.524590e+00 -1.117898e+01 -7.984798e+00 -9.214043e+00 -3.045640e+00 -6.002990e+00 1.187970e+00 -5.702839e+00 1.799773e+01 2.408909e-02 -9.956314e-02 -6.800380e-01 9.248703e-01 6.814615e-01 1.460820e-01 4.670166e-01 -3.766815e-03 -4.580311e-01 -4.783271e-02 -1.262488e-01 2.453409e-02 -2.282684e-01 7.628465e-02 -3.944202e-01 2.127077e-03 1.437727e-01 -2.440857e-01 2.383144e-01 2.098684e-01 1.476172e-02 1.165318e-01 2.436503e-02 -8.980343e-03 1.590086e-02 -4.157097e-02
<VARIANCE> 39
 7.708109e+00 2.110296e+01 1.852393e+01 3.076332e+01 3.010482e+01 3.141266e+01 5.026458e+01 4.170396e+01 3.306623e+01 3.984143e+01 4.060538e+01 3.442684e+01 1.909934e+00 6.687394e-01 2.527890e+00 1.162153e+00 1.943565e+00 2.808270e+00 3.369525e+00 2.913376e+00 2.707060e+00 2.527028e+00 2.020404e+00 1.885873e+00 1.854531e+00 5.773368e-02 1.153486e-01 2.154131e-01 2.242824e-01 3.814646e-01 3.803093e-01 5.073835e-01 5.800318e-01 4.476716e-01 4.209249e-01 3.365650e-01 3.437139e-01 3.160954e-01 6.380173e-03
<GCONST> 9.999440e+01
<STATE> 3
<MEAN> 39
 -6.446208e+00 1.511741e+00 -2.351729e+00 -1.263447e+01 -1.284058e+00 -9.526134e+00 -4.691248e+00 -9.214568e+00 -3.697723e+00 -5.832742e+00 5.345285e-02 -5.718623e+00 1.696050e+01 2.961306e-02 -1.000105e+00 -5.850776e-01 8.194519e-01 1.764610e-01 7.855741e-01 8.666431e-01 1.530287e-02 6.022195e-02 -2.404082e-02 -7.303157e-02 1.665842e-01 -3.261185e-01 -4.724000e-02 -9.682158e-02 2.043027e-02 -1.376725e-01 -1.080953e-01 2.623043e-02 2.475353e-03 3.629959e-02 8.990053e-02 2.742482e-03 3.688564e-02 2.826288e-02 2.483444e-03
<VARIANCE> 39
 7.770460e+00 2.486081e+01 1.326643e+01 2.409228e+01 2.109401e+01 3.047199e+01 4.408089e+01 3.321265e+01 2.926932e+01 3.354365e+01 3.360405e+01 2.947307e+01 2.587525e+00 6.874840e-01 1.632882e+00 1.217853e+00 1.613597e+00 1.806844e+00 2.667300e+00 2.948588e+00 2.588125e+00 2.593318e+00 2.321493e+00 2.308204e+00 1.906384e+00 7.764266e-02 1.064563e-01 2.329293e-01 2.002629e-01 2.760418e-01 3.301762e-01 4.786879e-01 4.946860e-01 4.282427e-01 4.688265e-01 3.787170e-01 3.779641e-01 3.151748e-01 1.058893e-02
<GCONST> 9.792509e+01
<STATE> 4
<MEAN> 39
 -6.365713e+00 -1.771263e+00 -4.265411e+00 -1.060090e+01 -6.233883e-01 -7.517073e+00 -1.472657e+00 -9.586418e+00 -2.950585e+00 -5.796468e+00 -5.512981e-01 -5.166052e+00 1.586320e+01 -1.027521e-01 -8.282228e-01 -3.269508e-01 3.139729e-01 1.497955e-02 5.396670e-01 4.324924e-01 6.485671e-02 9.982105e-02 -1.060719e-01 1.241794e-01 1.387830e-01 -2.072389e-01 -1.097275e-02 7.580602e-02 4.210033e-02 -1.294666e-01 -5.000836e-02 -1.070003e-01 -1.148131e-01 1.858797e-02 -2.125570e-02 2.420970e-02 2.628683e-02 -8.956530e-03 3.909472e-02
<VARIANCE> 39
 6.886009e+00 2.212165e+01 1.117928e+01 1.568693e+01 1.734976e+01 2.885426e+01 2.727705e+01 2.659051e+01 2.403736e+01 2.472906e+01 2.628020e+01 2.435282e+01 2.457004e+00 4.563854e-01 8.300693e-01 1.080149e+00 1.446433e+00 1.630232e+00 2.318941e+00 2.184478e+00 2.064103e+00 2.114101e+00 1.953264e+00 2.104311e+00 1.739363e+00 5.960155e-02 8.141715e-02 1.582224e-01 1.828358e-01 2.522562e-01 3.395916e-01 4.587136e-01 4.060504e-01 3.745700e-01 4.153481e-01 3.563594e-01 3.805664e-01 3.357223e-01 9.140668e-03
<GCONST> 9.079356e+01
<TRANSP> 5
 0.000000e+00 1.000000e+00 0.000000e+00 0.000000e+00 0.000000e+00
 0.000000e+00 7.628565e-01 2.371435e-01 0.000000e+00 0.000000e+00
 0.000000e+00 0.000000e+00 6.425185e-01 3.574814e-01 0.000000e+00
 0.000000e+00 0.000000e+00 0.000000e+00 7.612928e-01 2.387073e-01
 0.000000e+00 0.000000e+00 0.000000e+00 0.000000e+00 0.000000e+00
<ENDHMM>
~h "ow"
<BEGINHMM>
<NUMSTATES> 5
<STATE> 2
<MEAN> 39
 -3.087754e+00 -9.869768e+00 -7.503045e+00 -9.810328e+00 -4.631484e+00 -8.033789e+00 1.203279e+00 -3.516257e+00 -2.707156e+00 -7.743005e+00 -1.663040e+00 -5.343245e+00 1.803884e+01 1.789977e-01 -1.551635e-02 -5.767053e-01 4.753321e-02 4.629174e-01 -3.189644e-01 -7.023586e-02 3.370461e-01 5.658082e-02 -2.256017e-01 -2.257808e-01 -5.103482e-02 1.051283e-01 2.082956e-02 7.872270e-02 4.755794e-02 -2.584295e-02 -1.918697e-02 -1.137625e-02 -7.251240e-02 -1.035217e-01 6.044769e-02 7.257555e-02 -2.423545e-02 -3.289810e-02 -1.342796e-03
<VARIANCE> 39
 1.012512e+01 1.451931e+01 2.294412e+01 1.875969e+01 3.475376e+01 3.654165e+01 3.159496e+01 5.084517e+01 5.258527e+01 3.968930e+01 2.792037e+01 3.405736e+01 2.958856e+00 3.793409e-01 7.504613e-01 8.579332e-01 9.496267e-01 1.397965e+00 1.857361e+00 1.983694e+00 2.349863e+00 2.353126e+00 2.183038e+00 1.796158e+00 1.504217e+00 1.198217e-01 5.425782e-02 9.244538e-02 1.343910e-01 1.410595e-01 2.129213e-01 2.765845e-01 3.052391e-01 3.543032e-01 3.953895e-01 3.900480e-01 3.126299e-01 2.617809e-01 1.347047e-02
<GCONST> 9.139085e+01
<STATE> 3
<MEAN> 39
 -2.378041e+00 -9.047858e+00 -9.278346e+00 -9.825308e+00 -2.422928e+00 -8.906113e+00 3.261170e-01 -3.572518e+00 -1.756207e+00 -7.752391e+00 -2.249780e+00 -5.714483e+00 1.814121e+01 1.830229e-01 3.086011e-01 -2.912179e-01 -6.717022e-02 3.206050e-01 -1.780706e-01 -2.848921e-01 -1.474825e-01 2.034380e-01 1.579556e-01 -1.546326e-01 -1.531887e-01 2.095770e-02 -2.879771e-02 6.171771e-02 1.186183e-01 -2.506882e-02 -6.651822e-02 7.189576e-02 -3.001687e-02 -1.159264e-01 5.095182e-03 7.622192e-02 3.813297e-02 -1.430783e-03 -2.896324e-02
<VARIANCE> 39
 9.974613e+00 1.418415e+01 2.400497e+01 1.735975e+01 2.446055e+01 3.373076e+01 4.222451e+01 5.038348e+01 5.031455e+01 3.716180e+01 2.999622e+01 3.118630e+01 2.740843e+00 4.130428e-01 6.591760e-01 9.372107e-01 9.242221e-01 1.241704e+00 1.683831e+00 2.037577e+00 2.500530e+00 2.324623e+00 2.286393e+00 1.809734e+00 1.511178e+00 1.168259e-01 5.413960e-02 8.200507e-02 1.380308e-01 1.379774e-01 1.924497e-01 2.631500e-01 3.304131e-01 3.791032e-01 3.804583e-01 3.609074e-01 3.071360e-01 2.509061e-01 1.010173e-02
<GCONST> 9.029142e+01
<STATE> 4
<MEAN> 39
 -2.008477e+00 -6.366214e+00 -9.097857e+00 -1.081688e+01 -1.665398e+00 -8.431548e+00 -1.635830e+00 -6.009630e+00 -7.003623e-01 -5.662653e+00 -1.667924e+00 -6.264217e+00 1.754584e+01 -1.633164e-01 2.140360e-01 2.654778e-01 -1.028570e-02 -1.291616e-02 1.525638e-01 -8.810434e-02 -2.815555e-01 -5.001247e-02 1.320231e-01 1.769294e-01 5.919310e-02 -1.359648e-01 -4.332885e-02 -2.660569e-02 3.012340e-02 1.414331e-02 -1.468285e-02 3.414934e-02 3.491128e-02 6.608191e-03 -3.636730e-02 -3.014515e-02 1.811386e-02 3.156263e-02 -1.108717e-02
<VARIANCE> 39
 1.192556e+01 1.207734e+01 2.306562e+01 1.603180e+01 1.761014e+01 2.951528e+01 3.755089e+01 3.699865e+01 3.437531e+01 3.533756e+01 3.437821e+01 2.971530e+01 3.522958e+00 4.017180e-01 5.259669e-01 8.669809e-01 9.153961e-01 1.157207e+00 1.489920e+00 1.851002e+00 2.033651e+00 2.129811e+00 1.977219e+00 1.737885e+00 1.693316e+00 6.001928e-02 4.872714e-02 7.305676e-02 1.346010e-01 1.532363e-01 2.069448e-01 2.643643e-01 3.052679e-01 3.247524e-01 3.600534e-01 3.329124e-01 2.999084e-01 2.838976e-01 6.542486e-03
<GCONST> 8.677893e+01
<TRANSP> 5
 0.000000e+00 1.000000e+00 0.000000e+00 0.000000e+00 0.000000e+00
 0.000000e+00 7.774169e-01 2.225830e-01 0.000000e+00 0.000000e+00
 0.000000e+00 0.000000e+00 7.095101e-01 2.904899e-01 0.000000e+00
 0.000000e+00 0.000000e+00 0.000000e+00 9.147538e-01 8.524626e-02
 0.000000e+00 0.000000e+00 0.000000e+00 0.000000e+00 0.000000e+00
<ENDHMM>
~h "th"
<BEGINHMM>
<NUMSTATES> 5
<STATE> 2
<MEAN> 39
 -7.464838e+00 -6.263274e+00 -5.248175e+00 -1.018618e+01 -1.344718e+00 -5.473817e+00 -6.831572e-01 -8.159479e+00 -2.373352e+00 -5.630125e+00 1.004834e+00 -3.511766e+00 1.492895e+01 -9.816341e-02 6.264344e-02 2.646403e-01 -6.291127e-02 -1.103958e-01 -7.445063e-02 3.518534e-02 -4.959286e-02 -1.198683e-01 2.052626e-02 -8.000528e-03 3.447447e-02 5.362885e-02 1.787393e-01 3.263170e-02 1.366894e-01 -5.301750e-04 -1.838943e-01 -1.259818e-01 -7.322551e-02 2.355700e-03 2.776952e-02 8.101346e-03 -1.764564e-02 -1.024908e-01 7.507371e-02
<VARIANCE> 39
 6.532096e+00 6.001973e+00 9.384584e+00 1.027315e+01 1.805599e+01 1.943250e+01 1.990577e+01 1.990184e+01 2.053312e+01 1.848670e+01 1.634804e+01 1.463337e+01 1.538901e+00 6.897821e-01 8.434225e-01 1.227127e+00 1.292367e+00 2.108559e+00 2.367200e+00 2.178317e+00 2.663637e+00 2.337559e+00 2.210130e+00 1.900716e+00 1.911623e+00 1.006806e-01 1.264235e-01 1.799155e-01 2.532602e-01 2.839579e-01 4.801985e-01 4.796012e-01 4.630896e-01 5.484600e-01 4.979548e-01 4.741715e-01 3.931808e-01 4.258852e-01 1.271641e-02
<GCONST> 9.067658e+01
<STATE> 3
<MEAN> 39
 -7.171431e+00 -5.716969e+00 -3.906526e+00 -1.027771e+01 -2.428827e+00 -6.264098e+00 -1.076937e+00 -8.339872e+00 -2.592132e+00 -5.439099e+00 7.080330e-01 -3.864935e+00 1.548431e+01 7.282013e-01 1.067226e-01 9.037371e-01 2.856172e-02 -1.118582e+00 -7.462628e-01 -3.367476e-01 -2.728697e-02 6.906202e-02 4.242907e-02 -1.234951e-01 -3.509963e-01 3.742099e-01 2.519154e-01 -9.214053e-02 1.847004e-01 1.280961e-02 -4.433470e-01 -1.986382e-01 -7.175174e-02 -2.384779e-02 7.996212e-02 1.166010e-02 -2.510693e-03 -7.974449e-02 8.496781e-02
<VARIANCE> 39
 1.044422e+01 7.783098e+00 1.275236e+01 1.334645e+01 2.495714e+01 2.461472e+01 2.014565e+01 2.119498e+01 2.429510e+01 2.060203e+01 2.203721e+01 1.616926e+01 1.876627e+00 1.113738e+00 1.200752e+00 1.495649e+00 1.917696e+00 3.425972e+00 3.558398e+00 2.302274e+00 2.890642e+00 2.664747e+00 2.701466e+00 2.973146e+00 2.509537e+00 1.293053e-01 1.900692e-01 2.423910e-01 3.051074e-01 3.932374e-01 5.972779e-01 6.960524e-01 4.841176e-01 5.921941e-01 5.280852e-01 5.616308e-01 5.838732e-01 4.933105e-01 1.930564e-02
<GCONST> 1.003564e+02
<STATE> 4
<MEAN> 39
 -3.852421e+00 -6.096128e+00 2.898467e-01 -1.063400e+01 -9.006090e+00 -9.710972e+00 -3.236444e+00 -8.396936e+00 -1.565650e+00 -4.940521e+00 8.690280e-01 -4.817897e+00 1.721376e+01 5.605326e-01 5.068843e-02 9.016857e-01 -3.916315e-01 -1.326279e+00 -5.436398e-01 -4.334549e-01 -7.523552e-02 2.498612e-01 1.180119e-01 -3.198925e-02 -2.253427e-01 3.838319e-01 -1.748437e-01 5.394040e-02 -1.450750e-01 -9.401697e-02 2.390863e-01 1.536483e-01 3.628671e-02 -5.258229e-04 -1.425450e-03 1.523306e-02 2.166246e-02 3.231984e-02 -4.744929e-02
<VARIANCE> 39
 1.231601e+01 1.470718e+01 2.249993e+01 4.408570e+01 5.703632e+01 5.213216e+01 3.085587e+01 3.137371e+01 2.694868e+01 2.507223e+01 3.128610e+01 2.484939e+01 2.432693e+00 1.651653e+00 1.934555e+00 2.347626e+00 4.752825e+00 7.684832e+00 7.064580e+00 4.021022e+00 4.028632e+00 3.019772e+00 2.793144e+00 2.918737e+00 2.450530e+00 1.559514e-01 2.456197e-01 3.381579e-01 4.419957e-01 8.638709e-01 1.287727e+00 1.400622e+00 8.452358e-01 7.977356e-01 6.016428e-01 5.660632e-01 4.943132e-01 4.197007e-01 2.172198e-02
<GCONST> 1.155696e+02
<TRANSP> 5
 0.000000e+00 1.000000e+00 0.000000e+00 0.000000e+00 0.000000e+00
 0.000000e+00 7.200860e-01 2.799140e-01 0.000000e+00 0.000000e+00
 0.000000e+00 0.000000e+00 5.716602e-01 4.283399e-01 0.000000e+00
 0.000000e+00 0.000000e+00 0.000000e+00 8.068581e-01 1.931419e-01
 0.000000e+00 0.000000e+00 0.000000e+00 0.000000e+00 0.000000e+00
<ENDHMM>
~h "uw"
<BEGINHMM>
<NUMSTATES> 5
<STATE> 2
<MEAN> 39
 -6.073086e+00 -3.813086e-01 -1.485791e-01 -1.333417e+01 -6.452872e+00 -8.140330e+00 -5.829538e+00 -9.794123e+00 -2.853852e+00 -4.627981e+00 4.530299e-01 -6.089963e+00 1.759014e+01 7.335221e-01 3.026771e-01 7.238205e-01 -2.429819e-01 -7.066383e-01 -7.571223e-01 -4.200127e-01 -2.980309e-01 -1.876424e-01 -5.326695e-02 -1.339438e-01 -4.845326e-01 3.050715e-01 -5.402480e-02 -6.738745e-02 -1.709266e-01 1.065935e-01 6.168452e-02 1.542762e-02 9.409628e-02 4.204856e-02 5.475598e-04 -1.538372e-02 8.821615e-04 3.266999e-02 -4.029969e-02
<VARIANCE> 39
 1.701080e+01 1.110511e+01 2.597844e+01 2.236542e+01 4.886781e+01 3.452705e+01 3.328198e+01 2.712333e+01 3.077163e+01 4.240133e+01 4.196677e+01 3.696852e+01 3.258828e+00 1.364619e+00 1.057593e+00 2.312497e+00 2.146645e+00 2.967387e+00 2.630474e+00 2.686107e+00 2.594147e+00 2.757233e+00 2.987106e+00 3.829245e+00 2.735502e+00 2.228244e-01 2.567267e-01 1.791199e-01 3.612829e-01 3.238194e-01 5.510304e-01 4.967252e-01 4.668648e-01 4.939075e-01 4.852926e-01 5.388586e-01 6.623236e-01 4.696607e-01 3.444219e-02
<GCONST> 1.082776e+02
<STATE> 3
<MEAN> 39
 -3.626537e+00 -2.377162e-01 3.337317e-01 -1.275479e+01 -7.122960e+00 -1.097971e+01 -6.272452e+00 -1.053634e+01 -4.057708e+00 -5.545634e+00 -1.754173e-01 -7.466614e+00 1.813120e+01 1.010949e-01 -2.895130e-01 -3.680660e-01 3.902184e-01 3.858414e-01 6.474610e-02 3.248960e-01 8.355039e-02 -1.039134e-02 -4.033267e-02 3.628107e-03 1.190901e-01 -1.263892e-01 -1.144219e-01 -8.437079e-02 -1.087508e-01 2.469082e-02 1.405146e-01 1.761261e-01 1.113414e-01 5.803387e-02 6.784435e-02 2.474676e-03 2.123223e-02 8.815822e-02 -6.022393e-02
<VARIANCE> 39
 8.282421e+00 1.002498e+01 1.438508e+01 2.938760e+01 3.619773e+01 2.608458e+01 3.508549e+01 3.056940e+01 3.502555e+01 4.908167e+01 5.545638e+01 4.268272e+01 1.890444e+00 6.578960e-01 5.942043e-01 1.060866e+00 1.418831e+00 1.930521e+00 2.337336e+00 2.265504e+00 2.146637e+00 2.292143e+00 2.250738e+00 2.520111e+00 2.128355e+00 1.121341e-01 9.902465e-02 1.004800e-01 1.729823e-01 2.402993e-01 3.086365e-01 3.859594e-01 3.821278e-01 4.034360e-01 4.226721e-01 4.231708e-01 4.705040e-01 3.788144e-01 1.169107e-02
<GCONST> 9.583488e+01
<STATE> 4
<MEAN> 39
 -3.650119e+00 -2.381879e+00 -2.210090e+00 -1.097080e+01 -3.731367e+00 -9.080176e+00 -3.573370e+00 -9.688307e+00 -2.948167e+00 -5.732156e+00 -3.210351e-01 -6.309837e+00 1.680655e+01 -3.012714e-01 -4.370030e-01 -4.030499e-01 2.649134e-01 4.797156e-01 5.650684e-01 4.608922e-01 1.519306e-01 3.916227e-02 -2.773019e-02 9.543110e-03 2.667615e-01 -2.385467e-01 -3.952658e-02 -8.600005e-03 -1.792721e-03 -5.543362e-02 -4.114431e-02 6.389450e-03 8.970802e-05 1.781389e-02 -1.741956e-03 -1.035690e-02 2.944387e-03 -8.053050e-03 3.497590e-03
<VARIANCE> 39
 8.536700e+00 1.113039e+01 1.134504e+01 2.292439e+01 2.581693e+01 2.930449e+01 3.111860e+01 3.033190e+01 2.924277e+01 3.417575e+01 4.004514e+01 3.682737e+01 2.740307e+00 5.492838e-01 5.593859e-01 8.203269e-01 1.155535e+00 1.671284e+00 2.136651e+00 2.204170e+00 2.287629e+00 2.183334e+00 2.237970e+00 2.372854e+00 2.008546e+00 6.908002e-02 7.673601e-02 9.348954e-02 1.399973e-01 1.929093e-01 2.865624e-01 3.939359e-01 4.028533e-01 4.098220e-01 4.012955e-01 4.067205e-01 4.363401e-01 3.504671e-01 9.944645e-03
<GCONST> 9.178232e+01
<TRANSP> 5
 0.000000e+00 1.000000e+00 0.000000e+00 0.000000e+00 0.000000e+00
 0.000000e+00 8.599393e-01 1.400607e-01 0.000000e+00 0.000000e+00
 0.000000e+00 0.000000e+00 7.804714e-01 2.195286e-01 0.000000e+00
 0.000000e+00 0.000000e+00 0.000000e+00 8.762118e-01 1.237883e-01
 0.000000e+00 0.000000e+00 0.000000e+00 0.000000e+00 0.000000e+00
<ENDHMM>
~h "sil"
<BEGINHMM>
<NUMSTATES> 5
<STATE> 2
<MEAN> 39
 -6.976579e+00 -7.052770e+00 -5.674609e+00 -1.006299e+01 -1.009475e+00 -4.389298e+00 -3.969946e-01 -8.469750e+00 -2.586892e+00 -5.561975e+00 9.520879e-01 -4.098791e+00 1.472055e+01 -4.773250e-02 -3.960725e-02 -3.306159e-02 -1.451220e-02 -5.917107e-03 7.896526e-03 1.119121e-02 -1.579393e-02 -1.223608e-02 -3.641382e-03 1.494271e-02 -3.647398e-03 -1.988975e-02 8.786592e-03 1.228227e-02 7.287806e-03 6.439274e-03 4.651962e-03 2.415930e-04 -4.927474e-03 8.790020e-05 -1.082634e-03 -3.183356e-03 -1.605395e-02 6.587245e-06 6.617060e-03
<VARIANCE> 39
 3.508586e+00 4.108891e+00 6.589520e+00 8.376490e+00 1.298432e+01 1.366328e+01 1.440888e+01 1.547648e+01 1.627420e+01 1.426253e+01 1.551105e+01 1.263800e+01 1.222443e+00 1.511143e-01 3.508037e-01 6.082217e-01 9.209790e-01 1.191223e+00 1.511867e+00 1.456947e+00 1.656735e+00 1.676093e+00 1.473810e+00 1.596709e+00 1.427784e+00 7.342618e-03 2.791573e-02 6.721812e-02 1.143252e-01 1.760604e-01 2.326197e-01 2.940744e-01 2.778561e-01 3.175240e-01 3.206974e-01 2.782400e-01 3.066230e-01 2.778108e-01 1.432170e-03
<GCONST> 6.791329e+01
<STATE> 3
<MEAN> 39
 -7.202449e+00 -7.204189e+00 -5.879238e+00 -1.013563e+01 -9.012793e-01 -4.268029e+00 -2.919714e-01 -8.631001e+00 -2.692348e+00 -5.562356e+00 1.050403e+00 -4.025296e+00 1.438762e+01 -4.468778e-03 5.798115e-03 -1.359057e-02 2.395698e-03 -3.137945e-03 1.915545e-03 2.306685e-03 -1.197990e-03 -1.219095e-03 1.497224e-02 -1.232994e-03 4.221998e-03 -8.900412e-04 -9.725499e-04 5.414987e-03 3.562709e-04 1.567464e-03 -5.174072e-03 -3.812543e-03 -4.810802e-03 4.699793e-03 1.463043e-03 -8.620098e-04 -2.571834e-03 -4.889103e-03 1.653500e-03
<VARIANCE> 39
 3.087947e+00 3.570266e+00 6.074817e+00 8.367783e+00 1.240576e+01 1.404407e+01 1.514932e+01 1.606473e+01 1.651788e+01 1.411886e+01 1.543169e+01 1.332681e+01 7.722014e-01 1.552769e-01 3.354485e-01 6.054839e-01 9.215813e-01 1.190856e+00 1.646570e+00 1.635575e+00 1.801125e+00 1.762784e+00 1.468896e+00 1.624919e+00 1.487452e+00 5.704576e-03 3.221633e-02 7.121916e-02 1.275357e-01 1.920290e-01 2.540509e-01 3.537924e-01 3.444987e-01 3.824473e-01 3.697152e-01 3.010951e-01 3.376239e-01 3.134803e-01 1.305596e-03
<GCONST> 6.875835e+01
<STATE> 4
<MEAN> 39
 -7.647328e+00 -6.565868e+00 -5.906165e+00 -1.001213e+01 -1.266366e+00 -4.374752e+00 -5.199097e-01 -8.692783e+00 -2.590637e+00 -5.677694e+00 1.020643e+00 -4.232114e+00 1.462586e+01 -3.228660e-02 6.412224e-02 -1.476110e-02 3.746146e-03 -3.619144e-02 -2.388926e-02 -4.767997e-02 4.450370e-02 -1.208295e-02 -3.744350e-02 -4.757867e-02 -2.347177e-02 1.544330e-02 1.486439e-02 3.233721e-02 2.298164e-02 -7.107551e-03 -3.252069e-04 -1.211414e-02 -1.564628e-02 -1.064569e-02 -1.188598e-02 -2.177843e-02 -2.243375e-02 2.092380e-03 1.511625e-02
<VARIANCE> 39
 4.908378e+00 5.660832e+00 7.867836e+00 9.829144e+00 1.230199e+01 1.431543e+01 1.570663e+01 1.724310e+01 1.715222e+01 1.560890e+01 1.595348e+01 1.342575e+01 1.367272e+00 3.054574e-01 5.090730e-01 7.776281e-01 1.078048e+00 1.236167e+00 1.654306e+00 1.631011e+00 1.996349e+00 2.022665e+00 1.733729e+00 1.781403e+00 1.554236e+00 1.371774e-02 6.320512e-02 1.010078e-01 1.487545e-01 2.011082e-01 2.283468e-01 3.203862e-01 2.974147e-01 3.776757e-01 3.768411e-01 3.199489e-01 3.251210e-01 2.843398e-01 3.976790e-03
<GCONST> 7.584584e+01
<TRANSP> 5
 0.000000e+00 1.000000e+00 0.000000e+00 0.000000e+00 0.000000e+00
 0.000000e+00 9.017984e-01 9.820162e-02 0.000000e+00 0.000000e+00
 0.000000e+00 0.000000e+00 9.360645e-01 6.393539e-02 0.000000e+00
 0.000000e+00 0.000000e+00 0.000000e+00 7.706298e-01 2.293702e-01
 0.000000e+00 0.000000e+00 0.000000e+00 0.000000e+00 0.000000e+00
<ENDHMM>
