~o
<STREAMINFO> 1 39
<VECSIZE> 39<NULLD><MFCC_E_D_A><DIAGC>
~s "silst"
<MEAN> 39
 -6.995794e+00 -7.310170e+00 -5.902721e+00 -1.012867e+01 -8.181024e-01 -4.404928e+00 -2.587423e-01 -8.570844e+00 -2.651709e+00 -5.604037e+00 9.529508e-01 -3.971028e+00 1.400689e+01 -3.579529e-03 7.399877e-03 -4.843592e-03 3.253327e-03 -2.740886e-03 7.616629e-03 -2.475044e-03 -2.599295e-02 6.445929e-03 2.240987e-02 1.146532e-02 1.604140e-03 -9.511308e-04 -5.612494e-03 9.256564e-03 2.327609e-03 5.921235e-03 -7.494522e-03 4.245033e-03 -1.853476e-03 1.059922e-02 5.973496e-03 2.804050e-04 -2.866509e-03 -1.221582e-02 2.890358e-03
<VARIANCE> 39
 2.549529e+00 3.256146e+00 5.681635e+00 8.011031e+00 1.249100e+01 1.398503e+01 1.509140e+01 1.545129e+01 1.588339e+01 1.366913e+01 1.553768e+01 1.275772e+01 4.838710e-01 1.218813e-01 3.012932e-01 5.382782e-01 8.797694e-01 1.200966e+00 1.616862e+00 1.650509e+00 1.698409e+00 1.719161e+00 1.387717e+00 1.613193e+00 1.427562e+00 4.527276e-03 2.552056e-02 6.230527e-02 1.107797e-01 1.816878e-01 2.552364e-01 3.432855e-01 3.458194e-01 3.551418e-01 3.573546e-01 2.793346e-01 3.306425e-01 2.996237e-01 1.099298e-03
<GCONST> 6.580809e+01
~h "f"
<BEGINHMM>
<NUMSTATES> 5
<STATE> 2
<MEAN> 39
 -8.421267e+00 -6.744057e+00 -5.688244e+00 -9.982904e+00 -1.362098e+00 -4.693158e+00 -3.403461e-01 -8.582820e+00 -2.347514e+00 -5.870581e+00 1.186862e+00 -3.996881e+00 1.487663e+01 -1.386753e-01 -1.565833e-01 -1.115465e-01 -9.197184e-02 -7.493199e-02 -3.111115e-02 6.263558e-02 1.946273e-02 -3.703194e-03 5.845513e-02 1.380675e-01 8.050866e-02 -3.111170e-02 2.831596e-01 8.194586e-02 -2.256867e-02 -1.636301e-03 -1.874060e-02 -1.535331e-01 -1.157946e-01 7.880635e-04 -1.984841e-02 -4.225697e-02 -1.158244e-01 -9.489161e-02 1.258997e-01
<VARIANCE> 39
 4.530866e+00 3.774631e+00 7.200606e+00 8.558051e+00 1.286563e+01 1.459774e+01 1.513128e+01 1.653095e+01 1.553000e+01 1.462150e+01 1.515683e+01 1.241251e+01 1.018348e+00 4.844847e-01 4.700237e-01 8.617934e-01 1.016392e+00 1.347799e+00 1.794392e+00 1.560334e+00 2.021894e+00 1.781985e+00 1.619009e+00 1.747589e+00 1.446776e+00 4.271900e-02 1.287081e-01 1.418395e-01 2.389599e-01 2.383554e-01 3.051657e-01 4.193132e-01 3.322500e-01 4.751575e-01 4.275239e-01 3.680930e-01 3.948525e-01 3.046530e-01 1.357605e-02
<GCONST> 8.029227e+01
<STATE> 3
<MEAN> 39
 -7.096536e+00 -6.606230e+00 -5.489164e+00 -9.918540e+00 -1.368701e+00 -4.913254e+00 -7.844162e-01 -8.369200e+00 -2.256696e+00 -5.689571e+00 9.194884e-01 -4.100222e+00 1.540771e+01 1.963212e+00 3.769452e-02 -1.123919e+00 -5.206028e-01 -8.635679e-02 -9.673781e-01 -5.108724e-01 3.935592e-01 -3.891236e-02 -2.277158e-01 -8.002700e-01 -5.755234e-01 9.103575e-01 4.277291e-01 -1.546816e-01 -5.563920e-01 -1.855324e-01 3.900375e-02 -2.045360e-01 -5.435440e-02 1.552166e-01 -1.358169e-01 -3.267107e-02 -1.938641e-01 -2.083965e-01 2.252559e-01
<VARIANCE> 39
 5.812319e+00 4.969777e+00 5.711959e+00 8.930024e+00 9.969357e+00 1.295158e+01 1.478937e+01 1.709750e+01 1.702432e+01 1.440855e+01 1.498075e+01 1.258206e+01 1.754132e+00 8.172555e-01 1.749789e+00 1.386108e+00 2.136227e+00 1.587433e+00 1.970441e+00 2.216180e+00 3.900045e+00 2.770979e+00 2.449921e+00 2.409063e+00 2.087284e+00 8.294068e-02 1.522077e-01 2.493986e-01 1.805738e-01 4.075394e-01 3.158777e-01 3.810325e-01 3.937924e-01 5.261932e-01 4.701650e-01 4.822241e-01 4.498607e-01 4.687988e-01 1.728565e-02
<GCONST> 8.978066e+01
<STATE> 4
<MEAN> 39
 -4.880982e-01 -8.712590e+00 -1.186351e+01 -1.142588e+01 -7.793056e-01 -9.091970e+00 -2.318579e+00 -5.750440e+00 -3.354626e+00 -7.056094e+00 -3.093424e+00 -7.206682e+00 1.866900e+01 1.018648e+00 -6.485406e-01 -1.481974e+00 -1.699874e-01 2.776838e-01 -4.714926e-01 9.253345e-02 3.050441e-01 -5.476478e-01 5.202846e-02 -3.872857e-01 -4.281104e-01 7.440984e-01 -6.284132e-01 4.090055e-02 4.518558e-01 2.020976e-01 -1.689189e-02 3.941331e-01 2.498309e-01 -2.756330e-01 -2.949638e-02 1.914624e-01 4.414158e-01 3.171094e-01 -2.441520e-01
<VARIANCE> 39
 7.829299e+00 2.667842e+01 1.573343e+01 2.263303e+01 2.025527e+01 1.697907e+01 3.016943e+01 5.075534e+01 3.384325e+01 3.075195e+01 3.266948e+01 3.149899e+01 1.250265e+00 1.722774e+00 2.271089e+00 1.714281e+00 3.159508e+00 2.165385e+00 2.244743e+00 2.463016e+00 3.202183e+00 3.435732e+00 3.809037e+00 3.360154e+00 3.344450e+00 1.601272e-01 7.292679e-02 1.886540e-01 2.369941e-01 2.046509e-01 2.659310e-01 3.084126e-01 3.964367e-01 6.736974e-01 6.381284e-01 4.996576e-01 4.224135e-01 4.128639e-01 1.020097e-02
<GCONST> 1.014269e+02
<TRANSP> 5
 0.000000e+00 1.000000e+00 0.000000e+00 0.000000e+00 0.000000e+00
 0.000000e+00 8.139955e-01 1.860045e-01 0.000000e+00 0.000000e+00
 0.000000e+00 0.000000e+00 5.717562e-01 4.282438e-01 0.000000e+00
 0.000000e+00 0.000000e+00 0.000000e+00 6.211795e-01 3.788205e-01
 0.000000e+00 0.000000e+00 0.000000e+00 0.000000e+00 0.000000e+00
<ENDHMM>
~h "k"
<BEGINHMM>
<NUMSTATES> 5
<STATE> 2
<MEAN> 39
 -5.747915e+00 -3.793850e+00 -8.487400e-01 -1.378241e+01 -2.852086e+00 -4.435392e+00 -5.332687e+00 -7.957451e+00 -1.434884e+00 -6.053638e+00 1.451204e+00 -4.738199e+00 1.603082e+01 4.493892e-04 -1.520735e+00 -1.899560e+00 3.040980e+00 1.691309e+00 1.061777e+00 1.739347e+00 -1.015571e+00 -5.203432e-01 -4.511161e-01 5.556594e-01 5.918477e-01 -9.118881e-01 -2.663908e-01 -6.689793e-02 -3.128494e-01 -2.938688e-01 -3.236902e-01 -2.519925e-01 5.391611e-01 1.026133e-01 6.617670e-02 2.792884e-01 -3.674365e-01 -1.718545e-01 6.565280e-02
<VARIANCE> 39
 3.623803e+00 9.258383e+00 1.774047e+01 2.448760e+01 3.532812e+01 2.572850e+01 4.026395e+01 2.620765e+01 2.684387e+01 2.462825e+01 2.137482e+01 1.636511e+01 1.607283e+00 6.009983e-01 1.199395e+00 1.672500e+00 2.113536e+00 5.799119e+00 4.418880e+00 4.524887e+00 3.029972e+00 3.129497e+00 3.270392e+00 3.541719e+00 2.858814e+00 6.002699e-02 6.213620e-02 1.604027e-01 3.141692e-01 5.521014e-01 5.508856e-01 4.746681e-01 8.179200e-01 5.202745e-01 6.403803e-01 5.365798e-01 5.195044e-01 5.586627e-01 1.947787e-02
<GCONST> 1.016889e+02
<STATE> 3
<MEAN> 39
 -7.030090e+00 -6.949276e+00 -5.900400e+00 -1.018550e+01 -4.286635e-01 -3.801295e+00 -2.298000e-01 -9.017947e+00 -2.521748e+00 -5.662384e+00 1.129402e+00 -3.775404e+00 1.431080e+01 -4.188790e-01 -7.597933e-01 -8.023400e-01 6.242238e-01 -4.763305e-03 1.155848e-01 7.344111e-01 -1.844327e-01 -9.738447e-02 1.789541e-01 -2.005543e-02 1.469103e-01 -3.003797e-01 -4.377284e-02 3.432365e-01 5.933878e-01 -6.862451e-01 -5.405708e-01 -2.630486e-01 -4.973444e-01 2.650891e-01 1.388989e-01 7.583220e-02 -1.304341e-01 -1.961169e-01 2.367427e-01
<VARIANCE> 39
 3.621388e+00 3.732018e+00 5.531233e+00 7.711710e+00 1.118320e+01 1.287475e+01 1.352989e+01 1.618513e+01 1.354689e+01 1.552432e+01 1.721441e+01 1.312648e+01 1.092685e+00 3.341601e-01 5.849177e-01 1.587901e+00 1.830549e+00 2.218423e+00 2.088024e+00 2.606067e+00 2.083151e+00 2.121876e+00 2.169126e+00 1.964613e+00 1.915592e+00 8.307953e-02 8.736946e-02 1.413348e-01 2.209601e-01 3.505333e-01 5.878910e-01 4.741820e-01 5.253140e-01 4.919522e-01 3.925917e-01 4.398338e-01 5.265858e-01 4.051650e-01 9.019302e-03
<GCONST> 8.468141e+01
<STATE> 4
<MEAN> 39
 -7.651719e+00 -8.041866e+00 -4.721222e+00 -9.705552e+00 -3.032777e+00 -4.632444e+00 -2.313493e-02 -8.881158e+00 -2.529979e+00 -5.323068e+00 5.291320e-01 -4.340049e+00 1.455124e+01 -4.024412e-01 -5.136523e-03 1.943188e-01 2.626185e-01 -6.390917e-01 3.254287e-01 -3.924991e-02 1.646728e-02 5.252157e-02 2.019334e-01 -1.655066e-01 -4.042868e-02 5.121591e-02 -5.449319e-02 2.400964e-01 -8.052176e-02 -3.656876e-02 7.908740e-02 1.751181e-01 -1.353960e-01 3.712560e-02 3.491169e-02 2.139169e-02 1.376974e-02 2.129730e-02 1.791793e-02
<VARIANCE> 39
 3.873470e+00 8.131760e+00 8.683162e+00 1.140260e+01 1.605869e+01 1.585688e+01 1.676810e+01 1.610616e+01 1.691062e+01 1.479302e+01 1.383181e+01 1.389959e+01 1.170125e+00 3.900307e-01 9.931391e-01 9.776317e-01 1.252538e+00 1.610389e+00 2.002054e+00 1.777972e+00 1.963318e+00 1.975170e+00 1.648982e+00 1.857116e+00 1.453485e+00 1.797751e-02 6.122322e-02 2.070500e-01 2.462768e-01 2.720850e-01 3.556263e-01 4.009462e-01 3.993115e-01 3.850737e-01 4.152892e-01 3.648750e-01 3.791730e-01 3.046335e-01 7.610478e-03
<GCONST> 8.181429e+01
<TRANSP> 5
 0.000000e+00 1.000000e+00 0.000000e+00 0.000000e+00 0.000000e+00
 0.000000e+00 5.107530e-01 4.892470e-01 0.000000e+00 0.000000e+00
 0.000000e+00 0.000000e+00 5.719075e-01 4.280926e-01 0.000000e+00
 0.000000e+00 0.000000e+00 0.000000e+00 7.556352e-01 2.443648e-01
 0.000000e+00 0.000000e+00 0.000000e+00 0.000000e+00 0.000000e+00
<ENDHMM>
~h "n"
<BEGINHMM>
<NUMSTATES> 5
<STATE> 2
<MEAN> 39
 -4.806076e+00 -2.725688e+00 -1.860466e+00 -1.205180e+01 -2.406762e+00 -6.001729e+00 -2.945837e+00 -9.769797e+00 -3.106253e+00 -8.368629e+00 -2.483867e+00 -7.128584e+00 1.751766e+01 5.974156e-01 9.881472e-01 4.221206e-01 1.154269e-01 7.051466e-01 -1.015112e+00 -6.149271e-01 -2.326846e-02 -6.769570e-01 1.895798e-01 -2.691895e-02 -2.712959e-01 -1.886768e-02 2.979813e-02 -1.945010e-01 -3.742849e-03 3.111011e-01 -3.407685e-02 -4.706772e-02 1.301073e-01 -8.985790e-02 -1.110819e-01 8.544769e-02 2.087445e-02 -9.965353e-03 -5.962310e-03
<VARIANCE> 39
 9.571351e+00 1.202313e+01 1.223256e+01 1.846967e+01 3.255877e+01 3.327445e+01 2.902061e+01 3.082145e+01 4.105122e+01 4.636337e+01 3.586705e+01 3.777042e+01 1.650716e+00 5.146065e-01 1.030212e+00 1.207319e+00 1.644269e+00 2.507255e+00 2.393341e+00 2.457158e+00 2.534382e+00 2.554332e+00 2.500920e+00 2.296311e+00 1.933948e+00 7.978334e-02 9.237478e-02 2.056475e-01 2.284384e-01 2.790510e-01 4.497735e-01 4.688679e-01 4.531238e-01 4.089130e-01 4.939773e-01 5.127985e-01 4.148574e-01 3.400359e-01 7.174184e-03
<GCONST> 9.715224e+01
<STATE> 3
<MEAN> 39
 -2.463813e+00 -1.065952e+00 -1.626985e-01 -9.270861e+00 -1.031254e+00 -8.952615e+00 -4.169304e+00 -1.156485e+01 -6.448346e+00 -8.060010e+00 -3.075898e+00 -8.176446e+00 1.739604e+01 -1.519760e-01 -3.009827e-01 -2.152665e-01 2.909168e-01 -5.659633e-02 5.105146e-01 2.983630e-01 -1.079536e-01 9.046730e-02 4.700916e-03 1.234632e-01 1.609212e-01 -8.854338e-02 -2.334109e-01 -3.254043e-01 -2.735391e-01 -4.445444e-02 -1.351107e-01 3.345659e-01 2.553733e-01 1.343307e-01 2.094306e-01 -1.206662e-02 7.269713e-02 9.545209e-02 -4.216288e-02
<VARIANCE> 39
 3.494908e+00 4.818517e+00 8.547722e+00 1.240861e+01 1.852472e+01 2.075175e+01 2.033775e+01 2.617252e+01 3.589215e+01 3.721415e+01 3.440952e+01 3.432918e+01 1.041357e+00 4.350096e-01 8.392402e-01 9.621028e-01 1.162398e+00 2.092935e+00 2.076521e+00 2.181434e+00 2.021153e+00 2.469886e+00 1.878997e+00 2.111676e+00 1.702547e+00 7.983532e-02 6.179522e-02 1.358440e-01 1.737672e-01 2.487639e-01 3.522125e-01 3.491479e-01 3.932920e-01 3.895591e-01 4.270442e-01 3.888195e-01 3.996403e-01 3.109292e-01 6.920001e-03
<GCONST> 8.730246e+01
<STATE> 4
<MEAN> 39
 -4.847110e+00 -4.307151e+00 -2.590637e+00 -8.415987e+00 -2.948482e-01 -3.572357e+00 -2.497050e-01 -9.433834e+00 -3.106008e+00 -6.656216e+00 -6.043923e-01 -5.512161e+00 1.594344e+01 -6.209926e-01 -8.958187e-01 -7.177638e-01 1.075470e-02 -6.021938e-02 4.767046e-01 5.157430e-01 2.740613e-01 3.282407e-01 1.748601e-01 2.443954e-01 2.554651e-01 -1.968483e-01 3.073756e-02 2.552372e-02 3.990253e-03 -3.025686e-02 -5.260945e-02 -2.405164e-01 -1.161818e-01 -1.514233e-02 -9.015556e-02 2.342393e-02 1.676237e-02 -1.203265e-02 2.646140e-02
<VARIANCE> 39
 5.883255e+00 8.309404e+00 8.946575e+00 1.267983e+01 2.277065e+01 1.883922e+01 2.140358e+01 2.318122e+01 3.116988e+01 2.350900e+01 2.481574e+01 2.118220e+01 2.070814e+00 4.275855e-01 8.808419e-01 9.955956e-01 1.447204e+00 1.464547e+00 1.915654e+00 2.068052e+00 2.164760e+00 2.599549e+00 2.187546e+00 2.002471e+00 1.822205e+00 9.036840e-02 6.402066e-02 9.749766e-02 1.459191e-01 2.696765e-01 3.285547e-01 3.564895e-01 3.828982e-01 3.668663e-01 4.375884e-01 3.509489e-01 3.465880e-01 3.154513e-01 6.665234e-03
<GCONST> 8.718693e+01
<TRANSP> 5
 0.000000e+00 1.000000e+00 0.000000e+00 0.000000e+00 0.000000e+00
 0.000000e+00 7.004508e-01 2.995492e-01 0.000000e+00 0.000000e+00
 0.000000e+00 0.000000e+00 7.779493e-01 2.220507e-01 0.000000e+00
 0.000000e+00 0.000000e+00 0.000000e+00 7.053728e-01 2.946272e-01
 0.000000e+00 0.000000e+00 0.000000e+00 0.000000e+00 0.000000e+00
<ENDHMM>
~h "r"
<BEGINHMM>
<NUMSTATES> 5
<STATE> 2
<MEAN> 39
 -1.157258e+00 -9.437348e+00 1.336305e-01 -7.903481e+00 -1.494865e+01 -1.122563e+01 7.425399e-01 -7.675497e+00 1.557837e-01 -4.897582e+00 -4.375171e-01 -5.821180e+00 1.843895e+01 -2.319266e-01 -2.194219e-01 3.987180e-01 -9.811218e-01 -4.277074e-01 1.352593e+00 -2.207720e-01 -1.086770e-01 7.740663e-01 -1.640973e-01 -1.174845e-01 -1.628358e-02 1.251548e-01 -2.507212e-01 3.296402e-01 -5.810123e-03 -5.267699e-01 5.566235e-01 3.365027e-01 -4.978396e-01 1.148300e-01 -1.015205e-02 -1.812716e-01 1.333381e-02 -7.226544e-03 -3.827645e-02
<VARIANCE> 39
 4.496703e+00 1.736646e+01 2.203223e+01 2.962312e+01 3.831883e+01 5.214062e+01 2.496976e+01 3.297826e+01 2.651690e+01 2.799461e+01 3.620847e+01 4.476294e+01 1.280495e+00 4.355999e-01 8.265460e-01 1.612219e+00 2.525653e+00 2.772393e+00 3.773901e+00 2.719992e+00 2.740988e+00 1.919368e+00 1.847019e+00 1.815621e+00 1.581396e+00 2.567891e-02 5.840091e-02 1.208384e-01 2.120037e-01 2.592891e-01 7.392085e-01 5.646045e-01 4.705795e-01 4.488755e-01 3.550613e-01 3.485115e-01 3.620748e-01 3.656996e-01 6.962249e-03
<GCONST> 9.511288e+01
<STATE> 3
<MEAN> 39
 -3.459221e+00 -7.564339e+00 3.669770e+00 -1.550618e+01 -1.478539e+01 -3.813592e+00 -4.687518e+00 -8.491053e+00 2.992921e+00 -6.624926e+00 4.181145e-01 -5.640303e+00 1.877647e+01 -8.562927e-01 1.321336e+00 -1.609716e-01 -2.127745e+00 2.520972e+00 6.439755e-01 -2.039698e+00 1.349784e+00 -3.149081e-01 -6.949791e-01 2.279765e-01 -7.930113e-02 -7.423834e-03 -8.644481e-03 3.262849e-01 -5.429712e-01 4.373510e-01 7.267995e-01 -9.582822e-01 2.459633e-01 3.119201e-01 -6.402349e-01 1.624719e-01 1.072318e-02 2.977149e-02 -5.334550e-02
<VARIANCE> 39
 7.362496e+00 2.858989e+01 2.976072e+01 3.547677e+01 4.129833e+01 4.031320e+01 5.092204e+01 5.460506e+01 2.343279e+01 3.248278e+01 3.716988e+01 2.953389e+01 1.334832e+00 4.261064e-01 1.763271e+00 1.065174e+00 2.475638e+00 2.156657e+00 3.837203e+00 3.106596e+00 2.361144e+00 2.614594e+00 1.843928e+00 1.555782e+00 1.737183e+00 1.475494e-02 4.303966e-02 1.004982e-01 1.969672e-01 3.358829e-01 4.509605e-01 5.462766e-01 6.266237e-01 4.931529e-01 3.203617e-01 3.938854e-01 3.305185e-01 2.541676e-01 2.555764e-03
<GCONST> 9.515157e+01
<STATE> 4
<MEAN> 39
 -4.653422e+00 -6.628418e+00 4.900314e-01 -1.819006e+01 -6.156875e+00 -4.317271e+00 -4.419930e+00 -3.310265e+00 -1.743087e+00 -5.941810e+00 -6.659660e-01 -6.123238e+00 1.846502e+01 -4.099006e-01 1.056551e+00 -1.068902e+00 -6.407604e-02 2.070166e+00 -1.389522e+00 1.234741e-01 4.946355e-01 -1.069321e+00 1.494885e-01 -6.639075e-02 2.346643e-02 -6.238938e-02 1.361387e-01 5.591903e-03 -1.683420e-01 5.240275e-01 -3.035474e-01 -3.276578e-01 4.493061e-01 -4.312768e-01 9.097181e-02 1.332147e-01 -6.765707e-02 2.271642e-03 -2.377988e-02
<VARIANCE> 39
 1.008565e+01 5.059245e+01 1.902584e+01 3.990894e+01 3.529112e+01 3.853363e+01 6.024501e+01 3.809148e+01 3.484937e+01 3.499011e+01 3.773428e+01 3.571839e+01 1.320133e+00 2.525332e-01 1.270139e+00 6.661385e-01 8.856471e-01 1.942286e+00 3.019755e+00 2.192523e+00 2.001886e+00 1.999940e+00 2.455978e+00 1.516629e+00 1.349938e+00 1.027048e-02 4.318926e-02 1.182969e-01 1.016401e-01 2.831606e-01 2.444764e-01 3.071944e-01 4.597794e-01 3.785844e-01 3.073061e-01 2.975195e-01 2.659635e-01 2.682524e-01 1.299548e-03
<GCONST> 8.856112e+01
<TRANSP> 5
 0.000000e+00 1.000000e+00 0.000000e+00 0.000000e+00 0.000000e+00
 0.000000e+00 6.542366e-01 3.457634e-01 0.000000e+00 0.000000e+00
 0.000000e+00 0.000000e+00 4.697250e-01 5.302750e-01 0.000000e+00
 0.000000e+00 0.000000e+00 0.000000e+00 5.402651e-01 4.597349e-01
 0.000000e+00 0.000000e+00 0.000000e+00 0.000000e+00 0.000000e+00
<ENDHMM>
~h "s"
<BEGINHMM>
<NUMSTATES> 5
<STATE> 2
<MEAN> 39
 -1.023135e+01 -4.110942e+00 -7.129030e+00 -8.480365e+00 -3.059865e+00 -2.189161e+00 -1.018943e+00 -7.750152e+00 -2.351460e+00 -4.528530e+00 4.072406e-01 -4.263405e+00 1.475131e+01 -6.049419e-01 1.408195e-01 -9.993967e-01 2.241473e-01 -9.538134e-02 4.654942e-01 -1.601884e-01 2.123157e-01 -2.906122e-02 8.925541e-02 5.565747e-02 2.552106e-01 -1.470682e-01 2.931464e-01 -1.760811e-02 1.148722e-01 -1.599955e-02 -1.091935e-02 -3.040745e-01 -6.594780e-02 -8.741658e-02 -9.375106e-02 -8.791695e-02 1.134269e-02 -6.210510e-02 5.422757e-02
<VARIANCE> 39
 1.109178e+01 1.348989e+01 1.687477e+01 1.651031e+01 2.118213e+01 2.035761e+01 2.211052e+01 1.988951e+01 2.119255e+01 1.986912e+01 1.922195e+01 1.536795e+01 1.160786e+00 1.153702e+00 1.389545e+00 1.532712e+00 1.621646e+00 2.096326e+00 2.796792e+00 2.369066e+00 2.136612e+00 2.602926e+00 2.284861e+00 2.172923e+00 1.752525e+00 6.737711e-02 1.387072e-01 2.218831e-01 3.273908e-01 3.073655e-01 4.505569e-01 5.278875e-01 4.857340e-01 4.944365e-01 5.395989e-01 4.358177e-01 4.324929e-01 3.461015e-01 1.226727e-02
<GCONST> 9.515633e+01
<STATE> 3
<MEAN> 39
 -9.357103e+00 -4.942150e+00 -8.132133e+00 -8.254318e+00 -3.007664e+00 -2.543270e+00 -1.819780e+00 -7.854450e+00 -3.227516e+00 -4.712758e+00 5.685635e-01 -3.639237e+00 1.460878e+01 3.301841e-03 7.917682e-03 -9.995452e-02 5.903305e-02 5.129025e-02 -6.922395e-02 -3.763191e-02 2.662445e-02 -5.134709e-02 -3.325319e-02 -3.128846e-02 3.098262e-02 -3.058391e-03 6.129242e-02 -3.795588e-03 1.213816e-01 -4.899759e-02 3.634257e-02 -6.725992e-02 5.625556e-02 -2.636496e-02 1.763300e-02 -9.532362e-03 -3.466249e-02 -2.818451e-02 2.745795e-02
<VARIANCE> 39
 4.131081e+00 6.500280e+00 9.285275e+00 1.201297e+01 1.577892e+01 1.549541e+01 1.508056e+01 1.710971e+01 1.834531e+01 1.587230e+01 1.556087e+01 1.298059e+01 9.749937e-01 2.428876e-01 4.395071e-01 6.610861e-01 1.026749e+00 1.287431e+00 1.579516e+00 1.559582e+00 1.773376e+00 1.820598e+00 1.509794e+00 1.509956e+00 1.367198e+00 6.585598e-03 5.422197e-02 9.834635e-02 1.433390e-01 2.230028e-01 2.663606e-01 3.458399e-01 3.339728e-01 3.603108e-01 3.636544e-01 3.313667e-01 2.948548e-01 2.731135e-01 3.419099e-03
<GCONST> 7.401376e+01
<STATE> 4
<MEAN> 39
 -9.489532e+00 -5.157782e+00 -8.076035e+00 -8.243073e+00 -2.628322e+00 -3.120036e+00 -1.465456e+00 -7.860960e+00 -3.113845e+00 -5.305499e+00 2.874287e-01 -3.711929e+00 1.451206e+01 4.216034e-01 9.683077e-02 5.438855e-01 -2.843308e-01 2.086501e-01 -4.035794e-01 1.058016e-01 -2.517818e-01 -5.324316e-02 -1.568944e-02 -1.163499e-01 4.687632e-02 1.546869e-01 3.390732e-01 1.641103e-01 3.923845e-01 -3.914616e-01 -3.653991e-01 -3.625316e-01 7.484134e-02 -7.191411e-02 9.246444e-02 8.452608e-02 -1.261232e-01 -1.509323e-01 1.970975e-01
<VARIANCE> 39
 6.006933e+00 8.122170e+00 1.171506e+01 1.264275e+01 1.659516e+01 1.739738e+01 1.582771e+01 1.924408e+01 1.750952e+01 1.878412e+01 1.710966e+01 1.457254e+01 8.905892e-01 5.533206e-01 6.169272e-01 9.034088e-01 1.211193e+00 1.451515e+00 1.684590e+00 1.680099e+00 1.876898e+00 1.748382e+00 2.050966e+00 1.649175e+00 1.612594e+00 5.466650e-02 1.023471e-01 1.555785e-01 2.336635e-01 3.200332e-01 3.658888e-01 4.678687e-01 3.681724e-01 4.799049e-01 3.919722e-01 4.945669e-01 3.863108e-01 3.675126e-01 1.633218e-02
<GCONST> 8.561327e+01
<TRANSP> 5
 0.000000e+00 1.000000e+00 0.000000e+00 0.000000e+00 0.000000e+00
 0.000000e+00 5.471865e-01 4.528134e-01 0.000000e+00 0.000000e+00
 0.000000e+00 0.000000e+00 8.013331e-01 1.986670e-01 0.000000e+00
 0.000000e+00 0.000000e+00 0.000000e+00 3.951925e-01 6.048076e-01
 0.000000e+00 0.000000e+00 0.000000e+00 0.000000e+00 0.000000e+00
<ENDHMM>
~h "t"
<BEGINHMM>
<NUMSTATES> 5
<STATE> 2
<MEAN> 39
 -6.055334e+00 -2.473161e+00 -3.440521e+00 -1.029044e+01 -6.439235e-01 -8.275984e+00 -3.341348e+00 -1.139653e+01 -5.261841e+00 -6.823327e+00 1.252446e-01 -4.765382e+00 1.574774e+01 -2.400624e-01 -1.976555e+00 -4.672467e-01 6.605069e-01 2.731259e-01 2.081550e+00 8.385325e-01 5.438574e-01 2.105796e-01 -7.703438e-02 1.824435e-01 2.512646e-01 -5.616824e-01 -2.071235e-01 1.448191e-01 -2.563816e-01 -2.485741e-01 -1.783036e-01 -1.460972e-01 1.449996e-01 3.134630e-01 3.624135e-01 2.121307e-01 6.086276e-02 -9.823974e-03 4.791830e-02
<VARIANCE> 39
 4.220906e+00 1.687289e+01 1.209825e+01 1.516877e+01 1.626425e+01 2.845611e+01 2.452559e+01 2.149095e+01 2.561047e+01 2.294616e+01 2.178104e+01 1.870969e+01 1.809794e+00 9.724586e-01 2.197974e+00 1.558178e+00 2.137714e+00 2.113508e+00 3.174475e+00 3.451992e+00 2.827229e+00 3.890946e+00 2.781291e+00 2.939904e+00 2.578676e+00 1.117115e-01 8.816931e-02 3.096561e-01 1.964921e-01 2.978379e-01 2.527876e-01 5.390943e-01 4.952465e-01 4.385715e-01 5.118508e-01 3.985120e-01 4.682066e-01 3.615694e-01 1.370889e-02
<GCONST> 9.728465e+01
<STATE> 3
<MEAN> 39
 -9.114256e+00 -5.609563e+00 -6.670348e+00 -9.662204e+00 -1.607795e+00 -4.101744e+00 -8.450047e-01 -8.066377e+00 -2.486727e+00 -5.579187e+00 9.189939e-01 -3.646967e+00 1.461719e+01 -7.621915e-01 1.039560e-01 -5.965816e-01 1.242682e-02 -2.278158e-01 3.882119e-01 -4.814405e-03 4.631893e-01 3.202981e-01 2.242882e-01 -4.817264e-03 1.930341e-01 -6.278712e-02 1.693520e-01 2.855738e-01 2.303763e-01 -1.346670e-01 2.521207e-02 -2.896816e-01 -1.652766e-01 -1.496125e-01 -7.097790e-02 -2.749386e-02 -5.665688e-02 -6.565794e-02 9.739038e-02
<VARIANCE> 39
 1.054730e+01 9.901749e+00 9.539369e+00 1.148960e+01 1.421901e+01 1.704220e+01 1.867810e+01 1.830592e+01 1.919502e+01 1.780328e+01 1.683729e+01 1.468794e+01 8.993983e-01 9.110324e-01 1.832877e+00 1.107599e+00 1.519472e+00 1.467303e+00 2.113864e+00 2.198816e+00 1.993405e+00 2.359226e+00 2.056650e+00 2.090563e+00 1.660933e+00 7.620036e-02 2.220816e-01 3.920627e-01 2.505249e-01 3.539143e-01 3.777151e-01 5.903899e-01 5.265575e-01 4.567915e-01 5.127730e-01 4.396533e-01 4.663504e-01 3.754261e-01 1.750802e-02
<GCONST> 9.241220e+01
<STATE> 4
<MEAN> 39
 -9.926405e+00 -4.799741e+00 -6.643994e+00 -1.024297e+01 -1.114295e+00 -4.514545e+00 -1.318779e+00 -8.279055e+00 -2.373433e+00 -5.758084e+00 1.424062e+00 -3.737355e+00 1.499199e+01 2.470804e-01 9.453662e-02 4.468604e-01 -3.056441e-01 1.158097e-01 -3.969350e-02 -4.662901e-02 -8.914030e-02 1.838706e-02 -9.428048e-02 3.340527e-02 -1.569257e-01 8.628604e-02 2.452913e-01 1.330813e-01 2.687886e-01 -6.643438e-02 -1.327427e-01 -1.992947e-01 -1.246706e-01 -1.381178e-01 -9.151026e-02 -2.728835e-02 -8.139928e-02 -1.173338e-01 9.075159e-02
<VARIANCE> 39
 7.652604e+00 7.897900e+00 1.041390e+01 1.075372e+01 1.598947e+01 1.780632e+01 1.801979e+01 1.983658e+01 1.906138e+01 2.080534e+01 1.929683e+01 1.678062e+01 1.057784e+00 9.339628e-01 6.702055e-01 1.552652e+00 1.257185e+00 1.785207e+00 1.842361e+00 1.819358e+00 1.972913e+00 2.039887e+00 2.126246e+00 2.277126e+00 1.600505e+00 4.909576e-02 1.696738e-01 1.988368e-01 2.575589e-01 2.934497e-01 4.533572e-01 4.620096e-01 4.144809e-01 4.221486e-01 4.766743e-01 4.496122e-01 5.678700e-01 3.389502e-01 1.585780e-02
<GCONST> 8.965213e+01
<TRANSP> 5
 0.000000e+00 1.000000e+00 0.000000e+00 0.000000e+00 0.000000e+00
 0.000000e+00 5.521704e-01 4.478296e-01 0.000000e+00 0.000000e+00
 0.000000e+00 0.000000e+00 6.136026e-01 3.863973e-01 0.000000e+00
 0.000000e+00 0.000000e+00 0.000000e+00 7.486165e-01 2.513835e-01
 0.000000e+00 0.000000e+00 0.000000e+00 0.000000e+00 0.000000e+00
<ENDHMM>
~h "v"
<BEGINHMM>
<NUMSTATES> 5
<STATE> 2
<MEAN> 39
 -5.907275e+00 -8.693212e+00 -5.003577e+00 -1.602242e+01 -2.810149e+00 -1.731246e+00 3.360834e+00 -9.138393e+00 -3.005541e+00 -7.599925e+00 -3.132193e+00 -5.125916e+00 1.867290e+01 4.676784e-01 6.929643e-01 4.897888e-01 1.473430e-01 -7.630425e-01 -8.872306e-01 -1.341411e-01 6.505328e-01 1.317532e-01 5.044536e-01 -1.229078e-01 -2.629044e-01 -2.156149e-01 6.767459e-02 1.362046e-01 1.530437e-01 4.728982e-01 -1.670963e-02 -3.431578e-01 -2.548148e-01 -3.673936e-02 1.160076e-02 1.241713e-01 2.208589e-01 -5.891246e-02 -1.021394e-01
<VARIANCE> 39
 8.791033e+00 1.316177e+01 8.245000e+00 2.001235e+01 4.208659e+01 1.996050e+01 2.540314e+01 3.524355e+01 4.723550e+01 3.239359e+01 3.135347e+01 3.241249e+01 1.574086e+00 3.320977e-01 1.101813e+00 6.241156e-01 1.886049e+00 1.463243e+00 1.692911e+00 1.945729e+00 1.935874e+00 2.552490e+00 2.158083e+00 2.359043e+00 1.541673e+00 4.498535e-02 7.799014e-02 1.299749e-01 1.057615e-01 3.339758e-01 4.170173e-01 2.812127e-01 3.365922e-01 3.746456e-01 3.656539e-01 3.743314e-01 4.842387e-01 3.459219e-01 6.586846e-03
<GCONST> 9.011565e+01
<STATE> 3
<MEAN> 39
 -3.652277e+00 -4.887303e+00 -2.192992e+00 -1.172343e+01 -6.792509e+00 -8.528769e+00 4.472502e-01 -5.295218e+00 -3.602965e+00 -5.035556e+00 -7.490688e-01 -6.905603e+00 1.734524e+01 -4.442525e-02 8.486707e-01 5.413004e-01 1.855660e+00 1.179214e+00 -4.635997e-01 -1.384329e+00 -5.852455e-01 1.570301e-01 -2.217601e-01 1.084960e+00 3.847767e-01 -6.292746e-01 -3.013971e-01 -2.918595e-01 -3.191924e-01 -6.815224e-02 4.545215e-01 6.113622e-01 2.089538e-01 -3.803156e-01 -8.755478e-02 -1.848562e-01 -1.771108e-01 1.741744e-01 -2.102677e-03
<VARIANCE> 39
 5.244077e+00 1.008284e+01 9.565633e+00 2.210860e+01 2.446804e+01 2.610212e+01 2.344017e+01 3.661648e+01 2.569283e+01 2.568610e+01 2.705880e+01 2.582534e+01 1.581452e+00 7.053724e-01 9.734085e-01 1.188364e+00 1.848808e+00 2.629161e+00 2.560108e+00 2.673361e+00 2.919896e+00 2.911090e+00 2.587591e+00 2.426805e+00 2.378611e+00 7.424234e-02 7.047458e-02 1.373215e-01 1.698079e-01 4.014591e-01 4.065835e-01 3.198802e-01 4.325898e-01 5.043463e-01 4.410798e-01 4.473033e-01 4.891569e-01 3.637811e-01 2.134204e-02
<GCONST> 9.517587e+01
<STATE> 4
<MEAN> 39
 -5.119490e+00 -5.111106e+00 -2.983519e+00 -8.671410e+00 -2.138378e+00 -5.817197e+00 1.331176e-01 -8.066695e+00 -3.087556e+00 -6.185534e+00 6.563389e-02 -5.177291e+00 1.585431e+01 -2.279283e-01 -1.785475e-01 -2.883337e-01 -1.821357e-01 4.365200e-02 4.290578e-01 1.829842e-01 -3.560774e-01 2.156402e-01 -6.651677e-02 -9.711124e-02 6.300230e-02 -5.650402e-02 7.493594e-02 -6.661224e-02 -5.417723e-02 -3.870591e-01 -3.014367e-01 -3.758019e-02 1.305572e-01 1.046950e-01 1.941019e-02 6.428107e-02 -1.585215e-01 -6.654754e-02 1.351629e-01
<VARIANCE> 39
 6.630701e+00 6.888814e+00 7.899705e+00 1.095632e+01 2.169536e+01 2.449553e+01 2.263019e+01 2.298604e+01 2.366220e+01 2.468742e+01 2.524869e+01 1.895037e+01 1.601607e+00 5.302480e-01 6.757936e-01 9.668289e-01 1.457883e+00 2.415417e+00 1.851321e+00 2.275361e+00 2.365493e+00 2.135178e+00 2.555584e+00 2.380289e+00 1.752152e+00 1.638040e-01 9.585457e-02 1.850852e-01 2.046374e-01 3.892759e-01 5.551132e-01 3.953076e-01 6.084053e-01 5.172076e-01 4.940740e-01 5.001277e-01 5.022821e-01 3.832158e-01 2.696525e-02
<GCONST> 9.342111e+01
<TRANSP> 5
 0.000000e+00 1.000000e+00 0.000000e+00 0.000000e+00 0.000000e+00
 0.000000e+00 7.330212e-01 2.669788e-01 0.000000e+00 0.000000e+00
 0.000000e+00 0.000000e+00 6.043324e-01 3.956676e-01 0.000000e+00
 0.000000e+00 0.000000e+00 0.000000e+00 7.333148e-01 2.666852e-01
 0.000000e+00 0.000000e+00 0.000000e+00 0.000000e+00 0.000000e+00
<ENDHMM>
~h "w"
<BEGINHMM>
<NUMSTATES> 5
<STATE> 2
<MEAN> 39
 -3.683154e+00 -3.896686e+00 -3.855854e+00 -1.004945e+01 -1.898012e+00 -6.733469e+00 -2.428229e+00 -9.766127e+00 -3.500615e+00 -6.410945e+00 -2.058985e-02 -5.416457e+00 1.602767e+01 8.701810e-01 6.729985e-01 1.723688e-02 -5.426102e-01 -5.138243e-01 -5.646893e-01 -2.085969e-01 2.026589e-02 -1.935099e-01 -1.564986e-01 -3.145014e-01 -3.391773e-01 3.522421e-01 1.661768e-01 8.038756e-03 -2.957110e-01 -2.784911e-01 -1.112751e-01 2.162800e-02 1.032843e-01 1.102533e-01 1.270878e-01 5.415538e-02 -7.977089e-02 -1.146877e-01 8.426134e-02
<VARIANCE> 39
 8.558256e+00 6.493906e+00 8.724131e+00 1.216802e+01 1.555732e+01 1.627394e+01 1.858798e+01 1.682546e+01 1.920108e+01 1.960166e+01 2.334374e+01 2.272412e+01 1.651978e+00 6.235570e-01 6.494778e-01 8.836308e-01 1.230731e+00 1.173947e+00 1.571631e+00 1.822354e+00 1.737007e+00 2.181477e+00 2.228699e+00 2.190909e+00 2.248037e+00 9.108216e-02 9.001287e-02 1.167656e-01 1.702145e-01 2.152179e-01 2.173221e-01 2.964348e-01 3.945123e-01 3.358203e-01 4.008277e-01 4.354571e-01 4.400093e-01 4.066655e-01 1.020975e-02
<GCONST> 8.539375e+01
<STATE> 3
<MEAN> 39
 5.661193e-02 -1.691390e+00 -6.823630e+00 -1.498171e+01 -5.143556e+00 -8.171424e+00 -1.013985e+00 -7.985883e+00 -2.586779e+00 -6.405296e+00 -1.498343e+00 -6.791899e+00 1.782668e+01 5.628903e-01 -2.184391e-01 -1.452455e+00 -8.525496e-01 2.641231e-01 8.993502e-01 7.012174e-01 3.630895e-01 9.678753e-02 -1.804035e-01 -1.805802e-01 -2.536702e-01 3.210661e-01 -1.909590e-01 -3.600450e-01 -2.648268e-01 4.320458e-01 5.676854e-01 3.448737e-01 -1.385517e-01 -1.305785e-01 -5.719272e-02 -5.454642e-02 2.848002e-02 2.930888e-02 -4.665156e-02
<VARIANCE> 39
 3.714272e+00 4.187001e+00 1.065869e+01 1.513429e+01 1.994661e+01 1.751698e+01 1.757174e+01 2.059624e+01 2.208569e+01 2.405054e+01 3.010277e+01 2.983055e+01 1.119695e+00 3.661847e-01 5.155130e-01 9.173532e-01 1.144264e+00 1.873690e+00 1.732622e+00 1.702649e+00 1.627523e+00 1.793555e+00 1.828686e+00 2.014794e+00 1.813589e+00 5.226915e-02 5.968008e-02 9.030232e-02 1.358885e-01 3.103863e-01 2.545537e-01 2.818340e-01 4.547881e-01 3.567760e-01 3.622087e-01 3.409915e-01 4.212863e-01 3.738749e-01 6.419190e-03
<GCONST> 8.272038e+01
<STATE> 4
<MEAN> 39
 5.390195e-01 -4.993966e+00 -1.351838e+01 -1.308064e+01 1.283816e+00 -2.262987e+00 -2.018522e+00 -9.259634e+00 -2.925106e+00 -6.769901e+00 -1.693336e+00 -8.339521e+00 1.847103e+01 -2.334720e-01 -1.218832e+00 -1.156992e+00 2.019115e+00 1.675610e+00 -6.204799e-03 -1.501495e+00 -7.793774e-02 6.858143e-01 -1.624670e-01 -6.302221e-01 -4.761085e-01 9.683075e-02 -2.035521e-01 -9.626119e-02 4.729954e-01 5.717936e-01 -3.498993e-01 -7.491460e-01 -1.328077e-01 3.745708e-01 8.865685e-02 -2.764567e-01 -1.186124e-01 2.252304e-01 -4.783149e-02
<VARIANCE> 39
 3.881591e+00 7.229636e+00 1.624382e+01 2.289883e+01 2.186492e+01 2.112138e+01 2.473679e+01 2.024697e+01 3.502326e+01 2.409520e+01 3.108589e+01 2.853228e+01 1.427301e+00 2.094403e-01 4.752462e-01 1.015002e+00 1.411973e+00 1.444521e+00 2.354709e+00 1.494981e+00 2.202491e+00 2.172958e+00 1.780401e+00 2.063801e+00 1.745981e+00 1.864658e-02 4.819162e-02 6.069289e-02 1.521779e-01 3.167064e-01 3.643530e-01 2.589109e-01 5.443771e-01 3.497126e-01 4.599443e-01 3.707398e-01 3.809298e-01 4.193799e-01 3.091090e-03
<GCONST> 8.401584e+01
<TRANSP> 5
 0.000000e+00 1.000000e+00 0.000000e+00 0.000000e+00 0.000000e+00
 0.000000e+00 7.139580e-01 2.860420e-01 0.000000e+00 0.000000e+00
 0.000000e+00 0.000000e+00 7.294182e-01 2.705818e-01 0.000000e+00
 0.000000e+00 0.000000e+00 0.000000e+00 7.174435e-01 2.825565e-01
 0.000000e+00 0.000000e+00 0.000000e+00 0.000000e+00 0.000000e+00
<ENDHMM>
~h "z"
<BEGINHMM>
<NUMSTATES> 5
<STATE> 2
<MEAN> 39
 -6.100605e+00 -3.746100e+00 -4.419715e+00 -7.656025e+00 -8.554624e-01 -3.906701e+00 -1.086315e+00 -8.923456e+00 -3.915604e+00 -5.420030e+00 6.898761e-01 -4.598677e+00 1.525915e+01 -2.303221e-01 3.154396e-02 -2.169192e-01 1.852086e-01 9.679424e-02 3.862977e-01 2.386844e-02 1.815404e-01 5.383251e-02 1.682988e-01 2.673427e-02 8.932419e-02 -5.459466e-02 1.204805e-02 4.653455e-02 3.935967e-02 -7.788876e-02 -7.056958e-02 -1.024784e-01 -4.427171e-02 -2.665299e-02 3.996008e-02 2.070628e-02 -3.878074e-02 -1.572735e-02 3.947993e-02
<VARIANCE> 39
 6.267661e+00 8.476341e+00 1.149240e+01 1.148246e+01 1.521861e+01 1.461454e+01 1.776220e+01 1.877683e+01 1.983040e+01 1.862018e+01 2.078279e+01 1.698555e+01 9.462014e-01 5.217237e-01 7.773202e-01 1.108665e+00 8.749215e-01 1.258813e+00 1.790308e+00 1.880153e+00 1.796226e+00 1.977969e+00 1.766306e+00 2.153459e+00 1.577301e+00 5.615677e-02 8.722787e-02 1.466872e-01 1.789738e-01 1.926974e-01 2.523785e-01 3.572164e-01 4.177472e-01 3.524846e-01 3.667878e-01 3.479389e-01 4.593678e-01 3.208480e-01 1.063589e-02
<GCONST> 8.359543e+01
<STATE> 3
<MEAN> 39
 -8.346082e+00 -3.322534e+00 -6.929937e+00 -6.319297e+00 -1.659474e+00 -1.846232e+00 -1.256472e+00 -6.916018e+00 -3.090718e+00 -4.561840e+00 3.580196e-01 -4.241167e+00 1.490912e+01 1.632777e-01 7.348846e-01 4.882335e-01 -3.099956e-01 -4.244939e-01 -7.301730e-01 -5.495131e-01 -4.039852e-01 -4.940219e-04 2.142313e-01 -2.122089e-01 -5.408191e-02 2.731562e-01 2.954924e-01 3.675995e-01 5.448416e-01 -5.061570e-01 -3.039266e-01 -7.362770e-01 -2.269694e-01 -3.752422e-01 3.090095e-02 7.294618e-02 7.876372e-03 -1.127996e-01 2.010325e-01
<VARIANCE> 39
 5.927377e+00 1.145711e+01 1.520178e+01 1.253814e+01 1.816819e+01 1.601354e+01 1.944361e+01 1.779716e+01 2.521675e+01 1.751491e+01 1.853072e+01 1.448731e+01 8.902487e-01 4.394943e-01 6.765519e-01 1.132424e+00 1.095835e+00 1.209172e+00 2.070843e+00 1.725318e+00 1.938840e+00 1.755710e+00 1.746769e+00 1.770632e+00 1.811606e+00 6.085914e-02 7.453375e-02 1.672665e-01 1.928511e-01 2.412693e-01 2.634467e-01 3.613770e-01 3.545097e-01 3.858424e-01 4.118798e-01 3.460374e-01 4.317128e-01 4.767834e-01 7.237847e-03
<GCONST> 8.459688e+01
<STATE> 4
<MEAN> 39
 -6.179952e+00 -9.279041e-01 -3.052136e+00 -8.586434e+00 -3.228070e+00 -6.434129e+00 -3.955158e+00 -1.065316e+01 -4.211587e+00 -3.548456e+00 8.575695e-02 -4.130479e+00 1.632019e+01 5.819699e-01 1.362890e+00 1.626092e+00 -2.085358e+00 -1.399065e+00 -2.337252e+00 -8.273223e-01 -1.017115e+00 4.367937e-01 5.399597e-01 -1.089725e-01 -3.674860e-01 7.426908e-01 -7.992738e-02 4.005711e-03 1.385367e-02 -4.548754e-01 -2.256897e-01 -1.143355e-01 1.537502e-01 2.398326e-01 3.423840e-01 -1.050120e-01 4.268374e-02 -1.536081e-01 7.134758e-02
<VARIANCE> 39
 5.972271e+00 7.508224e+00 1.110878e+01 1.330585e+01 2.440584e+01 1.773402e+01 1.923492e+01 1.730498e+01 3.096541e+01 2.968562e+01 2.199909e+01 2.414533e+01 1.134446e+00 5.899690e-01 9.811673e-01 1.394096e+00 1.240758e+00 1.771004e+00 2.368891e+00 2.461879e+00 2.328472e+00 2.977119e+00 2.208352e+00 2.972400e+00 3.215818e+00 4.017996e-02 8.390884e-02 1.622087e-01 2.109447e-01 2.534289e-01 3.001249e-01 4.056895e-01 4.069831e-01 3.703061e-01 3.895639e-01 3.882395e-01 3.888160e-01 3.563669e-01 8.085451e-03
<GCONST> 8.977986e+01
<TRANSP> 5
 0.000000e+00 1.000000e+00 0.000000e+00 0.000000e+00 0.000000e+00
 0.000000e+00 7.961000e-01 2.039000e-01 0.000000e+00 0.000000e+00
 0.000000e+00 0.000000e+00 5.983304e-01 4.016696e-01 0.000000e+00
 0.000000e+00 0.000000e+00 0.000000e+00 4.445843e-01 5.554157e-01
 0.000000e+00 0.000000e+00 0.000000e+00 0.000000e+00 0.000000e+00
<ENDHMM>
~h "ah"
<BEGINHMM>
<NUMSTATES> 5
<STATE> 2
<MEAN> 39
 -1.363101e+00 -9.678777e+00 -1.343409e+01 -3.386971e+00 2.394391e+00 -8.526035e+00 -5.740518e+00 -4.732402e+00 -4.635873e-01 -1.120077e+01 -4.545670e+00 -6.667859e+00 1.856300e+01 -6.468942e-01 -8.458341e-01 1.014135e+00 1.729766e+00 -1.154185e+00 -1.441890e+00 1.008026e+00 1.230277e+00 -9.809881e-01 -1.327876e+00 5.141494e-01 1.006916e+00 -1.183422e-02 -5.079161e-02 2.463472e-01 4.748386e-01 -5.471208e-01 -5.930576e-01 3.431665e-01 7.003713e-01 -3.966724e-01 -5.117422e-01 3.491985e-01 4.783660e-01 -1.201967e-01 -2.804036e-02
<VARIANCE> 39
 4.972277e+00 8.648244e+00 1.457676e+01 2.510975e+01 1.741397e+01 2.129001e+01 2.603402e+01 3.004868e+01 4.019218e+01 3.694509e+01 2.681352e+01 3.019388e+01 1.502832e+00 1.772346e-01 4.388579e-01 7.903911e-01 1.555743e+00 1.329646e+00 1.426088e+00 2.419839e+00 1.753064e+00 2.410700e+00 1.617241e+00 2.407432e+00 1.571661e+00 9.638312e-03 3.299500e-02 6.328176e-02 1.490576e-01 2.168307e-01 2.797870e-01 3.532001e-01 3.432811e-01 5.071180e-01 3.707105e-01 4.809698e-01 3.366948e-01 4.530265e-01 1.270468e-03
<GCONST> 8.217365e+01
<STATE> 3
<MEAN> 39
 -3.729263e+00 -1.133544e+01 -7.020362e+00 -1.355366e+00 -4.686876e+00 -8.980318e+00 2.247777e+00 -5.797449e+00 -7.166210e+00 -1.018162e+01 4.712810e-01 -6.790602e+00 1.836107e+01 -5.527132e-01 3.293036e-01 1.732967e+00 -9.997621e-01 -1.505839e+00 1.116954e+00 1.201214e+00 -1.790241e+00 -5.178882e-01 1.456053e+00 2.976879e-01 -9.379010e-01 -1.005161e-01 1.233457e-01 4.184923e-01 -4.451320e-02 -6.092110e-01 4.808998e-01 3.587141e-01 -6.742086e-01 -3.589508e-01 6.461113e-01 2.492868e-01 -4.757330e-01 -5.342283e-02 -2.950727e-02
<VARIANCE> 39
 5.339109e+00 1.186768e+01 1.215514e+01 2.250327e+01 1.869234e+01 1.971053e+01 2.351682e+01 4.142601e+01 2.944789e+01 4.436383e+01 2.897910e+01 4.158155e+01 1.697603e+00 2.809232e-01 5.330293e-01 7.459720e-01 1.222101e+00 1.376101e+00 1.638164e+00 1.844383e+00 1.952786e+00 2.779940e+00 1.597059e+00 2.137778e+00 1.337322e+00 8.177005e-03 3.812123e-02 8.539523e-02 9.462220e-02 2.611562e-01 2.920721e-01 3.852690e-01 3.454525e-01 4.807590e-01 3.072327e-01 6.101254e-01 2.959917e-01 4.639001e-01 1.285286e-03
<GCONST> 8.314004e+01
<STATE> 4
<MEAN> 39
 -5.407715e+00 -8.554475e+00 -2.475164e+00 -7.617017e+00 -6.042681e+00 -2.160174e+00 3.335663e-01 -1.277304e+01 -2.628189e+00 -8.000978e+00 -2.518862e+00 -7.750934e+00 1.799841e+01 8.042666e-02 1.548437e+00 8.039089e-01 -1.648182e+00 6.683715e-01 3.865775e-01 -1.376246e+00 -3.848691e-01 8.136340e-01 -1.621428e-01 -2.864254e-01 4.658875e-01 -1.663499e-01 2.243647e-01 1.623757e-01 -2.328087e-01 2.619092e-01 4.504228e-01 -5.967041e-01 -2.930426e-01 4.475426e-01 -2.260771e-01 -2.427156e-01 1.408444e-01 1.229475e-01 -1.055815e-02
<VARIANCE> 39
 7.409143e+00 1.317353e+01 7.454569e+00 1.834279e+01 1.710044e+01 4.478727e+01 3.474437e+01 4.125488e+01 3.899193e+01 4.257836e+01 2.810249e+01 3.775704e+01 1.345092e+00 3.780716e-01 6.456903e-01 1.147274e+00 1.143827e+00 1.353668e+00 2.703778e+00 1.731985e+00 2.333609e+00 2.368595e+00 3.232208e+00 1.735706e+00 1.467283e+00 1.719826e-02 5.677892e-02 9.288645e-02 1.302614e-01 2.046918e-01 3.016586e-01 3.986216e-01 4.640244e-01 3.646455e-01 3.951316e-01 4.757694e-01 3.284480e-01 3.532522e-01 1.701132e-03
<GCONST> 8.726031e+01
<TRANSP> 5
 0.000000e+00 1.000000e+00 0.000000e+00 0.000000e+00 0.000000e+00
 0.000000e+00 7.439030e-01 2.560969e-01 0.000000e+00 0.000000e+00
 0.000000e+00 0.000000e+00 7.147731e-01 2.852269e-01 0.000000e+00
 0.000000e+00 0.000000e+00 0.000000e+00 6.911665e-01 3.088335e-01
 0.000000e+00 0.000000e+00 0.000000e+00 0.000000e+00 0.000000e+00
<ENDHMM>
~h "ao"
<BEGINHMM>
<NUMSTATES> 5
<STATE> 2
<MEAN> 39
 1.645612e+00 -3.108961e+00 -1.209929e+01 -1.757335e+01 -4.447129e+00 -5.732378e+00 -2.577021e+00 -8.942448e+00 -1.749233e+00 -3.822090e+00 1.146666e+00 -6.180559e+00 1.898767e+01 -1.962911e-03 -3.168630e-01 -8.511196e-02 2.056955e-01 2.098188e-01 8.588640e-02 -2.063074e-01 1.692681e-01 3.981401e-01 7.899068e-02 -1.539264e-01 -1.104026e-01 8.844569e-03 -1.135581e-01 -1.899549e-01 1.113185e-01 2.762119e-01 8.615246e-02 -1.169063e-01 -7.476252e-02 1.408270e-01 1.409723e-01 -8.991604e-02 -1.719314e-01 -2.231043e-02 -4.460621e-02
<VARIANCE> 39
 3.925037e+00 9.530992e+00 8.810081e+00 1.273598e+01 2.473339e+01 1.598426e+01 1.706002e+01 1.618256e+01 2.246138e+01 2.493192e+01 3.445381e+01 3.566432e+01 1.064654e+00 1.389535e-01 7.349096e-01 6.564945e-01 1.061952e+00 1.421759e+00 1.178580e+00 1.526195e+00 1.482392e+00 2.123729e+00 1.671654e+00 1.984175e+00 1.699870e+00 1.926029e-02 6.212074e-02 6.746322e-02 1.512839e-01 1.561816e-01 2.362565e-01 2.463840e-01 2.479683e-01 2.871628e-01 3.316184e-01 3.525767e-01 3.485976e-01 3.129084e-01 7.455508e-03
<GCONST> 7.838081e+01
<STATE> 3
<MEAN> 39
 8.000145e-01 -1.073264e+01 -1.114335e+01 -9.083447e+00 -3.105798e+00 -9.867043e+00 -4.849265e+00 -3.229378e+00 3.611136e+00 -6.453423e+00 -4.879337e+00 -7.563025e+00 1.889112e+01 -4.565555e-01 -8.357977e-01 1.270823e+00 1.328683e+00 -1.020703e+00 -8.044462e-01 1.024110e+00 7.925828e-01 -6.900879e-01 -1.104691e+00 -5.084161e-02 6.293659e-01 -1.310099e-01 -1.233032e-01 3.274226e-01 2.962544e-01 -2.954949e-01 -2.616468e-01 3.456592e-01 3.778440e-01 -4.577982e-01 -5.356198e-01 8.859383e-02 4.511971e-01 4.480888e-02 -5.500326e-02
<VARIANCE> 39
 5.462466e+00 1.229654e+01 1.347946e+01 1.759328e+01 3.886391e+01 3.186295e+01 2.842681e+01 3.638041e+01 3.159275e+01 3.492289e+01 3.157363e+01 3.070160e+01 1.462431e+00 2.087471e-01 1.045722e+00 1.002193e+00 1.556013e+00 2.496373e+00 2.311712e+00 2.615469e+00 3.468188e+00 3.759134e+00 2.638485e+00 3.920254e+00 1.898123e+00 3.111205e-02 4.521612e-02 1.251006e-01 1.566081e-01 2.533525e-01 5.445786e-01 5.170683e-01 5.154703e-01 6.570771e-01 5.574213e-01 6.745765e-01 5.503557e-01 5.023002e-01 3.661629e-03
<GCONST> 9.476475e+01
<STATE> 4
<MEAN> 39
 -3.151400e+00 -8.816024e+00 -2.951938e+00 -8.491209e+00 -6.221810e+00 -6.228039e+00 3.099063e-01 -8.144760e+00 -3.934044e+00 -8.006316e+00 -1.745181e+00 -6.861210e+00 1.717917e+01 -8.278828e-01 9.299533e-01 5.484756e-01 -3.484485e-01 6.030010e-01 9.664150e-01 5.651984e-02 -9.060293e-01 -2.826170e-01 4.470644e-01 3.582003e-01 9.271846e-02 -3.943709e-01 -8.597475e-03 1.270930e-02 -3.918996e-01 -7.819232e-02 3.403115e-01 -4.628853e-02 -2.504553e-01 1.622850e-01 2.521493e-01 6.564261e-02 -1.029945e-01 6.890781e-02 -1.542294e-02
<VARIANCE> 39
 8.593632e+00 2.541934e+01 1.449261e+01 2.099374e+01 3.995811e+01 3.417543e+01 2.615145e+01 3.649445e+01 3.116405e+01 3.139431e+01 3.009472e+01 2.805458e+01 2.295293e+00 5.696052e-01 1.373077e+00 1.944971e+00 1.816919e+00 3.738412e+00 3.044758e+00 2.778148e+00 3.056435e+00 3.050885e+00 2.269538e+00 2.658659e+00 2.215966e+00 7.659926e-02 8.359460e-02 3.170684e-01 2.513279e-01 3.559537e-01 6.862976e-01 5.254515e-01 5.532482e-01 4.923391e-01 5.439969e-01 4.935917e-01 5.413172e-01 4.013865e-01 1.096826e-02
<GCONST> 1.023253e+02
<TRANSP> 5
 0.000000e+00 1.000000e+00 0.000000e+00 0.000000e+00 0.000000e+00
 0.000000e+00 8.978017e-01 1.021983e-01 0.000000e+00 0.000000e+00
 0.000000e+00 0.000000e+00 8.006328e-01 1.993672e-01 0.000000e+00
 0.000000e+00 0.000000e+00 0.000000e+00 8.283050e-01 1.716949e-01
 0.000000e+00 0.000000e+00 0.000000e+00 0.000000e+00 0.000000e+00
<ENDHMM>
~h "ay"
<BEGINHMM>
<NUMSTATES> 5
<STATE> 2
<MEAN> 39
 -5.223434e+00 -1.301076e+01 -8.878405e+00 -4.142691e+00 -1.704966e+00 -7.424295e+00 1.205550e+00 -7.968236e+00 -6.517818e+00 -9.117493e+00 -2.162369e+00 -5.575656e+00 1.908352e+01 -2.813520e-01 -6.336886e-01 9.969237e-02 1.020999e+00 1.031157e-02 -1.807974e-01 2.237572e-01 -1.515236e-01 -2.551830e-01 1.239319e-01 6.336718e-01 8.729831e-02 4.219760e-02 7.442757e-02 3.220882e-01 2.098958e-01 -2.315508e-01 -8.217796e-02 -1.821787e-02 -1.375052e-01 -1.443555e-03 1.040659e-01 4.568317e-02 4.775895e-03 -1.037005e-01 -5.771319e-02
<VARIANCE> 39
 8.564207e+00 1.257290e+01 3.408735e+01 2.099956e+01 3.681899e+01 2.729692e+01 3.304022e+01 5.558634e+01 4.621174e+01 4.342074e+01 2.916722e+01 2.808141e+01 1.220307e+00 2.634344e-01 4.977731e-01 9.351876e-01 9.913475e-01 1.302152e+00 1.043201e+00 1.124022e+00 1.514753e+00 1.732526e+00 1.487578e+00 1.119468e+00 1.082529e+00 1.544098e-02 4.951651e-02 7.817231e-02 1.130944e-01 1.402602e-01 2.285655e-01 1.964878e-01 2.472571e-01 2.557662e-01 2.812404e-01 2.736026e-01 2.352235e-01 1.949601e-01 5.070648e-03
<GCONST> 8.107593e+01
<STATE> 3
<MEAN> 39
 -6.124848e+00 -1.386696e+01 -6.893363e+00 -2.630775e+00 -1.756104e+00 -7.838290e+00 2.405557e+00 -9.042884e+00 -6.812299e+00 -6.974563e+00 -6.274051e-01 -6.097605e+00 1.884010e+01 -1.083373e-01 4.356937e-02 3.834377e-01 -2.195146e-01 -2.134162e-01 2.882985e-01 6.310695e-02 -2.890485e-01 3.237362e-02 2.804135e-01 -2.165399e-02 -1.042157e-01 -3.639138e-02 1.539370e-03 9.656325e-02 4.405358e-02 -2.117828e-01 -2.988791e-02 1.327319e-01 -3.015660e-02 -3.729220e-02 6.479607e-02 7.677779e-03 -1.139296e-01 6.076879e-03 -8.526684e-03
<VARIANCE> 39
 7.945986e+00 1.227756e+01 2.485787e+01 2.694546e+01 3.014773e+01 3.060178e+01 2.092995e+01 3.654605e+01 4.375518e+01 4.569382e+01 2.695301e+01 3.075686e+01 1.174585e+00 9.374156e-02 1.431387e-01 3.724162e-01 5.131384e-01 5.178137e-01 6.255583e-01 6.015513e-01 6.439370e-01 6.731813e-01 7.494891e-01 6.640126e-01 6.579157e-01 4.654745e-03 1.488153e-02 3.009935e-02 4.868456e-02 7.301846e-02 7.742753e-02 9.528032e-02 9.945031e-02 1.003658e-01 1.176393e-01 1.144884e-01 1.072981e-01 1.069876e-01 4.987934e-04
<GCONST> 5.654481e+01
<STATE> 4
<MEAN> 39
 -7.026613e+00 -1.118776e+01 -2.869107e+00 -8.560817e+00 -3.360287e+00 -2.348602e+00 1.217295e+00 -1.239134e+01 -3.469671e+00 -5.755648e+00 -2.527487e+00 -5.577225e+00 1.846381e+01 -1.209179e-01 1.183347e+00 3.370471e-01 -1.821098e+00 1.810630e-01 8.689591e-01 -6.394156e-01 1.334980e-01 7.616481e-01 -4.908622e-01 -4.913239e-01 3.098370e-01 -9.440316e-02 9.148926e-02 2.425728e-01 -1.366750e-01 -5.260062e-02 1.243506e-01 -2.815899e-01 -9.386936e-02 3.499985e-01 -2.878810e-02 -1.783495e-01 1.049581e-01 -1.242209e-02 -1.596876e-02
<VARIANCE> 39
 8.600201e+00 1.747088e+01 1.359868e+01 2.929986e+01 3.260601e+01 2.382619e+01 3.024248e+01 2.979931e+01 6.179725e+01 3.690084e+01 2.957773e+01 3.329906e+01 1.392639e+00 1.881959e-01 4.799892e-01 6.470351e-01 1.008651e+00 1.616481e+00 1.263550e+00 1.311487e+00 1.511853e+00 1.608425e+00 1.740898e+00 1.474631e+00 1.300357e+00 6.613822e-03 2.685454e-02 5.871936e-02 6.766029e-02 1.710857e-01 1.755450e-01 2.264242e-01 2.446164e-01 1.780030e-01 3.228107e-01 2.373280e-01 2.483660e-01 2.249174e-01 8.258129e-04
<GCONST> 7.649833e+01
<TRANSP> 5
 0.000000e+00 1.000000e+00 0.000000e+00 0.000000e+00 0.000000e+00
 0.000000e+00 7.250272e-01 2.749728e-01 0.000000e+00 0.000000e+00
 0.000000e+00 0.000000e+00 8.718244e-01 1.281756e-01 0.000000e+00
 0.000000e+00 0.000000e+00 0.000000e+00 7.654288e-01 2.345712e-01
 0.000000e+00 0.000000e+00 0.000000e+00 0.000000e+00 0.000000e+00
<ENDHMM>
~h "eh"
<BEGINHMM>
<NUMSTATES> 5
<STATE> 2
<MEAN> 39
 -8.155354e+00 -4.790637e+00 -6.265244e+00 -9.272907e+00 -1.916420e+00 -3.634547e+00 -7.959262e-01 -8.575066e+00 -2.272339e+00 -4.859386e+00 2.131544e-02 -3.667927e+00 1.521057e+01 1.579632e+00 4.356547e-01 1.305348e+00 -1.851921e+00 -1.741853e+00 -1.660067e+00 1.052788e+00 -1.600189e-01 5.439746e-01 1.959028e-01 -7.840515e-01 -9.148452e-01 9.604658e-01 1.030433e-01 -9.388314e-02 -6.882040e-02 -4.975767e-01 -5.434097e-01 -1.229609e-01 4.274615e-01 1.753525e-01 1.418793e-02 -1.075028e-01 -3.659905e-01 -2.973569e-01 2.328869e-01
<VARIANCE> 39
 6.006151e+00 6.509716e+00 1.033277e+01 9.967414e+00 1.289637e+01 1.444715e+01 1.786226e+01 1.667206e+01 1.685057e+01 2.286480e+01 2.120930e+01 1.849406e+01 1.359567e+00 7.539157e-01 8.898485e-01 1.404241e+00 1.679113e+00 2.063970e+00 2.619182e+00 2.377195e+00 2.703908e+00 2.177902e+00 4.757043e+00 2.324414e+00 2.152345e+00 6.067927e-02 1.436364e-01 1.482233e-01 2.270836e-01 2.799296e-01 4.726115e-01 4.441726e-01 4.330302e-01 4.552617e-01 4.608498e-01 5.248330e-01 3.752989e-01 5.091324e-01 1.539747e-02
<GCONST> 9.124940e+01
<STATE> 3
<MEAN> 39
 -3.781090e+00 -3.631354e+00 -3.567806e+00 -1.608032e+01 -1.015085e+01 -9.686652e+00 3.303922e+00 -8.091032e+00 -1.287857e+00 -4.493609e+00 -4.354867e+00 -7.505869e+00 1.844349e+01 3.144616e-01 -5.090894e-01 -1.077509e-01 -1.883210e+00 -1.257429e+00 1.902366e-03 1.670835e+00 2.822475e-01 9.788720e-02 -7.235168e-01 -1.391020e+00 -9.741639e-01 8.555735e-01 -5.883508e-01 -3.849982e-01 -5.027109e-01 5.397264e-01 8.604751e-01 9.136820e-01 -1.411791e-01 1.255840e-02 -3.037457e-01 -2.374567e-01 2.928542e-01 3.739721e-01 -2.218513e-01
<VARIANCE> 39
 6.284959e+00 6.358038e+00 8.030963e+00 2.070314e+01 2.198175e+01 2.527982e+01 2.680203e+01 2.990346e+01 3.283252e+01 8.312098e+01 2.587711e+01 2.621218e+01 1.092383e+00 1.198683e+00 9.710382e-01 1.225342e+00 1.666888e+00 4.194813e+00 3.979810e+00 2.166904e+00 2.457029e+00 3.318768e+00 4.177547e+00 2.629093e+00 3.470353e+00 1.335110e-01 8.258542e-02 1.125028e-01 1.641522e-01 2.727351e-01 3.850321e-01 2.859712e-01 3.066309e-01 3.276459e-01 3.438963e-01 7.722914e-01 4.772737e-01 3.972506e-01 1.105197e-02
<GCONST> 9.640203e+01
<STATE> 4
<MEAN> 39
 -5.739093e+00 -7.409997e+00 -6.483919e+00 -1.507688e+01 -7.846694e+00 -5.697960e+00 6.223157e+00 -5.665082e+00 -4.364418e+00 -7.223429e+00 -4.234125e+00 -7.888087e+00 1.909339e+01 -2.903971e-01 -6.650007e-01 -3.223460e-01 2.974437e-01 9.039072e-01 8.914403e-01 5.007006e-03 1.651740e-02 -5.532459e-01 -4.606152e-01 5.848026e-01 3.119625e-01 6.391341e-02 7.399420e-02 1.342466e-01 1.780391e-01 3.285314e-01 1.169004e-01 -2.815306e-01 -4.302636e-01 2.757357e-02 5.076450e-02 2.244612e-01 2.892597e-01 1.423557e-01 -1.338093e-01
<VARIANCE> 39
 9.109273e+00 7.975788e+00 9.822597e+00 2.501643e+01 3.669127e+01 3.970138e+01 3.940394e+01 4.438840e+01 4.766008e+01 5.730139e+01 3.362718e+01 2.846757e+01 1.343458e+00 5.033836e-01 5.449211e-01 5.019814e-01 5.705276e-01 1.522852e+00 1.923472e+00 1.935445e+00 1.668388e+00 1.914087e+00 1.697719e+00 1.881617e+00 1.415946e+00 4.583960e-02 8.995264e-02 1.002812e-01 1.116791e-01 2.132973e-01 3.486222e-01 3.527623e-01 3.895402e-01 3.479612e-01 4.656487e-01 4.018121e-01 4.445654e-01 2.953784e-01 1.436449e-02
<GCONST> 8.957967e+01
<TRANSP> 5
 0.000000e+00 1.000000e+00 0.000000e+00 0.000000e+00 0.000000e+00
 0.000000e+00 4.708019e-01 5.291981e-01 0.000000e+00 0.000000e+00
 0.000000e+00 0.000000e+00 5.877856e-01 4.122144e-01 0.000000e+00
 0.000000e+00 0.000000e+00 0.000000e+00 7.336997e-01 2.663003e-01
 0.000000e+00 0.000000e+00 0.000000e+00 0.000000e+00 0.000000e+00
<ENDHMM>
~h "ey"
<BEGINHMM>
<NUMSTATES> 5
<STATE> 2
<MEAN> 39
 -7.599303e+00 -6.528465e+00 -5.496327e+00 -1.365838e+01 -2.053730e-01 -3.992467e+00 9.287540e-02 -8.855818e+00 -2.762552e+00 -6.415802e+00 -8.745786e-01 -4.539260e+00 1.613812e+01 -3.131219e-01 7.087070e-01 1.362280e-02 -1.339433e+00 2.543234e-01 -6.808802e-03 2.042942e-01 2.977824e-01 2.639810e-01 -2.456032e-01 -3.825045e-01 7.251982e-02 3.403584e-01 1.556271e-02 2.726362e-01 -5.145617e-02 -2.167734e-01 -2.753316e-02 -2.009633e-01 -6.777969e-02 2.097762e-01 1.604343e-01 -5.951094e-02 -1.061852e-02 -1.248138e-01 8.825088e-02
<VARIANCE> 39
 6.641058e+00 1.405122e+01 1.153046e+01 2.315228e+01 3.524856e+01 1.972543e+01 2.447136e+01 2.436610e+01 2.771909e+01 2.432037e+01 2.648159e+01 2.185594e+01 3.203035e+00 6.317747e-01 1.440774e+00 1.258583e+00 2.479399e+00 2.471164e+00 2.733088e+00 2.612903e+00 2.635345e+00 3.333191e+00 2.461150e+00 2.257223e+00 2.329668e+00 1.913594e-01 1.008557e-01 1.661305e-01 1.919069e-01 4.216195e-01 3.691860e-01 4.714494e-01 5.012735e-01 4.472385e-01 6.240909e-01 4.708885e-01 4.676197e-01 4.525906e-01 2.440303e-02
<GCONST> 9.943050e+01
<STATE> 3
<MEAN> 39
 -8.372641e+00 7.690833e-01 -6.120534e+00 -2.138871e+01 -8.749536e-01 -7.306406e+00 1.079696e+00 -4.740354e+00 -2.466176e-01 -7.362896e+00 -2.115525e+00 -6.708732e+00 1.836583e+01 -7.117504e-02 1.077783e+00 -5.895699e-02 -3.770057e-01 -2.397625e-01 -1.123555e+00 -2.189691e-01 2.711813e-01 4.409271e-01 4.049747e-01 1.833669e-01 -1.825165e-01 1.655710e-01 5.686217e-02 -7.121805e-02 5.897414e-02 3.955272e-01 -2.126972e-02 -1.446293e-01 -1.334540e-01 -2.471374e-01 -1.116387e-01 1.444804e-01 1.833712e-01 1.049890e-01 -7.466540e-02
<VARIANCE> 39
 8.489757e+00 1.302409e+01 2.534466e+01 1.683877e+01 3.951022e+01 2.632407e+01 3.053604e+01 1.927959e+01 3.064709e+01 1.996072e+01 2.353014e+01 2.546101e+01 1.291459e+00 4.096344e-01 7.834036e-01 7.479550e-01 1.657573e+00 1.267455e+00 1.658434e+00 1.795140e+00 1.428934e+00 1.633013e+00 1.641203e+00 1.929568e+00 1.439166e+00 9.461871e-02 6.755646e-02 1.017690e-01 1.291547e-01 2.037698e-01 2.151376e-01 2.525424e-01 2.035111e-01 2.262256e-01 3.358015e-01 2.531627e-01 2.726352e-01 2.391502e-01 8.232422e-03
<GCONST> 8.464101e+01
<STATE> 4
<MEAN> 39
 -8.179473e+00 6.588578e+00 -4.983634e+00 -1.667254e+01 -2.656138e+00 -1.530837e+01 -3.268377e+00 -8.421025e+00 -9.035280e-01 -3.742641e+00 1.741979e+00 -4.977424e+00 1.824891e+01 2.387679e-01 -2.473505e-01 2.475032e-01 1.104928e+00 2.362835e-01 -1.571871e-01 -5.242691e-01 -1.024340e+00 -8.289710e-01 -1.470045e-01 1.756007e-01 2.158992e-01 -2.074263e-01 5.829528e-02 -4.545769e-01 -1.808715e-03 6.732365e-02 8.501330e-02 5.021474e-01 1.340484e-01 4.503645e-02 -1.005941e-01 -1.901686e-01 -1.499021e-01 -3.236815e-02 -7.810977e-02
<VARIANCE> 39
 9.642855e+00 1.048203e+01 2.121590e+01 2.978655e+01 1.819139e+01 2.231579e+01 5.350329e+01 3.141965e+01 4.194352e+01 2.679709e+01 3.258049e+01 2.814743e+01 1.730127e+00 3.547776e-01 1.527119e+00 5.550818e-01 1.038587e+00 1.200914e+00 2.353527e+00 1.632748e+00 1.513386e+00 2.540416e+00 1.872077e+00 2.139230e+00 1.705625e+00 4.639565e-02 5.998938e-02 1.476591e-01 9.721475e-02 2.070215e-01 1.899221e-01 3.337431e-01 3.364692e-01 3.540814e-01 4.678454e-01 3.396643e-01 3.940766e-01 3.467967e-01 5.852628e-03
<GCONST> 8.864374e+01
<TRANSP> 5
 0.000000e+00 1.000000e+00 0.000000e+00 0.000000e+00 0.000000e+00
 0.000000e+00 7.996809e-01 2.003191e-01 0.000000e+00 0.000000e+00
 0.000000e+00 0.000000e+00 8.454222e-01 1.545778e-01 0.000000e+00
 0.000000e+00 0.000000e+00 0.000000e+00 8.594037e-01 1.405964e-01
 0.000000e+00 0.000000e+00 0.000000e+00 0.000000e+00 0.000000e+00
<ENDHMM>
~h "ia"
<BEGINHMM>
<NUMSTATES> 5
<STATE> 2
<MEAN> 39
 -5.489643e+00 2.518657e+00 -7.392384e-01 -1.552758e+01 -5.677140e+00 -1.207936e+01 -3.522132e+00 -9.985356e+00 1.535176e-01 -3.200071e+00 1.893729e-01 -6.702901e+00 1.809154e+01 -1.536325e-01 6.638596e-01 4.126163e-01 -1.629412e+00 -6.522821e-01 -9.086634e-01 -1.002361e-01 4.258189e-01 7.434654e-01 1.306186e-01 -1.585136e-02 -3.556934e-01 4.365919e-01 -1.116540e-01 -4.630688e-01 -1.943800e-01 3.545336e-01 2.001720e-01 6.994354e-01 3.989477e-02 3.151318e-01 -1.864892e-01 -1.384175e-01 5.926669e-02 1.140636e-01 -1.498441e-01
<VARIANCE> 39
 7.168428e+00 7.487383e+00 1.117298e+01 1.461074e+01 3.200373e+01 2.007453e+01 2.424704e+01 2.533865e+01 3.577732e+01 3.465391e+01 4.080315e+01 6.136496e+01 1.037536e+00 5.857320e-01 1.190658e+00 1.668962e+00 1.930489e+00 2.157680e+00 2.355507e+00 2.108135e+00 2.601351e+00 2.272712e+00 2.563574e+00 2.080146e+00 2.732884e+00 7.703353e-02 9.021392e-02 1.168324e-01 2.443705e-01 2.682397e-01 2.548371e-01 3.389011e-01 4.083440e-01 3.259503e-01 4.736688e-01 5.020703e-01 4.796180e-01 5.964024e-01 5.268354e-03
<GCONST> 9.402307e+01
<STATE> 3
<MEAN> 39
 -6.316379e+00 1.074983e+00 1.129750e+00 -1.903664e+01 -6.502849e+00 -8.732282e+00 -5.842694e+00 -6.826877e+00 -2.257921e-01 -3.964451e+00 -1.398625e-01 -6.879623e+00 1.855574e+01 4.755269e-01 -1.441427e+00 7.906111e-01 7.131650e-02 -1.229996e+00 1.514416e+00 -1.806092e-01 1.767279e-01 1.831450e-01 -3.073142e-01 9.170350e-02 -1.250944e-01 2.214662e-02 2.227490e-01 -3.679414e-01 -1.192417e-01 6.154024e-01 -3.145528e-01 5.028940e-02 3.829737e-01 -2.461741e-01 2.812854e-02 -5.593689e-03 -3.182784e-02 4.193882e-02 -4.697185e-02
<VARIANCE> 39
 6.808910e+00 1.603655e+01 1.895382e+01 2.308677e+01 5.604544e+01 4.031807e+01 3.657800e+01 5.331211e+01 2.848488e+01 2.992229e+01 3.042467e+01 4.703805e+01 9.730892e-01 4.130514e-01 1.119486e+00 8.129912e-01 2.137170e+00 2.937916e+00 2.348560e+00 2.361906e+00 2.227235e+00 2.329596e+00 1.753085e+00 1.857585e+00 1.967203e+00 1.695620e-02 4.779531e-02 1.371259e-01 2.515396e-01 3.465633e-01 3.721662e-01 6.506720e-01 5.219966e-01 4.702840e-01 4.100560e-01 3.048104e-01 3.019629e-01 3.263972e-01 3.185098e-03
<GCONST> 9.329968e+01
<STATE> 4
<MEAN> 39
 -2.017701e+00 -8.502351e+00 9.665107e-01 -1.050065e+01 -1.647172e+01 -7.105613e+00 -2.283805e-02 -7.904402e+00 8.876119e-01 -4.495934e+00 3.486136e-01 -5.938126e+00 1.860236e+01 5.795550e-01 -1.207986e+00 -7.621770e-01 1.341891e+00 -2.891158e-01 -5.679218e-01 1.163793e+00 4.812792e-01 -1.057083e-01 -2.406843e-01 -1.606106e-01 2.577036e-01 -4.194157e-03 -1.255305e-01 2.109224e-01 -1.515608e-01 -2.357569e-01 4.764047e-01 -1.003294e-01 -1.818277e-01 1.945691e-01 -7.091756e-02 -4.212403e-02 -5.371319e-02 1.838480e-02 3.276555e-03
<VARIANCE> 39
 5.986388e+00 1.812855e+01 1.495193e+01 4.098466e+01 4.865009e+01 6.139991e+01 2.816593e+01 3.277087e+01 2.014086e+01 1.837952e+01 1.823629e+01 3.255430e+01 1.356520e+00 3.187555e-01 5.112408e-01 6.595045e-01 1.773169e+00 2.466958e+00 2.693091e+00 1.981787e+00 2.518729e+00 1.640992e+00 1.337480e+00 1.290627e+00 1.259898e+00 9.854164e-03 2.824667e-02 5.948821e-02 1.594205e-01 2.298176e-01 3.115323e-01 5.776815e-01 3.319723e-01 3.242665e-01 2.958533e-01 2.354085e-01 2.099833e-01 2.174224e-01 1.479357e-03
<GCONST> 8.280682e+01
<TRANSP> 5
 0.000000e+00 1.000000e+00 0.000000e+00 0.000000e+00 0.000000e+00
 0.000000e+00 6.949251e-01 3.050749e-01 0.000000e+00 0.000000e+00
 0.000000e+00 0.000000e+00 7.681816e-01 2.318185e-01 0.000000e+00
 0.000000e+00 0.000000e+00 0.000000e+00 8.213061e-01 1.786939e-01
 0.000000e+00 0.000000e+00 0.000000e+00 0.000000e+00 0.000000e+00
<ENDHMM>
~h "ih"
<BEGINHMM>
<NUMSTATES> 5
<STATE> 2
<MEAN> 39
 -8.482109e+00 -4.259105e+00 -6.425428e+00 -8.792663e+00 -2.230212e+00 -4.240992e+00 -1.755344e+00 -8.231457e+00 -3.384138e+00 -4.069005e+00 2.878355e-01 -2.813786e+00 1.511066e+01 1.318923e+00 1.064511e+00 1.980266e+00 -1.991121e+00 -1.934864e+00 -2.035975e+00 -1.547417e-02 -2.116088e-01 6.245413e-01 5.598614e-01 -7.062550e-01 -7.564052e-01 9.616048e-01 7.293013e-02 1.560801e-01 2.642257e-01 -7.909394e-01 -6.216499e-01 -2.992464e-01 5.939803e-02 1.060659e-01 3.484212e-01 1.192828e-02 -2.867785e-01 -4.847229e-01 2.154289e-01
<VARIANCE> 39
 6.365593e+00 7.649944e+00 1.029124e+01 9.850456e+00 1.664158e+01 1.590017e+01 1.516730e+01 1.603690e+01 2.261578e+01 3.149652e+01 2.094409e+01 1.862135e+01 1.788345e+00 5.268432e-01 9.601387e-01 1.530676e+00 1.706702e+00 1.725853e+00 2.607593e+00 2.289052e+00 2.033307e+00 2.676032e+00 4.926708e+00 2.345879e+00 2.189384e+00 5.765537e-02 1.457160e-01 1.440480e-01 2.708546e-01 2.421556e-01 4.411104e-01 3.964636e-01 3.560286e-01 4.556842e-01 5.257877e-01 5.663980e-01 4.595012e-01 4.521621e-01 1.648051e-02
<GCONST> 9.201398e+01
<STATE> 3
<MEAN> 39
 -5.126588e+00 -1.139739e+00 -9.291138e-01 -1.704979e+01 -1.131219e+01 -1.100449e+01 -1.381626e+00 -8.941303e+00 -1.216664e+00 -2.131696e+00 -3.602864e+00 -7.696402e+00 1.837016e+01 3.954875e-02 5.411837e-01 9.525194e-01 -2.590945e+00 -1.336174e+00 -5.508570e-01 8.894783e-02 3.466004e-01 1.091921e+00 -9.553250e-02 -9.195996e-01 -1.229065e+00 7.042144e-01 -4.269965e-01 -2.495590e-01 -4.608732e-01 4.034464e-01 8.196843e-01 7.742087e-01 -1.447882e-01 2.531744e-01 -7.462059e-02 -2.354685e-01 3.360326e-01 3.117291e-01 -2.633916e-01
<VARIANCE> 39
 7.125334e+00 7.418419e+00 1.214297e+01 2.484827e+01 2.696032e+01 1.710914e+01 2.602077e+01 1.764812e+01 4.001906e+01 8.543301e+01 2.747416e+01 3.510870e+01 1.252860e+00 9.987759e-01 9.412467e-01 1.976776e+00 1.608625e+00 3.707684e+00 3.278517e+00 2.647304e+00 2.551705e+00 3.107236e+00 4.017683e+00 3.057799e+00 3.197616e+00 1.849643e-01 1.089706e-01 1.240519e-01 2.379517e-01 4.088272e-01 3.764277e-01 4.759254e-01 5.523323e-01 4.035948e-01 5.765755e-01 9.764159e-01 4.903300e-01 5.168912e-01 1.565886e-02
<GCONST> 1.015140e+02
<STATE> 4
<MEAN> 39
 -7.161726e+00 -1.093721e+00 -1.318306e+00 -2.149529e+01 -6.395087e+00 -7.972041e+00 -2.088033e+00 -5.060000e+00 8.762476e-01 -4.349111e+00 -2.332971e+00 -7.403855e+00 1.836634e+01 6.056856e-04 -2.180364e-01 1.602364e-01 3.554278e-01 9.305001e-01 4.738089e-01 -7.261173e-01 2.307437e-01 -3.686150e-01 -2.068602e-01 6.510012e-01 4.805413e-01 -2.875062e-01 1.109683e-01 -2.249490e-01 -2.118980e-01 6.758492e-01 1.803284e-01 9.973418e-02 1.012715e-01 -2.794991e-01 -2.080025e-01 -4.815523e-02 1.573917e-01 1.696434e-01 -1.704149e-01
<VARIANCE> 39
 6.773742e+00 1.072093e+01 1.694290e+01 1.775842e+01 6.392364e+01 3.263781e+01 3.392938e+01 2.198752e+01 3.015845e+01 4.578049e+01 3.707990e+01 3.923578e+01 1.464180e+00 5.080394e-01 5.889571e-01 8.061738e-01 2.582838e+00 1.789543e+00 2.645322e+00 2.753781e+00 2.095865e+00 2.701330e+00 3.017704e+00 2.410380e+00 2.308716e+00 1.013074e-01 8.559023e-02 1.496771e-01 3.063256e-01 4.496866e-01 5.100910e-01 5.509420e-01 7.394074e-01 4.044950e-01 5.371698e-01 4.555655e-01 4.834439e-01 4.516425e-01 1.535711e-02
<GCONST> 9.925945e+01
<TRANSP> 5
 0.000000e+00 1.000000e+00 0.000000e+00 0.000000e+00 0.000000e+00
 0.000000e+00 4.803551e-01 5.196449e-01 0.000000e+00 0.000000e+00
 0.000000e+00 0.000000e+00 6.586086e-01 3.413914e-01 0.000000e+00
 0.000000e+00 0.000000e+00 0.000000e+00 8.269274e-01 1.730727e-01
 0.000000e+00 0.000000e+00 0.000000e+00 0.000000e+00 0.000000e+00
<ENDHMM>
~h "iy"
<BEGINHMM>
<NUMSTATES> 5
<STATE> 2
<MEAN> 39
 -7.499633e+00 5.398013e+00 -1.490388e+00 -1.726023e+01 -1.569338e+00 -1.303094e+01 -6.146839e+00 -8.202993e+00 -2.912669e+00 -4.839202e+00 6.222822e-01 -5.851913e+00 1.824713e+01 1.098037e-01 3.125113e-01 -6.943887e-01 1.073759e+00 4.637226e-01 -4.651074e-01 7.163365e-01 -5.902042e-01 -4.657604e-01 -5.431687e-03 -2.398864e-01 -3.560076e-02 -1.349151e-01 1.638891e-01 -4.274692e-01 2.134651e-01 1.058229e-01 -3.162135e-01 3.997223e-01 -4.225861e-02 -1.545482e-02 1.143612e-01 -5.397673e-02 -2.103931e-02 -1.428239e-02 -2.194360e-02
<VARIANCE> 39
 6.833791e+00 1.146994e+01 1.681731e+01 2.580798e+01 2.223246e+01 2.245454e+01 5.228609e+01 4.476754e+01 3.083164e+01 4.375595e+01 3.921366e+01 3.708039e+01 1.263346e+00 2.339053e-01 1.037117e+00 8.542222e-01 1.208173e+00 1.604703e+00 1.981439e+00 1.945797e+00 2.343781e+00 1.662516e+00 1.467529e+00 1.276607e+00 1.358869e+00 1.206563e-02 4.210156e-02 1.292729e-01 1.061284e-01 2.451188e-01 3.181486e-01 3.012322e-01 3.828836e-01 3.704193e-01 3.074059e-01 2.850719e-01 2.346089e-01 2.380929e-01 2.225923e-03
<GCONST> 8.453299e+01
<STATE> 3
<MEAN> 39
 -5.029607e+00 2.194996e+00 -2.060568e+00 -1.248495e+01 -1.505903e+00 -1.172348e+01 -4.686162e+00 -1.048158e+01 -4.556555e+00 -6.126153e+00 -2.073919e+00 -7.277823e+00 1.712708e+01 2.429115e-01 -1.296269e+00 -2.085106e-01 9.820443e-01 1.029430e-01 1.199682e+00 6.350701e-01 1.065900e-01 2.822883e-01 -5.048838e-02 1.817714e-01 1.660668e-01 -3.474821e-01 -1.922313e-01 -2.318326e-01 -1.346680e-01 -8.846846e-02 -1.006819e-02 3.035191e-01 2.193211e-01 1.697281e-01 2.016246e-01 8.202597e-03 1.763823e-01 8.700873e-02 -6.470338e-02
<VARIANCE> 39
 6.285131e+00 1.040637e+01 1.512585e+01 2.033699e+01 2.363787e+01 2.789111e+01 3.723726e+01 2.979394e+01 3.236261e+01 3.730806e+01 4.235423e+01 3.688478e+01 1.289064e+00 6.158177e-01 1.161831e+00 1.201201e+00 1.793051e+00 1.963626e+00 2.491293e+00 3.190999e+00 2.916237e+00 2.869383e+00 2.747566e+00 2.800049e+00 2.361780e+00 6.950829e-02 8.491475e-02 1.857238e-01 2.115828e-01 2.810024e-01 3.705099e-01 4.212520e-01 4.695694e-01 4.634787e-01 5.127458e-01 4.197136e-01 4.795359e-01 3.713473e-01 6.656428e-03
<GCONST> 9.670329e+01
<STATE> 4
<MEAN> 39
 -5.881384e+00 -3.487193e+00 -3.713360e+00 -9.182720e+00 1.904516e-01 -5.595638e+00 -3.663493e-01 -8.747547e+00 -2.184656e+00 -5.898915e+00 3.014587e-01 -5.040066e+00 1.538275e+01 -4.039347e-01 -1.302589e+00 -7.269349e-01 2.884832e-01 -9.337414e-02 9.548921e-01 6.924995e-01 1.766608e-01 2.549431e-01 -1.228559e-01 2.250736e-01 2.512262e-01 -3.504229e-01 -3.733398e-02 2.481640e-01 2.975424e-03 -3.038451e-01 -1.387614e-01 -3.895932e-01 -2.944663e-01 -8.399055e-02 -1.250069e-01 2.696216e-02 -4.075303e-02 8.179327e-03 8.386544e-02
<VARIANCE> 39
 5.440835e+00 9.778000e+00 8.503880e+00 1.183727e+01 1.692064e+01 2.326355e+01 1.963164e+01 2.335049e+01 2.021413e+01 2.108696e+01 1.827392e+01 1.843268e+01 1.347441e+00 5.030382e-01 8.508112e-01 1.263124e+00 1.638561e+00 1.694985e+00 2.607606e+00 2.681699e+00 2.274489e+00 2.357935e+00 2.542771e+00 2.427529e+00 1.968116e+00 6.215900e-02 7.764079e-02 1.344150e-01 1.686181e-01 2.468672e-01 3.282129e-01 4.611847e-01 3.905509e-01 3.841252e-01 4.232909e-01 4.335539e-01 3.759459e-01 3.265347e-01 7.419493e-03
<GCONST> 8.806593e+01
<TRANSP> 5
 0.000000e+00 1.000000e+00 0.000000e+00 0.000000e+00 0.000000e+00
 0.000000e+00 8.286244e-01 1.713757e-01 0.000000e+00 0.000000e+00
 0.000000e+00 0.000000e+00 7.290770e-01 2.709230e-01 0.000000e+00
 0.000000e+00 0.000000e+00 0.000000e+00 6.788061e-01 3.211939e-01
 0.000000e+00 0.000000e+00 0.000000e+00 0.000000e+00 0.000000e+00
<ENDHMM>
~h "ow"
<BEGINHMM>
<NUMSTATES> 5
<STATE> 2
<MEAN> 39
 -4.650997e+00 -1.077680e+01 -7.128828e+00 -9.011894e+00 -2.951955e+00 -6.347647e+00 3.371348e+00 -7.442015e+00 -4.995048e+00 -6.425900e+00 -1.580795e+00 -5.106746e+00 1.762994e+01 4.243857e-01 -1.144502e-01 -6.631364e-01 3.016256e-01 2.259643e-01 -7.312659e-01 2.685971e-01 5.756654e-01 -1.844064e-01 -4.875069e-01 -2.652943e-01 -3.307145e-04 2.560834e-01 7.284726e-02 1.101133e-01 -1.136396e-02 -5.191332e-02 -1.484379e-02 -5.488648e-02 -1.544573e-01 4.353882e-02 1.652262e-01 -2.957677e-02 -4.551151e-02 -4.256187e-02 2.018237e-03
<VARIANCE> 39
 8.219016e+00 1.311626e+01 1.316642e+01 1.820118e+01 2.536376e+01 2.289087e+01 3.203711e+01 5.907305e+01 4.100385e+01 3.455066e+01 2.619755e+01 2.836197e+01 3.030371e+00 5.184287e-01 9.099407e-01 9.950216e-01 1.019722e+00 1.437335e+00 1.606427e+00 2.025874e+00 2.742445e+00 2.201596e+00 2.171557e+00 2.111794e+00 1.780188e+00 1.639285e-01 8.171928e-02 1.221544e-01 1.567798e-01 1.572607e-01 2.233532e-01 2.587704e-01 3.720149e-01 4.266489e-01 4.290878e-01 4.034403e-01 3.815998e-01 3.030799e-01 2.289394e-02
<GCONST> 9.292834e+01
<STATE> 3
<MEAN> 39
 -8.605070e-01 -8.768709e+00 -1.181879e+01 -9.669209e+00 -2.017404e+00 -1.177514e+01 -6.233258e-01 -5.255094e-01 -3.693385e-01 -9.232221e+00 -4.170280e+00 -6.359807e+00 1.886744e+01 2.186390e-01 5.213104e-01 -1.745658e-01 -2.506920e-01 2.274133e-01 -1.765634e-01 -8.087022e-01 -1.761147e-01 7.187815e-01 4.770318e-01 -1.654948e-01 -4.094291e-01 -3.148883e-02 -5.143763e-02 4.709632e-02 1.676555e-01 -2.990853e-02 -8.412325e-02 1.658155e-01 1.374432e-02 -2.795159e-01 -6.212193e-02 1.837141e-01 1.037231e-01 -1.146519e-02 -3.291894e-02
<VARIANCE> 39
 5.669688e+00 8.795819e+00 1.811469e+01 1.369912e+01 2.467775e+01 2.315726e+01 4.157887e+01 3.176058e+01 4.819109e+01 3.395734e+01 3.088356e+01 3.689083e+01 1.500636e+00 1.468865e-01 3.001564e-01 5.294933e-01 5.436453e-01 9.483464e-01 9.833344e-01 1.263663e+00 1.672417e+00 1.580893e+00 1.674108e+00 1.365952e+00 1.223238e+00 2.305842e-02 2.572051e-02 3.491871e-02 9.079026e-02 8.566657e-02 1.347084e-01 1.905988e-01 2.115041e-01 2.417642e-01 2.715798e-01 2.537696e-01 2.325768e-01 2.064178e-01 2.581889e-03
<GCONST> 7.332990e+01
<STATE> 4
<MEAN> 39
 -1.094654e+00 -4.043694e+00 -7.713482e+00 -1.171280e+01 -2.634593e+00 -8.545524e+00 -3.782765e+00 -7.608376e+00 -3.549784e-02 -4.206004e+00 -4.443434e-01 -6.719471e+00 1.763383e+01 -5.352422e-01 2.427868e-01 7.365689e-01 2.293835e-01 8.296420e-02 6.251873e-01 3.136354e-01 -6.737810e-01 -6.126386e-01 3.701492e-02 4.576857e-01 3.732571e-01 -3.233909e-01 -1.357770e-01 -1.668600e-01 -2.913607e-02 5.983312e-02 3.259546e-02 7.435180e-02 1.610904e-01 1.346988e-01 -6.487736e-02 -1.242945e-01 -2.054043e-02 1.043070e-01 -3.577518e-02
<VARIANCE> 39
 7.842364e+00 7.723485e+00 2.309039e+01 1.983795e+01 2.319106e+01 2.859466e+01 3.088580e+01 2.734355e+01 3.520198e+01 3.735793e+01 3.301895e+01 3.154576e+01 2.557898e+00 4.745026e-01 7.452171e-01 9.467814e-01 1.239039e+00 1.698768e+00 2.012869e+00 2.242584e+00 2.494437e+00 2.451441e+00 2.453300e+00 2.126838e+00 1.977950e+00 6.167636e-02 6.226685e-02 8.706737e-02 1.892346e-01 2.083885e-01 3.018787e-01 3.669133e-01 3.855546e-01 3.992815e-01 4.929066e-01 4.172620e-01 3.867224e-01 3.656879e-01 7.312200e-03
<GCONST> 9.175157e+01
<TRANSP> 5
 0.000000e+00 1.000000e+00 0.000000e+00 0.000000e+00 0.000000e+00
 0.000000e+00 8.039871e-01 1.960129e-01 0.000000e+00 0.000000e+00
 0.000000e+00 0.000000e+00 8.519464e-01 1.480537e-01 0.000000e+00
 0.000000e+00 0.000000e+00 0.000000e+00 8.611372e-01 1.388628e-01
 0.000000e+00 0.000000e+00 0.000000e+00 0.000000e+00 0.000000e+00
<ENDHMM>
~h "sp"
<BEGINHMM>
<NUMSTATES> 3
<STATE> 2
~s "silst"
<TRANSP> 3
 0.000000e+00 1.758200e-01 8.241800e-01
 0.000000e+00 9.110175e-01 8.898252e-02
 0.000000e+00 0.000000e+00 0.000000e+00
<ENDHMM>
~h "th"
<BEGINHMM>
<NUMSTATES> 5
<STATE> 2
<MEAN> 39
 -7.761786e+00 -6.470105e+00 -5.571262e+00 -1.002323e+01 -9.988077e-01 -4.949792e+00 -4.664106e-01 -8.742332e+00 -2.607850e+00 -5.323219e+00 1.052674e+00 -3.597022e+00 1.474244e+01 -2.756018e-01 -4.056980e-02 -6.472551e-02 -1.011173e-01 6.420176e-02 -4.381024e-02 6.151334e-02 6.900116e-02 -3.772346e-02 2.035940e-02 1.546896e-02 1.340902e-01 -1.789655e-02 1.602914e-01 1.209746e-01 1.854281e-01 -1.614984e-02 -1.156884e-01 -1.150016e-01 -1.270572e-01 -5.127306e-03 -2.762638e-02 -3.952371e-02 -4.444404e-02 -9.628932e-02 8.920737e-02
<VARIANCE> 39
 3.918365e+00 5.627877e+00 8.108373e+00 8.621879e+00 1.221093e+01 1.321630e+01 1.522626e+01 1.744851e+01 1.747734e+01 1.639100e+01 1.491377e+01 1.497921e+01 9.677937e-01 4.204043e-01 8.236191e-01 1.044305e+00 1.123646e+00 1.331377e+00 1.452638e+00 1.654948e+00 2.094013e+00 2.186216e+00 1.918413e+00 1.560328e+00 1.715743e+00 5.255534e-02 9.632184e-02 1.802672e-01 2.129404e-01 2.350291e-01 3.273833e-01 3.525057e-01 3.831086e-01 4.986401e-01 4.398693e-01 4.019121e-01 3.473200e-01 3.943460e-01 1.007511e-02
<GCONST> 8.201075e+01
<STATE> 3
<MEAN> 39
 -8.264888e+00 -5.640246e+00 -3.950032e+00 -1.065057e+01 -8.635141e-01 -4.954310e+00 -8.603324e-01 -8.197185e+00 -2.788301e+00 -5.598264e+00 1.009749e+00 -3.865322e+00 1.526144e+01 1.217363e+00 1.987863e-01 1.152441e+00 8.475602e-02 -1.605425e+00 -1.215141e+00 -6.475667e-01 -1.805139e-01 1.579570e-01 -1.307059e-01 -2.476131e-01 -4.280399e-01 5.083395e-01 4.287466e-01 -1.133207e-01 2.265805e-01 1.063257e-01 -7.994869e-01 -4.946923e-01 -7.330887e-02 -8.216383e-02 1.157761e-01 5.707199e-02 -1.064009e-01 -8.899086e-02 1.405877e-01
<VARIANCE> 39
 7.061815e+00 7.418401e+00 1.108944e+01 1.466155e+01 1.814550e+01 1.663874e+01 1.907882e+01 1.941465e+01 2.146459e+01 1.935101e+01 2.122169e+01 1.390142e+01 1.270964e+00 1.033990e+00 1.231281e+00 1.277121e+00 2.518287e+00 3.222609e+00 4.004705e+00 2.359599e+00 2.991122e+00 2.733493e+00 2.699470e+00 3.324703e+00 2.599583e+00 1.076914e-01 1.548544e-01 2.215451e-01 3.117763e-01 5.236912e-01 4.619716e-01 6.846120e-01 5.116875e-01 5.715652e-01 5.746332e-01 5.924919e-01 6.733370e-01 5.110893e-01 1.322821e-02
<GCONST> 9.812128e+01
<STATE> 4
<MEAN> 39
 -1.952466e+00 -6.235941e+00 -3.707097e-01 -8.367952e+00 -1.017732e+01 -1.366934e+01 -3.280037e+00 -8.917148e+00 -2.683852e+00 -5.734629e+00 -5.590661e-01 -5.338818e+00 1.763007e+01 9.922996e-01 -5.725335e-01 1.044922e+00 3.766592e-01 -2.564224e+00 -1.096646e+00 9.520371e-02 -9.660076e-02 2.123485e-01 2.813957e-01 -2.445371e-02 -3.910010e-01 5.322720e-01 -4.314724e-01 -8.705115e-02 -5.774073e-02 -2.367559e-01 2.564409e-01 7.634773e-01 1.928865e-01 -7.574823e-02 1.435231e-01 8.401393e-02 1.926723e-01 7.436465e-02 -1.071258e-01
<VARIANCE> 39
 5.319108e+00 1.369777e+01 1.266756e+01 3.377312e+01 2.376507e+01 4.133521e+01 2.220120e+01 2.283636e+01 3.149337e+01 2.601362e+01 3.473766e+01 2.761678e+01 1.257301e+00 8.388770e-01 9.831455e-01 1.872302e+00 2.606896e+00 3.142560e+00 4.672362e+00 2.820285e+00 3.385369e+00 2.882928e+00 2.837116e+00 3.672144e+00 2.960351e+00 9.150683e-02 1.110125e-01 2.553685e-01 3.351620e-01 6.505106e-01 6.141783e-01 8.319468e-01 5.494338e-01 6.897494e-01 5.523995e-01 5.155166e-01 5.408955e-01 4.653166e-01 1.232704e-02
<GCONST> 1.036188e+02
<TRANSP> 5
 0.000000e+00 1.000000e+00 0.000000e+00 0.000000e+00 0.000000e+00
 0.000000e+00 8.402730e-01 1.597270e-01 0.000000e+00 0.000000e+00
 0.000000e+00 0.000000e+00 6.540422e-01 3.459578e-01 0.000000e+00
 0.000000e+00 0.000000e+00 0.000000e+00 7.002712e-01 2.997288e-01
 0.000000e+00 0.000000e+00 0.000000e+00 0.000000e+00 0.000000e+00
<ENDHMM>
~h "uw"
<BEGINHMM>
<NUMSTATES> 5
<STATE> 2
<MEAN> 39
 -5.632607e+00 -1.012787e-01 4.669319e-01 -1.401030e+01 -4.620104e+00 -7.896031e+00 -5.390496e+00 -9.988415e+00 -2.386581e+00 -5.565313e+00 -4.833859e-01 -6.330608e+00 1.748111e+01 1.128974e+00 1.080905e+00 1.467459e+00 -1.107139e+00 -1.804727e+00 -1.706412e+00 -1.094822e+00 -5.603852e-01 -3.492860e-02 1.334872e-01 -5.837370e-01 -1.031596e+00 7.422200e-01 -3.346450e-01 -1.518540e-01 -4.729382e-01 1.516329e-01 5.399612e-02 8.673526e-02 1.652864e-01 1.650907e-01 -4.760996e-03 2.922125e-02 9.782857e-02 1.020327e-01 -9.023260e-02
<VARIANCE> 39
 1.025041e+01 1.117295e+01 1.832780e+01 2.064911e+01 3.962677e+01 3.479640e+01 2.897886e+01 2.432002e+01 2.800861e+01 4.728484e+01 3.487123e+01 4.150663e+01 2.486932e+00 1.435388e+00 1.041048e+00 1.867339e+00 2.236582e+00 2.230498e+00 2.165908e+00 2.971004e+00 3.085068e+00 3.598358e+00 4.347157e+00 5.368785e+00 3.377269e+00 1.082679e-01 1.723851e-01 2.387245e-01 2.519867e-01 3.767360e-01 6.441335e-01 5.872695e-01 5.801989e-01 5.113487e-01 5.553483e-01 7.060391e-01 7.653707e-01 5.711005e-01 4.204225e-02
<GCONST> 1.078993e+02
<STATE> 3
<MEAN> 39
 -3.716723e+00 5.453843e-01 8.260281e-01 -1.477674e+01 -7.811293e+00 -1.140634e+01 -6.007595e+00 -9.661971e+00 -2.761242e+00 -5.154184e+00 -3.682172e-01 -7.993760e+00 1.847279e+01 2.325483e-01 -2.149709e-01 -2.298171e-01 5.875096e-01 1.490257e-01 -8.397095e-02 1.116863e-01 -1.822261e-02 -1.900847e-01 -1.378322e-02 1.752446e-01 1.562242e-01 -7.546633e-02 -2.083949e-02 -6.249357e-02 -8.221716e-02 9.934667e-02 1.673095e-01 1.212499e-01 4.968009e-02 -2.792421e-03 2.057846e-02 -2.178181e-02 1.723984e-02 9.083050e-02 -5.608312e-02
<VARIANCE> 39
 6.153289e+00 8.091050e+00 1.117767e+01 2.964895e+01 3.760074e+01 2.169083e+01 3.305099e+01 3.254061e+01 4.237446e+01 4.638827e+01 5.793678e+01 4.306861e+01 1.152979e+00 1.872699e-01 2.930861e-01 5.392431e-01 9.386658e-01 1.238311e+00 1.299599e+00 1.350739e+00 1.564585e+00 1.595130e+00 1.507408e+00 1.660405e+00 1.564309e+00 1.413352e-02 4.146336e-02 6.310246e-02 9.340820e-02 1.946282e-01 2.164835e-01 2.413229e-01 2.584229e-01 2.865951e-01 3.244889e-01 3.137741e-01 3.384112e-01 3.093587e-01 5.593108e-03
<GCONST> 8.059855e+01
<STATE> 4
<MEAN> 39
 -2.869507e+00 -2.557432e+00 -2.422881e+00 -9.036783e+00 -3.280029e+00 -9.254640e+00 -4.043387e+00 -9.893211e+00 -3.187123e+00 -5.406930e+00 6.981632e-01 -5.295960e+00 1.667310e+01 -5.681959e-01 -6.267941e-01 -5.255497e-01 2.164253e-01 8.745034e-01 1.097928e+00 8.047004e-01 2.959515e-01 1.469988e-01 -2.192460e-02 -4.018959e-02 2.725365e-01 -3.962864e-01 -1.498408e-01 -7.849934e-02 -1.898288e-02 -1.392149e-01 -8.246774e-02 7.551789e-02 9.983519e-02 4.959343e-02 4.569928e-03 -8.763753e-03 -4.067469e-02 -2.967480e-02 -1.355692e-02
<VARIANCE> 39
 5.919716e+00 6.821455e+00 8.725267e+00 1.177332e+01 1.926771e+01 3.014012e+01 3.079045e+01 2.895613e+01 2.796928e+01 3.200859e+01 3.273710e+01 3.010844e+01 2.050339e+00 5.848227e-01 5.922948e-01 9.599343e-01 1.234625e+00 1.622720e+00 2.199307e+00 2.655378e+00 2.951868e+00 2.746570e+00 2.863758e+00 2.886536e+00 2.387520e+00 6.146541e-02 7.638231e-02 8.714622e-02 1.631511e-01 2.086637e-01 3.123409e-01 4.892867e-01 4.534746e-01 5.314630e-01 4.543369e-01 4.814792e-01 5.028101e-01 3.835245e-01 9.652428e-03
<GCONST> 9.171785e+01
<TRANSP> 5
 0.000000e+00 1.000000e+00 0.000000e+00 0.000000e+00 0.000000e+00
 0.000000e+00 7.514411e-01 2.485589e-01 0.000000e+00 0.000000e+00
 0.000000e+00 0.000000e+00 8.961930e-01 1.038070e-01 0.000000e+00
 0.000000e+00 0.000000e+00 0.000000e+00 8.278466e-01 1.721534e-01
 0.000000e+00 0.000000e+00 0.000000e+00 0.000000e+00 0.000000e+00
<ENDHMM>
~h "sil"
<BEGINHMM>
<NUMSTATES> 5
<STATE> 2
<MEAN> 39
 -6.806839e+00 -7.279593e+00 -5.634779e+00 -1.012316e+01 -1.016801e+00 -4.143127e+00 -1.977504e-01 -8.565647e+00 -2.929153e+00 -5.649632e+00 1.015833e+00 -3.930569e+00 1.540063e+01 -4.190126e-02 -3.524000e-02 -3.236651e-02 -1.459220e-02 6.097693e-04 9.698651e-03 1.257079e-02 9.540637e-03 2.449016e-04 3.318626e-02 2.191297e-02 7.630405e-03 -1.350333e-02 -3.675043e-03 1.102412e-02 -1.189198e-03 -1.489855e-03 3.897068e-04 -1.396617e-02 -1.891010e-02 4.267293e-03 1.373480e-02 -8.828416e-04 -4.866275e-03 -9.587991e-03 4.199664e-03
<VARIANCE> 39
 2.590658e+00 3.336169e+00 5.584164e+00 7.775991e+00 1.225749e+01 1.358983e+01 1.394100e+01 1.505326e+01 1.579118e+01 1.411720e+01 1.428995e+01 1.278446e+01 6.847177e-01 1.508036e-01 3.217203e-01 5.666959e-01 8.571513e-01 1.177334e+00 1.534545e+00 1.488148e+00 1.630987e+00 1.694979e+00 1.506488e+00 1.543228e+00 1.535347e+00 7.196446e-03 2.926548e-02 6.166095e-02 1.069490e-01 1.605248e-01 2.328461e-01 2.994168e-01 2.844185e-01 3.134462e-01 3.249466e-01 2.875965e-01 2.965596e-01 3.072815e-01 1.642382e-03
<GCONST> 6.625859e+01
<STATE> 3
~s "silst"
<STATE> 4
<MEAN> 39
 -8.310697e+00 -6.496359e+00 -5.959594e+00 -1.032000e+01 -1.229438e+00 -4.577895e+00 -8.052047e-01 -8.819533e+00 -2.159630e+00 -5.655243e+00 1.269177e+00 -4.652428e+00 1.444142e+01 -8.845394e-03 3.570101e-02 -6.220151e-03 -1.668467e-02 -5.553063e-02 -6.705569e-02 -4.217579e-02 4.839871e-02 -3.919507e-02 -1.000755e-01 -6.202863e-02 -3.344434e-02 4.015294e-03 4.729620e-02 3.590392e-02 3.103068e-02 2.813847e-02 2.105849e-02 1.360799e-02 5.812513e-03 -1.789982e-02 -5.045389e-02 -2.432975e-02 -3.367156e-02 3.212484e-02 1.555264e-02
<VARIANCE> 39
 4.824695e+00 5.748806e+00 8.924522e+00 1.048567e+01 1.217984e+01 1.376171e+01 1.546438e+01 1.843326e+01 1.888772e+01 1.670265e+01 1.670528e+01 1.421135e+01 8.865455e-01 3.204146e-01 5.568779e-01 9.529859e-01 1.222464e+00 1.210841e+00 1.618185e+00 1.438488e+00 2.194645e+00 2.057976e+00 1.852429e+00 1.822453e+00 1.554580e+00 1.227718e-02 6.833615e-02 1.242818e-01 2.007899e-01 2.529855e-01 2.352776e-01 3.317639e-01 2.759486e-01 4.486543e-01 4.090804e-01 3.673149e-01 3.575910e-01 2.855227e-01 3.548907e-03
<GCONST> 7.744143e+01
<TRANSP> 5
 0.000000e+00 1.000000e+00 0.000000e+00 0.000000e+00 0.000000e+00
 0.000000e+00 8.434821e-01 8.039129e-02 7.612666e-02 0.000000e+00
 0.000000e+00 0.000000e+00 9.376864e-01 6.231364e-02 0.000000e+00
 0.000000e+00 8.711816e-02 0.000000e+00 7.453118e-01 1.675701e-01
 0.000000e+00 0.000000e+00 0.000000e+00 0.000000e+00 0.000000e+00
<ENDHMM>
