~o
<STREAMINFO> 1 39
<VECSIZE> 39<NULLD><MFCC_E_D_A><DIAGC>
~s "silst"
<MEAN> 39
 -6.964190e+00 -7.322936e+00 -5.871036e+00 -1.012498e+01 -8.363845e-01 -4.409234e+00 -2.468211e-01 -8.554140e+00 -2.658710e+00 -5.618814e+00 9.563484e-01 -3.967632e+00 1.396310e+01 -5.216304e-03 5.027070e-03 -7.224203e-03 5.494426e-03 -4.342556e-03 4.086412e-03 -3.688134e-03 -2.226034e-02 7.730613e-03 1.852909e-02 1.038723e-02 2.449410e-03 -1.613543e-03 -5.003211e-03 9.992555e-03 1.358435e-03 5.312705e-03 -6.450676e-03 4.943767e-03 -2.579437e-03 9.727668e-03 3.373933e-03 -7.544259e-04 -3.422800e-03 -1.278420e-02 3.413005e-03
<VARIANCE> 39
 2.482730e+00 3.244111e+00 5.670232e+00 7.963929e+00 1.253623e+01 1.387610e+01 1.486303e+01 1.533469e+01 1.583053e+01 1.365348e+01 1.543050e+01 1.268293e+01 4.628697e-01 1.223967e-01 3.024843e-01 5.332550e-01 8.732033e-01 1.203975e+00 1.598928e+00 1.621728e+00 1.677487e+00 1.721360e+00 1.391207e+00 1.597892e+00 1.414894e+00 4.694705e-03 2.558039e-02 6.239031e-02 1.095038e-01 1.800566e-01 2.556479e-01 3.382423e-01 3.386070e-01 3.490740e-01 3.577575e-01 2.802392e-01 3.281720e-01 2.966037e-01 1.147995e-03
<GCONST> 6.561724e+01
~h "f"
<BEGINHMM>
<NUMSTATES> 5
<STATE> 2
<MEAN> 39
 -8.445103e+00 -6.747558e+00 -5.703400e+00 -9.989539e+00 -1.343990e+00 -4.680703e+00 -3.472292e-01 -8.595818e+00 -2.351584e+00 -5.867902e+00 1.217398e+00 -3.989385e+00 1.488291e+01 -1.263262e-01 -1.466738e-01 -1.075750e-01 -8.841099e-02 -7.421464e-02 -4.054300e-02 5.170092e-02 1.708267e-02 -1.968591e-03 5.438145e-02 1.238615e-01 7.544658e-02 -2.493941e-02 2.821270e-01 8.121023e-02 -2.418790e-02 -1.899581e-03 -1.924817e-02 -1.486665e-01 -1.121650e-01 4.349939e-04 -1.796396e-02 -4.035103e-02 -1.162909e-01 -9.411543e-02 1.247063e-01
<VARIANCE> 39
 4.525167e+00 3.754566e+00 7.224198e+00 8.538113e+00 1.280140e+01 1.463483e+01 1.525677e+01 1.653869e+01 1.548449e+01 1.462583e+01 1.521242e+01 1.242356e+01 1.005091e+00 4.696835e-01 4.598949e-01 8.511189e-01 1.007265e+00 1.342232e+00 1.773463e+00 1.545954e+00 2.000197e+00 1.761603e+00 1.626878e+00 1.754831e+00 1.434517e+00 4.027496e-02 1.301872e-01 1.405390e-01 2.373131e-01 2.393794e-01 3.044013e-01 4.159085e-01 3.336892e-01 4.722659e-01 4.228477e-01 3.707403e-01 3.965298e-01 3.052877e-01 1.380344e-02
<GCONST> 8.010778e+01
<STATE> 3
<MEAN> 39
 -7.065169e+00 -6.610407e+00 -5.502070e+00 -9.915355e+00 -1.355433e+00 -4.920406e+00 -7.826095e-01 -8.349765e+00 -2.253108e+00 -5.692511e+00 8.991662e-01 -4.110968e+00 1.542334e+01 1.977122e+00 2.850087e-02 -1.137430e+00 -5.198697e-01 -8.183831e-02 -9.727222e-01 -5.160982e-01 3.992617e-01 -4.753010e-02 -2.274342e-01 -8.090081e-01 -5.851151e-01 9.180447e-01 4.208007e-01 -1.568026e-01 -5.551657e-01 -1.832368e-01 3.863174e-02 -2.036562e-01 -5.337917e-02 1.539480e-01 -1.370092e-01 -3.158313e-02 -1.918257e-01 -2.070479e-01 2.229805e-01
<VARIANCE> 39
 5.833392e+00 4.992713e+00 5.672239e+00 8.898395e+00 9.955874e+00 1.295355e+01 1.474648e+01 1.706539e+01 1.694320e+01 1.441864e+01 1.498591e+01 1.256148e+01 1.771803e+00 8.075386e-01 1.775202e+00 1.384140e+00 2.150699e+00 1.601847e+00 1.972082e+00 2.236376e+00 3.934846e+00 2.812397e+00 2.453650e+00 2.417071e+00 2.096137e+00 8.019914e-02 1.535243e-01 2.478603e-01 1.803734e-01 4.047849e-01 3.158120e-01 3.806287e-01 3.940128e-01 5.253074e-01 4.685269e-01 4.820335e-01 4.502032e-01 4.683545e-01 1.757360e-02
<GCONST> 8.980753e+01
<STATE> 4
<MEAN> 39
 -2.361826e-01 -8.215317e+00 -1.188750e+01 -1.187802e+01 -1.024043e+00 -8.922130e+00 -2.491618e+00 -5.937553e+00 -3.171331e+00 -6.842468e+00 -2.847034e+00 -7.195207e+00 1.867331e+01 1.038304e+00 -5.767792e-01 -1.483374e+00 -2.590330e-01 2.253775e-01 -4.383872e-01 1.073163e-01 3.049488e-01 -5.357524e-01 5.063144e-02 -3.539455e-01 -3.963484e-01 7.295492e-01 -6.434954e-01 9.436298e-03 4.560199e-01 2.333662e-01 2.383441e-05 3.798637e-01 2.618870e-01 -2.547247e-01 -3.746646e-02 1.635191e-01 4.198991e-01 3.178540e-01 -2.463240e-01
<VARIANCE> 39
 7.652287e+00 2.695169e+01 1.540305e+01 2.271480e+01 2.107302e+01 1.739101e+01 2.919216e+01 4.912479e+01 3.308514e+01 3.157516e+01 3.501702e+01 3.215917e+01 1.224754e+00 1.582992e+00 2.276220e+00 1.621791e+00 3.061156e+00 2.170802e+00 2.238868e+00 2.437472e+00 3.103312e+00 3.327475e+00 3.729034e+00 3.367461e+00 3.314354e+00 1.591499e-01 7.013376e-02 1.851884e-01 2.324444e-01 2.019586e-01 2.696293e-01 3.154083e-01 3.849967e-01 6.592345e-01 6.255307e-01 5.076414e-01 4.369575e-01 4.165694e-01 9.927643e-03
<GCONST> 1.010968e+02
<TRANSP> 5
 0.000000e+00 1.000000e+00 0.000000e+00 0.000000e+00 0.000000e+00
 0.000000e+00 8.159792e-01 1.840208e-01 0.000000e+00 0.000000e+00
 0.000000e+00 0.000000e+00 5.695478e-01 4.304522e-01 0.000000e+00
 0.000000e+00 0.000000e+00 0.000000e+00 6.324540e-01 3.675459e-01
 0.000000e+00 0.000000e+00 0.000000e+00 0.000000e+00 0.000000e+00
<ENDHMM>
~h "k"
<BEGINHMM>
<NUMSTATES> 5
<STATE> 2
<MEAN> 39
 -5.760498e+00 -3.278481e+00 -2.047555e-01 -1.475596e+01 -3.386963e+00 -4.885178e+00 -5.755410e+00 -7.612469e+00 -1.264395e+00 -5.753048e+00 1.343291e+00 -4.910697e+00 1.628241e+01 7.179026e-02 -1.505332e+00 -1.773065e+00 3.092615e+00 1.727364e+00 1.147953e+00 1.517460e+00 -1.030594e+00 -5.495272e-01 -5.463124e-01 6.586912e-01 6.550419e-01 -9.189022e-01 -2.543881e-01 -1.412154e-01 -4.237905e-01 -1.282693e-01 -2.385459e-01 -1.996683e-01 6.589457e-01 6.823636e-02 3.887751e-02 2.543042e-01 -3.588139e-01 -1.607521e-01 2.789889e-02
<VARIANCE> 39
 3.979999e+00 1.047664e+01 1.769319e+01 2.726097e+01 4.000533e+01 3.074165e+01 4.125418e+01 2.942906e+01 2.937805e+01 2.621591e+01 2.223545e+01 1.720613e+01 1.684866e+00 6.536812e-01 1.196749e+00 1.738936e+00 2.086980e+00 5.704875e+00 4.309758e+00 4.506553e+00 2.967305e+00 3.029931e+00 3.092767e+00 3.370756e+00 2.958205e+00 6.162398e-02 6.271516e-02 1.691685e-01 3.056799e-01 5.912337e-01 5.664851e-01 5.525813e-01 8.046525e-01 5.770466e-01 7.173731e-01 5.910070e-01 5.536011e-01 5.585080e-01 2.077131e-02
<GCONST> 1.034159e+02
<STATE> 3
<MEAN> 39
 -6.964841e+00 -6.931149e+00 -5.903182e+00 -1.013713e+01 -3.179183e-01 -3.749239e+00 -3.296699e-01 -9.159971e+00 -2.535540e+00 -5.591217e+00 1.210889e+00 -3.795251e+00 1.435134e+01 -3.982171e-01 -8.053501e-01 -9.183220e-01 7.562221e-01 9.322816e-02 1.554091e-01 8.585933e-01 -2.179955e-01 -1.251648e-01 1.846721e-01 2.205743e-03 1.734382e-01 -3.394844e-01 -5.807745e-02 3.449299e-01 5.875415e-01 -7.234727e-01 -5.573336e-01 -2.845157e-01 -4.935523e-01 2.885153e-01 1.427668e-01 6.778353e-02 -1.526914e-01 -1.856830e-01 2.391014e-01
<VARIANCE> 39
 3.509756e+00 3.678316e+00 5.421577e+00 7.590252e+00 1.120219e+01 1.299247e+01 1.362033e+01 1.571057e+01 1.305027e+01 1.579129e+01 1.697336e+01 1.292860e+01 1.061680e+00 3.213274e-01 6.140568e-01 1.563920e+00 2.024361e+00 2.413238e+00 2.238613e+00 2.823548e+00 2.207698e+00 2.227924e+00 2.230492e+00 2.080147e+00 1.966490e+00 8.679520e-02 8.846955e-02 1.381274e-01 2.171550e-01 3.463407e-01 5.919600e-01 4.739778e-01 5.160043e-01 4.665406e-01 3.902697e-01 4.465187e-01 5.205994e-01 4.127987e-01 8.520390e-03
<GCONST> 8.495490e+01
<STATE> 4
<MEAN> 39
 -7.566332e+00 -8.166535e+00 -4.733419e+00 -9.738024e+00 -2.922027e+00 -4.746078e+00 8.181439e-02 -8.790228e+00 -2.557781e+00 -5.402073e+00 5.318498e-01 -4.312008e+00 1.454494e+01 -4.088691e-01 -4.428477e-02 2.487540e-01 2.394910e-01 -7.094119e-01 3.245867e-01 -1.938695e-02 3.201896e-02 7.389141e-02 1.770306e-01 -1.842001e-01 -2.977383e-02 5.897772e-02 -6.112117e-02 2.532796e-01 -6.856812e-02 -3.858177e-02 6.037270e-02 1.885290e-01 -1.549165e-01 1.852087e-02 4.032288e-02 3.569058e-02 2.531418e-03 1.466155e-02 2.163265e-02
<VARIANCE> 39
 3.726999e+00 7.699099e+00 8.479342e+00 1.093700e+01 1.552289e+01 1.540191e+01 1.663943e+01 1.652332e+01 1.727056e+01 1.460004e+01 1.396889e+01 1.407324e+01 1.150755e+00 3.903380e-01 9.449834e-01 9.431412e-01 1.255664e+00 1.542050e+00 2.015788e+00 1.762350e+00 1.978511e+00 2.006801e+00 1.649291e+00 1.846927e+00 1.446161e+00 1.757516e-02 6.111019e-02 2.042252e-01 2.417615e-01 2.697982e-01 3.529545e-01 3.923092e-01 3.983546e-01 3.978268e-01 4.209737e-01 3.550885e-01 3.741125e-01 3.098181e-01 7.937482e-03
<GCONST> 8.147712e+01
<TRANSP> 5
 0.000000e+00 1.000000e+00 0.000000e+00 0.000000e+00 0.000000e+00
 0.000000e+00 5.317454e-01 4.682546e-01 0.000000e+00 0.000000e+00
 0.000000e+00 0.000000e+00 5.916582e-01 4.083419e-01 0.000000e+00
 0.000000e+00 0.000000e+00 0.000000e+00 7.470626e-01 2.529374e-01
 0.000000e+00 0.000000e+00 0.000000e+00 0.000000e+00 0.000000e+00
<ENDHMM>
~h "n"
<BEGINHMM>
<NUMSTATES> 5
<STATE> 2
<MEAN> 39
 -4.914175e+00 -2.866093e+00 -1.966696e+00 -1.204650e+01 -2.485989e+00 -5.672637e+00 -2.713382e+00 -9.648169e+00 -2.896565e+00 -8.230915e+00 -2.255448e+00 -6.927160e+00 1.748986e+01 6.054518e-01 1.027811e+00 4.523227e-01 8.971885e-02 7.250999e-01 -1.006166e+00 -6.539987e-01 -9.244713e-03 -6.577142e-01 1.989901e-01 -8.914011e-03 -2.522886e-01 -2.936545e-02 4.451889e-02 -1.836803e-01 9.507798e-03 3.236350e-01 -1.200798e-02 -8.486852e-02 1.085819e-01 -9.133884e-02 -1.212542e-01 8.380239e-02 1.369213e-02 -1.540044e-02 -5.362510e-03
<VARIANCE> 39
 9.544803e+00 1.227085e+01 1.231380e+01 1.887783e+01 3.294550e+01 3.351602e+01 2.970901e+01 3.060852e+01 4.110829e+01 4.627687e+01 3.478112e+01 3.738835e+01 1.690601e+00 5.175018e-01 1.051635e+00 1.227604e+00 1.661698e+00 2.483463e+00 2.413183e+00 2.514587e+00 2.572699e+00 2.545592e+00 2.498378e+00 2.300400e+00 1.928782e+00 8.030941e-02 9.072183e-02 2.029673e-01 2.265084e-01 2.796797e-01 4.448566e-01 4.612516e-01 4.598652e-01 3.990706e-01 4.918731e-01 5.188844e-01 4.108328e-01 3.393103e-01 7.285339e-03
<GCONST> 9.724448e+01
<STATE> 3
<MEAN> 39
 -2.408977e+00 -1.050947e+00 -1.300119e-01 -9.196149e+00 -8.387429e-01 -8.959442e+00 -4.165725e+00 -1.149245e+01 -6.406623e+00 -8.034198e+00 -3.016236e+00 -8.111458e+00 1.735835e+01 -1.119345e-01 -2.247257e-01 -1.574307e-01 2.879415e-01 5.828366e-03 4.126080e-01 2.261128e-01 -1.232740e-01 3.912120e-02 -6.370161e-03 1.006815e-01 1.381369e-01 -8.570689e-02 -2.315960e-01 -3.176921e-01 -2.719283e-01 -5.438343e-02 -1.526703e-01 3.439335e-01 2.608154e-01 1.291875e-01 2.106701e-01 -1.606994e-02 6.963274e-02 8.890486e-02 -3.974643e-02
<VARIANCE> 39
 3.327510e+00 4.637792e+00 8.354826e+00 1.225890e+01 1.741351e+01 2.052805e+01 1.970011e+01 2.581246e+01 3.461938e+01 3.646914e+01 3.474857e+01 3.421302e+01 1.080786e+00 4.025130e-01 7.691767e-01 9.127629e-01 1.141426e+00 2.016725e+00 2.026582e+00 2.065324e+00 1.916685e+00 2.388355e+00 1.827340e+00 2.056986e+00 1.687932e+00 7.196758e-02 5.977763e-02 1.369910e-01 1.704916e-01 2.358964e-01 3.351100e-01 3.411268e-01 3.834676e-01 3.844666e-01 4.164640e-01 3.794177e-01 3.927740e-01 3.092605e-01 6.813560e-03
<GCONST> 8.614793e+01
<STATE> 4
<MEAN> 39
 -5.010358e+00 -4.369483e+00 -2.676636e+00 -8.589222e+00 -5.221595e-01 -3.528616e+00 -2.605651e-01 -9.525404e+00 -3.168695e+00 -6.759571e+00 -7.584240e-01 -5.647264e+00 1.595360e+01 -6.807948e-01 -9.805897e-01 -8.045895e-01 -3.543063e-02 -1.289216e-01 5.588439e-01 5.914917e-01 3.014826e-01 4.039825e-01 2.095921e-01 2.759237e-01 2.875499e-01 -2.057208e-01 3.848067e-02 1.889469e-02 4.404491e-03 -9.466335e-03 -4.208006e-02 -2.628923e-01 -1.261092e-01 -1.494381e-02 -1.081351e-01 2.573728e-02 2.102396e-02 -8.449242e-03 2.987717e-02
<VARIANCE> 39
 5.621561e+00 7.998419e+00 8.749117e+00 1.330735e+01 2.427646e+01 1.897791e+01 2.213726e+01 2.390541e+01 3.214915e+01 2.464973e+01 2.568218e+01 2.181741e+01 2.188924e+00 4.355023e-01 8.919393e-01 9.982310e-01 1.482749e+00 1.585672e+00 2.084711e+00 2.224552e+00 2.337072e+00 2.739645e+00 2.308437e+00 2.107249e+00 1.872160e+00 1.016624e-01 6.572732e-02 1.034846e-01 1.516349e-01 2.887957e-01 3.482273e-01 3.572388e-01 3.848240e-01 3.786136e-01 4.508217e-01 3.673528e-01 3.621560e-01 3.207847e-01 7.042536e-03
<GCONST> 8.861700e+01
<TRANSP> 5
 0.000000e+00 1.000000e+00 0.000000e+00 0.000000e+00 0.000000e+00
 0.000000e+00 6.987396e-01 3.012603e-01 0.000000e+00 0.000000e+00
 0.000000e+00 0.000000e+00 7.878982e-01 2.121018e-01 0.000000e+00
 0.000000e+00 0.000000e+00 0.000000e+00 6.937643e-01 3.062357e-01
 0.000000e+00 0.000000e+00 0.000000e+00 0.000000e+00 0.000000e+00
<ENDHMM>
~h "r"
<BEGINHMM>
<NUMSTATES> 5
<STATE> 2
<MEAN> 39
 -9.741927e-01 -9.689468e+00 -3.581693e-01 -7.486763e+00 -1.483939e+01 -1.152556e+01 8.412578e-01 -7.172546e+00 3.695636e-01 -4.708434e+00 -3.373898e-01 -5.613269e+00 1.848806e+01 -2.167746e-01 -2.474237e-01 3.456255e-01 -9.561934e-01 -3.889194e-01 1.363514e+00 -1.946920e-01 -9.920374e-02 7.923164e-01 -1.493103e-01 -1.377971e-01 -3.584933e-02 1.200603e-01 -2.458710e-01 3.129100e-01 1.403691e-02 -5.225359e-01 5.037445e-01 3.825254e-01 -4.673334e-01 6.856469e-02 1.243050e-02 -1.928075e-01 1.165003e-02 -8.558556e-03 -3.438530e-02
<VARIANCE> 39
 4.544944e+00 1.784770e+01 2.283323e+01 3.044398e+01 3.698328e+01 5.350991e+01 2.495474e+01 3.321639e+01 2.637088e+01 2.570489e+01 3.365074e+01 4.297681e+01 1.310762e+00 4.079373e-01 7.861325e-01 1.625921e+00 2.275523e+00 2.787668e+00 3.641478e+00 2.562295e+00 2.703428e+00 1.829379e+00 1.837520e+00 1.776986e+00 1.514991e+00 2.471667e-02 5.845127e-02 1.201778e-01 2.030250e-01 2.561148e-01 7.156395e-01 5.648175e-01 4.769484e-01 4.375577e-01 3.497406e-01 3.312047e-01 3.432969e-01 3.596331e-01 6.543431e-03
<GCONST> 9.425603e+01
<STATE> 3
<MEAN> 39
 -3.415682e+00 -7.695162e+00 3.590319e+00 -1.536409e+01 -1.491511e+01 -3.711292e+00 -4.322697e+00 -8.680617e+00 3.084964e+00 -6.537387e+00 3.661247e-01 -5.690178e+00 1.879186e+01 -8.750468e-01 1.328990e+00 -1.077785e-01 -2.185746e+00 2.436283e+00 7.869176e-01 -2.067772e+00 1.267704e+00 -2.216896e-01 -7.244347e-01 2.103412e-01 -4.069224e-02 -6.367075e-03 -1.203634e-02 3.399078e-01 -5.428131e-01 4.138591e-01 7.611641e-01 -9.605137e-01 1.956416e-01 3.552041e-01 -6.434950e-01 1.386294e-01 2.312361e-02 4.345726e-02 -5.361031e-02
<VARIANCE> 39
 7.349826e+00 2.739406e+01 2.989369e+01 3.367727e+01 4.205526e+01 4.119391e+01 4.973797e+01 5.351480e+01 2.309678e+01 3.256291e+01 3.658585e+01 2.866189e+01 1.411709e+00 4.364529e-01 1.753773e+00 1.068355e+00 2.480690e+00 2.189544e+00 3.763683e+00 3.026387e+00 2.469292e+00 2.557422e+00 1.793750e+00 1.591803e+00 1.807400e+00 1.510039e-02 4.444320e-02 1.027262e-01 1.921701e-01 3.334108e-01 4.507241e-01 5.412493e-01 6.101931e-01 4.767416e-01 3.145120e-01 4.002316e-01 3.316043e-01 2.596050e-01 2.634491e-03
<GCONST> 9.513192e+01
<STATE> 4
<MEAN> 39
 -4.664068e+00 -6.601216e+00 4.814860e-01 -1.816880e+01 -6.175790e+00 -4.120892e+00 -4.569993e+00 -3.295890e+00 -1.819219e+00 -6.181388e+00 -5.694719e-01 -5.978041e+00 1.849135e+01 -4.231759e-01 1.099053e+00 -1.088299e+00 -9.588090e-02 2.109817e+00 -1.421811e+00 1.197780e-01 5.335191e-01 -1.104787e+00 1.583989e-01 -5.780068e-02 4.104199e-02 -6.290615e-02 1.411732e-01 -4.958676e-03 -1.782257e-01 5.439240e-01 -3.045475e-01 -3.486950e-01 4.724112e-01 -4.336822e-01 8.785611e-02 1.513314e-01 -6.804001e-02 -5.521120e-03 -2.506534e-02
<VARIANCE> 39
 1.008895e+01 5.247942e+01 2.009022e+01 3.927196e+01 3.445269e+01 3.793105e+01 6.031603e+01 3.802110e+01 3.489891e+01 3.538515e+01 3.753173e+01 3.714612e+01 1.332201e+00 2.509005e-01 1.279326e+00 6.516374e-01 9.638612e-01 1.924081e+00 3.029909e+00 2.124600e+00 2.021204e+00 1.929627e+00 2.394218e+00 1.535388e+00 1.395566e+00 1.044237e-02 4.381454e-02 1.266981e-01 1.051125e-01 2.862114e-01 2.475543e-01 3.151118e-01 4.557143e-01 3.822611e-01 3.049768e-01 3.004384e-01 2.789289e-01 2.763803e-01 1.396004e-03
<GCONST> 8.900500e+01
<TRANSP> 5
 0.000000e+00 1.000000e+00 0.000000e+00 0.000000e+00 0.000000e+00
 0.000000e+00 6.720814e-01 3.279186e-01 0.000000e+00 0.000000e+00
 0.000000e+00 0.000000e+00 4.726439e-01 5.273561e-01 0.000000e+00
 0.000000e+00 0.000000e+00 0.000000e+00 5.569357e-01 4.430643e-01
 0.000000e+00 0.000000e+00 0.000000e+00 0.000000e+00 0.000000e+00
<ENDHMM>
~h "s"
<BEGINHMM>
<NUMSTATES> 5
<STATE> 2
<MEAN> 39
 -1.039875e+01 -4.062117e+00 -7.225459e+00 -8.419112e+00 -3.252619e+00 -2.111037e+00 -1.014322e+00 -7.806481e+00 -2.354590e+00 -4.554900e+00 3.667728e-01 -4.200724e+00 1.474086e+01 -5.665783e-01 1.808191e-01 -9.692586e-01 2.309054e-01 -9.235270e-02 4.269263e-01 -2.096395e-01 1.840082e-01 -4.693775e-02 7.048653e-02 4.421086e-02 2.355688e-01 -1.347408e-01 3.005759e-01 -2.634311e-02 1.175960e-01 -1.675727e-02 1.693290e-02 -2.951261e-01 -5.982233e-02 -8.220914e-02 -8.728884e-02 -8.272064e-02 2.002456e-02 -6.514315e-02 4.852269e-02
<VARIANCE> 39
 1.083102e+01 1.383683e+01 1.720687e+01 1.698388e+01 2.175373e+01 2.031308e+01 2.242513e+01 2.015096e+01 2.139894e+01 2.012936e+01 1.897939e+01 1.550104e+01 1.139364e+00 1.153747e+00 1.383550e+00 1.561658e+00 1.618026e+00 2.074575e+00 2.774451e+00 2.325182e+00 2.121632e+00 2.540468e+00 2.245594e+00 2.157172e+00 1.729996e+00 6.408851e-02 1.357673e-01 2.184718e-01 3.266552e-01 3.083166e-01 4.572769e-01 5.238186e-01 4.915587e-01 4.938892e-01 5.326298e-01 4.349571e-01 4.311430e-01 3.479177e-01 1.220937e-02
<GCONST> 9.507767e+01
<STATE> 3
<MEAN> 39
 -9.361527e+00 -4.940576e+00 -8.097913e+00 -8.262851e+00 -2.998143e+00 -2.527967e+00 -1.800849e+00 -7.849528e+00 -3.209940e+00 -4.696364e+00 5.715597e-01 -3.692842e+00 1.461855e+01 7.907723e-03 5.247449e-03 -9.866826e-02 5.575470e-02 6.351369e-02 -6.895412e-02 -3.251284e-02 2.827323e-02 -5.263628e-02 -2.697354e-02 -2.715695e-02 2.250524e-02 -3.433561e-03 5.816364e-02 -7.059486e-03 1.170910e-01 -5.012950e-02 3.409289e-02 -6.658065e-02 5.880369e-02 -2.460901e-02 1.753519e-02 -9.663797e-03 -3.095066e-02 -2.013959e-02 2.672668e-02
<VARIANCE> 39
 3.988272e+00 6.362535e+00 9.265468e+00 1.201870e+01 1.562847e+01 1.538130e+01 1.498370e+01 1.711710e+01 1.826581e+01 1.592933e+01 1.559737e+01 1.301882e+01 1.004465e+00 2.498382e-01 4.419950e-01 6.740608e-01 1.027921e+00 1.298405e+00 1.580072e+00 1.562837e+00 1.789228e+00 1.813964e+00 1.515653e+00 1.518485e+00 1.385919e+00 6.581159e-03 5.344271e-02 9.713235e-02 1.430355e-01 2.231613e-01 2.655906e-01 3.424875e-01 3.301365e-01 3.633294e-01 3.633780e-01 3.317099e-01 2.959138e-01 2.762927e-01 3.298404e-03
<GCONST> 7.399523e+01
<STATE> 4
<MEAN> 39
 -9.422704e+00 -5.221018e+00 -8.031222e+00 -8.355880e+00 -2.535911e+00 -3.178567e+00 -1.484656e+00 -7.915983e+00 -3.146216e+00 -5.314960e+00 2.600338e-01 -3.687432e+00 1.451730e+01 4.129983e-01 1.071957e-01 5.462690e-01 -2.663386e-01 1.919943e-01 -3.794342e-01 1.200799e-01 -2.450929e-01 -3.378234e-02 9.727161e-03 -1.019200e-01 6.044208e-02 1.620929e-01 3.407076e-01 1.740940e-01 3.995416e-01 -3.918572e-01 -3.832619e-01 -3.635631e-01 7.784381e-02 -6.488402e-02 9.957628e-02 8.290119e-02 -1.267749e-01 -1.605917e-01 2.026987e-01
<VARIANCE> 39
 5.757020e+00 7.791999e+00 1.143604e+01 1.213953e+01 1.641515e+01 1.707287e+01 1.601265e+01 1.906027e+01 1.738611e+01 1.856886e+01 1.691978e+01 1.433886e+01 8.863789e-01 5.175573e-01 5.872760e-01 9.112594e-01 1.171159e+00 1.412305e+00 1.655878e+00 1.658188e+00 1.852049e+00 1.749812e+00 2.036509e+00 1.632085e+00 1.566545e+00 5.363676e-02 1.004429e-01 1.512591e-01 2.325109e-01 3.171710e-01 3.586071e-01 4.619629e-01 3.696785e-01 4.752669e-01 3.874040e-01 4.862271e-01 3.844746e-01 3.576907e-01 1.540201e-02
<GCONST> 8.489091e+01
<TRANSP> 5
 0.000000e+00 1.000000e+00 0.000000e+00 0.000000e+00 0.000000e+00
 0.000000e+00 5.486000e-01 4.514000e-01 0.000000e+00 0.000000e+00
 0.000000e+00 0.000000e+00 8.027862e-01 1.972137e-01 0.000000e+00
 0.000000e+00 0.000000e+00 0.000000e+00 3.949053e-01 6.050948e-01
 0.000000e+00 0.000000e+00 0.000000e+00 0.000000e+00 0.000000e+00
<ENDHMM>
~h "t"
<BEGINHMM>
<NUMSTATES> 5
<STATE> 2
<MEAN> 39
 -6.093242e+00 -2.259118e+00 -3.412993e+00 -1.040165e+01 -5.803940e-01 -8.443024e+00 -3.468249e+00 -1.151877e+01 -5.320642e+00 -6.816965e+00 1.200947e-01 -4.769928e+00 1.578788e+01 -1.920744e-01 -2.017371e+00 -4.406273e-01 6.800289e-01 2.654439e-01 2.092585e+00 8.251756e-01 5.167433e-01 1.865546e-01 -1.017129e-01 1.603873e-01 2.410196e-01 -5.609241e-01 -2.069783e-01 1.263865e-01 -2.586187e-01 -2.405466e-01 -1.841969e-01 -1.226426e-01 1.659722e-01 3.296527e-01 3.731705e-01 2.121100e-01 6.696416e-02 -1.031235e-02 4.315598e-02
<VARIANCE> 39
 4.143772e+00 1.752189e+01 1.232017e+01 1.554154e+01 1.610311e+01 2.846924e+01 2.444667e+01 2.134829e+01 2.636876e+01 2.310097e+01 2.182248e+01 1.870070e+01 1.835748e+00 9.558689e-01 2.138030e+00 1.546862e+00 2.152663e+00 2.089016e+00 3.159828e+00 3.460850e+00 2.798094e+00 3.868766e+00 2.765643e+00 2.906998e+00 2.547931e+00 1.107392e-01 8.718038e-02 3.029718e-01 1.889306e-01 2.980365e-01 2.475682e-01 5.333434e-01 4.795579e-01 4.311206e-01 5.145527e-01 3.960256e-01 4.670731e-01 3.607866e-01 1.337162e-02
<GCONST> 9.708289e+01
<STATE> 3
<MEAN> 39
 -8.673203e+00 -6.011109e+00 -6.551674e+00 -9.686498e+00 -1.532061e+00 -4.256761e+00 -7.399836e-01 -8.238097e+00 -2.548065e+00 -5.646484e+00 1.133448e+00 -3.695636e+00 1.455448e+01 -7.943038e-01 1.170333e-01 -6.505600e-01 5.051393e-02 -2.873713e-01 3.836964e-01 1.749685e-02 5.068821e-01 3.396946e-01 2.191074e-01 2.933497e-02 1.495541e-01 -5.927941e-02 1.038405e-01 3.296766e-01 1.856066e-01 -1.193306e-01 1.665419e-02 -2.659632e-01 -1.723538e-01 -1.154233e-01 -6.914121e-02 -1.542366e-02 -7.834579e-02 -5.902808e-02 9.828229e-02
<VARIANCE> 39
 9.170093e+00 8.312683e+00 8.984433e+00 1.112042e+01 1.362342e+01 1.548457e+01 1.761738e+01 1.767253e+01 1.841209e+01 1.664925e+01 1.598770e+01 1.426462e+01 9.000680e-01 8.151820e-01 1.756296e+00 9.785181e-01 1.486343e+00 1.381150e+00 1.972076e+00 2.133781e+00 1.936719e+00 2.293237e+00 1.906196e+00 1.974499e+00 1.673354e+00 7.582082e-02 1.941455e-01 3.334767e-01 2.263334e-01 3.486584e-01 3.641432e-01 5.588716e-01 4.950973e-01 4.399544e-01 5.050988e-01 4.073540e-01 4.386760e-01 3.741388e-01 1.623419e-02
<GCONST> 9.010094e+01
<STATE> 4
<MEAN> 39
 -1.025379e+01 -4.449061e+00 -6.708705e+00 -1.025717e+01 -1.117165e+00 -4.334764e+00 -1.452219e+00 -8.108847e+00 -2.343261e+00 -5.720287e+00 1.301514e+00 -3.672864e+00 1.507261e+01 3.531806e-01 9.112021e-02 5.707394e-01 -3.586443e-01 1.567007e-01 -6.584129e-02 -6.195109e-02 -1.382612e-01 7.187136e-03 -8.744550e-02 1.036258e-02 -1.514955e-01 9.939773e-02 2.959604e-01 1.076764e-01 3.063508e-01 -8.253717e-02 -1.492756e-01 -2.350756e-01 -1.274497e-01 -1.669773e-01 -9.240877e-02 -3.303154e-02 -7.246035e-02 -1.302564e-01 9.566041e-02
<VARIANCE> 39
 7.810995e+00 8.312040e+00 1.069741e+01 1.115882e+01 1.643057e+01 1.919580e+01 1.857103e+01 2.028626e+01 2.008302e+01 2.178270e+01 2.033221e+01 1.747174e+01 9.933674e-01 9.754970e-01 7.290123e-01 1.639594e+00 1.285293e+00 1.834937e+00 1.969313e+00 1.853956e+00 2.028019e+00 2.124921e+00 2.275024e+00 2.393744e+00 1.602189e+00 5.921100e-02 1.755148e-01 2.273245e-01 2.682579e-01 2.978157e-01 4.716291e-01 4.878357e-01 4.269689e-01 4.312854e-01 4.944404e-01 4.802302e-01 6.040206e-01 3.384545e-01 1.708698e-02
<GCONST> 9.136752e+01
<TRANSP> 5
 0.000000e+00 1.000000e+00 0.000000e+00 0.000000e+00 0.000000e+00
 0.000000e+00 5.495751e-01 4.504249e-01 0.000000e+00 0.000000e+00
 0.000000e+00 0.000000e+00 6.439947e-01 3.560052e-01 0.000000e+00
 0.000000e+00 0.000000e+00 0.000000e+00 7.378619e-01 2.621381e-01
 0.000000e+00 0.000000e+00 0.000000e+00 0.000000e+00 0.000000e+00
<ENDHMM>
~h "v"
<BEGINHMM>
<NUMSTATES> 5
<STATE> 2
<MEAN> 39
 -5.879725e+00 -8.758794e+00 -5.000934e+00 -1.593290e+01 -2.619521e+00 -1.723760e+00 3.290534e+00 -9.098941e+00 -2.997954e+00 -7.538744e+00 -3.077925e+00 -5.052227e+00 1.864051e+01 5.047199e-01 7.602861e-01 4.984881e-01 9.752914e-02 -8.795030e-01 -9.340900e-01 -1.065459e-01 7.173029e-01 1.863191e-01 5.012619e-01 -1.788845e-01 -3.191209e-01 -2.217144e-01 6.111859e-02 1.349925e-01 1.516379e-01 4.889251e-01 -1.291863e-02 -3.420162e-01 -2.601732e-01 -3.701405e-02 9.228134e-03 1.238616e-01 2.402089e-01 -5.844739e-02 -1.020629e-01
<VARIANCE> 39
 8.770947e+00 1.353591e+01 8.515699e+00 1.964565e+01 4.110501e+01 1.987377e+01 2.515532e+01 3.618881e+01 4.765190e+01 3.131379e+01 3.071943e+01 3.244428e+01 1.586526e+00 3.127437e-01 1.056852e+00 6.198137e-01 1.982459e+00 1.311996e+00 1.614838e+00 1.966321e+00 1.946798e+00 2.628993e+00 2.217996e+00 2.374852e+00 1.518914e+00 4.154783e-02 7.463824e-02 1.353450e-01 1.085671e-01 3.360815e-01 4.085124e-01 2.667651e-01 3.374455e-01 3.625282e-01 3.663023e-01 3.766558e-01 4.812113e-01 3.457842e-01 6.715739e-03
<GCONST> 8.982351e+01
<STATE> 3
<MEAN> 39
 -3.630223e+00 -5.097762e+00 -2.461064e+00 -1.197657e+01 -7.078604e+00 -8.727938e+00 5.647374e-01 -4.860054e+00 -3.590468e+00 -5.094475e+00 -8.120657e-01 -7.040280e+00 1.746050e+01 -1.040769e-02 8.793646e-01 5.754140e-01 1.838932e+00 1.107322e+00 -5.459355e-01 -1.443456e+00 -5.497885e-01 2.279527e-01 -2.218347e-01 1.107756e+00 3.767251e-01 -6.228269e-01 -3.039775e-01 -2.708067e-01 -2.915758e-01 -1.662444e-02 4.856728e-01 6.196070e-01 1.868148e-01 -4.130167e-01 -1.088404e-01 -1.870183e-01 -1.652785e-01 1.892009e-01 -1.467230e-02
<VARIANCE> 39
 5.563763e+00 1.079296e+01 1.082407e+01 2.184689e+01 2.467644e+01 2.714516e+01 2.407908e+01 3.877176e+01 2.622960e+01 2.590838e+01 2.674465e+01 2.555976e+01 1.636347e+00 7.027659e-01 9.340971e-01 1.112812e+00 1.841828e+00 2.584682e+00 2.602732e+00 2.676092e+00 2.870429e+00 3.012190e+00 2.566504e+00 2.353657e+00 2.316697e+00 7.442284e-02 6.974577e-02 1.398127e-01 1.786513e-01 3.910722e-01 3.917878e-01 3.170276e-01 4.301011e-01 5.005367e-01 4.411147e-01 4.411321e-01 4.773789e-01 3.539433e-01 2.060946e-02
<GCONST> 9.530055e+01
<STATE> 4
<MEAN> 39
 -4.969653e+00 -5.140418e+00 -3.031976e+00 -8.507004e+00 -2.386189e+00 -6.089510e+00 1.118098e-01 -7.732073e+00 -3.119690e+00 -6.342172e+00 1.474580e-02 -5.335354e+00 1.594863e+01 -2.411959e-01 -1.759487e-01 -2.896066e-01 -1.322239e-01 5.190203e-02 4.687332e-01 2.395009e-01 -3.647748e-01 1.677485e-01 -6.813457e-02 -1.076128e-01 6.191907e-02 -6.408940e-02 6.354564e-02 -7.117744e-02 -6.132982e-02 -4.006066e-01 -2.902457e-01 -2.287772e-02 1.392074e-01 9.196024e-02 2.196033e-02 7.319380e-02 -1.577683e-01 -5.784722e-02 1.329730e-01
<VARIANCE> 39
 6.632204e+00 7.013360e+00 8.217272e+00 1.044548e+01 2.323895e+01 2.477188e+01 2.369537e+01 2.582505e+01 2.400970e+01 2.530688e+01 2.540364e+01 1.956413e+01 1.672498e+00 5.419992e-01 6.695916e-01 9.571348e-01 1.470672e+00 2.535908e+00 1.852477e+00 2.378611e+00 2.545558e+00 2.187279e+00 2.548153e+00 2.325091e+00 1.746813e+00 1.730990e-01 1.007188e-01 1.893308e-01 2.064408e-01 3.770704e-01 5.644302e-01 3.981301e-01 6.508440e-01 5.423045e-01 5.102338e-01 4.967512e-01 4.942484e-01 3.815273e-01 2.846278e-02
<GCONST> 9.426885e+01
<TRANSP> 5
 0.000000e+00 1.000000e+00 0.000000e+00 0.000000e+00 0.000000e+00
 0.000000e+00 7.149243e-01 2.850758e-01 0.000000e+00 0.000000e+00
 0.000000e+00 0.000000e+00 6.093988e-01 3.906011e-01 0.000000e+00
 0.000000e+00 0.000000e+00 0.000000e+00 7.411586e-01 2.588414e-01
 0.000000e+00 0.000000e+00 0.000000e+00 0.000000e+00 0.000000e+00
<ENDHMM>
~h "w"
<BEGINHMM>
<NUMSTATES> 5
<STATE> 2
<MEAN> 39
 -3.676183e+00 -3.901809e+00 -3.855418e+00 -1.003035e+01 -1.886094e+00 -6.770902e+00 -2.432219e+00 -9.802880e+00 -3.541759e+00 -6.413986e+00 -5.179806e-02 -5.438524e+00 1.602485e+01 8.880684e-01 6.824369e-01 1.085246e-02 -5.580375e-01 -5.228861e-01 -5.758151e-01 -2.231189e-01 1.399388e-02 -1.728214e-01 -1.570136e-01 -3.285636e-01 -3.430970e-01 3.606404e-01 1.578466e-01 2.703399e-03 -3.025225e-01 -2.769314e-01 -1.057068e-01 3.384418e-02 1.108706e-01 1.149971e-01 1.323485e-01 5.204058e-02 -7.786301e-02 -1.076859e-01 8.131012e-02
<VARIANCE> 39
 8.565160e+00 6.555700e+00 8.752575e+00 1.224027e+01 1.571740e+01 1.655470e+01 1.837490e+01 1.714383e+01 1.936090e+01 2.013471e+01 2.336826e+01 2.331301e+01 1.637000e+00 6.254206e-01 6.415190e-01 8.937236e-01 1.259372e+00 1.184210e+00 1.583793e+00 1.821985e+00 1.776526e+00 2.220526e+00 2.298731e+00 2.272403e+00 2.333580e+00 9.164936e-02 9.453721e-02 1.222466e-01 1.732734e-01 2.161315e-01 2.237373e-01 3.139890e-01 3.995816e-01 3.400239e-01 4.037295e-01 4.433962e-01 4.396665e-01 4.144028e-01 1.078082e-02
<GCONST> 8.601947e+01
<STATE> 3
<MEAN> 39
 9.858601e-02 -1.718502e+00 -6.949098e+00 -1.506488e+01 -5.073554e+00 -8.037324e+00 -9.192659e-01 -7.935200e+00 -2.565643e+00 -6.464455e+00 -1.540606e+00 -6.793215e+00 1.784682e+01 5.313555e-01 -2.545592e-01 -1.468968e+00 -8.050681e-01 3.269944e-01 9.310929e-01 7.069865e-01 3.493809e-01 6.654782e-02 -1.843384e-01 -1.557818e-01 -2.340578e-01 3.085401e-01 -1.879051e-01 -3.540812e-01 -2.478833e-01 4.524816e-01 5.650151e-01 3.189848e-01 -1.679742e-01 -1.392544e-01 -5.972857e-02 -4.624108e-02 3.097272e-02 2.093924e-02 -4.542330e-02
<VARIANCE> 39
 3.675092e+00 4.293635e+00 1.080821e+01 1.484120e+01 2.038050e+01 1.784793e+01 1.763467e+01 2.031136e+01 2.211862e+01 2.396859e+01 3.073829e+01 2.961238e+01 1.115877e+00 3.463416e-01 4.982653e-01 9.073327e-01 1.157692e+00 1.896333e+00 1.682343e+00 1.666700e+00 1.605596e+00 1.754641e+00 1.757728e+00 1.931608e+00 1.747627e+00 5.008035e-02 5.869409e-02 9.033731e-02 1.347696e-01 3.042402e-01 2.520919e-01 2.846951e-01 4.528310e-01 3.503849e-01 3.586973e-01 3.328951e-01 4.247091e-01 3.693371e-01 6.343532e-03
<GCONST> 8.232616e+01
<STATE> 4
<MEAN> 39
 5.184714e-01 -5.069746e+00 -1.363019e+01 -1.295881e+01 1.398590e+00 -2.189272e+00 -2.151933e+00 -9.287992e+00 -2.872993e+00 -6.705853e+00 -1.672322e+00 -8.399199e+00 1.847996e+01 -2.432168e-01 -1.226975e+00 -1.129687e+00 2.065740e+00 1.653718e+00 -5.128902e-02 -1.543446e+00 -5.358056e-02 7.280938e-01 -1.707364e-01 -6.591130e-01 -4.842805e-01 9.419152e-02 -2.016528e-01 -8.976264e-02 4.834317e-01 5.580113e-01 -3.740728e-01 -7.633533e-01 -1.041611e-01 3.938515e-01 7.987870e-02 -2.947947e-01 -1.208294e-01 2.400514e-01 -4.718243e-02
<VARIANCE> 39
 3.903299e+00 7.248452e+00 1.599757e+01 2.315219e+01 2.151970e+01 2.073442e+01 2.490290e+01 2.011297e+01 3.519978e+01 2.368900e+01 3.056500e+01 2.842190e+01 1.433388e+00 2.032531e-01 4.748072e-01 1.016848e+00 1.357697e+00 1.466677e+00 2.349258e+00 1.428097e+00 2.241691e+00 2.150376e+00 1.787696e+00 2.050128e+00 1.743130e+00 1.840135e-02 4.781028e-02 5.991627e-02 1.476410e-01 3.202622e-01 3.546571e-01 2.463212e-01 5.490698e-01 3.380648e-01 4.650800e-01 3.611247e-01 3.774802e-01 4.210114e-01 3.033973e-03
<GCONST> 8.366444e+01
<TRANSP> 5
 0.000000e+00 1.000000e+00 0.000000e+00 0.000000e+00 0.000000e+00
 0.000000e+00 7.193527e-01 2.806473e-01 0.000000e+00 0.000000e+00
 0.000000e+00 0.000000e+00 7.327195e-01 2.672805e-01 0.000000e+00
 0.000000e+00 0.000000e+00 0.000000e+00 7.124509e-01 2.875492e-01
 0.000000e+00 0.000000e+00 0.000000e+00 0.000000e+00 0.000000e+00
<ENDHMM>
~h "z"
<BEGINHMM>
<NUMSTATES> 5
<STATE> 2
<MEAN> 39
 -6.061374e+00 -3.686387e+00 -4.353740e+00 -7.640491e+00 -8.570657e-01 -3.931916e+00 -1.107324e+00 -8.968403e+00 -3.916778e+00 -5.419663e+00 6.662093e-01 -4.634506e+00 1.527706e+01 -2.304154e-01 2.617205e-02 -2.232790e-01 1.974966e-01 1.016843e-01 3.913079e-01 2.769283e-02 1.764134e-01 4.516679e-02 1.741332e-01 3.672576e-02 9.078094e-02 -5.810700e-02 8.813491e-03 3.709809e-02 3.209422e-02 -8.559408e-02 -7.481652e-02 -9.992606e-02 -4.158939e-02 -1.784356e-02 4.189747e-02 2.008461e-02 -4.207272e-02 -1.477299e-02 3.850643e-02
<VARIANCE> 39
 6.369619e+00 8.415176e+00 1.162460e+01 1.153913e+01 1.526153e+01 1.475368e+01 1.779416e+01 1.865094e+01 2.001365e+01 1.872227e+01 2.088949e+01 1.718859e+01 9.383170e-01 5.167072e-01 7.709644e-01 1.104681e+00 9.096543e-01 1.247201e+00 1.787617e+00 1.863564e+00 1.791054e+00 1.978452e+00 1.763215e+00 2.158299e+00 1.559619e+00 5.643240e-02 8.654369e-02 1.472095e-01 1.776154e-01 1.921430e-01 2.514936e-01 3.615788e-01 4.147016e-01 3.557965e-01 3.631927e-01 3.511315e-01 4.613731e-01 3.207850e-01 1.066155e-02
<GCONST> 8.364232e+01
<STATE> 3
<MEAN> 39
 -8.367922e+00 -3.330563e+00 -6.957198e+00 -6.340687e+00 -1.668342e+00 -1.835925e+00 -1.256792e+00 -6.900009e+00 -3.067743e+00 -4.558560e+00 3.480415e-01 -4.225509e+00 1.490157e+01 1.681579e-01 7.403930e-01 4.945344e-01 -3.173010e-01 -4.292687e-01 -7.417260e-01 -5.474854e-01 -4.047235e-01 -2.262682e-03 2.079537e-01 -2.214869e-01 -6.075516e-02 2.749370e-01 2.963824e-01 3.669881e-01 5.472658e-01 -5.014218e-01 -2.993946e-01 -7.311509e-01 -2.257302e-01 -3.761831e-01 2.807903e-02 7.447286e-02 1.049094e-02 -1.123263e-01 2.005549e-01
<VARIANCE> 39
 5.872498e+00 1.148608e+01 1.497247e+01 1.257674e+01 1.817156e+01 1.596790e+01 1.942732e+01 1.771612e+01 2.511170e+01 1.746593e+01 1.850089e+01 1.443901e+01 8.954502e-01 4.418073e-01 6.737742e-01 1.145065e+00 1.108904e+00 1.211353e+00 2.063481e+00 1.723860e+00 1.940966e+00 1.754955e+00 1.751183e+00 1.761421e+00 1.822786e+00 6.061644e-02 7.421494e-02 1.676697e-01 1.909027e-01 2.461227e-01 2.663159e-01 3.630472e-01 3.545989e-01 3.841187e-01 4.118339e-01 3.455518e-01 4.307940e-01 4.729501e-01 7.180847e-03
<GCONST> 8.458491e+01
<STATE> 4
<MEAN> 39
 -6.145865e+00 -8.827563e-01 -2.965066e+00 -8.661280e+00 -3.304222e+00 -6.560558e+00 -3.986607e+00 -1.066003e+01 -4.208594e+00 -3.469589e+00 7.620344e-02 -4.169479e+00 1.634393e+01 5.835514e-01 1.342888e+00 1.629085e+00 -2.082992e+00 -1.418806e+00 -2.341761e+00 -8.087408e-01 -1.003408e+00 4.497946e-01 5.332946e-01 -1.125961e-01 -3.751942e-01 7.431422e-01 -8.487457e-02 -6.323248e-03 9.030048e-04 -4.406522e-01 -2.208114e-01 -9.299344e-02 1.549414e-01 2.449179e-01 3.448571e-01 -1.116597e-01 4.353216e-02 -1.527889e-01 6.742363e-02
<VARIANCE> 39
 5.867999e+00 7.493409e+00 1.110037e+01 1.333792e+01 2.484850e+01 1.788993e+01 1.932130e+01 1.733699e+01 3.110788e+01 3.010823e+01 2.214214e+01 2.447120e+01 1.125071e+00 6.014985e-01 1.043467e+00 1.396514e+00 1.256128e+00 1.829168e+00 2.408288e+00 2.489942e+00 2.325575e+00 2.942184e+00 2.204988e+00 2.962021e+00 3.240322e+00 3.991826e-02 8.222448e-02 1.642213e-01 2.119714e-01 2.576605e-01 2.969561e-01 4.145344e-01 4.041338e-01 3.679497e-01 3.911186e-01 3.892243e-01 3.940536e-01 3.641200e-01 8.325618e-03
<GCONST> 9.004510e+01
<TRANSP> 5
 0.000000e+00 1.000000e+00 0.000000e+00 0.000000e+00 0.000000e+00
 0.000000e+00 7.977470e-01 2.022530e-01 0.000000e+00 0.000000e+00
 0.000000e+00 0.000000e+00 5.993359e-01 4.006641e-01 0.000000e+00
 0.000000e+00 0.000000e+00 0.000000e+00 4.570425e-01 5.429575e-01
 0.000000e+00 0.000000e+00 0.000000e+00 0.000000e+00 0.000000e+00
<ENDHMM>
~h "ah"
<BEGINHMM>
<NUMSTATES> 5
<STATE> 2
<MEAN> 39
 -1.367570e+00 -9.684875e+00 -1.342991e+01 -3.371772e+00 2.391742e+00 -8.560637e+00 -5.737489e+00 -4.708579e+00 -4.379928e-01 -1.124186e+01 -4.574255e+00 -6.645800e+00 1.856252e+01 -6.478522e-01 -8.464863e-01 1.019180e+00 1.731414e+00 -1.161413e+00 -1.445300e+00 1.022156e+00 1.238389e+00 -9.998813e-01 -1.340230e+00 5.226734e-01 1.022986e+00 -1.195220e-02 -5.115730e-02 2.468195e-01 4.754221e-01 -5.493605e-01 -5.940412e-01 3.481386e-01 7.015347e-01 -4.032580e-01 -5.151057e-01 3.550980e-01 4.856330e-01 -1.245378e-01 -2.817850e-02
<VARIANCE> 39
 4.981203e+00 8.595923e+00 1.462354e+01 2.492748e+01 1.735461e+01 2.099440e+01 2.590526e+01 2.983450e+01 4.024361e+01 3.679348e+01 2.690863e+01 2.990982e+01 1.501497e+00 1.758488e-01 4.396560e-01 7.846670e-01 1.558014e+00 1.317185e+00 1.427540e+00 2.381615e+00 1.738232e+00 2.364868e+00 1.599268e+00 2.387964e+00 1.563369e+00 9.734401e-03 3.397159e-02 6.292383e-02 1.503295e-01 2.145244e-01 2.798387e-01 3.448105e-01 3.401259e-01 5.008994e-01 3.697746e-01 4.760129e-01 3.345526e-01 4.470685e-01 1.311973e-03
<GCONST> 8.202316e+01
<STATE> 3
<MEAN> 39
 -3.661121e+00 -1.135310e+01 -7.249886e+00 -1.222136e+00 -4.514625e+00 -9.289394e+00 2.162579e+00 -5.409524e+00 -7.253283e+00 -1.046476e+01 5.330290e-01 -6.561363e+00 1.837734e+01 -5.600349e-01 2.880988e-01 1.766408e+00 -9.417135e-01 -1.571428e+00 1.065781e+00 1.313427e+00 -1.765538e+00 -6.464975e-01 1.501960e+00 3.871797e-01 -9.868517e-01 -9.993838e-02 1.191862e-01 4.253027e-01 -2.833176e-02 -6.335781e-01 4.683001e-01 3.977807e-01 -6.656222e-01 -4.138757e-01 6.557969e-01 3.076319e-01 -4.946101e-01 -9.646039e-02 -3.055321e-02
<VARIANCE> 39
 5.271267e+00 1.178477e+01 1.184623e+01 2.286485e+01 1.887599e+01 1.795687e+01 2.393126e+01 3.897023e+01 2.944740e+01 4.381404e+01 2.881910e+01 4.054015e+01 1.714287e+00 2.877541e-01 5.124174e-01 7.392567e-01 1.211417e+00 1.351709e+00 1.614227e+00 1.710927e+00 1.967500e+00 2.577299e+00 1.553694e+00 2.114437e+00 1.303877e+00 8.152271e-03 3.754067e-02 8.721544e-02 9.515485e-02 2.615771e-01 2.936328e-01 3.761098e-01 3.453127e-01 4.371713e-01 3.135556e-01 5.777426e-01 2.889737e-01 4.518804e-01 1.306533e-03
<GCONST> 8.250454e+01
<STATE> 4
<MEAN> 39
 -5.407407e+00 -9.006571e+00 -2.621647e+00 -7.074499e+00 -6.150737e+00 -2.085001e+00 6.444393e-01 -1.288482e+01 -2.697185e+00 -7.775146e+00 -2.505145e+00 -7.891812e+00 1.802422e+01 -3.527284e-03 1.474308e+00 8.099115e-01 -1.708176e+00 5.327153e-01 5.851623e-01 -1.276466e+00 -5.146429e-01 9.347029e-01 -1.675996e-01 -3.514498e-01 4.428270e-01 -1.573692e-01 2.293120e-01 2.012517e-01 -2.363379e-01 2.038725e-01 4.703809e-01 -5.826139e-01 -3.431084e-01 4.789717e-01 -1.821065e-01 -2.769270e-01 1.393635e-01 1.589493e-01 -1.323994e-02
<VARIANCE> 39
 7.313096e+00 1.269933e+01 7.049376e+00 1.825797e+01 1.674844e+01 4.219695e+01 3.396251e+01 4.163405e+01 3.864936e+01 4.170423e+01 2.862190e+01 3.928260e+01 1.366132e+00 3.501978e-01 6.286725e-01 1.102400e+00 1.125404e+00 1.274680e+00 2.538867e+00 1.602608e+00 2.386380e+00 2.263402e+00 3.170318e+00 1.671022e+00 1.473569e+00 1.633781e-02 5.556121e-02 7.800467e-02 1.169383e-01 2.038448e-01 2.984871e-01 3.888130e-01 4.666299e-01 3.693531e-01 4.090399e-01 4.585131e-01 3.227526e-01 3.601419e-01 1.501266e-03
<GCONST> 8.616153e+01
<TRANSP> 5
 0.000000e+00 1.000000e+00 0.000000e+00 0.000000e+00 0.000000e+00
 0.000000e+00 7.399556e-01 2.600444e-01 0.000000e+00 0.000000e+00
 0.000000e+00 0.000000e+00 6.996184e-01 3.003816e-01 0.000000e+00
 0.000000e+00 0.000000e+00 0.000000e+00 6.868885e-01 3.131115e-01
 0.000000e+00 0.000000e+00 0.000000e+00 0.000000e+00 0.000000e+00
<ENDHMM>
~h "ao"
<BEGINHMM>
<NUMSTATES> 5
<STATE> 2
<MEAN> 39
 1.626855e+00 -3.115194e+00 -1.210656e+01 -1.761753e+01 -4.487576e+00 -5.707099e+00 -2.554781e+00 -8.957078e+00 -1.761307e+00 -3.818355e+00 1.144903e+00 -6.175956e+00 1.899841e+01 -1.988719e-02 -3.387045e-01 -6.673593e-02 2.400920e-01 2.300078e-01 8.226748e-02 -2.268009e-01 1.699979e-01 4.252626e-01 7.708333e-02 -1.772672e-01 -1.268731e-01 1.046103e-03 -9.453126e-02 -1.867531e-01 9.800213e-02 2.696497e-01 8.397422e-02 -1.261600e-01 -8.450974e-02 1.433944e-01 1.483646e-01 -8.579794e-02 -1.795232e-01 -3.140061e-02 -3.800178e-02
<VARIANCE> 39
 3.966857e+00 9.510920e+00 8.802752e+00 1.278237e+01 2.477943e+01 1.595780e+01 1.725970e+01 1.636279e+01 2.227589e+01 2.459063e+01 3.399055e+01 3.556656e+01 1.065849e+00 1.259083e-01 7.272276e-01 6.511642e-01 1.016679e+00 1.424022e+00 1.163666e+00 1.536020e+00 1.484510e+00 2.151501e+00 1.686741e+00 1.950801e+00 1.692983e+00 1.621012e-02 5.122094e-02 6.616775e-02 1.477754e-01 1.549200e-01 2.381109e-01 2.447962e-01 2.455003e-01 2.915329e-01 3.294619e-01 3.507660e-01 3.440059e-01 3.103436e-01 5.930089e-03
<GCONST> 7.754267e+01
<STATE> 3
<MEAN> 39
 7.707182e-01 -1.074553e+01 -1.129058e+01 -9.117053e+00 -2.726353e+00 -9.614814e+00 -4.848458e+00 -3.145225e+00 3.612599e+00 -6.561206e+00 -4.978472e+00 -7.493144e+00 1.885547e+01 -4.253888e-01 -9.084204e-01 1.239048e+00 1.354466e+00 -1.062212e+00 -8.608812e-01 1.008791e+00 8.371124e-01 -6.731582e-01 -1.143814e+00 -7.058125e-02 6.528440e-01 -1.183064e-01 -1.107647e-01 3.147684e-01 3.086762e-01 -2.837308e-01 -2.968684e-01 3.197141e-01 3.941585e-01 -4.550987e-01 -5.537096e-01 9.335817e-02 4.653245e-01 4.030861e-02 -5.045060e-02
<VARIANCE> 39
 5.291182e+00 1.193598e+01 1.222591e+01 1.633835e+01 3.513245e+01 2.994077e+01 2.708234e+01 3.495540e+01 3.188918e+01 3.531583e+01 3.070504e+01 3.147877e+01 1.476811e+00 1.783950e-01 8.726593e-01 9.173643e-01 1.474736e+00 2.346769e+00 2.185400e+00 2.535532e+00 3.332906e+00 3.624001e+00 2.476493e+00 3.835536e+00 1.836730e+00 2.373690e-02 3.836597e-02 1.170230e-01 1.420004e-01 2.306198e-01 4.794481e-01 4.723610e-01 4.816671e-01 6.354102e-01 5.366846e-01 6.616300e-01 5.296203e-01 5.049923e-01 3.300391e-03
<GCONST> 9.227683e+01
<STATE> 4
<MEAN> 39
 -3.033846e+00 -8.803860e+00 -3.001509e+00 -8.364376e+00 -6.429461e+00 -6.669279e+00 1.599328e-01 -8.203906e+00 -3.916078e+00 -7.950240e+00 -1.816781e+00 -7.064268e+00 1.722568e+01 -8.545556e-01 9.636328e-01 6.012443e-01 -3.238752e-01 6.187206e-01 9.767292e-01 1.237105e-01 -9.099191e-01 -3.348511e-01 4.452626e-01 3.743481e-01 8.288347e-02 -4.119359e-01 -2.381620e-02 2.446001e-02 -3.982240e-01 -9.227584e-02 3.547832e-01 -7.020101e-03 -2.522438e-01 1.485360e-01 2.543033e-01 6.979132e-02 -9.526055e-02 7.497574e-02 -2.028686e-02
<VARIANCE> 39
 9.145901e+00 2.529997e+01 1.499708e+01 2.096668e+01 4.054531e+01 3.656130e+01 2.755873e+01 3.789225e+01 3.193637e+01 3.130412e+01 3.110545e+01 2.707378e+01 2.275708e+00 5.842975e-01 1.349595e+00 2.081701e+00 1.752469e+00 3.891162e+00 2.957338e+00 2.865759e+00 3.174925e+00 3.205922e+00 2.333127e+00 2.762180e+00 2.222520e+00 7.706926e-02 9.149612e-02 3.278901e-01 2.594505e-01 3.734833e-01 7.088438e-01 5.705270e-01 5.688890e-01 5.242134e-01 5.601246e-01 5.033494e-01 5.631070e-01 3.831223e-01 1.170587e-02
<GCONST> 1.033587e+02
<TRANSP> 5
 0.000000e+00 1.000000e+00 0.000000e+00 0.000000e+00 0.000000e+00
 0.000000e+00 8.944819e-01 1.055181e-01 0.000000e+00 0.000000e+00
 0.000000e+00 0.000000e+00 7.967365e-01 2.032635e-01 0.000000e+00
 0.000000e+00 0.000000e+00 0.000000e+00 8.246808e-01 1.753192e-01
 0.000000e+00 0.000000e+00 0.000000e+00 0.000000e+00 0.000000e+00
<ENDHMM>
~h "ay"
<BEGINHMM>
<NUMSTATES> 5
<STATE> 2
<MEAN> 39
 -5.254593e+00 -1.296950e+01 -8.599487e+00 -4.244776e+00 -1.850278e+00 -7.336603e+00 1.328537e+00 -8.187296e+00 -6.505684e+00 -9.013387e+00 -2.165937e+00 -5.720652e+00 1.905494e+01 -3.037746e-01 -6.848286e-01 8.350766e-02 1.079273e+00 4.134244e-02 -1.824411e-01 2.332351e-01 -1.585124e-01 -2.545511e-01 1.427010e-01 6.371408e-01 9.230340e-02 5.049381e-02 7.264471e-02 3.394189e-01 2.218717e-01 -2.259004e-01 -7.294253e-02 -2.334078e-02 -1.553923e-01 -3.436978e-03 1.116950e-01 4.902028e-02 1.918934e-02 -9.427647e-02 -6.397980e-02
<VARIANCE> 39
 8.563727e+00 1.319069e+01 3.282214e+01 2.124149e+01 3.709698e+01 2.799449e+01 3.328990e+01 5.578126e+01 4.765648e+01 4.345812e+01 2.938885e+01 2.787762e+01 1.228873e+00 2.859115e-01 5.261859e-01 9.678821e-01 1.011996e+00 1.340237e+00 1.075420e+00 1.129939e+00 1.580771e+00 1.799888e+00 1.558206e+00 1.155380e+00 1.138722e+00 1.654402e-02 5.404440e-02 7.976972e-02 1.181327e-01 1.488923e-01 2.448382e-01 2.100232e-01 2.565430e-01 2.747350e-01 2.912196e-01 2.889598e-01 2.420630e-01 2.030620e-01 5.859785e-03
<GCONST> 8.247379e+01
<STATE> 3
<MEAN> 39
 -6.078429e+00 -1.382910e+01 -7.047943e+00 -2.662430e+00 -1.688996e+00 -7.833818e+00 2.318017e+00 -8.909210e+00 -6.787061e+00 -7.062306e+00 -6.795827e-01 -6.042472e+00 1.884715e+01 -1.087915e-01 3.659826e-02 3.758511e-01 -2.000049e-01 -2.124315e-01 2.778152e-01 6.627556e-02 -2.831537e-01 2.459055e-02 2.728993e-01 -4.877562e-03 -1.004257e-01 -3.612027e-02 2.052761e-03 9.571106e-02 4.711131e-02 -2.097050e-01 -3.308661e-02 1.294674e-01 -2.634305e-02 -3.756005e-02 6.156221e-02 1.054265e-02 -1.121035e-01 7.347916e-04 -8.533979e-03
<VARIANCE> 39
 7.986345e+00 1.227073e+01 2.608402e+01 2.675422e+01 3.017130e+01 3.067825e+01 2.137715e+01 3.703871e+01 4.332207e+01 4.566783e+01 2.683469e+01 3.099536e+01 1.184912e+00 9.348464e-02 1.453968e-01 3.748448e-01 5.114936e-01 5.177355e-01 6.246176e-01 6.130835e-01 6.413090e-01 6.815118e-01 7.496389e-01 6.709453e-01 6.590689e-01 4.685755e-03 1.494383e-02 3.012030e-02 4.981274e-02 7.312471e-02 7.783482e-02 9.586566e-02 1.010240e-01 1.003980e-01 1.186072e-01 1.147017e-01 1.085567e-01 1.082145e-01 5.086486e-04
<GCONST> 5.679972e+01
<STATE> 4
<MEAN> 39
 -7.054539e+00 -1.131322e+01 -2.882368e+00 -8.442730e+00 -3.379931e+00 -2.461259e+00 1.231553e+00 -1.250314e+01 -3.509078e+00 -5.748310e+00 -2.517698e+00 -5.589407e+00 1.849101e+01 -1.305427e-01 1.180387e+00 3.464192e-01 -1.840558e+00 1.842718e-01 8.982553e-01 -6.422814e-01 1.068346e-01 7.624534e-01 -4.868768e-01 -4.959753e-01 3.205675e-01 -9.342600e-02 9.068961e-02 2.492658e-01 -1.399296e-01 -6.485272e-02 1.278590e-01 -2.738225e-01 -9.521480e-02 3.564221e-01 -2.424883e-02 -1.878236e-01 1.009581e-01 -6.438382e-03 -1.607326e-02
<VARIANCE> 39
 8.588435e+00 1.725921e+01 1.367541e+01 2.919664e+01 3.262000e+01 2.370280e+01 3.011580e+01 2.941335e+01 6.189621e+01 3.749802e+01 2.979786e+01 3.311940e+01 1.373906e+00 1.858855e-01 4.782737e-01 6.536654e-01 9.813986e-01 1.614309e+00 1.234932e+00 1.310762e+00 1.498732e+00 1.604649e+00 1.751263e+00 1.471410e+00 1.295876e+00 6.590598e-03 2.678350e-02 5.678880e-02 6.677452e-02 1.694930e-01 1.744292e-01 2.273830e-01 2.455029e-01 1.747095e-01 3.250260e-01 2.332896e-01 2.473416e-01 2.245824e-01 8.139018e-04
<GCONST> 7.629247e+01
<TRANSP> 5
 0.000000e+00 1.000000e+00 0.000000e+00 0.000000e+00 0.000000e+00
 0.000000e+00 7.201793e-01 2.798207e-01 0.000000e+00 0.000000e+00
 0.000000e+00 0.000000e+00 8.747076e-01 1.252925e-01 0.000000e+00
 0.000000e+00 0.000000e+00 0.000000e+00 7.615914e-01 2.384086e-01
 0.000000e+00 0.000000e+00 0.000000e+00 0.000000e+00 0.000000e+00
<ENDHMM>
~h "eh"
<BEGINHMM>
<NUMSTATES> 5
<STATE> 2
<MEAN> 39
 -8.119670e+00 -4.800472e+00 -6.216590e+00 -9.278558e+00 -1.896469e+00 -3.636240e+00 -8.181846e-01 -8.559143e+00 -2.234592e+00 -4.847989e+00 3.691828e-02 -3.690940e+00 1.521750e+01 1.583490e+00 4.364692e-01 1.299333e+00 -1.864888e+00 -1.761642e+00 -1.670667e+00 1.051541e+00 -1.634916e-01 5.401242e-01 1.809585e-01 -7.894104e-01 -9.281222e-01 9.661469e-01 9.491099e-02 -9.592203e-02 -7.820144e-02 -4.976513e-01 -5.405465e-01 -1.154546e-01 4.297559e-01 1.744025e-01 1.181566e-02 -1.157061e-01 -3.690952e-01 -2.966290e-01 2.313022e-01
<VARIANCE> 39
 5.950632e+00 6.471367e+00 1.018222e+01 9.942973e+00 1.285164e+01 1.451633e+01 1.784852e+01 1.651162e+01 1.674229e+01 2.296610e+01 2.125047e+01 1.837795e+01 1.367589e+00 7.554460e-01 8.889116e-01 1.408742e+00 1.670247e+00 2.049930e+00 2.606177e+00 2.376903e+00 2.705930e+00 2.188088e+00 4.793932e+00 2.340341e+00 2.160177e+00 5.900211e-02 1.401517e-01 1.474441e-01 2.214531e-01 2.794803e-01 4.753987e-01 4.453648e-01 4.334120e-01 4.563208e-01 4.611282e-01 5.242027e-01 3.740049e-01 5.094315e-01 1.548353e-02
<GCONST> 9.114727e+01
<STATE> 3
<MEAN> 39
 -3.787084e+00 -3.629153e+00 -3.581610e+00 -1.605579e+01 -1.012658e+01 -9.659036e+00 3.309450e+00 -8.092680e+00 -1.299965e+00 -4.541154e+00 -4.279633e+00 -7.453912e+00 1.844400e+01 3.171483e-01 -5.094286e-01 -1.020638e-01 -1.882369e+00 -1.264307e+00 -6.915665e-03 1.682898e+00 2.877159e-01 9.326167e-02 -7.149621e-01 -1.385101e+00 -9.665453e-01 8.601839e-01 -5.893195e-01 -3.842369e-01 -5.023308e-01 5.394040e-01 8.567958e-01 9.093032e-01 -1.462637e-01 1.384938e-02 -3.002361e-01 -2.313267e-01 2.872992e-01 3.671363e-01 -2.226620e-01
<VARIANCE> 39
 6.433717e+00 6.362555e+00 8.138178e+00 2.094275e+01 2.203255e+01 2.559443e+01 2.727562e+01 3.049935e+01 3.289845e+01 8.372433e+01 2.571568e+01 2.640074e+01 1.096866e+00 1.201446e+00 9.795751e-01 1.225145e+00 1.672645e+00 4.170588e+00 3.948159e+00 2.181022e+00 2.462147e+00 3.320692e+00 4.205888e+00 2.627155e+00 3.500753e+00 1.327389e-01 8.404544e-02 1.144148e-01 1.653821e-01 2.753119e-01 3.883496e-01 2.947558e-01 3.140461e-01 3.311079e-01 3.437066e-01 7.856908e-01 4.733232e-01 3.952788e-01 1.110867e-02
<GCONST> 9.666872e+01
<STATE> 4
<MEAN> 39
 -6.118096e+00 -7.417687e+00 -6.243448e+00 -1.620244e+01 -7.327406e+00 -4.490641e+00 6.611252e+00 -7.113757e+00 -4.327956e+00 -7.142183e+00 -4.703796e+00 -7.684868e+00 1.922597e+01 -3.125052e-01 -7.644051e-01 -3.487144e-01 2.872101e-01 9.958271e-01 8.925812e-01 9.752784e-03 5.697602e-02 -6.668805e-01 -4.085345e-01 5.798185e-01 3.339743e-01 7.950620e-02 1.121014e-01 1.463311e-01 1.818079e-01 3.502565e-01 5.949851e-02 -3.713758e-01 -4.507088e-01 7.939539e-02 7.522656e-02 2.359294e-01 2.858119e-01 1.076386e-01 -1.392330e-01
<VARIANCE> 39
 8.607610e+00 7.768912e+00 9.351710e+00 1.898225e+01 4.029037e+01 3.709039e+01 3.458191e+01 3.666357e+01 4.927668e+01 5.981133e+01 3.451271e+01 2.996519e+01 1.188732e+00 4.355613e-01 3.806199e-01 4.032445e-01 5.291412e-01 1.272622e+00 1.697221e+00 1.288940e+00 1.244561e+00 1.386797e+00 1.694831e+00 1.882117e+00 1.432565e+00 2.090138e-02 7.982908e-02 8.725125e-02 8.963728e-02 1.978801e-01 3.468401e-01 3.020880e-01 2.734679e-01 2.757886e-01 3.994460e-01 3.840710e-01 4.722733e-01 3.131817e-01 9.892272e-03
<GCONST> 8.425461e+01
<TRANSP> 5
 0.000000e+00 1.000000e+00 0.000000e+00 0.000000e+00 0.000000e+00
 0.000000e+00 4.639488e-01 5.360512e-01 0.000000e+00 0.000000e+00
 0.000000e+00 0.000000e+00 5.875322e-01 4.124677e-01 0.000000e+00
 0.000000e+00 0.000000e+00 0.000000e+00 7.339144e-01 2.660856e-01
 0.000000e+00 0.000000e+00 0.000000e+00 0.000000e+00 0.000000e+00
<ENDHMM>
~h "ey"
<BEGINHMM>
<NUMSTATES> 5
<STATE> 2
<MEAN> 39
 -7.686197e+00 -6.387508e+00 -5.482463e+00 -1.383580e+01 -2.692671e-01 -4.131109e+00 1.683751e-01 -8.748256e+00 -2.698108e+00 -6.395271e+00 -9.615725e-01 -4.492824e+00 1.615145e+01 -3.196437e-01 7.408747e-01 1.862916e-03 -1.400951e+00 2.264112e-01 -4.313441e-02 1.869437e-01 3.130440e-01 3.195662e-01 -2.676058e-01 -3.994757e-01 1.708687e-02 3.662112e-01 1.486881e-02 2.645720e-01 -5.069346e-02 -2.020535e-01 -2.557622e-02 -1.940034e-01 -8.016934e-02 1.972162e-01 1.551313e-01 -5.751479e-02 4.118569e-03 -1.286269e-01 8.485294e-02
<VARIANCE> 39
 6.613770e+00 1.466055e+01 1.210047e+01 2.395070e+01 3.478878e+01 1.933163e+01 2.429685e+01 2.474983e+01 2.813825e+01 2.418303e+01 2.646011e+01 2.036976e+01 3.194308e+00 6.356584e-01 1.487493e+00 1.319252e+00 2.513336e+00 2.490989e+00 2.801986e+00 2.630056e+00 2.619556e+00 3.419051e+00 2.417847e+00 2.274451e+00 2.266798e+00 1.934761e-01 1.055677e-01 1.692998e-01 1.944951e-01 4.242896e-01 3.735646e-01 4.740927e-01 4.981728e-01 4.548842e-01 6.270999e-01 4.667006e-01 4.608417e-01 4.480122e-01 2.525024e-02
<GCONST> 9.971024e+01
<STATE> 3
<MEAN> 39
 -8.299185e+00 9.753371e-01 -6.250742e+00 -2.126873e+01 -8.034715e-01 -7.591219e+00 1.047596e+00 -4.808641e+00 -2.228187e-01 -7.201165e+00 -2.112355e+00 -6.854970e+00 1.838463e+01 -4.239969e-02 1.028169e+00 -2.850311e-02 -2.692217e-01 -2.476875e-01 -1.112560e+00 -2.196259e-01 2.136973e-01 4.113002e-01 4.468179e-01 2.121929e-01 -1.398213e-01 1.434382e-01 4.929793e-02 -7.083938e-02 6.458037e-02 3.791516e-01 -1.805492e-02 -1.301395e-01 -1.259673e-01 -2.502261e-01 -1.175414e-01 1.298925e-01 1.757017e-01 1.162591e-01 -7.361105e-02
<VARIANCE> 39
 8.825605e+00 1.339552e+01 2.460133e+01 1.771349e+01 3.858430e+01 2.743515e+01 3.129429e+01 1.960409e+01 3.029136e+01 2.034594e+01 2.377069e+01 2.581730e+01 1.246598e+00 3.874876e-01 7.287503e-01 6.846089e-01 1.530158e+00 1.200755e+00 1.604518e+00 1.743926e+00 1.407423e+00 1.576838e+00 1.599120e+00 1.906896e+00 1.437220e+00 8.307464e-02 6.385367e-02 1.002555e-01 1.249777e-01 2.047385e-01 2.107338e-01 2.443327e-01 1.998370e-01 2.243934e-01 3.279668e-01 2.482389e-01 2.702475e-01 2.368849e-01 7.872194e-03
<GCONST> 8.386606e+01
<STATE> 4
<MEAN> 39
 -8.247887e+00 6.722580e+00 -4.927148e+00 -1.659458e+01 -2.708992e+00 -1.543412e+01 -3.451672e+00 -8.534445e+00 -9.250548e-01 -3.700185e+00 1.943571e+00 -4.881660e+00 1.824987e+01 2.398529e-01 -2.580741e-01 2.498613e-01 1.119622e+00 2.519103e-01 -1.409204e-01 -5.388369e-01 -1.051961e+00 -8.865332e-01 -1.832024e-01 1.695461e-01 2.149933e-01 -2.107427e-01 6.497550e-02 -4.682591e-01 -1.491248e-03 6.339519e-02 8.634248e-02 5.188289e-01 1.398448e-01 5.681913e-02 -1.016584e-01 -1.974777e-01 -1.675089e-01 -3.992594e-02 -7.902304e-02
<VARIANCE> 39
 9.471856e+00 1.034649e+01 2.098578e+01 2.994464e+01 1.818444e+01 2.242840e+01 5.361974e+01 3.120597e+01 4.233225e+01 2.727550e+01 3.217487e+01 2.789976e+01 1.725800e+00 3.538563e-01 1.480428e+00 5.581362e-01 1.034034e+00 1.191120e+00 2.295074e+00 1.634057e+00 1.520261e+00 2.486615e+00 1.845712e+00 2.137038e+00 1.738362e+00 4.461104e-02 5.927560e-02 1.474764e-01 9.615143e-02 2.098570e-01 1.890125e-01 3.373697e-01 3.402517e-01 3.472920e-01 4.675443e-01 3.465208e-01 3.971833e-01 3.488653e-01 5.924773e-03
<GCONST> 8.852552e+01
<TRANSP> 5
 0.000000e+00 1.000000e+00 0.000000e+00 0.000000e+00 0.000000e+00
 0.000000e+00 7.997848e-01 2.002153e-01 0.000000e+00 0.000000e+00
 0.000000e+00 0.000000e+00 8.494310e-01 1.505690e-01 0.000000e+00
 0.000000e+00 0.000000e+00 0.000000e+00 8.510682e-01 1.489318e-01
 0.000000e+00 0.000000e+00 0.000000e+00 0.000000e+00 0.000000e+00
<ENDHMM>
~h "ia"
<BEGINHMM>
<NUMSTATES> 5
<STATE> 2
<MEAN> 39
 -5.519400e+00 2.636231e+00 -8.388393e-01 -1.572614e+01 -5.556696e+00 -1.223993e+01 -3.469139e+00 -9.806459e+00 2.422826e-01 -3.159346e+00 2.285023e-01 -6.802175e+00 1.814493e+01 -1.676376e-01 6.006367e-01 3.828121e-01 -1.543873e+00 -5.709358e-01 -8.036737e-01 -9.996258e-02 4.469649e-01 6.511307e-01 1.445735e-01 -2.927839e-02 -3.057909e-01 4.038492e-01 -8.882500e-02 -4.677085e-01 -1.590329e-01 3.421820e-01 1.870339e-01 6.939121e-01 2.360875e-02 2.997725e-01 -1.964292e-01 -1.395100e-01 5.258299e-02 1.158307e-01 -1.466383e-01
<VARIANCE> 39
 7.227873e+00 7.782098e+00 1.146031e+01 1.449320e+01 3.231781e+01 2.018761e+01 2.417339e+01 2.597470e+01 3.485178e+01 3.469330e+01 4.095297e+01 6.140451e+01 1.041271e+00 5.513569e-01 1.175474e+00 1.577739e+00 1.960175e+00 2.162026e+00 2.339182e+00 2.032398e+00 2.572230e+00 2.384634e+00 2.561324e+00 2.088084e+00 2.685196e+00 8.264112e-02 9.364999e-02 1.175217e-01 2.584576e-01 2.794078e-01 2.565996e-01 3.391712e-01 4.038865e-01 3.241622e-01 4.503040e-01 4.837360e-01 4.608182e-01 5.778156e-01 5.272293e-03
<GCONST> 9.401643e+01
<STATE> 3
<MEAN> 39
 -6.291263e+00 7.582476e-01 1.378190e+00 -1.913807e+01 -6.747480e+00 -8.257896e+00 -5.998940e+00 -6.759501e+00 -2.566511e-01 -4.096611e+00 -1.985252e-01 -6.839270e+00 1.855767e+01 5.239930e-01 -1.531341e+00 8.045511e-01 1.486095e-01 -1.339902e+00 1.593266e+00 -1.525946e-01 1.227893e-01 2.441559e-01 -3.492879e-01 1.089873e-01 -1.495931e-01 1.955313e-02 2.191189e-01 -3.451024e-01 -1.503095e-01 6.435699e-01 -3.208303e-01 -9.795055e-04 4.196571e-01 -2.651083e-01 3.632621e-02 9.570267e-03 -3.099763e-02 3.908649e-02 -4.351382e-02
<VARIANCE> 39
 6.796584e+00 1.654364e+01 1.850724e+01 2.357839e+01 5.736583e+01 4.077698e+01 3.656394e+01 5.455420e+01 2.865277e+01 2.909616e+01 2.985563e+01 4.636753e+01 9.774253e-01 3.839470e-01 1.030719e+00 7.952283e-01 2.190805e+00 2.829899e+00 2.256293e+00 2.449997e+00 2.260429e+00 2.294794e+00 1.673472e+00 1.825727e+00 1.948109e+00 1.599024e-02 4.899174e-02 1.423638e-01 2.423377e-01 3.244966e-01 3.808388e-01 6.560122e-01 5.089433e-01 4.718454e-01 4.155699e-01 3.039590e-01 3.051304e-01 3.197841e-01 3.061405e-03
<GCONST> 9.293545e+01
<STATE> 4
<MEAN> 39
 -2.133115e+00 -8.327602e+00 1.308198e+00 -1.073135e+01 -1.667442e+01 -6.792547e+00 -4.723138e-02 -8.324703e+00 8.353215e-01 -4.453778e+00 4.066095e-01 -6.004713e+00 1.858783e+01 6.186441e-01 -1.225145e+00 -8.057414e-01 1.470709e+00 -3.034089e-01 -7.334103e-01 1.233629e+00 5.036539e-01 -1.957626e-01 -2.081989e-01 -1.467467e-01 2.939797e-01 -9.490282e-03 -1.247567e-01 2.230217e-01 -1.706038e-01 -2.481110e-01 5.254669e-01 -1.418694e-01 -2.130592e-01 2.407662e-01 -7.366540e-02 -3.366920e-02 -5.957532e-02 2.510292e-02 3.100705e-03
<VARIANCE> 39
 5.869507e+00 1.743666e+01 1.350544e+01 3.884349e+01 5.005413e+01 5.870907e+01 2.901843e+01 3.216905e+01 2.032998e+01 1.885863e+01 1.809580e+01 3.205084e+01 1.398072e+00 3.139035e-01 4.940642e-01 6.446748e-01 1.658180e+00 2.479714e+00 2.509999e+00 2.007937e+00 2.535959e+00 1.595291e+00 1.334900e+00 1.306727e+00 1.276229e+00 9.635567e-03 2.823878e-02 5.826233e-02 1.529219e-01 2.297433e-01 3.007186e-01 5.423135e-01 3.341023e-01 3.007708e-01 3.037467e-01 2.364729e-01 2.107481e-01 2.193615e-01 1.541791e-03
<GCONST> 8.227200e+01
<TRANSP> 5
 0.000000e+00 1.000000e+00 0.000000e+00 0.000000e+00 0.000000e+00
 0.000000e+00 7.137095e-01 2.862905e-01 0.000000e+00 0.000000e+00
 0.000000e+00 0.000000e+00 7.588667e-01 2.411333e-01 0.000000e+00
 0.000000e+00 0.000000e+00 0.000000e+00 8.047624e-01 1.952376e-01
 0.000000e+00 0.000000e+00 0.000000e+00 0.000000e+00 0.000000e+00
<ENDHMM>
~h "ih"
<BEGINHMM>
<NUMSTATES> 5
<STATE> 2
<MEAN> 39
 -8.503734e+00 -4.309789e+00 -6.455122e+00 -8.733232e+00 -2.139238e+00 -4.175441e+00 -1.680055e+00 -8.202480e+00 -3.388324e+00 -4.094106e+00 3.244244e-01 -2.792309e+00 1.509296e+01 1.324398e+00 1.072205e+00 1.986540e+00 -1.991003e+00 -1.952867e+00 -2.051114e+00 -1.720018e-02 -2.147059e-01 6.287389e-01 5.556262e-01 -7.121823e-01 -7.587225e-01 9.646093e-01 7.527105e-02 1.596742e-01 2.662902e-01 -7.993797e-01 -6.260260e-01 -3.056541e-01 5.607044e-02 1.023553e-01 3.543789e-01 1.543245e-02 -2.913706e-01 -4.860185e-01 2.172039e-01
<VARIANCE> 39
 6.142559e+00 7.591407e+00 9.965075e+00 9.648662e+00 1.639918e+01 1.555600e+01 1.473827e+01 1.603826e+01 2.269424e+01 3.129822e+01 2.071051e+01 1.860877e+01 1.764453e+00 5.228922e-01 9.451975e-01 1.538188e+00 1.674179e+00 1.679082e+00 2.613089e+00 2.294135e+00 2.052973e+00 2.684347e+00 4.969457e+00 2.340518e+00 2.155106e+00 5.480906e-02 1.414844e-01 1.424674e-01 2.618833e-01 2.410567e-01 4.351371e-01 3.916966e-01 3.560093e-01 4.574497e-01 5.322679e-01 5.694389e-01 4.541853e-01 4.526055e-01 1.597013e-02
<GCONST> 9.159116e+01
<STATE> 3
<MEAN> 39
 -5.074920e+00 -1.115174e+00 -9.124288e-01 -1.695144e+01 -1.116621e+01 -1.100797e+01 -1.473119e+00 -9.019899e+00 -1.200395e+00 -2.183168e+00 -3.492674e+00 -7.555061e+00 1.832947e+01 7.296947e-02 5.735222e-01 9.818810e-01 -2.650367e+00 -1.404759e+00 -6.393957e-01 1.035270e-01 3.348729e-01 1.096147e+00 -7.182544e-02 -9.495836e-01 -1.266974e+00 7.332345e-01 -4.430695e-01 -2.568204e-01 -4.738182e-01 3.817874e-01 8.119623e-01 7.811036e-01 -1.299986e-01 2.608697e-01 -7.149098e-02 -2.434400e-01 3.199949e-01 2.903077e-01 -2.608594e-01
<VARIANCE> 39
 6.873943e+00 7.300038e+00 1.185256e+01 2.491538e+01 2.657858e+01 1.718326e+01 2.611389e+01 1.744903e+01 4.020953e+01 8.530498e+01 2.762649e+01 3.482368e+01 1.259522e+00 1.024240e+00 9.610697e-01 2.012974e+00 1.568654e+00 3.707697e+00 3.176795e+00 2.663502e+00 2.533237e+00 3.154718e+00 4.073005e+00 3.094686e+00 3.229429e+00 1.760437e-01 9.954400e-02 1.221628e-01 2.179366e-01 4.082924e-01 3.804391e-01 4.770474e-01 5.537651e-01 4.079067e-01 5.764279e-01 9.840334e-01 4.975517e-01 5.172188e-01 1.591665e-02
<GCONST> 1.013066e+02
<STATE> 4
<MEAN> 39
 -7.188403e+00 -1.124746e+00 -1.487622e+00 -2.147339e+01 -6.533794e+00 -8.013741e+00 -1.840163e+00 -5.070415e+00 8.777658e-01 -4.333004e+00 -2.494628e+00 -7.523592e+00 1.840363e+01 -3.405751e-02 -1.715656e-01 2.080309e-01 2.112496e-01 8.875486e-01 4.408748e-01 -7.541552e-01 2.791417e-01 -3.323928e-01 -1.793631e-01 6.064094e-01 4.385675e-01 -2.552445e-01 1.194451e-01 -2.101028e-01 -1.821205e-01 6.715020e-01 1.924301e-01 1.056015e-01 5.348716e-02 -2.779022e-01 -2.092531e-01 -4.913716e-02 1.851895e-01 1.875836e-01 -1.718917e-01
<VARIANCE> 39
 6.854346e+00 1.053386e+01 1.644005e+01 1.792224e+01 6.421660e+01 3.147964e+01 3.237997e+01 2.085778e+01 2.973328e+01 4.718862e+01 3.713636e+01 3.983245e+01 1.462620e+00 4.875445e-01 5.174413e-01 7.340589e-01 2.255562e+00 1.633957e+00 2.574190e+00 2.724967e+00 2.015525e+00 2.698142e+00 3.032252e+00 2.409847e+00 2.251085e+00 8.650567e-02 8.468187e-02 1.445878e-01 2.932388e-01 4.555010e-01 5.080739e-01 5.284507e-01 6.918162e-01 3.818219e-01 5.074303e-01 4.424873e-01 4.663350e-01 4.518264e-01 1.596715e-02
<GCONST> 9.805711e+01
<TRANSP> 5
 0.000000e+00 1.000000e+00 0.000000e+00 0.000000e+00 0.000000e+00
 0.000000e+00 4.642423e-01 5.357577e-01 0.000000e+00 0.000000e+00
 0.000000e+00 0.000000e+00 6.490371e-01 3.509629e-01 0.000000e+00
 0.000000e+00 0.000000e+00 0.000000e+00 8.239118e-01 1.760882e-01
 0.000000e+00 0.000000e+00 0.000000e+00 0.000000e+00 0.000000e+00
<ENDHMM>
~h "iy"
<BEGINHMM>
<NUMSTATES> 5
<STATE> 2
<MEAN> 39
 -7.314444e+00 5.294622e+00 -1.716769e+00 -1.709560e+01 -1.442425e+00 -1.324410e+01 -5.566678e+00 -8.280231e+00 -2.801860e+00 -4.662194e+00 3.651995e-01 -6.014441e+00 1.817510e+01 1.039637e-01 3.228545e-01 -6.820578e-01 1.078076e+00 4.338121e-01 -4.333107e-01 7.022129e-01 -6.364927e-01 -4.046445e-01 -3.758250e-02 -2.424357e-01 -2.547935e-02 -1.312056e-01 1.521043e-01 -4.010497e-01 2.277958e-01 7.597621e-02 -2.992603e-01 3.946549e-01 -7.814807e-02 3.815020e-03 1.001011e-01 -6.321981e-02 -1.028172e-02 -7.480460e-03 -1.833262e-02
<VARIANCE> 39
 7.204448e+00 1.155837e+01 1.641137e+01 2.556451e+01 2.135689e+01 2.154737e+01 5.254820e+01 4.404551e+01 3.063037e+01 4.266645e+01 3.987326e+01 3.714682e+01 1.278404e+00 2.095767e-01 9.214337e-01 8.271218e-01 1.157408e+00 1.500522e+00 1.921168e+00 1.966510e+00 2.275833e+00 1.626354e+00 1.490321e+00 1.251670e+00 1.369136e+00 1.103408e-02 4.063889e-02 1.249834e-01 9.618003e-02 2.301550e-01 3.091521e-01 2.905751e-01 3.678241e-01 3.623030e-01 2.929196e-01 2.858944e-01 2.308733e-01 2.335616e-01 1.911178e-03
<GCONST> 8.334653e+01
<STATE> 3
<MEAN> 39
 -5.194366e+00 2.142473e+00 -1.929768e+00 -1.253560e+01 -1.581541e+00 -1.142353e+01 -5.052630e+00 -1.058570e+01 -4.548065e+00 -6.435197e+00 -1.871973e+00 -7.101501e+00 1.714386e+01 2.670885e-01 -1.313912e+00 -1.519341e-01 9.638579e-01 1.166280e-01 1.189099e+00 5.547679e-01 1.608473e-01 1.858343e-01 -3.717551e-02 1.881529e-01 1.368316e-01 -3.360986e-01 -1.725905e-01 -2.570848e-01 -1.485221e-01 -5.158211e-02 -1.264337e-02 3.004896e-01 2.495521e-01 1.692202e-01 1.999899e-01 2.824463e-02 1.609488e-01 7.487437e-02 -6.832281e-02
<VARIANCE> 39
 6.699408e+00 1.082321e+01 1.598747e+01 2.239087e+01 2.473841e+01 2.745181e+01 3.787062e+01 3.192015e+01 3.353711e+01 3.749758e+01 4.232772e+01 3.690708e+01 1.465780e+00 6.033473e-01 1.054867e+00 1.180888e+00 1.863531e+00 2.017609e+00 2.445983e+00 3.142437e+00 2.908157e+00 2.953235e+00 2.651372e+00 2.775259e+00 2.327207e+00 6.592810e-02 9.170016e-02 1.930714e-01 2.128512e-01 3.049108e-01 3.736330e-01 4.301569e-01 4.636945e-01 4.619461e-01 5.341166e-01 4.220874e-01 4.950236e-01 3.821937e-01 6.600790e-03
<GCONST> 9.736971e+01
<STATE> 4
<MEAN> 39
 -6.020328e+00 -3.801615e+00 -3.661006e+00 -9.121074e+00 9.881912e-02 -5.119769e+00 -5.617797e-01 -8.275766e+00 -2.148799e+00 -5.770499e+00 7.221355e-01 -4.836926e+00 1.532610e+01 -4.594985e-01 -1.374653e+00 -8.313821e-01 2.531617e-01 -1.270436e-01 9.563954e-01 8.017492e-01 2.254258e-01 2.920243e-01 -8.089947e-02 2.348229e-01 2.807622e-01 -3.779082e-01 -3.576327e-02 2.834565e-01 -2.421566e-03 -3.248077e-01 -1.481964e-01 -4.296292e-01 -3.011298e-01 -1.346735e-01 -1.312963e-01 9.323867e-03 -6.292067e-02 5.953905e-03 9.277146e-02
<VARIANCE> 39
 5.261230e+00 9.022305e+00 8.164183e+00 1.140788e+01 1.746625e+01 2.103511e+01 2.018628e+01 2.051557e+01 1.915214e+01 2.084759e+01 1.676447e+01 1.751609e+01 1.403170e+00 5.235236e-01 8.956427e-01 1.254382e+00 1.617611e+00 1.729646e+00 2.762958e+00 2.733001e+00 2.275268e+00 2.477407e+00 2.683988e+00 2.463565e+00 2.009419e+00 6.440817e-02 8.397595e-02 1.304374e-01 1.693314e-01 2.336169e-01 3.343581e-01 4.754148e-01 3.989914e-01 3.725416e-01 4.352252e-01 4.357537e-01 3.667641e-01 3.333293e-01 7.290469e-03
<GCONST> 8.793333e+01
<TRANSP> 5
 0.000000e+00 1.000000e+00 0.000000e+00 0.000000e+00 0.000000e+00
 0.000000e+00 8.303016e-01 1.696984e-01 0.000000e+00 0.000000e+00
 0.000000e+00 0.000000e+00 7.371702e-01 2.628298e-01 0.000000e+00
 0.000000e+00 0.000000e+00 0.000000e+00 6.643089e-01 3.356911e-01
 0.000000e+00 0.000000e+00 0.000000e+00 0.000000e+00 0.000000e+00
<ENDHMM>
~h "ow"
<BEGINHMM>
<NUMSTATES> 5
<STATE> 2
<MEAN> 39
 -4.645048e+00 -1.071589e+01 -7.287668e+00 -9.054053e+00 -2.806548e+00 -6.397327e+00 3.223134e+00 -7.347847e+00 -4.903328e+00 -6.618198e+00 -1.677969e+00 -5.072624e+00 1.762222e+01 4.265786e-01 -9.750569e-02 -6.591029e-01 2.849823e-01 2.245292e-01 -7.313738e-01 2.493622e-01 5.502506e-01 -1.484083e-01 -4.713714e-01 -2.816596e-01 -1.334646e-02 2.536798e-01 6.919886e-02 1.076314e-01 1.516685e-03 -5.346039e-02 -1.609785e-02 -4.521734e-02 -1.545064e-01 3.200573e-02 1.590203e-01 -1.518955e-02 -3.805505e-02 -4.767217e-02 8.496502e-04
<VARIANCE> 39
 8.235246e+00 1.290911e+01 1.410912e+01 1.843965e+01 2.509058e+01 2.370448e+01 3.160681e+01 5.992387e+01 4.124205e+01 3.525237e+01 2.593910e+01 2.798378e+01 3.048141e+00 5.139794e-01 9.126769e-01 9.953676e-01 1.033891e+00 1.419065e+00 1.607794e+00 2.026798e+00 2.759124e+00 2.291010e+00 2.225615e+00 2.145487e+00 1.782862e+00 1.629844e-01 8.233928e-02 1.236060e-01 1.614753e-01 1.599726e-01 2.264032e-01 2.683329e-01 3.716813e-01 4.352026e-01 4.381162e-01 4.128053e-01 3.854286e-01 3.045628e-01 2.303363e-02
<GCONST> 9.330840e+01
<STATE> 3
<MEAN> 39
 -7.755793e-01 -8.525278e+00 -1.180237e+01 -9.904299e+00 -2.037149e+00 -1.164421e+01 -8.475674e-01 -8.166716e-01 -1.590304e-01 -8.807508e+00 -4.130165e+00 -6.549533e+00 1.886102e+01 2.088511e-01 5.174332e-01 -1.278894e-01 -2.559947e-01 1.799132e-01 -1.465836e-01 -7.783058e-01 -2.230549e-01 6.524104e-01 4.930020e-01 -8.661439e-02 -3.901605e-01 -3.536742e-02 -5.001985e-02 4.134033e-02 1.619869e-01 -2.004307e-02 -8.261193e-02 1.517433e-01 1.952566e-02 -2.535388e-01 -7.455680e-02 1.555569e-01 1.066689e-01 5.715102e-03 -3.087544e-02
<VARIANCE> 39
 5.691768e+00 9.035349e+00 1.869430e+01 1.377783e+01 2.470003e+01 2.321921e+01 4.336333e+01 3.231213e+01 4.795390e+01 3.566227e+01 3.101267e+01 3.653814e+01 1.503340e+00 1.383448e-01 2.924005e-01 5.277637e-01 5.359698e-01 9.467823e-01 9.464560e-01 1.248844e+00 1.692372e+00 1.539622e+00 1.626358e+00 1.394699e+00 1.209928e+00 2.004405e-02 2.378447e-02 3.394953e-02 8.807263e-02 8.216983e-02 1.331289e-01 1.784042e-01 2.016360e-01 2.377282e-01 2.607997e-01 2.492859e-01 2.299316e-01 2.040467e-01 2.230940e-03
<GCONST> 7.262369e+01
<STATE> 4
<MEAN> 39
 -1.235037e+00 -3.998888e+00 -7.404572e+00 -1.159544e+01 -2.691684e+00 -8.489584e+00 -3.617493e+00 -7.692627e+00 -3.409904e-01 -4.346663e+00 -2.800597e-01 -6.566713e+00 1.754218e+01 -5.840228e-01 2.189988e-01 7.491655e-01 2.773745e-01 1.178249e-01 6.479146e-01 3.524347e-01 -6.520693e-01 -6.273479e-01 4.441071e-03 4.316064e-01 4.014493e-01 -3.433791e-01 -1.390217e-01 -1.766208e-01 -4.526364e-02 5.176909e-02 3.810898e-02 7.939029e-02 1.590696e-01 1.359683e-01 -4.821689e-02 -1.170753e-01 -3.474723e-02 9.140061e-02 -3.545409e-02
<VARIANCE> 39
 7.892522e+00 7.922273e+00 2.185162e+01 1.990522e+01 2.330354e+01 2.837839e+01 3.054125e+01 2.708071e+01 3.411481e+01 3.743988e+01 3.278217e+01 3.185937e+01 2.539084e+00 4.866556e-01 7.770662e-01 9.624184e-01 1.224657e+00 1.762283e+00 2.086823e+00 2.328431e+00 2.541484e+00 2.561093e+00 2.496441e+00 2.173419e+00 2.033649e+00 6.184896e-02 6.627449e-02 9.059513e-02 1.980935e-01 2.180597e-01 3.105830e-01 3.830252e-01 4.031874e-01 4.167684e-01 5.114868e-01 4.350980e-01 3.911141e-01 3.744653e-01 8.008415e-03
<GCONST> 9.254543e+01
<TRANSP> 5
 0.000000e+00 1.000000e+00 0.000000e+00 0.000000e+00 0.000000e+00
 0.000000e+00 8.087919e-01 1.912081e-01 0.000000e+00 0.000000e+00
 0.000000e+00 0.000000e+00 8.564339e-01 1.435660e-01 0.000000e+00
 0.000000e+00 0.000000e+00 0.000000e+00 8.557767e-01 1.442232e-01
 0.000000e+00 0.000000e+00 0.000000e+00 0.000000e+00 0.000000e+00
<ENDHMM>
~h "sp"
<BEGINHMM>
<NUMSTATES> 3
<STATE> 2
~s "silst"
<TRANSP> 3
 0.000000e+00 1.681546e-01 8.318455e-01
 0.000000e+00 9.102026e-01 8.979744e-02
 0.000000e+00 0.000000e+00 0.000000e+00
<ENDHMM>
~h "th"
<BEGINHMM>
<NUMSTATES> 5
<STATE> 2
<MEAN> 39
 -7.768810e+00 -6.497595e+00 -5.602430e+00 -1.003567e+01 -9.643881e-01 -4.929307e+00 -4.813977e-01 -8.761857e+00 -2.632459e+00 -5.326634e+00 1.031207e+00 -3.602617e+00 1.475136e+01 -2.636220e-01 -3.335232e-02 -5.815220e-02 -9.634348e-02 6.218500e-02 -5.258354e-02 5.038446e-02 7.038151e-02 -3.712532e-02 1.587490e-02 1.855746e-03 1.325715e-01 -1.244807e-02 1.580849e-01 1.222503e-01 1.889525e-01 -1.145045e-02 -1.149322e-01 -1.132516e-01 -1.243657e-01 -2.917472e-03 -2.526788e-02 -3.892130e-02 -4.162001e-02 -9.440041e-02 8.774463e-02
<VARIANCE> 39
 3.855453e+00 5.657971e+00 8.073152e+00 8.601007e+00 1.201507e+01 1.312724e+01 1.515071e+01 1.739563e+01 1.738202e+01 1.626732e+01 1.486547e+01 1.496711e+01 9.674819e-01 4.049459e-01 8.113201e-01 1.030315e+00 1.122312e+00 1.303037e+00 1.414593e+00 1.603791e+00 2.087106e+00 2.192944e+00 1.907193e+00 1.552887e+00 1.717683e+00 4.765806e-02 9.591307e-02 1.791691e-01 2.099496e-01 2.318837e-01 3.233480e-01 3.505391e-01 3.767586e-01 4.986724e-01 4.363162e-01 4.023838e-01 3.500997e-01 3.949614e-01 9.992532e-03
<GCONST> 8.161226e+01
<STATE> 3
<MEAN> 39
 -8.305011e+00 -5.652580e+00 -3.973672e+00 -1.065150e+01 -8.173711e-01 -4.910606e+00 -8.219691e-01 -8.163193e+00 -2.782990e+00 -5.588924e+00 1.043979e+00 -3.848858e+00 1.524816e+01 1.206016e+00 2.016234e-01 1.149187e+00 8.022738e-02 -1.586866e+00 -1.204549e+00 -6.479915e-01 -1.809175e-01 1.542217e-01 -1.344303e-01 -2.388714e-01 -4.160655e-01 5.044071e-01 4.342681e-01 -1.109354e-01 2.288441e-01 1.044161e-01 -8.023751e-01 -5.008312e-01 -7.959499e-02 -8.681990e-02 1.155290e-01 5.634130e-02 -1.110342e-01 -9.194301e-02 1.419328e-01
<VARIANCE> 39
 6.916348e+00 7.385738e+00 1.108064e+01 1.468836e+01 1.817050e+01 1.647645e+01 1.909542e+01 1.918261e+01 2.144211e+01 1.938623e+01 2.096178e+01 1.388471e+01 1.265197e+00 1.039148e+00 1.224620e+00 1.277660e+00 2.503424e+00 3.226888e+00 4.002152e+00 2.356918e+00 2.997441e+00 2.714968e+00 2.682284e+00 3.323692e+00 2.554931e+00 1.076365e-01 1.528890e-01 2.208831e-01 3.108969e-01 5.261456e-01 4.632667e-01 6.809940e-01 5.117798e-01 5.703827e-01 5.774639e-01 5.942587e-01 6.701002e-01 5.111303e-01 1.312133e-02
<GCONST> 9.800133e+01
<STATE> 4
<MEAN> 39
 -2.020914e+00 -6.145705e+00 -4.145442e-01 -8.513485e+00 -1.003623e+01 -1.349989e+01 -3.287282e+00 -8.904744e+00 -2.715441e+00 -5.903992e+00 -7.304606e-01 -5.507325e+00 1.760656e+01 1.006387e+00 -5.871403e-01 1.013239e+00 4.117971e-01 -2.519017e+00 -1.126624e+00 9.562876e-02 -6.843559e-02 1.880278e-01 2.484365e-01 -3.686980e-02 -3.916689e-01 5.297604e-01 -4.189503e-01 -9.676599e-02 -6.422427e-02 -2.188823e-01 2.377928e-01 7.369122e-01 2.077194e-01 -7.466897e-02 1.358815e-01 9.461802e-02 1.881658e-01 8.045892e-02 -1.040098e-01
<VARIANCE> 39
 5.226315e+00 1.321237e+01 1.264556e+01 3.291021e+01 2.292876e+01 4.043601e+01 2.213160e+01 2.292840e+01 3.174934e+01 2.779230e+01 3.599457e+01 2.920578e+01 1.251293e+00 8.147007e-01 9.813538e-01 1.835444e+00 2.534298e+00 3.187651e+00 4.496010e+00 2.799818e+00 3.309779e+00 2.884806e+00 2.882017e+00 3.635878e+00 2.987368e+00 9.328274e-02 1.114095e-01 2.446020e-01 3.349594e-01 6.255096e-01 6.041881e-01 8.174461e-01 5.207731e-01 6.883223e-01 5.474769e-01 5.127454e-01 5.521891e-01 4.662367e-01 1.265762e-02
<GCONST> 1.034088e+02
<TRANSP> 5
 0.000000e+00 1.000000e+00 0.000000e+00 0.000000e+00 0.000000e+00
 0.000000e+00 8.392014e-01 1.607986e-01 0.000000e+00 0.000000e+00
 0.000000e+00 0.000000e+00 6.529874e-01 3.470126e-01 0.000000e+00
 0.000000e+00 0.000000e+00 0.000000e+00 7.042396e-01 2.957604e-01
 0.000000e+00 0.000000e+00 0.000000e+00 0.000000e+00 0.000000e+00
<ENDHMM>
~h "uw"
<BEGINHMM>
<NUMSTATES> 5
<STATE> 2
<MEAN> 39
 -5.414315e+00 5.307551e-02 7.345486e-01 -1.417240e+01 -4.859364e+00 -8.179191e+00 -5.514609e+00 -1.006602e+01 -2.412159e+00 -5.575123e+00 -6.104805e-01 -6.495159e+00 1.760143e+01 1.064861e+00 1.068302e+00 1.394227e+00 -1.090507e+00 -1.804021e+00 -1.692182e+00 -1.085764e+00 -5.215615e-01 -3.162462e-02 1.353895e-01 -6.018329e-01 -1.035996e+00 7.318704e-01 -3.544532e-01 -1.795692e-01 -5.027690e-01 1.726249e-01 9.759647e-02 1.326080e-01 1.892611e-01 1.763369e-01 -5.800808e-03 2.847125e-02 1.150292e-01 1.249237e-01 -1.071430e-01
<VARIANCE> 39
 9.360550e+00 1.086811e+01 1.698767e+01 2.118258e+01 3.947614e+01 3.399065e+01 2.905542e+01 2.439432e+01 2.800752e+01 4.893251e+01 3.542810e+01 4.227213e+01 2.333723e+00 1.425514e+00 1.068110e+00 1.845685e+00 2.266010e+00 2.263296e+00 2.222851e+00 3.002431e+00 3.076295e+00 3.617872e+00 4.387933e+00 5.355792e+00 3.456676e+00 1.152485e-01 1.576513e-01 2.258833e-01 2.270016e-01 3.731457e-01 6.209060e-01 5.533317e-01 5.751684e-01 5.101169e-01 5.405904e-01 7.051939e-01 7.432132e-01 5.722111e-01 3.808807e-02
<GCONST> 1.073596e+02
<STATE> 3
<MEAN> 39
 -3.694626e+00 5.569544e-01 7.833493e-01 -1.483775e+01 -7.734891e+00 -1.134072e+01 -5.899407e+00 -9.644146e+00 -2.648869e+00 -5.029747e+00 -2.878330e-01 -7.847879e+00 1.844368e+01 2.316155e-01 -2.161850e-01 -2.217035e-01 5.957641e-01 1.327595e-01 -8.083246e-02 1.171455e-01 -1.534003e-02 -2.111792e-01 -1.881433e-02 1.791356e-01 1.418332e-01 -7.584342e-02 -1.599309e-02 -6.032791e-02 -7.702790e-02 1.025369e-01 1.582981e-01 1.059596e-01 4.283658e-02 -1.271135e-03 2.015248e-02 -3.048469e-02 1.078180e-02 7.824393e-02 -5.247146e-02
<VARIANCE> 39
 6.166591e+00 7.998174e+00 1.110938e+01 2.879945e+01 3.821058e+01 2.115741e+01 3.300112e+01 3.219021e+01 4.212176e+01 4.543863e+01 5.740088e+01 4.349347e+01 1.172216e+00 1.834428e-01 2.868880e-01 5.221981e-01 9.210684e-01 1.217780e+00 1.288865e+00 1.344032e+00 1.520709e+00 1.559890e+00 1.466944e+00 1.635368e+00 1.567683e+00 1.269934e-02 3.907465e-02 6.104237e-02 9.032545e-02 1.889307e-01 2.149213e-01 2.335891e-01 2.528956e-01 2.802039e-01 3.191974e-01 3.024167e-01 3.294155e-01 3.101513e-01 5.185179e-03
<GCONST> 7.980893e+01
<STATE> 4
<MEAN> 39
 -2.877201e+00 -2.579377e+00 -2.348104e+00 -8.887256e+00 -3.497976e+00 -9.408526e+00 -4.309536e+00 -9.946997e+00 -3.386956e+00 -5.601846e+00 6.414928e-01 -5.502430e+00 1.672661e+01 -5.683208e-01 -6.383078e-01 -5.509428e-01 2.199697e-01 9.178259e-01 1.105705e+00 8.022344e-01 2.926330e-01 1.932690e-01 -1.182005e-02 -3.296318e-02 3.123601e-01 -4.035116e-01 -1.577527e-01 -7.702595e-02 -2.128578e-02 -1.535012e-01 -7.072664e-02 1.006029e-01 1.132734e-01 4.972028e-02 5.661438e-03 3.391015e-03 -3.775128e-02 -1.608618e-02 -1.739175e-02
<VARIANCE> 39
 5.940809e+00 6.906211e+00 9.296435e+00 1.151805e+01 1.931644e+01 3.142774e+01 3.123676e+01 2.969189e+01 2.829190e+01 3.295442e+01 3.348522e+01 3.033391e+01 2.177100e+00 6.055488e-01 6.036663e-01 9.857842e-01 1.246012e+00 1.595761e+00 2.214171e+00 2.698925e+00 3.044638e+00 2.762644e+00 2.924251e+00 2.918231e+00 2.361524e+00 6.063355e-02 7.845221e-02 9.056606e-02 1.674455e-01 2.077069e-01 3.204809e-01 5.018002e-01 4.600896e-01 5.426971e-01 4.635175e-01 4.981112e-01 5.074992e-01 3.815547e-01 1.031040e-02
<GCONST> 9.242665e+01
<TRANSP> 5
 0.000000e+00 1.000000e+00 0.000000e+00 0.000000e+00 0.000000e+00
 0.000000e+00 7.465838e-01 2.534162e-01 0.000000e+00 0.000000e+00
 0.000000e+00 0.000000e+00 8.952350e-01 1.047650e-01 0.000000e+00
 0.000000e+00 0.000000e+00 0.000000e+00 8.257565e-01 1.742435e-01
 0.000000e+00 0.000000e+00 0.000000e+00 0.000000e+00 0.000000e+00
<ENDHMM>
~h "sil"
<BEGINHMM>
<NUMSTATES> 5
<STATE> 2
<MEAN> 39
 -6.802666e+00 -7.273898e+00 -5.662749e+00 -1.011890e+01 -9.594232e-01 -4.134996e+00 -1.851507e-01 -8.590902e+00 -2.928561e+00 -5.649298e+00 1.018767e+00 -3.919264e+00 1.540601e+01 -3.491075e-02 -2.699716e-02 -2.716428e-02 -1.549896e-02 6.404885e-04 9.178094e-03 1.182193e-02 3.626828e-03 -5.059499e-03 3.310159e-02 1.930938e-02 3.488839e-03 -1.173540e-02 -5.822255e-03 8.393568e-03 -1.407027e-03 -2.432268e-03 -3.831225e-03 -1.636383e-02 -1.939203e-02 8.030597e-03 1.669396e-02 3.436102e-03 -5.181623e-03 -9.726727e-03 3.510509e-03
<VARIANCE> 39
 2.635035e+00 3.375897e+00 5.605752e+00 7.883644e+00 1.220385e+01 1.371797e+01 1.423740e+01 1.516627e+01 1.590794e+01 1.418825e+01 1.442898e+01 1.284131e+01 6.274706e-01 1.521163e-01 3.232453e-01 5.666924e-01 8.600647e-01 1.176293e+00 1.560153e+00 1.534126e+00 1.649507e+00 1.714824e+00 1.497181e+00 1.567875e+00 1.538544e+00 7.072856e-03 2.988449e-02 6.244577e-02 1.075178e-01 1.629520e-01 2.331896e-01 3.077501e-01 2.974094e-01 3.194026e-01 3.299942e-01 2.860360e-01 3.013866e-01 3.096551e-01 1.617874e-03
<GCONST> 6.652302e+01
<STATE> 3
~s "silst"
<STATE> 4
<MEAN> 39
 -8.394176e+00 -6.465793e+00 -5.992143e+00 -1.032148e+01 -1.271315e+00 -4.624730e+00 -8.557239e-01 -8.816829e+00 -2.114466e+00 -5.623399e+00 1.243470e+00 -4.673451e+00 1.441827e+01 -1.660621e-02 2.808840e-02 -1.112390e-02 -1.995231e-02 -4.914156e-02 -5.567074e-02 -4.090909e-02 4.212147e-02 -3.425033e-02 -9.237260e-02 -5.464204e-02 -3.028251e-02 2.290993e-03 4.938510e-02 3.885271e-02 3.461815e-02 3.083295e-02 2.433060e-02 1.690094e-02 8.760964e-03 -2.274641e-02 -5.045752e-02 -2.830261e-02 -3.256395e-02 3.175084e-02 1.554231e-02
<VARIANCE> 39
 4.721274e+00 5.711640e+00 9.045333e+00 1.048514e+01 1.225240e+01 1.382863e+01 1.564396e+01 1.855389e+01 1.881222e+01 1.664778e+01 1.686842e+01 1.430306e+01 8.366226e-01 3.183218e-01 5.534565e-01 9.685608e-01 1.239214e+00 1.206343e+00 1.632535e+00 1.454226e+00 2.209975e+00 2.016675e+00 1.849902e+00 1.825840e+00 1.568205e+00 1.199906e-02 6.678333e-02 1.227099e-01 2.040812e-01 2.559772e-01 2.358510e-01 3.342021e-01 2.786652e-01 4.554478e-01 4.018451e-01 3.664184e-01 3.597204e-01 2.888048e-01 3.425170e-03
<GCONST> 7.740100e+01
<TRANSP> 5
 0.000000e+00 1.000000e+00 0.000000e+00 0.000000e+00 0.000000e+00
 0.000000e+00 8.594676e-01 7.267645e-02 6.785598e-02 0.000000e+00
 0.000000e+00 0.000000e+00 9.389596e-01 6.104036e-02 0.000000e+00
 0.000000e+00 7.342843e-02 0.000000e+00 7.592328e-01 1.673387e-01
 0.000000e+00 0.000000e+00 0.000000e+00 0.000000e+00 0.000000e+00
<ENDHMM>
