~o
<STREAMINFO> 1 39
<VECSIZE> 39<NULLD><MFCC_E_D_A><DIAGC>
~s "silst"
<MEAN> 39
 -6.923743e+00 -7.342982e+00 -5.847713e+00 -1.011985e+01 -8.501415e-01 -4.405522e+00 -2.304178e-01 -8.529281e+00 -2.671896e+00 -5.636694e+00 9.628734e-01 -3.967177e+00 1.394083e+01 -5.590295e-03 3.564545e-03 -8.801116e-03 4.998980e-03 -5.447580e-03 2.184187e-03 -2.509723e-03 -1.964285e-02 7.019004e-03 1.432172e-02 7.911050e-03 1.993086e-03 -1.838017e-03 -4.649357e-03 1.060432e-02 1.057420e-03 4.974806e-03 -5.520761e-03 4.982918e-03 -3.167506e-03 8.797563e-03 3.365278e-03 -6.612973e-04 -4.012748e-03 -1.245730e-02 3.709303e-03
<VARIANCE> 39
 2.408408e+00 3.227724e+00 5.688209e+00 7.927082e+00 1.256275e+01 1.379781e+01 1.470130e+01 1.526713e+01 1.586720e+01 1.368779e+01 1.532406e+01 1.265817e+01 4.539963e-01 1.234356e-01 3.038711e-01 5.331154e-01 8.687236e-01 1.206165e+00 1.591104e+00 1.607163e+00 1.671330e+00 1.731237e+00 1.400325e+00 1.583193e+00 1.409756e+00 4.838449e-03 2.580435e-02 6.267153e-02 1.093216e-01 1.789886e-01 2.558693e-01 3.364436e-01 3.348086e-01 3.472115e-01 3.601045e-01 2.822796e-01 3.255773e-01 2.956119e-01 1.194255e-03
<GCONST> 6.558588e+01
~h "f"
<BEGINHMM>
<NUMSTATES> 5
<STATE> 2
<MEAN> 39
 -8.478612e+00 -6.735165e+00 -5.737394e+00 -1.000575e+01 -1.274755e+00 -4.678980e+00 -3.585089e-01 -8.655005e+00 -2.374218e+00 -5.885375e+00 1.237008e+00 -4.021540e+00 1.489112e+01 -1.178900e-01 -1.413521e-01 -1.037802e-01 -8.423045e-02 -7.126626e-02 -4.749710e-02 4.370439e-02 1.922897e-02 1.710403e-03 4.998285e-02 1.132885e-01 7.236288e-02 -2.111778e-02 2.763883e-01 7.853378e-02 -2.429899e-02 -3.118759e-03 -2.154162e-02 -1.433183e-01 -1.071154e-01 1.816125e-03 -1.698975e-02 -3.852183e-02 -1.144664e-01 -9.161373e-02 1.215288e-01
<VARIANCE> 39
 4.478433e+00 3.745739e+00 7.147246e+00 8.533318e+00 1.280038e+01 1.474025e+01 1.529322e+01 1.657921e+01 1.548737e+01 1.476979e+01 1.536780e+01 1.253069e+01 9.749635e-01 4.529534e-01 4.571762e-01 8.342603e-01 1.012292e+00 1.336801e+00 1.753293e+00 1.538324e+00 1.977961e+00 1.756807e+00 1.649823e+00 1.774555e+00 1.428283e+00 3.791931e-02 1.301047e-01 1.391829e-01 2.329908e-01 2.422609e-01 3.040991e-01 4.120587e-01 3.336099e-01 4.666987e-01 4.210545e-01 3.771464e-01 4.019178e-01 3.046421e-01 1.391660e-02
<GCONST> 7.995630e+01
<STATE> 3
<MEAN> 39
 -7.046574e+00 -6.612190e+00 -5.511477e+00 -9.912396e+00 -1.351966e+00 -4.927257e+00 -7.827550e-01 -8.337325e+00 -2.246373e+00 -5.694723e+00 8.834318e-01 -4.120609e+00 1.543256e+01 1.983631e+00 2.262398e-02 -1.145566e+00 -5.194573e-01 -7.835165e-02 -9.768794e-01 -5.194793e-01 4.025332e-01 -5.240484e-02 -2.278694e-01 -8.144161e-01 -5.900491e-01 9.217201e-01 4.168564e-01 -1.575328e-01 -5.539171e-01 -1.820322e-01 3.843942e-02 -2.030342e-01 -5.284606e-02 1.530737e-01 -1.380302e-01 -3.100361e-02 -1.901462e-01 -2.056865e-01 2.216161e-01
<VARIANCE> 39
 5.863779e+00 5.007331e+00 5.659968e+00 8.882225e+00 9.957900e+00 1.296164e+01 1.474761e+01 1.706341e+01 1.690527e+01 1.441764e+01 1.499698e+01 1.255328e+01 1.782897e+00 8.032354e-01 1.787467e+00 1.384749e+00 2.156348e+00 1.613872e+00 1.975420e+00 2.249769e+00 3.951098e+00 2.834455e+00 2.460752e+00 2.422790e+00 2.102312e+00 7.904933e-02 1.548075e-01 2.472239e-01 1.804326e-01 4.031324e-01 3.157971e-01 3.806249e-01 3.945781e-01 5.245768e-01 4.677303e-01 4.818031e-01 4.504017e-01 4.681153e-01 1.777535e-02
<GCONST> 8.985304e+01
<STATE> 4
<MEAN> 39
 -1.008014e-01 -7.926808e+00 -1.192110e+01 -1.216018e+01 -1.201332e+00 -8.815136e+00 -2.643083e+00 -6.033204e+00 -3.033208e+00 -6.753621e+00 -2.740377e+00 -7.239597e+00 1.867806e+01 1.043561e+00 -5.423006e-01 -1.473670e+00 -2.954714e-01 1.924385e-01 -4.205452e-01 1.187622e-01 3.243859e-01 -5.236274e-01 3.898968e-02 -3.475386e-01 -3.831335e-01 7.202365e-01 -6.492603e-01 -9.726072e-03 4.589752e-01 2.514738e-01 1.289778e-02 3.701099e-01 2.713079e-01 -2.402293e-01 -4.559458e-02 1.527288e-01 4.059569e-01 3.241192e-01 -2.465810e-01
<VARIANCE> 39
 7.501581e+00 2.646297e+01 1.517462e+01 2.277925e+01 2.137204e+01 1.732953e+01 2.844246e+01 4.852373e+01 3.259155e+01 3.177894e+01 3.565162e+01 3.255227e+01 1.206302e+00 1.507204e+00 2.262630e+00 1.594541e+00 2.975985e+00 2.146803e+00 2.239404e+00 2.416569e+00 3.066756e+00 3.272119e+00 3.675163e+00 3.356508e+00 3.300335e+00 1.598224e-01 6.822032e-02 1.803312e-01 2.310691e-01 2.026022e-01 2.717994e-01 3.151901e-01 3.791726e-01 6.589990e-01 6.127996e-01 5.099354e-01 4.430879e-01 4.216667e-01 9.639268e-03
<GCONST> 1.007742e+02
<TRANSP> 5
 0.000000e+00 1.000000e+00 0.000000e+00 0.000000e+00 0.000000e+00
 0.000000e+00 8.205424e-01 1.794576e-01 0.000000e+00 0.000000e+00
 0.000000e+00 0.000000e+00 5.691931e-01 4.308069e-01 0.000000e+00
 0.000000e+00 0.000000e+00 0.000000e+00 6.375746e-01 3.624254e-01
 0.000000e+00 0.000000e+00 0.000000e+00 0.000000e+00 0.000000e+00
<ENDHMM>
~h "k"
<BEGINHMM>
<NUMSTATES> 5
<STATE> 2
<MEAN> 39
 -5.855230e+00 -2.810510e+00 3.570477e-01 -1.581239e+01 -3.821725e+00 -5.230460e+00 -6.360901e+00 -7.073060e+00 -1.214830e+00 -5.504179e+00 1.150273e+00 -4.937231e+00 1.652746e+01 1.594772e-01 -1.440300e+00 -1.614178e+00 3.105079e+00 1.757461e+00 1.147419e+00 1.270673e+00 -1.025544e+00 -5.608268e-01 -5.807596e-01 7.848839e-01 6.891522e-01 -9.155905e-01 -2.362266e-01 -2.097048e-01 -5.212514e-01 3.916311e-02 -1.697254e-01 -1.471462e-01 7.859625e-01 -2.127953e-02 3.877000e-02 2.223116e-01 -3.493255e-01 -1.563698e-01 -8.342871e-03
<VARIANCE> 39
 4.251750e+00 1.128074e+01 1.692980e+01 3.047405e+01 4.558781e+01 3.661682e+01 4.265059e+01 3.141409e+01 3.119749e+01 2.799055e+01 2.361972e+01 1.778223e+01 1.822322e+00 6.764282e-01 1.193277e+00 1.788650e+00 2.028180e+00 5.641766e+00 4.137657e+00 4.562491e+00 2.883834e+00 2.966323e+00 3.060483e+00 3.349692e+00 3.206957e+00 6.129837e-02 6.619143e-02 1.774318e-01 2.897353e-01 6.492968e-01 6.010349e-01 6.445133e-01 8.745724e-01 6.227384e-01 7.581046e-01 6.363176e-01 5.731444e-01 5.385212e-01 2.163078e-02
<GCONST> 1.050072e+02
<STATE> 3
<MEAN> 39
 -6.911049e+00 -6.882684e+00 -5.838807e+00 -1.017133e+01 -3.195639e-01 -3.778530e+00 -3.983482e-01 -9.198753e+00 -2.558854e+00 -5.596121e+00 1.185054e+00 -3.845197e+00 1.440686e+01 -3.857920e-01 -8.592630e-01 -1.014810e+00 8.947966e-01 1.853343e-01 2.113581e-01 9.556727e-01 -2.643829e-01 -1.764650e-01 1.471814e-01 2.078739e-02 1.805508e-01 -3.768771e-01 -7.169805e-02 3.446040e-01 5.696270e-01 -7.428179e-01 -5.650476e-01 -2.926714e-01 -4.710791e-01 3.000104e-01 1.514833e-01 7.700364e-02 -1.614418e-01 -1.747001e-01 2.398507e-01
<VARIANCE> 39
 3.463367e+00 3.673598e+00 5.523205e+00 7.718888e+00 1.141600e+01 1.321933e+01 1.368581e+01 1.529299e+01 1.317601e+01 1.616839e+01 1.703022e+01 1.288978e+01 1.067657e+00 3.266340e-01 6.643867e-01 1.566534e+00 2.227287e+00 2.544605e+00 2.396675e+00 2.973672e+00 2.315006e+00 2.330884e+00 2.359077e+00 2.155523e+00 1.982817e+00 9.026430e-02 9.038806e-02 1.343870e-01 2.230266e-01 3.409462e-01 5.920215e-01 4.737401e-01 5.284491e-01 4.550741e-01 3.880676e-01 4.496684e-01 5.133081e-01 4.262074e-01 8.399314e-03
<GCONST> 8.563451e+01
<STATE> 4
<MEAN> 39
 -7.514049e+00 -8.198924e+00 -4.763836e+00 -9.753008e+00 -2.811459e+00 -4.769969e+00 1.676131e-01 -8.742346e+00 -2.568444e+00 -5.436966e+00 5.449339e-01 -4.302573e+00 1.452646e+01 -4.090527e-01 -7.543050e-02 2.681840e-01 2.254843e-01 -7.375644e-01 3.078366e-01 -5.770148e-03 4.391812e-02 8.108051e-02 1.713654e-01 -1.860316e-01 -2.746360e-02 6.060848e-02 -6.347740e-02 2.562869e-01 -5.248358e-02 -4.361310e-02 4.371635e-02 1.876527e-01 -1.714928e-01 1.079697e-02 4.255655e-02 4.044605e-02 -4.353582e-03 1.272038e-02 2.602761e-02
<VARIANCE> 39
 3.679945e+00 7.572711e+00 8.358729e+00 1.064282e+01 1.533882e+01 1.532508e+01 1.638172e+01 1.670091e+01 1.727579e+01 1.454623e+01 1.403886e+01 1.406884e+01 1.142464e+00 3.870730e-01 9.157892e-01 9.247167e-01 1.249084e+00 1.508947e+00 2.010841e+00 1.749113e+00 1.988351e+00 2.030917e+00 1.644052e+00 1.846430e+00 1.447160e+00 1.765200e-02 6.176886e-02 2.038134e-01 2.424961e-01 2.692747e-01 3.530958e-01 3.933638e-01 3.973024e-01 4.040996e-01 4.227029e-01 3.524747e-01 3.723591e-01 3.113586e-01 8.292291e-03
<GCONST> 8.136708e+01
<TRANSP> 5
 0.000000e+00 1.000000e+00 0.000000e+00 0.000000e+00 0.000000e+00
 0.000000e+00 5.584009e-01 4.415990e-01 0.000000e+00 0.000000e+00
 0.000000e+00 0.000000e+00 6.031151e-01 3.968849e-01 0.000000e+00
 0.000000e+00 0.000000e+00 0.000000e+00 7.437928e-01 2.562073e-01
 0.000000e+00 0.000000e+00 0.000000e+00 0.000000e+00 0.000000e+00
<ENDHMM>
~h "n"
<BEGINHMM>
<NUMSTATES> 5
<STATE> 2
<MEAN> 39
 -5.018340e+00 -2.972098e+00 -2.014117e+00 -1.208132e+01 -2.525594e+00 -5.419398e+00 -2.609999e+00 -9.661023e+00 -2.765280e+00 -8.238214e+00 -2.214497e+00 -6.823708e+00 1.747642e+01 6.084367e-01 1.058143e+00 4.572465e-01 6.264977e-02 7.467555e-01 -1.001350e+00 -6.831978e-01 6.364943e-03 -6.403281e-01 1.884007e-01 5.471691e-03 -2.406237e-01 -3.511554e-02 5.536883e-02 -1.759821e-01 1.401857e-02 3.361838e-01 -1.559571e-03 -1.136172e-01 9.979599e-02 -8.781067e-02 -1.350472e-01 8.593818e-02 1.396814e-02 -2.407379e-02 -4.839845e-03
<VARIANCE> 39
 9.538073e+00 1.239295e+01 1.222742e+01 1.902503e+01 3.289448e+01 3.395144e+01 3.038058e+01 3.018255e+01 4.138127e+01 4.642799e+01 3.448115e+01 3.730958e+01 1.746477e+00 5.216507e-01 1.070136e+00 1.250967e+00 1.688151e+00 2.461680e+00 2.432260e+00 2.511183e+00 2.599989e+00 2.544009e+00 2.519376e+00 2.294960e+00 1.928221e+00 8.056551e-02 8.957363e-02 2.000270e-01 2.236622e-01 2.801882e-01 4.382358e-01 4.585788e-01 4.564143e-01 3.945519e-01 4.895257e-01 5.234092e-01 4.102522e-01 3.411497e-01 7.264924e-03
<GCONST> 9.730954e+01
<STATE> 3
<MEAN> 39
 -2.387042e+00 -1.054141e+00 -1.248957e-01 -9.151659e+00 -6.834798e-01 -8.926735e+00 -4.096832e+00 -1.136508e+01 -6.263987e+00 -7.932328e+00 -2.902516e+00 -8.011271e+00 1.732127e+01 -8.427846e-02 -1.738167e-01 -1.181148e-01 2.912452e-01 4.520438e-02 3.487643e-01 1.819220e-01 -1.310162e-01 -2.107739e-03 -1.422260e-02 7.976867e-02 1.146670e-01 -8.411200e-02 -2.286160e-01 -3.110240e-01 -2.680448e-01 -6.106574e-02 -1.639929e-01 3.473613e-01 2.599649e-01 1.239711e-01 2.051102e-01 -1.971404e-02 6.391864e-02 8.357167e-02 -3.764991e-02
<VARIANCE> 39
 3.234054e+00 4.592051e+00 8.292089e+00 1.215227e+01 1.675638e+01 2.058122e+01 1.958508e+01 2.583297e+01 3.449096e+01 3.605245e+01 3.477482e+01 3.426081e+01 1.110998e+00 3.767927e-01 7.228644e-01 8.728769e-01 1.133882e+00 1.945468e+00 1.998977e+00 1.977013e+00 1.842837e+00 2.341342e+00 1.786104e+00 2.019317e+00 1.686979e+00 6.606416e-02 5.893950e-02 1.377435e-01 1.699957e-01 2.279032e-01 3.247888e-01 3.381907e-01 3.815729e-01 3.804895e-01 4.138471e-01 3.746105e-01 3.876964e-01 3.083795e-01 6.768811e-03
<GCONST> 8.546455e+01
<STATE> 4
<MEAN> 39
 -5.131245e+00 -4.418020e+00 -2.741484e+00 -8.737875e+00 -6.908730e-01 -3.567312e+00 -4.048573e-01 -9.692750e+00 -3.301162e+00 -6.869989e+00 -8.889248e-01 -5.744001e+00 1.598973e+01 -7.295433e-01 -1.049486e+00 -8.768323e-01 -6.632426e-02 -1.871530e-01 6.235992e-01 6.592733e-01 3.303600e-01 4.666892e-01 2.412981e-01 3.057818e-01 3.219968e-01 -2.125919e-01 4.264538e-02 1.214048e-02 3.295417e-03 7.683747e-03 -3.249069e-02 -2.777348e-01 -1.293038e-01 -1.290142e-02 -1.119442e-01 2.733127e-02 2.674877e-02 -4.473571e-03 3.163499e-02
<VARIANCE> 39
 5.383300e+00 7.827722e+00 8.767124e+00 1.354745e+01 2.541753e+01 1.910985e+01 2.242486e+01 2.453340e+01 3.319818e+01 2.552948e+01 2.636063e+01 2.243886e+01 2.279646e+00 4.432560e-01 8.915426e-01 9.995258e-01 1.495463e+00 1.697037e+00 2.200947e+00 2.340064e+00 2.492066e+00 2.831147e+00 2.412891e+00 2.191455e+00 1.883720e+00 1.118607e-01 6.888337e-02 1.114055e-01 1.572213e-01 3.032413e-01 3.631925e-01 3.554767e-01 3.838422e-01 3.898848e-01 4.641530e-01 3.772364e-01 3.747705e-01 3.244110e-01 7.432085e-03
<GCONST> 8.973235e+01
<TRANSP> 5
 0.000000e+00 1.000000e+00 0.000000e+00 0.000000e+00 0.000000e+00
 0.000000e+00 6.957262e-01 3.042738e-01 0.000000e+00 0.000000e+00
 0.000000e+00 0.000000e+00 7.941371e-01 2.058630e-01 0.000000e+00
 0.000000e+00 0.000000e+00 0.000000e+00 6.820703e-01 3.179297e-01
 0.000000e+00 0.000000e+00 0.000000e+00 0.000000e+00 0.000000e+00
<ENDHMM>
~h "r"
<BEGINHMM>
<NUMSTATES> 5
<STATE> 2
<MEAN> 39
 -8.724981e-01 -9.756756e+00 -5.728688e-01 -7.213584e+00 -1.483130e+01 -1.182487e+01 8.627496e-01 -6.943754e+00 4.073983e-01 -4.691557e+00 -3.232320e-01 -5.435496e+00 1.849525e+01 -1.864663e-01 -2.781135e-01 2.766430e-01 -8.896122e-01 -3.640780e-01 1.280403e+00 -1.591773e-01 -5.509463e-02 7.828535e-01 -1.424098e-01 -1.571496e-01 -3.692637e-02 1.181346e-01 -2.446452e-01 3.002086e-01 3.355417e-02 -5.243586e-01 4.622976e-01 4.238083e-01 -4.535659e-01 3.511613e-02 3.298472e-02 -1.866489e-01 1.518643e-02 -2.068280e-02 -3.184485e-02
<VARIANCE> 39
 4.467388e+00 1.796328e+01 2.202004e+01 3.047862e+01 3.621115e+01 5.337516e+01 2.524657e+01 3.275425e+01 2.626149e+01 2.470695e+01 3.185106e+01 4.248413e+01 1.302303e+00 3.894715e-01 7.354404e-01 1.668980e+00 2.106552e+00 2.858407e+00 3.565872e+00 2.403575e+00 2.740323e+00 1.811225e+00 1.825687e+00 1.756839e+00 1.483127e+00 2.439245e-02 5.772143e-02 1.169763e-01 1.934376e-01 2.554729e-01 6.921341e-01 5.596726e-01 4.663798e-01 4.252372e-01 3.495819e-01 3.245366e-01 3.335094e-01 3.549217e-01 6.375253e-03
<GCONST> 9.352190e+01
<STATE> 3
<MEAN> 39
 -3.373754e+00 -7.787276e+00 3.598165e+00 -1.521395e+01 -1.510661e+01 -3.763509e+00 -4.143836e+00 -8.849176e+00 3.058641e+00 -6.458223e+00 2.970979e-01 -5.721793e+00 1.878591e+01 -8.812412e-01 1.313837e+00 -5.566209e-02 -2.232872e+00 2.370626e+00 8.929902e-01 -2.097256e+00 1.220567e+00 -1.585905e-01 -7.432721e-01 2.046731e-01 -3.594903e-02 -2.941449e-03 -2.024715e-02 3.531091e-01 -5.389333e-01 3.849432e-01 7.948335e-01 -9.493462e-01 1.551007e-01 3.845392e-01 -6.430833e-01 1.202133e-01 3.209551e-02 4.176993e-02 -5.459392e-02
<VARIANCE> 39
 7.238141e+00 2.662707e+01 2.963272e+01 3.338957e+01 4.208292e+01 4.140309e+01 4.868749e+01 5.316021e+01 2.337884e+01 3.254700e+01 3.689184e+01 2.844744e+01 1.404264e+00 4.390327e-01 1.742401e+00 1.123510e+00 2.517111e+00 2.207602e+00 3.783344e+00 3.017549e+00 2.545616e+00 2.550127e+00 1.755513e+00 1.614034e+00 1.824007e+00 1.533392e-02 4.596002e-02 1.048976e-01 1.938277e-01 3.393708e-01 4.652438e-01 5.419315e-01 6.082509e-01 4.737100e-01 3.166756e-01 4.031222e-01 3.288818e-01 2.576142e-01 2.715257e-03
<GCONST> 9.530744e+01
<STATE> 4
<MEAN> 39
 -4.711044e+00 -6.391986e+00 5.700374e-01 -1.820566e+01 -6.246093e+00 -4.204723e+00 -4.819542e+00 -3.366263e+00 -1.764479e+00 -6.267124e+00 -4.209239e-01 -5.952774e+00 1.850801e+01 -4.298904e-01 1.116900e+00 -1.104531e+00 -1.004150e-01 2.143392e+00 -1.427911e+00 1.059629e-01 5.586559e-01 -1.132362e+00 1.622384e-01 -5.076215e-02 3.517627e-02 -6.363451e-02 1.445441e-01 -1.517127e-02 -1.827626e-01 5.565755e-01 -3.096471e-01 -3.501182e-01 4.902786e-01 -4.398143e-01 8.271157e-02 1.624623e-01 -7.474233e-02 -5.797671e-03 -2.566571e-02
<VARIANCE> 39
 1.019090e+01 5.415473e+01 2.065600e+01 3.907388e+01 3.400997e+01 3.784236e+01 6.087123e+01 3.910832e+01 3.478727e+01 3.567147e+01 3.738199e+01 3.713592e+01 1.330160e+00 2.535527e-01 1.292033e+00 6.552648e-01 9.978989e-01 1.929108e+00 3.046124e+00 2.144919e+00 2.020742e+00 1.890190e+00 2.377587e+00 1.541510e+00 1.417692e+00 1.067131e-02 4.503231e-02 1.310447e-01 1.100596e-01 2.873509e-01 2.530245e-01 3.266318e-01 4.606223e-01 3.831547e-01 3.052692e-01 3.022465e-01 2.837313e-01 2.799705e-01 1.444980e-03
<GCONST> 8.943533e+01
<TRANSP> 5
 0.000000e+00 1.000000e+00 0.000000e+00 0.000000e+00 0.000000e+00
 0.000000e+00 6.826698e-01 3.173302e-01 0.000000e+00 0.000000e+00
 0.000000e+00 0.000000e+00 4.771508e-01 5.228492e-01 0.000000e+00
 0.000000e+00 0.000000e+00 0.000000e+00 5.692917e-01 4.307084e-01
 0.000000e+00 0.000000e+00 0.000000e+00 0.000000e+00 0.000000e+00
<ENDHMM>
~h "s"
<BEGINHMM>
<NUMSTATES> 5
<STATE> 2
<MEAN> 39
 -1.049526e+01 -4.061487e+00 -7.289547e+00 -8.392113e+00 -3.364133e+00 -2.065562e+00 -1.038121e+00 -7.873166e+00 -2.381389e+00 -4.568195e+00 3.359709e-01 -4.158972e+00 1.473198e+01 -5.356877e-01 2.086016e-01 -9.409298e-01 2.351737e-01 -9.964094e-02 3.975899e-01 -2.471926e-01 1.630023e-01 -5.841781e-02 6.291995e-02 2.722692e-02 2.264128e-01 -1.242257e-01 3.032311e-01 -2.876947e-02 1.231374e-01 -1.818322e-02 3.431655e-02 -2.891281e-01 -5.483752e-02 -7.330722e-02 -8.033718e-02 -7.713074e-02 2.499460e-02 -6.624780e-02 4.506071e-02
<VARIANCE> 39
 1.055272e+01 1.403398e+01 1.743022e+01 1.716263e+01 2.192935e+01 2.010329e+01 2.280682e+01 2.024610e+01 2.150118e+01 2.022251e+01 1.891469e+01 1.554182e+01 1.123265e+00 1.129753e+00 1.366857e+00 1.563303e+00 1.588164e+00 2.036704e+00 2.698478e+00 2.268141e+00 2.074429e+00 2.426877e+00 2.194704e+00 2.137339e+00 1.728826e+00 5.926145e-02 1.338156e-01 2.161843e-01 3.239067e-01 3.066247e-01 4.615063e-01 5.179550e-01 4.950875e-01 4.924782e-01 5.289597e-01 4.324022e-01 4.329967e-01 3.463932e-01 1.206806e-02
<GCONST> 9.474036e+01
<STATE> 3
<MEAN> 39
 -9.363094e+00 -4.948910e+00 -8.059206e+00 -8.275982e+00 -2.981318e+00 -2.540145e+00 -1.794455e+00 -7.850119e+00 -3.191885e+00 -4.695957e+00 5.764595e-01 -3.716260e+00 1.462710e+01 9.254936e-03 3.615749e-03 -9.371397e-02 5.352583e-02 7.125852e-02 -6.607825e-02 -2.866180e-02 3.226319e-02 -4.900563e-02 -2.135529e-02 -2.099668e-02 1.849514e-02 -3.694289e-03 5.550834e-02 -8.314326e-03 1.117126e-01 -5.052708e-02 3.135383e-02 -6.594473e-02 5.936554e-02 -2.480481e-02 1.672610e-02 -1.021150e-02 -2.868640e-02 -1.634786e-02 2.608607e-02
<VARIANCE> 39
 3.925128e+00 6.309928e+00 9.241296e+00 1.198812e+01 1.557670e+01 1.536204e+01 1.486590e+01 1.710745e+01 1.822847e+01 1.590176e+01 1.550823e+01 1.301093e+01 1.024163e+00 2.508340e-01 4.419908e-01 6.791305e-01 1.031343e+00 1.306877e+00 1.572769e+00 1.563139e+00 1.791908e+00 1.812399e+00 1.524252e+00 1.518960e+00 1.386511e+00 6.538899e-03 5.282332e-02 9.631434e-02 1.430759e-01 2.224170e-01 2.650034e-01 3.394801e-01 3.275918e-01 3.634014e-01 3.637456e-01 3.314889e-01 2.953669e-01 2.779901e-01 3.190239e-03
<GCONST> 7.390902e+01
<STATE> 4
<MEAN> 39
 -9.380211e+00 -5.255662e+00 -8.003816e+00 -8.404444e+00 -2.496881e+00 -3.207770e+00 -1.475492e+00 -7.949859e+00 -3.153868e+00 -5.319516e+00 2.820407e-01 -3.678592e+00 1.451986e+01 4.069636e-01 1.129105e-01 5.415503e-01 -2.612213e-01 1.805865e-01 -3.701423e-01 1.237169e-01 -2.439741e-01 -2.628074e-02 6.338292e-03 -9.988204e-02 6.483573e-02 1.645438e-01 3.413306e-01 1.784322e-01 4.009856e-01 -3.918348e-01 -3.896956e-01 -3.646709e-01 7.537205e-02 -6.243617e-02 1.032510e-01 8.007328e-02 -1.317956e-01 -1.648377e-01 2.051897e-01
<VARIANCE> 39
 5.608021e+00 7.624158e+00 1.127415e+01 1.199694e+01 1.630028e+01 1.692858e+01 1.609468e+01 1.903614e+01 1.732945e+01 1.854321e+01 1.675397e+01 1.424953e+01 8.835940e-01 5.076348e-01 5.760362e-01 9.102389e-01 1.166275e+00 1.399163e+00 1.656798e+00 1.640147e+00 1.848355e+00 1.746739e+00 2.016444e+00 1.620607e+00 1.559142e+00 5.334584e-02 9.920052e-02 1.485661e-01 2.316744e-01 3.164136e-01 3.547148e-01 4.582604e-01 3.706236e-01 4.746304e-01 3.865747e-01 4.872555e-01 3.813134e-01 3.524833e-01 1.501355e-02
<GCONST> 8.458403e+01
<TRANSP> 5
 0.000000e+00 1.000000e+00 0.000000e+00 0.000000e+00 0.000000e+00
 0.000000e+00 5.487221e-01 4.512779e-01 0.000000e+00 0.000000e+00
 0.000000e+00 0.000000e+00 8.042235e-01 1.957764e-01 0.000000e+00
 0.000000e+00 0.000000e+00 0.000000e+00 3.958220e-01 6.041780e-01
 0.000000e+00 0.000000e+00 0.000000e+00 0.000000e+00 0.000000e+00
<ENDHMM>
~h "t"
<BEGINHMM>
<NUMSTATES> 5
<STATE> 2
<MEAN> 39
 -6.094344e+00 -2.106673e+00 -3.377004e+00 -1.047917e+01 -5.525157e-01 -8.560955e+00 -3.549203e+00 -1.158529e+01 -5.385079e+00 -6.844765e+00 4.928652e-02 -4.814929e+00 1.581952e+01 -1.650413e-01 -2.039856e+00 -4.226866e-01 6.946073e-01 2.762715e-01 2.082867e+00 8.161576e-01 4.842276e-01 1.675537e-01 -1.067022e-01 1.742800e-01 2.516498e-01 -5.640653e-01 -2.069043e-01 1.084639e-01 -2.596892e-01 -2.376664e-01 -1.906378e-01 -1.067734e-01 1.781404e-01 3.369499e-01 3.847567e-01 2.153228e-01 7.098564e-02 -1.187840e-02 4.061241e-02
<VARIANCE> 39
 4.122858e+00 1.765370e+01 1.243541e+01 1.563167e+01 1.605598e+01 2.843523e+01 2.423561e+01 2.121515e+01 2.687109e+01 2.324697e+01 2.204087e+01 1.871747e+01 1.837927e+00 9.459779e-01 2.084092e+00 1.539636e+00 2.158287e+00 2.072105e+00 3.191507e+00 3.458424e+00 2.789154e+00 3.862122e+00 2.772784e+00 2.934088e+00 2.564204e+00 1.096998e-01 8.725340e-02 2.977198e-01 1.847659e-01 2.984965e-01 2.457963e-01 5.311736e-01 4.738200e-01 4.281653e-01 5.163364e-01 3.972788e-01 4.720214e-01 3.595105e-01 1.327626e-02
<GCONST> 9.702447e+01
<STATE> 3
<MEAN> 39
 -8.174292e+00 -6.430648e+00 -6.341668e+00 -9.772944e+00 -1.380588e+00 -4.374373e+00 -6.475997e-01 -8.537786e+00 -2.695889e+00 -5.702767e+00 1.360277e+00 -3.697138e+00 1.457144e+01 -7.492574e-01 6.321102e-02 -6.454165e-01 5.037832e-02 -3.051987e-01 3.246778e-01 7.214779e-02 4.993476e-01 3.714111e-01 1.801161e-01 1.024190e-01 1.015145e-01 -5.962911e-02 3.831380e-02 3.752720e-01 1.385582e-01 -9.008418e-02 -1.960432e-02 -2.497126e-01 -1.838621e-01 -8.643286e-02 -6.904806e-02 -1.633054e-02 -9.904788e-02 -6.455548e-02 1.035466e-01
<VARIANCE> 39
 6.870604e+00 6.286080e+00 7.990007e+00 1.057874e+01 1.294486e+01 1.402303e+01 1.595282e+01 1.689996e+01 1.732184e+01 1.551026e+01 1.520864e+01 1.373418e+01 9.294479e-01 7.467328e-01 1.616228e+00 9.552206e-01 1.478257e+00 1.369366e+00 1.886513e+00 2.070407e+00 1.871323e+00 2.208103e+00 1.768013e+00 1.861526e+00 1.633998e+00 7.268738e-02 1.470400e-01 2.591062e-01 2.009107e-01 3.297809e-01 3.500735e-01 5.259602e-01 4.609155e-01 4.105857e-01 4.846528e-01 3.793921e-01 4.099557e-01 3.612009e-01 1.402566e-02
<GCONST> 8.702058e+01
<STATE> 4
<MEAN> 39
 -1.065886e+01 -4.021986e+00 -6.859549e+00 -1.028297e+01 -1.168287e+00 -4.191680e+00 -1.660188e+00 -7.829054e+00 -2.161579e+00 -5.643009e+00 1.138372e+00 -3.642429e+00 1.504020e+01 4.267881e-01 1.552698e-01 6.720490e-01 -3.853137e-01 1.602478e-01 -5.854917e-02 -1.061369e-01 -1.513697e-01 -1.506758e-02 -6.442345e-02 -7.287952e-02 -1.471485e-01 1.243456e-01 3.587435e-01 7.797156e-02 3.501579e-01 -1.124584e-01 -1.502858e-01 -2.639963e-01 -1.201908e-01 -1.934527e-01 -1.044890e-01 -2.875514e-02 -6.621829e-02 -1.364156e-01 9.841458e-02
<VARIANCE> 39
 8.016119e+00 8.586465e+00 1.132713e+01 1.173612e+01 1.709275e+01 2.074360e+01 1.946167e+01 2.058832e+01 2.116524e+01 2.285983e+01 2.152241e+01 1.842273e+01 9.489850e-01 1.123192e+00 8.467379e-01 1.695835e+00 1.309188e+00 1.912083e+00 2.105531e+00 1.916097e+00 2.105157e+00 2.226821e+00 2.452691e+00 2.647506e+00 1.677950e+00 7.493465e-02 1.796043e-01 2.667825e-01 2.705971e-01 3.125551e-01 4.997655e-01 5.052469e-01 4.476445e-01 4.476101e-01 5.193584e-01 5.130103e-01 6.562243e-01 3.518001e-01 1.916236e-02
<GCONST> 9.367177e+01
<TRANSP> 5
 0.000000e+00 1.000000e+00 0.000000e+00 0.000000e+00 0.000000e+00
 0.000000e+00 5.470605e-01 4.529394e-01 0.000000e+00 0.000000e+00
 0.000000e+00 0.000000e+00 6.756348e-01 3.243652e-01 0.000000e+00
 0.000000e+00 0.000000e+00 0.000000e+00 7.266426e-01 2.733574e-01
 0.000000e+00 0.000000e+00 0.000000e+00 0.000000e+00 0.000000e+00
<ENDHMM>
~h "v"
<BEGINHMM>
<NUMSTATES> 5
<STATE> 2
<MEAN> 39
 -5.833390e+00 -8.808866e+00 -5.006884e+00 -1.582529e+01 -2.672343e+00 -1.799965e+00 3.337516e+00 -9.021143e+00 -3.148286e+00 -7.414553e+00 -3.175878e+00 -5.071057e+00 1.861565e+01 5.298229e-01 8.133909e-01 4.970722e-01 4.474311e-02 -9.540746e-01 -9.463183e-01 -8.331817e-02 7.684334e-01 2.122037e-01 4.734543e-01 -1.986922e-01 -3.677396e-01 -2.257870e-01 5.555907e-02 1.358548e-01 1.539627e-01 5.033499e-01 -1.177509e-03 -3.469183e-01 -2.751659e-01 -3.033992e-02 1.374458e-02 1.274853e-01 2.671095e-01 -5.590201e-02 -1.019619e-01
<VARIANCE> 39
 8.699017e+00 1.377190e+01 8.804155e+00 1.979417e+01 4.045597e+01 1.995542e+01 2.545547e+01 3.649960e+01 4.826262e+01 3.050323e+01 3.015882e+01 3.220926e+01 1.597452e+00 2.963942e-01 1.016140e+00 6.302608e-01 2.041449e+00 1.224094e+00 1.571035e+00 1.953815e+00 1.942307e+00 2.690896e+00 2.260235e+00 2.395690e+00 1.488567e+00 3.952470e-02 7.164764e-02 1.391152e-01 1.129594e-01 3.339348e-01 3.899983e-01 2.607199e-01 3.447581e-01 3.599319e-01 3.742185e-01 3.808216e-01 4.680324e-01 3.451152e-01 6.854207e-03
<GCONST> 8.966583e+01
<STATE> 3
<MEAN> 39
 -3.648397e+00 -5.207944e+00 -2.589681e+00 -1.217790e+01 -7.259156e+00 -8.739799e+00 7.633563e-01 -4.679249e+00 -3.670096e+00 -5.065750e+00 -8.829318e-01 -7.138566e+00 1.752895e+01 2.341460e-02 8.999671e-01 6.024839e-01 1.829629e+00 1.053136e+00 -6.202450e-01 -1.490528e+00 -5.031065e-01 2.694099e-01 -2.120830e-01 1.145730e+00 3.712861e-01 -6.175714e-01 -3.016787e-01 -2.561412e-01 -2.742082e-01 1.909715e-02 5.109970e-01 6.122097e-01 1.577358e-01 -4.329999e-01 -1.068232e-01 -1.908361e-01 -1.508863e-01 2.042146e-01 -2.371340e-02
<VARIANCE> 39
 5.747394e+00 1.098485e+01 1.136066e+01 2.202011e+01 2.513182e+01 2.758562e+01 2.462709e+01 3.929385e+01 2.673895e+01 2.591690e+01 2.657632e+01 2.606013e+01 1.656063e+00 6.987105e-01 9.154080e-01 1.079497e+00 1.849037e+00 2.543434e+00 2.627201e+00 2.699312e+00 2.837107e+00 3.057495e+00 2.568855e+00 2.294130e+00 2.288165e+00 7.455003e-02 7.055376e-02 1.424417e-01 1.833865e-01 3.865370e-01 3.826899e-01 3.209131e-01 4.296962e-01 4.899367e-01 4.405079e-01 4.343489e-01 4.734761e-01 3.486615e-01 1.991883e-02
<GCONST> 9.537587e+01
<STATE> 4
<MEAN> 39
 -4.863785e+00 -5.125630e+00 -2.971950e+00 -8.464232e+00 -2.576040e+00 -6.241581e+00 9.248798e-02 -7.568513e+00 -3.174181e+00 -6.328987e+00 1.495934e-02 -5.440513e+00 1.599877e+01 -2.501948e-01 -1.672675e-01 -2.827727e-01 -9.873316e-02 7.695527e-02 4.795739e-01 2.404014e-01 -3.787420e-01 1.457416e-01 -5.944709e-02 -1.152152e-01 6.445070e-02 -7.148141e-02 5.437439e-02 -7.617789e-02 -6.581435e-02 -4.124208e-01 -2.761146e-01 -1.024611e-02 1.441630e-01 8.111019e-02 2.058140e-02 7.406298e-02 -1.647039e-01 -4.764407e-02 1.320690e-01
<VARIANCE> 39
 6.529603e+00 7.066975e+00 8.154240e+00 1.014588e+01 2.402619e+01 2.492095e+01 2.406976e+01 2.638934e+01 2.401624e+01 2.550269e+01 2.550458e+01 1.976904e+01 1.700375e+00 5.499691e-01 6.758103e-01 9.612548e-01 1.468451e+00 2.668085e+00 1.845624e+00 2.404912e+00 2.624174e+00 2.164114e+00 2.562691e+00 2.319423e+00 1.779728e+00 1.791217e-01 1.032922e-01 1.934062e-01 2.088720e-01 3.629298e-01 5.778215e-01 4.001830e-01 6.631633e-01 5.511133e-01 5.064037e-01 4.939693e-01 4.875102e-01 3.857033e-01 2.896773e-02
<GCONST> 9.458524e+01
<TRANSP> 5
 0.000000e+00 1.000000e+00 0.000000e+00 0.000000e+00 0.000000e+00
 0.000000e+00 7.020759e-01 2.979241e-01 0.000000e+00 0.000000e+00
 0.000000e+00 0.000000e+00 6.091271e-01 3.908729e-01 0.000000e+00
 0.000000e+00 0.000000e+00 0.000000e+00 7.436807e-01 2.563193e-01
 0.000000e+00 0.000000e+00 0.000000e+00 0.000000e+00 0.000000e+00
<ENDHMM>
~h "w"
<BEGINHMM>
<NUMSTATES> 5
<STATE> 2
<MEAN> 39
 -3.624360e+00 -3.864242e+00 -3.882783e+00 -1.007915e+01 -1.945554e+00 -6.842297e+00 -2.442770e+00 -9.847588e+00 -3.553236e+00 -6.404329e+00 -9.112035e-02 -5.454987e+00 1.604155e+01 9.058006e-01 6.879790e-01 -8.345690e-03 -5.796422e-01 -5.309924e-01 -5.817856e-01 -2.254910e-01 1.833244e-02 -1.498328e-01 -1.614762e-01 -3.427175e-01 -3.613085e-01 3.698016e-01 1.482627e-01 -7.314232e-03 -3.065735e-01 -2.717104e-01 -9.392007e-02 4.953632e-02 1.145287e-01 1.223733e-01 1.342158e-01 4.909909e-02 -7.490510e-02 -1.031874e-01 7.814541e-02
<VARIANCE> 39
 8.587344e+00 6.664112e+00 8.663521e+00 1.221715e+01 1.562866e+01 1.690521e+01 1.825776e+01 1.752865e+01 1.960837e+01 2.039443e+01 2.349796e+01 2.390730e+01 1.638365e+00 6.258881e-01 6.395921e-01 9.198374e-01 1.274840e+00 1.185033e+00 1.590094e+00 1.839929e+00 1.817002e+00 2.240064e+00 2.337768e+00 2.344155e+00 2.382395e+00 9.207753e-02 9.796047e-02 1.288605e-01 1.752908e-01 2.167944e-01 2.314282e-01 3.276856e-01 3.978426e-01 3.426638e-01 4.046280e-01 4.451320e-01 4.385060e-01 4.220362e-01 1.125128e-02
<GCONST> 8.651949e+01
<STATE> 3
<MEAN> 39
 1.404220e-01 -1.746186e+00 -7.092793e+00 -1.518573e+01 -5.065486e+00 -7.876151e+00 -7.982085e-01 -7.838308e+00 -2.535032e+00 -6.515055e+00 -1.531257e+00 -6.812024e+00 1.787339e+01 5.044816e-01 -2.906084e-01 -1.492124e+00 -7.671874e-01 3.846005e-01 9.774095e-01 7.118074e-01 3.297325e-01 3.724931e-02 -1.811539e-01 -1.309701e-01 -2.129291e-01 2.989601e-01 -1.882272e-01 -3.507076e-01 -2.332116e-01 4.779636e-01 5.676533e-01 2.928994e-01 -1.968973e-01 -1.516058e-01 -6.064176e-02 -4.053075e-02 2.747610e-02 1.858611e-02 -4.548025e-02
<VARIANCE> 39
 3.656193e+00 4.323690e+00 1.089699e+01 1.454899e+01 2.058726e+01 1.816466e+01 1.760458e+01 1.966419e+01 2.207541e+01 2.385615e+01 3.078745e+01 2.927376e+01 1.113019e+00 3.247774e-01 4.825886e-01 9.050983e-01 1.171116e+00 1.937517e+00 1.616878e+00 1.631721e+00 1.597364e+00 1.750508e+00 1.713894e+00 1.864533e+00 1.700086e+00 4.701137e-02 5.819569e-02 8.908108e-02 1.340356e-01 3.009386e-01 2.489336e-01 2.885697e-01 4.526831e-01 3.436868e-01 3.577815e-01 3.297677e-01 4.257371e-01 3.656394e-01 6.281786e-03
<GCONST> 8.191820e+01
<STATE> 4
<MEAN> 39
 5.009171e-01 -5.140788e+00 -1.369446e+01 -1.284127e+01 1.497908e+00 -2.180413e+00 -2.273249e+00 -9.329493e+00 -2.844087e+00 -6.675801e+00 -1.701611e+00 -8.446383e+00 1.848448e+01 -2.514234e-01 -1.230407e+00 -1.101526e+00 2.100311e+00 1.629398e+00 -9.577674e-02 -1.570874e+00 -2.983614e-02 7.608008e-01 -1.839912e-01 -6.812502e-01 -4.855695e-01 9.178177e-02 -2.001215e-01 -8.336813e-02 4.902310e-01 5.432599e-01 -3.932135e-01 -7.667491e-01 -7.977390e-02 4.072670e-01 7.180174e-02 -3.063857e-01 -1.173153e-01 2.490056e-01 -4.659225e-02
<VARIANCE> 39
 3.917598e+00 7.287464e+00 1.603495e+01 2.325874e+01 2.109340e+01 2.071298e+01 2.498943e+01 2.007585e+01 3.543264e+01 2.364769e+01 3.063969e+01 2.846562e+01 1.437261e+00 2.027680e-01 4.736800e-01 1.005317e+00 1.322486e+00 1.478104e+00 2.338641e+00 1.383191e+00 2.263358e+00 2.107701e+00 1.789347e+00 2.035754e+00 1.738160e+00 1.800845e-02 4.782978e-02 5.893194e-02 1.462150e-01 3.200366e-01 3.457679e-01 2.460457e-01 5.487766e-01 3.308669e-01 4.695644e-01 3.579985e-01 3.783839e-01 4.215357e-01 3.005792e-03
<GCONST> 8.348041e+01
<TRANSP> 5
 0.000000e+00 1.000000e+00 0.000000e+00 0.000000e+00 0.000000e+00
 0.000000e+00 7.244918e-01 2.755082e-01 0.000000e+00 0.000000e+00
 0.000000e+00 0.000000e+00 7.312098e-01 2.687902e-01 0.000000e+00
 0.000000e+00 0.000000e+00 0.000000e+00 7.090649e-01 2.909351e-01
 0.000000e+00 0.000000e+00 0.000000e+00 0.000000e+00 0.000000e+00
<ENDHMM>
~h "z"
<BEGINHMM>
<NUMSTATES> 5
<STATE> 2
<MEAN> 39
 -6.033791e+00 -3.676345e+00 -4.324012e+00 -7.624000e+00 -8.403040e-01 -3.935850e+00 -1.102530e+00 -8.981545e+00 -3.927232e+00 -5.418102e+00 6.505816e-01 -4.652011e+00 1.528298e+01 -2.313129e-01 2.322484e-02 -2.238116e-01 1.994122e-01 1.052583e-01 3.914663e-01 2.578875e-02 1.723933e-01 4.099270e-02 1.729098e-01 3.964455e-02 9.463437e-02 -5.938205e-02 7.674152e-03 3.490939e-02 2.916101e-02 -8.903128e-02 -7.670903e-02 -1.000039e-01 -4.099329e-02 -1.525605e-02 4.386676e-02 2.017319e-02 -4.185031e-02 -1.414647e-02 3.821830e-02
<VARIANCE> 39
 6.396027e+00 8.377585e+00 1.163912e+01 1.154362e+01 1.518768e+01 1.482489e+01 1.776995e+01 1.856123e+01 2.001114e+01 1.880152e+01 2.094114e+01 1.726086e+01 9.349008e-01 5.148903e-01 7.687408e-01 1.103896e+00 9.118428e-01 1.245782e+00 1.778263e+00 1.857016e+00 1.790055e+00 1.976268e+00 1.758519e+00 2.153709e+00 1.541183e+00 5.626797e-02 8.607260e-02 1.465139e-01 1.768122e-01 1.921760e-01 2.516312e-01 3.620685e-01 4.118934e-01 3.555017e-01 3.616357e-01 3.549186e-01 4.612918e-01 3.212759e-01 1.067044e-02
<GCONST> 8.359697e+01
<STATE> 3
<MEAN> 39
 -8.368044e+00 -3.327267e+00 -6.955417e+00 -6.345980e+00 -1.662976e+00 -1.827063e+00 -1.261497e+00 -6.895412e+00 -3.066043e+00 -4.565003e+00 3.466344e-01 -4.218849e+00 1.490096e+01 1.718468e-01 7.454490e-01 5.021753e-01 -3.268284e-01 -4.342515e-01 -7.537012e-01 -5.472149e-01 -4.095844e-01 -2.364577e-03 2.055432e-01 -2.284233e-01 -6.523759e-02 2.773999e-01 2.954259e-01 3.658037e-01 5.473266e-01 -5.009892e-01 -2.991594e-01 -7.286620e-01 -2.235287e-01 -3.747198e-01 2.950139e-02 7.810353e-02 1.256371e-02 -1.096643e-01 2.000559e-01
<VARIANCE> 39
 5.864639e+00 1.143475e+01 1.486864e+01 1.255032e+01 1.825177e+01 1.588322e+01 1.939844e+01 1.765557e+01 2.503688e+01 1.745170e+01 1.851897e+01 1.440045e+01 8.991749e-01 4.457943e-01 6.741943e-01 1.157941e+00 1.114514e+00 1.214900e+00 2.072545e+00 1.728830e+00 1.950849e+00 1.763285e+00 1.753811e+00 1.754119e+00 1.827268e+00 6.088764e-02 7.431687e-02 1.670960e-01 1.901395e-01 2.470522e-01 2.672570e-01 3.635179e-01 3.547466e-01 3.823122e-01 4.114670e-01 3.428623e-01 4.305371e-01 4.674576e-01 7.106942e-03
<GCONST> 8.457986e+01
<STATE> 4
<MEAN> 39
 -6.110094e+00 -8.047397e-01 -2.880122e+00 -8.756356e+00 -3.391760e+00 -6.724811e+00 -4.014094e+00 -1.067997e+01 -4.167853e+00 -3.362739e+00 4.287586e-02 -4.202118e+00 1.637662e+01 5.831968e-01 1.328093e+00 1.634302e+00 -2.096958e+00 -1.427495e+00 -2.345391e+00 -7.793081e-01 -9.803185e-01 4.706527e-01 5.202163e-01 -1.151279e-01 -3.872026e-01 7.447177e-01 -9.167214e-02 -2.035238e-02 -1.290572e-02 -4.257525e-01 -2.112416e-01 -6.454229e-02 1.584442e-01 2.526946e-01 3.445733e-01 -1.246489e-01 4.780279e-02 -1.538444e-01 6.179231e-02
<VARIANCE> 39
 5.828755e+00 7.522527e+00 1.102241e+01 1.340078e+01 2.519882e+01 1.821242e+01 1.958333e+01 1.727989e+01 3.122447e+01 3.070117e+01 2.224984e+01 2.469530e+01 1.115236e+00 6.070251e-01 1.071377e+00 1.413516e+00 1.267225e+00 1.854762e+00 2.425248e+00 2.567289e+00 2.334214e+00 2.913877e+00 2.199495e+00 2.946902e+00 3.291825e+00 3.969247e-02 8.148324e-02 1.666351e-01 2.125817e-01 2.593640e-01 2.959246e-01 4.254187e-01 4.034133e-01 3.641649e-01 3.945869e-01 3.945044e-01 3.986561e-01 3.691998e-01 8.714655e-03
<GCONST> 9.033360e+01
<TRANSP> 5
 0.000000e+00 1.000000e+00 0.000000e+00 0.000000e+00 0.000000e+00
 0.000000e+00 7.989265e-01 2.010735e-01 0.000000e+00 0.000000e+00
 0.000000e+00 0.000000e+00 6.015188e-01 3.984812e-01 0.000000e+00
 0.000000e+00 0.000000e+00 0.000000e+00 4.701463e-01 5.298537e-01
 0.000000e+00 0.000000e+00 0.000000e+00 0.000000e+00 0.000000e+00
<ENDHMM>
~h "ah"
<BEGINHMM>
<NUMSTATES> 5
<STATE> 2
<MEAN> 39
 -1.365602e+00 -9.687455e+00 -1.343363e+01 -3.361260e+00 2.411027e+00 -8.576868e+00 -5.746387e+00 -4.702365e+00 -4.164785e-01 -1.125716e+01 -4.600127e+00 -6.634724e+00 1.856437e+01 -6.488059e-01 -8.486276e-01 1.021334e+00 1.735856e+00 -1.162715e+00 -1.452862e+00 1.028017e+00 1.249241e+00 -1.010073e+00 -1.353688e+00 5.257297e-01 1.038702e+00 -1.189090e-02 -5.124951e-02 2.471772e-01 4.765926e-01 -5.513259e-01 -5.960717e-01 3.500181e-01 7.045875e-01 -4.057157e-01 -5.198622e-01 3.570264e-01 4.923281e-01 -1.252382e-01 -2.821953e-02
<VARIANCE> 39
 4.989660e+00 8.598634e+00 1.464014e+01 2.473575e+01 1.725661e+01 2.085389e+01 2.580717e+01 2.961959e+01 4.026442e+01 3.663556e+01 2.700443e+01 2.970231e+01 1.499686e+00 1.755543e-01 4.395666e-01 7.808879e-01 1.552656e+00 1.305824e+00 1.424942e+00 2.346724e+00 1.728767e+00 2.338263e+00 1.587088e+00 2.367486e+00 1.558081e+00 9.729157e-03 3.410928e-02 6.297515e-02 1.509422e-01 2.141359e-01 2.795468e-01 3.391833e-01 3.378260e-01 4.942670e-01 3.689752e-01 4.693149e-01 3.326577e-01 4.421573e-01 1.320008e-03
<GCONST> 8.185696e+01
<STATE> 3
<MEAN> 39
 -3.624014e+00 -1.137962e+01 -7.419218e+00 -1.125315e+00 -4.396453e+00 -9.442660e+00 2.064243e+00 -5.138340e+00 -7.275920e+00 -1.072769e+01 5.069562e-01 -6.415703e+00 1.839648e+01 -5.679554e-01 2.617226e-01 1.780539e+00 -8.968324e-01 -1.627168e+00 1.029103e+00 1.392515e+00 -1.740345e+00 -7.362410e-01 1.511339e+00 4.574783e-01 -1.013916e+00 -9.876900e-02 1.166521e-01 4.293864e-01 -1.680381e-02 -6.499729e-01 4.578551e-01 4.225126e-01 -6.584944e-01 -4.531617e-01 6.587687e-01 3.475526e-01 -4.994998e-01 -1.339334e-01 -3.113428e-02
<VARIANCE> 39
 5.301146e+00 1.174503e+01 1.173643e+01 2.319505e+01 1.899480e+01 1.758273e+01 2.437874e+01 3.770588e+01 2.984063e+01 4.286967e+01 2.867105e+01 4.016368e+01 1.715337e+00 2.906573e-01 5.013806e-01 7.440603e-01 1.221732e+00 1.317347e+00 1.601337e+00 1.639682e+00 1.997702e+00 2.463546e+00 1.542871e+00 2.100059e+00 1.249068e+00 8.083655e-03 3.725576e-02 8.800150e-02 9.408712e-02 2.591566e-01 2.968827e-01 3.725334e-01 3.516904e-01 4.160139e-01 3.186414e-01 5.613142e-01 2.904768e-01 4.404735e-01 1.303977e-03
<GCONST> 8.220788e+01
<STATE> 4
<MEAN> 39
 -5.374590e+00 -9.302266e+00 -2.737117e+00 -6.734712e+00 -6.232810e+00 -2.187308e+00 8.414220e-01 -1.298608e+01 -2.887576e+00 -7.584737e+00 -2.417441e+00 -8.000990e+00 1.804362e+01 -4.846768e-02 1.415688e+00 8.356703e-01 -1.751546e+00 4.437836e-01 7.263290e-01 -1.221303e+00 -6.147543e-01 1.012613e+00 -1.461375e-01 -3.981239e-01 4.293433e-01 -1.517585e-01 2.312477e-01 2.257082e-01 -2.416239e-01 1.652094e-01 4.832232e-01 -5.657042e-01 -3.773606e-01 4.985666e-01 -1.458992e-01 -3.033794e-01 1.232990e-01 1.878950e-01 -1.451775e-02
<VARIANCE> 39
 7.249933e+00 1.209056e+01 6.911283e+00 1.817108e+01 1.646181e+01 4.077642e+01 3.285895e+01 4.175437e+01 3.845631e+01 4.130396e+01 2.950109e+01 3.941541e+01 1.355460e+00 3.316996e-01 6.203460e-01 1.071524e+00 1.098593e+00 1.203066e+00 2.325954e+00 1.530718e+00 2.387794e+00 2.172027e+00 3.166224e+00 1.633880e+00 1.513609e+00 1.555682e-02 5.525545e-02 7.096680e-02 1.110755e-01 2.041596e-01 2.967694e-01 3.932064e-01 4.624018e-01 3.671158e-01 4.220671e-01 4.438241e-01 3.263380e-01 3.620557e-01 1.441048e-03
<GCONST> 8.542519e+01
<TRANSP> 5
 0.000000e+00 1.000000e+00 0.000000e+00 0.000000e+00 0.000000e+00
 0.000000e+00 7.359366e-01 2.640634e-01 0.000000e+00 0.000000e+00
 0.000000e+00 0.000000e+00 6.897643e-01 3.102358e-01 0.000000e+00
 0.000000e+00 0.000000e+00 0.000000e+00 6.820560e-01 3.179440e-01
 0.000000e+00 0.000000e+00 0.000000e+00 0.000000e+00 0.000000e+00
<ENDHMM>
~h "ao"
<BEGINHMM>
<NUMSTATES> 5
<STATE> 2
<MEAN> 39
 1.631837e+00 -3.107005e+00 -1.210979e+01 -1.763355e+01 -4.503163e+00 -5.691793e+00 -2.529349e+00 -8.965606e+00 -1.774620e+00 -3.815422e+00 1.155055e+00 -6.169614e+00 1.900306e+01 -2.562541e-02 -3.462214e-01 -5.953389e-02 2.522103e-01 2.349526e-01 7.743280e-02 -2.427432e-01 1.652277e-01 4.334936e-01 7.520951e-02 -1.890563e-01 -1.371786e-01 -2.649739e-03 -8.426870e-02 -1.851980e-01 9.035237e-02 2.646085e-01 8.134747e-02 -1.302576e-01 -9.099108e-02 1.432917e-01 1.514541e-01 -8.347911e-02 -1.814964e-01 -3.862483e-02 -3.412509e-02
<VARIANCE> 39
 3.972708e+00 9.518718e+00 8.783112e+00 1.284091e+01 2.470710e+01 1.605945e+01 1.731371e+01 1.637440e+01 2.218994e+01 2.446910e+01 3.395250e+01 3.551670e+01 1.067862e+00 1.238285e-01 7.269486e-01 6.537113e-01 1.012048e+00 1.421940e+00 1.155215e+00 1.539544e+00 1.474608e+00 2.162056e+00 1.681837e+00 1.925240e+00 1.684330e+00 1.509356e-02 4.556960e-02 6.555742e-02 1.447681e-01 1.530840e-01 2.367203e-01 2.458114e-01 2.419135e-01 2.920147e-01 3.297364e-01 3.480731e-01 3.402784e-01 3.044826e-01 5.110250e-03
<GCONST> 7.706749e+01
<STATE> 3
<MEAN> 39
 7.670940e-01 -1.072351e+01 -1.139490e+01 -9.218612e+00 -2.549907e+00 -9.464922e+00 -4.941312e+00 -3.123651e+00 3.695949e+00 -6.545322e+00 -5.041309e+00 -7.517561e+00 1.885886e+01 -4.111516e-01 -9.539372e-01 1.207677e+00 1.378201e+00 -1.068564e+00 -8.999029e-01 9.898089e-01 8.791289e-01 -6.341234e-01 -1.172974e+00 -1.241517e-01 6.730611e-01 -1.109515e-01 -1.033431e-01 3.055524e-01 3.116994e-01 -2.738206e-01 -3.203069e-01 2.955402e-01 4.120186e-01 -4.498364e-01 -5.717022e-01 8.438148e-02 4.773917e-01 4.514735e-02 -4.780333e-02
<VARIANCE> 39
 5.172778e+00 1.196613e+01 1.189579e+01 1.591363e+01 3.416039e+01 2.895819e+01 2.616739e+01 3.458989e+01 3.199766e+01 3.549504e+01 3.054793e+01 3.175261e+01 1.473083e+00 1.706353e-01 8.040899e-01 8.952342e-01 1.446836e+00 2.294764e+00 2.130190e+00 2.534250e+00 3.273621e+00 3.565012e+00 2.419919e+00 3.759600e+00 1.819831e+00 2.081163e-02 3.482375e-02 1.150179e-01 1.406802e-01 2.210437e-01 4.567844e-01 4.439591e-01 4.617790e-01 6.301876e-01 5.231449e-01 6.590933e-01 5.198838e-01 5.108005e-01 3.036699e-03
<GCONST> 9.122307e+01
<STATE> 4
<MEAN> 39
 -2.930556e+00 -8.855448e+00 -3.131035e+00 -8.319129e+00 -6.486606e+00 -6.879944e+00 1.130024e-01 -8.099124e+00 -3.784342e+00 -7.905238e+00 -1.816490e+00 -7.048996e+00 1.726815e+01 -8.613611e-01 9.586076e-01 6.423613e-01 -3.079815e-01 5.911501e-01 9.744536e-01 1.590436e-01 -8.997399e-01 -3.856665e-01 4.269732e-01 4.007434e-01 7.625896e-02 -4.114630e-01 -3.243579e-02 3.836267e-02 -3.871137e-01 -1.030944e-01 3.599677e-01 2.180290e-02 -2.497649e-01 1.310013e-01 2.493009e-01 7.547593e-02 -9.434800e-02 7.249423e-02 -2.363021e-02
<VARIANCE> 39
 9.401774e+00 2.518964e+01 1.567049e+01 2.121947e+01 4.065261e+01 3.807725e+01 2.796869e+01 3.850975e+01 3.214693e+01 3.138993e+01 3.128529e+01 2.691763e+01 2.285414e+00 5.834078e-01 1.339367e+00 2.111636e+00 1.757074e+00 3.960788e+00 2.941871e+00 2.877151e+00 3.186054e+00 3.281502e+00 2.358821e+00 2.805645e+00 2.221335e+00 7.608730e-02 9.414336e-02 3.310331e-01 2.661894e-01 3.810762e-01 7.081725e-01 6.067511e-01 5.711622e-01 5.423880e-01 5.611333e-01 5.111406e-01 5.740462e-01 3.793389e-01 1.174669e-02
<GCONST> 1.038022e+02
<TRANSP> 5
 0.000000e+00 1.000000e+00 0.000000e+00 0.000000e+00 0.000000e+00
 0.000000e+00 8.922626e-01 1.077373e-01 0.000000e+00 0.000000e+00
 0.000000e+00 0.000000e+00 7.912030e-01 2.087969e-01 0.000000e+00
 0.000000e+00 0.000000e+00 0.000000e+00 8.282558e-01 1.717442e-01
 0.000000e+00 0.000000e+00 0.000000e+00 0.000000e+00 0.000000e+00
<ENDHMM>
~h "ay"
<BEGINHMM>
<NUMSTATES> 5
<STATE> 2
<MEAN> 39
 -5.236169e+00 -1.294591e+01 -8.412616e+00 -4.406798e+00 -1.887414e+00 -7.302486e+00 1.533467e+00 -8.292346e+00 -6.536547e+00 -8.761847e+00 -2.204215e+00 -5.706809e+00 1.902408e+01 -3.206994e-01 -7.324898e-01 6.311536e-02 1.138421e+00 6.987866e-02 -1.880465e-01 2.322451e-01 -1.637725e-01 -2.470471e-01 1.559069e-01 6.449014e-01 1.054500e-01 5.711212e-02 7.034960e-02 3.566324e-01 2.317674e-01 -2.203623e-01 -6.807277e-02 -2.713526e-02 -1.746893e-01 -5.850204e-03 1.228697e-01 4.864260e-02 3.082068e-02 -9.046332e-02 -7.027759e-02
<VARIANCE> 39
 8.626198e+00 1.374752e+01 3.203867e+01 2.099174e+01 3.766428e+01 2.849357e+01 3.172563e+01 5.608359e+01 4.836275e+01 4.241250e+01 2.926051e+01 2.764860e+01 1.205242e+00 3.008268e-01 5.380529e-01 9.928535e-01 9.969898e-01 1.389568e+00 1.092492e+00 1.120805e+00 1.629249e+00 1.865517e+00 1.627277e+00 1.177637e+00 1.191454e+00 1.749030e-02 5.883463e-02 7.890775e-02 1.219365e-01 1.542033e-01 2.576919e-01 2.236300e-01 2.618038e-01 2.898858e-01 3.035303e-01 3.003866e-01 2.481306e-01 2.084789e-01 6.583832e-03
<GCONST> 8.336817e+01
<STATE> 3
<MEAN> 39
 -6.052947e+00 -1.380736e+01 -7.163119e+00 -2.652644e+00 -1.658116e+00 -7.839128e+00 2.217286e+00 -8.831403e+00 -6.760125e+00 -7.196480e+00 -7.094331e-01 -6.039410e+00 1.885981e+01 -1.097416e-01 3.067750e-02 3.720842e-01 -1.848982e-01 -2.112119e-01 2.683065e-01 7.484876e-02 -2.792463e-01 1.567783e-02 2.685495e-01 1.134567e-02 -9.921357e-02 -3.530839e-02 2.028439e-03 9.448311e-02 4.953780e-02 -2.084034e-01 -3.609142e-02 1.271958e-01 -2.180472e-02 -3.843344e-02 5.806486e-02 1.291826e-02 -1.093327e-01 -2.898603e-03 -8.451387e-03
<VARIANCE> 39
 7.980097e+00 1.220553e+01 2.676550e+01 2.666050e+01 3.014958e+01 3.067652e+01 2.252091e+01 3.725552e+01 4.316763e+01 4.631057e+01 2.690670e+01 3.107462e+01 1.200629e+00 9.425972e-02 1.481984e-01 3.763624e-01 5.105883e-01 5.200588e-01 6.243697e-01 6.275375e-01 6.441535e-01 6.876670e-01 7.497016e-01 6.808923e-01 6.574091e-01 4.751247e-03 1.517291e-02 3.050093e-02 5.024859e-02 7.387256e-02 7.905301e-02 9.566136e-02 1.030312e-01 1.008324e-01 1.193748e-01 1.153810e-01 1.107963e-01 1.085581e-01 5.225295e-04
<GCONST> 5.714537e+01
<STATE> 4
<MEAN> 39
 -7.062432e+00 -1.141008e+01 -2.900473e+00 -8.325504e+00 -3.393859e+00 -2.539820e+00 1.258292e+00 -1.255160e+01 -3.565197e+00 -5.730483e+00 -2.500001e+00 -5.624321e+00 1.850776e+01 -1.373344e-01 1.169496e+00 3.568877e-01 -1.845638e+00 1.800772e-01 9.204507e-01 -6.394045e-01 7.879179e-02 7.607952e-01 -4.737140e-01 -5.009959e-01 3.262998e-01 -9.246206e-02 8.920020e-02 2.536537e-01 -1.411673e-01 -7.587030e-02 1.302979e-01 -2.643582e-01 -9.794534e-02 3.584178e-01 -1.787641e-02 -1.964279e-01 9.673290e-02 2.500447e-04 -1.612148e-02
<VARIANCE> 39
 8.578897e+00 1.705749e+01 1.376207e+01 2.907675e+01 3.254245e+01 2.365572e+01 2.989857e+01 2.938162e+01 6.188753e+01 3.789985e+01 2.983702e+01 3.294925e+01 1.369110e+00 1.841454e-01 4.765413e-01 6.559951e-01 9.664742e-01 1.600069e+00 1.207199e+00 1.313168e+00 1.476838e+00 1.582620e+00 1.764017e+00 1.461901e+00 1.289827e+00 6.544489e-03 2.651619e-02 5.542992e-02 6.612663e-02 1.666512e-01 1.726317e-01 2.271490e-01 2.443347e-01 1.733334e-01 3.241681e-01 2.287559e-01 2.469314e-01 2.228174e-01 8.028371e-04
<GCONST> 7.604783e+01
<TRANSP> 5
 0.000000e+00 1.000000e+00 0.000000e+00 0.000000e+00 0.000000e+00
 0.000000e+00 7.124535e-01 2.875465e-01 0.000000e+00 0.000000e+00
 0.000000e+00 0.000000e+00 8.770658e-01 1.229342e-01 0.000000e+00
 0.000000e+00 0.000000e+00 0.000000e+00 7.595320e-01 2.404680e-01
 0.000000e+00 0.000000e+00 0.000000e+00 0.000000e+00 0.000000e+00
<ENDHMM>
~h "eh"
<BEGINHMM>
<NUMSTATES> 5
<STATE> 2
<MEAN> 39
 -8.117412e+00 -4.786633e+00 -6.207120e+00 -9.270509e+00 -1.900474e+00 -3.636500e+00 -8.253973e-01 -8.554668e+00 -2.221852e+00 -4.837277e+00 3.436407e-02 -3.705147e+00 1.521934e+01 1.589804e+00 4.327938e-01 1.302594e+00 -1.873043e+00 -1.767692e+00 -1.679251e+00 1.054651e+00 -1.659038e-01 5.377890e-01 1.813528e-01 -7.935305e-01 -9.341857e-01 9.685865e-01 9.204298e-02 -9.885557e-02 -8.123222e-02 -4.971923e-01 -5.384587e-01 -1.139306e-01 4.326535e-01 1.760375e-01 1.004294e-02 -1.169055e-01 -3.693747e-01 -2.953256e-01 2.304244e-01
<VARIANCE> 39
 6.007931e+00 6.515902e+00 1.024835e+01 9.982382e+00 1.287193e+01 1.455931e+01 1.781710e+01 1.645161e+01 1.673132e+01 2.302321e+01 2.133784e+01 1.840177e+01 1.371281e+00 7.571104e-01 8.955273e-01 1.416078e+00 1.669077e+00 2.056164e+00 2.603487e+00 2.374591e+00 2.707642e+00 2.194550e+00 4.822782e+00 2.349704e+00 2.167686e+00 5.857035e-02 1.392493e-01 1.467452e-01 2.211225e-01 2.808385e-01 4.766547e-01 4.480779e-01 4.326534e-01 4.549699e-01 4.605245e-01 5.211392e-01 3.740588e-01 5.123504e-01 1.548732e-02
<GCONST> 9.120309e+01
<STATE> 3
<MEAN> 39
 -3.827004e+00 -3.700796e+00 -3.694448e+00 -1.606290e+01 -1.007547e+01 -9.502267e+00 3.419449e+00 -8.064702e+00 -1.277582e+00 -4.715211e+00 -4.267547e+00 -7.469663e+00 1.847254e+01 2.845978e-01 -5.370846e-01 -1.335225e-01 -1.827745e+00 -1.189067e+00 5.562296e-02 1.683183e+00 2.737749e-01 8.452329e-02 -7.099744e-01 -1.347727e+00 -9.233323e-01 8.416990e-01 -5.805950e-01 -3.774126e-01 -4.857452e-01 5.463799e-01 8.556038e-01 8.880320e-01 -1.642774e-01 7.292040e-03 -3.011768e-01 -2.097526e-01 2.938729e-01 3.677907e-01 -2.255954e-01
<VARIANCE> 39
 6.606992e+00 6.578810e+00 8.454082e+00 2.133176e+01 2.239606e+01 2.641453e+01 2.788672e+01 3.093536e+01 3.430701e+01 8.394245e+01 2.567263e+01 2.691715e+01 1.129229e+00 1.213087e+00 9.846482e-01 1.228781e+00 1.708988e+00 4.241899e+00 3.960152e+00 2.192432e+00 2.428926e+00 3.285153e+00 4.140123e+00 2.620660e+00 3.499825e+00 1.374401e-01 8.661454e-02 1.178112e-01 1.708948e-01 2.781649e-01 3.829135e-01 3.082141e-01 3.263035e-01 3.359343e-01 3.518251e-01 7.980586e-01 4.706218e-01 3.984415e-01 1.113503e-02
<GCONST> 9.724653e+01
<STATE> 4
<MEAN> 39
 -6.274017e+00 -7.517248e+00 -6.119748e+00 -1.641495e+01 -6.642940e+00 -3.875588e+00 6.318449e+00 -7.667801e+00 -3.971301e+00 -7.363593e+00 -4.479253e+00 -7.294407e+00 1.922891e+01 -3.126933e-01 -7.611052e-01 -3.014350e-01 3.228538e-01 9.907755e-01 8.445771e-01 1.689263e-02 2.316642e-02 -7.044889e-01 -3.000032e-01 5.188168e-01 3.624938e-01 7.262291e-02 1.393376e-01 1.538486e-01 1.787113e-01 3.219695e-01 -1.118246e-02 -4.057167e-01 -4.037200e-01 9.631409e-02 7.218460e-02 2.321533e-01 2.361753e-01 6.567242e-02 -1.307427e-01
<VARIANCE> 39
 8.546744e+00 7.631994e+00 8.816610e+00 1.798382e+01 4.412050e+01 3.614412e+01 3.461578e+01 3.522197e+01 4.821990e+01 5.956452e+01 3.647021e+01 3.111438e+01 1.179647e+00 3.977306e-01 3.418162e-01 3.887951e-01 5.336788e-01 1.211174e+00 1.610648e+00 1.031058e+00 1.192521e+00 1.213612e+00 1.765098e+00 1.873730e+00 1.400469e+00 1.764283e-02 7.436378e-02 7.648877e-02 8.052328e-02 1.934801e-01 3.526532e-01 2.812922e-01 2.698853e-01 2.647702e-01 3.673387e-01 3.651845e-01 5.014045e-01 3.105998e-01 9.094507e-03
<GCONST> 8.271075e+01
<TRANSP> 5
 0.000000e+00 1.000000e+00 0.000000e+00 0.000000e+00 0.000000e+00
 0.000000e+00 4.599873e-01 5.400127e-01 0.000000e+00 0.000000e+00
 0.000000e+00 0.000000e+00 6.025723e-01 3.974276e-01 0.000000e+00
 0.000000e+00 0.000000e+00 0.000000e+00 7.418048e-01 2.581952e-01
 0.000000e+00 0.000000e+00 0.000000e+00 0.000000e+00 0.000000e+00
<ENDHMM>
~h "ey"
<BEGINHMM>
<NUMSTATES> 5
<STATE> 2
<MEAN> 39
 -7.763343e+00 -6.212787e+00 -5.431524e+00 -1.408385e+01 -3.363204e-01 -4.189421e+00 2.217730e-01 -8.606657e+00 -2.614948e+00 -6.398354e+00 -1.045359e+00 -4.495431e+00 1.620571e+01 -3.272871e-01 7.847354e-01 -5.800324e-03 -1.467367e+00 2.217017e-01 -7.503939e-02 1.720358e-01 3.382499e-01 3.431713e-01 -2.798177e-01 -4.098960e-01 -1.131197e-02 3.875130e-01 1.543572e-02 2.575766e-01 -5.276230e-02 -1.813159e-01 -2.606276e-02 -1.944996e-01 -8.740444e-02 1.856024e-01 1.442440e-01 -4.940331e-02 2.119108e-02 -1.288219e-01 8.083925e-02
<VARIANCE> 39
 6.641588e+00 1.521877e+01 1.285497e+01 2.493200e+01 3.571984e+01 1.987823e+01 2.440103e+01 2.477101e+01 2.844993e+01 2.415834e+01 2.622730e+01 1.999636e+01 3.195869e+00 6.430417e-01 1.531996e+00 1.331856e+00 2.476626e+00 2.530411e+00 2.840944e+00 2.657873e+00 2.622876e+00 3.419649e+00 2.359905e+00 2.268410e+00 2.247339e+00 1.912232e-01 1.092950e-01 1.722031e-01 1.986410e-01 4.307330e-01 3.779880e-01 4.824166e-01 4.937712e-01 4.628475e-01 6.268811e-01 4.658546e-01 4.589807e-01 4.467768e-01 2.602264e-02
<GCONST> 1.000718e+02
<STATE> 3
<MEAN> 39
 -8.256099e+00 1.143072e+00 -6.300251e+00 -2.119366e+01 -7.880805e-01 -7.762471e+00 1.024453e+00 -4.826081e+00 -1.845779e-01 -7.079714e+00 -2.082278e+00 -6.873881e+00 1.840159e+01 -2.860606e-02 1.000038e+00 -1.561477e-02 -1.919078e-01 -2.466723e-01 -1.121331e+00 -2.284777e-01 1.657656e-01 3.925426e-01 4.762331e-01 2.425930e-01 -1.108570e-01 1.264574e-01 4.647367e-02 -7.294472e-02 6.742848e-02 3.677480e-01 -1.659276e-02 -1.222258e-01 -1.193056e-01 -2.517416e-01 -1.198264e-01 1.184197e-01 1.695942e-01 1.185117e-01 -7.243928e-02
<VARIANCE> 39
 9.013655e+00 1.368169e+01 2.425662e+01 1.830035e+01 3.778493e+01 2.809562e+01 3.157993e+01 1.981241e+01 3.002479e+01 2.053258e+01 2.408382e+01 2.607688e+01 1.233291e+00 3.687102e-01 6.893384e-01 6.589239e-01 1.426239e+00 1.167446e+00 1.547952e+00 1.689485e+00 1.391171e+00 1.571654e+00 1.579922e+00 1.899977e+00 1.424455e+00 7.487223e-02 6.005876e-02 9.908818e-02 1.197410e-01 2.030670e-01 2.068249e-01 2.382860e-01 1.962180e-01 2.205087e-01 3.197821e-01 2.434144e-01 2.668475e-01 2.351071e-01 7.613791e-03
<GCONST> 8.320688e+01
<STATE> 4
<MEAN> 39
 -8.286479e+00 6.794245e+00 -4.885209e+00 -1.654220e+01 -2.738694e+00 -1.551229e+01 -3.580420e+00 -8.604522e+00 -9.576741e-01 -3.666299e+00 2.076039e+00 -4.804092e+00 1.825316e+01 2.450702e-01 -2.711744e-01 2.512919e-01 1.130252e+00 2.627057e-01 -1.229029e-01 -5.431954e-01 -1.064048e+00 -9.205583e-01 -2.104076e-01 1.549505e-01 2.103339e-01 -2.138791e-01 6.880067e-02 -4.776117e-01 -2.315418e-03 6.014603e-02 8.803190e-02 5.306293e-01 1.462273e-01 6.558189e-02 -1.015143e-01 -2.016000e-01 -1.799062e-01 -4.555834e-02 -7.989219e-02
<VARIANCE> 39
 9.365750e+00 1.033054e+01 2.088051e+01 2.998308e+01 1.814465e+01 2.251834e+01 5.376767e+01 3.109706e+01 4.274984e+01 2.752744e+01 3.182118e+01 2.775613e+01 1.721593e+00 3.551878e-01 1.463011e+00 5.602004e-01 1.033303e+00 1.187281e+00 2.273927e+00 1.645881e+00 1.527605e+00 2.447550e+00 1.818234e+00 2.131226e+00 1.762396e+00 4.403741e-02 5.929120e-02 1.475326e-01 9.665053e-02 2.123844e-01 1.881244e-01 3.379822e-01 3.429582e-01 3.447503e-01 4.698955e-01 3.518508e-01 3.975209e-01 3.510350e-01 5.971400e-03
<GCONST> 8.852270e+01
<TRANSP> 5
 0.000000e+00 1.000000e+00 0.000000e+00 0.000000e+00 0.000000e+00
 0.000000e+00 8.004087e-01 1.995913e-01 0.000000e+00 0.000000e+00
 0.000000e+00 0.000000e+00 8.511217e-01 1.488783e-01 0.000000e+00
 0.000000e+00 0.000000e+00 0.000000e+00 8.452767e-01 1.547233e-01
 0.000000e+00 0.000000e+00 0.000000e+00 0.000000e+00 0.000000e+00
<ENDHMM>
~h "ia"
<BEGINHMM>
<NUMSTATES> 5
<STATE> 2
<MEAN> 39
 -5.608169e+00 2.803290e+00 -1.007715e+00 -1.587836e+01 -5.347826e+00 -1.241459e+01 -3.377941e+00 -9.652575e+00 3.281018e-01 -3.174432e+00 2.081920e-01 -6.877929e+00 1.818471e+01 -1.813214e-01 5.308301e-01 3.703600e-01 -1.477870e+00 -4.831371e-01 -6.894416e-01 -1.199306e-01 4.821511e-01 5.541090e-01 1.438828e-01 -4.499996e-02 -2.577653e-01 3.700723e-01 -6.097303e-02 -4.754967e-01 -1.157789e-01 3.225180e-01 1.643240e-01 6.906312e-01 2.488939e-03 2.879873e-01 -1.974757e-01 -1.401004e-01 4.528507e-02 1.127608e-01 -1.415948e-01
<VARIANCE> 39
 7.489966e+00 8.116088e+00 1.277238e+01 1.428495e+01 3.245282e+01 2.082499e+01 2.411498e+01 2.642526e+01 3.385922e+01 3.440660e+01 4.098325e+01 6.185909e+01 1.025725e+00 5.130653e-01 1.161390e+00 1.500135e+00 1.939084e+00 2.164832e+00 2.343293e+00 1.944508e+00 2.560086e+00 2.466766e+00 2.563883e+00 2.069706e+00 2.642899e+00 8.678173e-02 9.788936e-02 1.167778e-01 2.764865e-01 2.959879e-01 2.640556e-01 3.413360e-01 3.985584e-01 3.239809e-01 4.308140e-01 4.653822e-01 4.470137e-01 5.562078e-01 5.579018e-03
<GCONST> 9.415105e+01
<STATE> 3
<MEAN> 39
 -6.222235e+00 4.081156e-01 1.711054e+00 -1.930071e+01 -7.047886e+00 -7.735790e+00 -6.212860e+00 -6.652457e+00 -2.872775e-01 -4.178613e+00 -1.897539e-01 -6.791117e+00 1.856275e+01 5.734359e-01 -1.617574e+00 8.105760e-01 2.376395e-01 -1.473646e+00 1.672640e+00 -1.173186e-01 5.744228e-02 3.155478e-01 -3.817885e-01 1.325089e-01 -1.812010e-01 1.951905e-02 2.118318e-01 -3.220021e-01 -1.927288e-01 6.856045e-01 -3.237216e-01 -5.678158e-02 4.657017e-01 -2.915771e-01 4.008552e-02 2.672304e-02 -2.977536e-02 4.079141e-02 -4.171480e-02
<VARIANCE> 39
 6.682066e+00 1.633430e+01 1.657738e+01 2.371961e+01 5.805132e+01 3.977874e+01 3.625040e+01 5.601535e+01 2.905281e+01 2.855253e+01 2.916100e+01 4.530341e+01 9.909318e-01 3.571354e-01 9.638516e-01 7.739653e-01 2.211628e+00 2.666783e+00 2.173536e+00 2.537889e+00 2.246095e+00 2.257612e+00 1.594674e+00 1.808604e+00 1.898281e+00 1.546462e-02 5.055978e-02 1.453794e-01 2.226442e-01 2.857806e-01 3.899179e-01 6.501993e-01 4.873752e-01 4.684737e-01 4.252061e-01 3.033389e-01 3.047629e-01 3.200997e-01 3.035229e-03
<GCONST> 9.222713e+01
<STATE> 4
<MEAN> 39
 -2.284856e+00 -8.296002e+00 1.583394e+00 -1.095267e+01 -1.691814e+01 -6.405713e+00 -8.065375e-02 -8.679824e+00 8.110760e-01 -4.491700e+00 4.718002e-01 -6.177735e+00 1.859400e+01 6.474845e-01 -1.258533e+00 -8.087469e-01 1.569104e+00 -3.465987e-01 -8.139644e-01 1.328435e+00 4.931709e-01 -2.637227e-01 -2.087195e-01 -1.205129e-01 3.193509e-01 -1.271830e-02 -1.238905e-01 2.322043e-01 -1.908359e-01 -2.517022e-01 5.690952e-01 -1.862035e-01 -2.252201e-01 2.814521e-01 -9.157570e-02 -3.486823e-02 -6.888586e-02 4.017172e-02 2.715104e-03
<VARIANCE> 39
 5.654866e+00 1.671089e+01 1.262384e+01 3.648960e+01 5.069032e+01 5.665003e+01 2.869869e+01 3.125980e+01 2.027460e+01 1.904041e+01 1.862987e+01 3.170629e+01 1.428895e+00 3.189029e-01 4.805539e-01 6.353424e-01 1.591153e+00 2.447984e+00 2.496877e+00 1.971059e+00 2.541312e+00 1.538799e+00 1.340136e+00 1.314123e+00 1.288692e+00 9.824228e-03 2.893510e-02 5.727703e-02 1.471136e-01 2.283003e-01 2.838257e-01 5.122676e-01 3.420582e-01 2.816410e-01 3.010253e-01 2.392607e-01 2.124987e-01 2.193883e-01 1.591078e-03
<GCONST> 8.179449e+01
<TRANSP> 5
 0.000000e+00 1.000000e+00 0.000000e+00 0.000000e+00 0.000000e+00
 0.000000e+00 7.294753e-01 2.705247e-01 0.000000e+00 0.000000e+00
 0.000000e+00 0.000000e+00 7.464018e-01 2.535982e-01 0.000000e+00
 0.000000e+00 0.000000e+00 0.000000e+00 7.885478e-01 2.114522e-01
 0.000000e+00 0.000000e+00 0.000000e+00 0.000000e+00 0.000000e+00
<ENDHMM>
~h "ih"
<BEGINHMM>
<NUMSTATES> 5
<STATE> 2
<MEAN> 39
 -8.537477e+00 -4.345514e+00 -6.502019e+00 -8.692867e+00 -2.084733e+00 -4.127600e+00 -1.661259e+00 -8.190226e+00 -3.395745e+00 -4.113557e+00 3.372151e-01 -2.790089e+00 1.507620e+01 1.327053e+00 1.070034e+00 1.988774e+00 -1.984094e+00 -1.951833e+00 -2.062358e+00 -2.153572e-02 -2.150530e-01 6.283596e-01 5.535514e-01 -7.085672e-01 -7.570800e-01 9.642174e-01 7.949755e-02 1.623808e-01 2.711755e-01 -8.035430e-01 -6.305733e-01 -3.121696e-01 5.599353e-02 1.015373e-01 3.567277e-01 1.975122e-02 -2.922254e-01 -4.862594e-01 2.191041e-01
<VARIANCE> 39
 6.043736e+00 7.493690e+00 9.751512e+00 9.505415e+00 1.624587e+01 1.527180e+01 1.455527e+01 1.608135e+01 2.266562e+01 3.116459e+01 2.066348e+01 1.859111e+01 1.747141e+00 5.201213e-01 9.415475e-01 1.541576e+00 1.658263e+00 1.652263e+00 2.602637e+00 2.274914e+00 2.065273e+00 2.682239e+00 4.988266e+00 2.342491e+00 2.154519e+00 5.376457e-02 1.395834e-01 1.416065e-01 2.577361e-01 2.402368e-01 4.321833e-01 3.874161e-01 3.545160e-01 4.580633e-01 5.355642e-01 5.674742e-01 4.552201e-01 4.520206e-01 1.559459e-02
<GCONST> 9.133462e+01
<STATE> 3
<MEAN> 39
 -5.042324e+00 -1.099741e+00 -8.807943e-01 -1.688740e+01 -1.106030e+01 -1.099212e+01 -1.535376e+00 -9.073817e+00 -1.171199e+00 -2.227170e+00 -3.401816e+00 -7.435048e+00 1.830089e+01 9.981108e-02 5.972104e-01 1.009142e+00 -2.692978e+00 -1.458048e+00 -6.974028e-01 1.111247e-01 3.249725e-01 1.104237e+00 -5.898195e-02 -9.690564e-01 -1.286106e+00 7.532038e-01 -4.532997e-01 -2.598349e-01 -4.855874e-01 3.671979e-01 8.048746e-01 7.832716e-01 -1.205754e-01 2.669571e-01 -7.074274e-02 -2.472932e-01 3.078831e-01 2.727999e-01 -2.588606e-01
<VARIANCE> 39
 6.733858e+00 7.207269e+00 1.178032e+01 2.511439e+01 2.630532e+01 1.726663e+01 2.612397e+01 1.738300e+01 4.046251e+01 8.496762e+01 2.768916e+01 3.460972e+01 1.267518e+00 1.039922e+00 9.762077e-01 2.038648e+00 1.540479e+00 3.704077e+00 3.122924e+00 2.704730e+00 2.529836e+00 3.194410e+00 4.123515e+00 3.121371e+00 3.251621e+00 1.698920e-01 9.425796e-02 1.221144e-01 2.112554e-01 4.124005e-01 3.879945e-01 4.794551e-01 5.540517e-01 4.135399e-01 5.775838e-01 9.904013e-01 4.983335e-01 5.169449e-01 1.630911e-02
<GCONST> 1.012936e+02
<STATE> 4
<MEAN> 39
 -7.195549e+00 -1.140990e+00 -1.677429e+00 -2.142534e+01 -6.677428e+00 -8.078174e+00 -1.477803e+00 -5.156761e+00 9.547594e-01 -4.306687e+00 -2.632107e+00 -7.696932e+00 1.844367e+01 -7.783639e-02 -1.297454e-01 2.452007e-01 5.434762e-02 8.364003e-01 4.215738e-01 -7.694919e-01 3.380487e-01 -2.958687e-01 -1.484838e-01 5.487081e-01 4.123163e-01 -2.220441e-01 1.280690e-01 -1.939968e-01 -1.447545e-01 6.598752e-01 2.028235e-01 1.081812e-01 -1.621317e-02 -2.592805e-01 -2.246444e-01 -5.155517e-02 2.113229e-01 2.056999e-01 -1.729256e-01
<VARIANCE> 39
 7.003369e+00 1.034587e+01 1.583474e+01 1.808780e+01 6.389968e+01 2.963659e+01 2.936488e+01 2.044094e+01 2.908145e+01 4.847225e+01 3.735754e+01 4.053036e+01 1.436121e+00 4.641838e-01 4.636753e-01 7.039977e-01 1.876974e+00 1.474256e+00 2.544559e+00 2.724918e+00 1.922221e+00 2.680339e+00 2.998919e+00 2.354708e+00 2.133423e+00 7.256067e-02 8.315074e-02 1.376808e-01 2.710916e-01 4.565330e-01 4.975132e-01 4.995043e-01 5.812650e-01 3.678280e-01 4.822389e-01 4.282415e-01 4.534519e-01 4.566932e-01 1.640956e-02
<GCONST> 9.653645e+01
<TRANSP> 5
 0.000000e+00 1.000000e+00 0.000000e+00 0.000000e+00 0.000000e+00
 0.000000e+00 4.556975e-01 5.443025e-01 0.000000e+00 0.000000e+00
 0.000000e+00 0.000000e+00 6.421208e-01 3.578791e-01 0.000000e+00
 0.000000e+00 0.000000e+00 0.000000e+00 8.177631e-01 1.822369e-01
 0.000000e+00 0.000000e+00 0.000000e+00 0.000000e+00 0.000000e+00
<ENDHMM>
~h "iy"
<BEGINHMM>
<NUMSTATES> 5
<STATE> 2
<MEAN> 39
 -7.191623e+00 5.207063e+00 -1.868855e+00 -1.695201e+01 -1.314181e+00 -1.338754e+01 -5.166041e+00 -8.331553e+00 -2.795622e+00 -4.563665e+00 1.361298e-01 -6.136783e+00 1.812652e+01 1.037278e-01 3.108348e-01 -6.631386e-01 1.084377e+00 4.050189e-01 -4.148128e-01 6.898371e-01 -6.680231e-01 -3.675839e-01 -5.193591e-02 -2.374346e-01 -2.766972e-02 -1.290963e-01 1.438449e-01 -3.851952e-01 2.339531e-01 5.589059e-02 -2.863855e-01 3.929929e-01 -1.027959e-01 1.600407e-02 9.298198e-02 -7.075749e-02 1.045045e-03 -1.974422e-03 -1.641387e-02
<VARIANCE> 39
 7.452211e+00 1.161745e+01 1.610390e+01 2.536807e+01 2.087318e+01 2.103697e+01 5.162237e+01 4.363873e+01 3.050719e+01 4.213542e+01 4.074460e+01 3.724866e+01 1.275091e+00 1.944180e-01 8.658660e-01 8.103348e-01 1.139760e+00 1.434981e+00 1.870150e+00 1.944737e+00 2.247799e+00 1.614525e+00 1.513868e+00 1.240035e+00 1.386648e+00 1.044831e-02 3.915587e-02 1.220698e-01 9.297767e-02 2.175382e-01 3.045563e-01 2.914529e-01 3.540957e-01 3.556948e-01 2.895736e-01 2.852551e-01 2.286718e-01 2.314620e-01 1.785511e-03
<GCONST> 8.265928e+01
<STATE> 3
<MEAN> 39
 -5.312358e+00 2.189894e+00 -1.814565e+00 -1.263142e+01 -1.703217e+00 -1.119730e+01 -5.427427e+00 -1.051430e+01 -4.554022e+00 -6.589662e+00 -1.615510e+00 -6.986285e+00 1.718041e+01 2.811766e-01 -1.339628e+00 -1.458553e-01 9.619610e-01 1.186236e-01 1.207551e+00 5.528878e-01 2.173005e-01 1.449403e-01 -2.039429e-02 1.931982e-01 1.339616e-01 -3.392308e-01 -1.669106e-01 -2.726718e-01 -1.587353e-01 -3.532616e-02 -1.494986e-02 2.974611e-01 2.736865e-01 1.614587e-01 2.082703e-01 4.182846e-02 1.471536e-01 7.026063e-02 -7.123086e-02
<VARIANCE> 39
 6.917841e+00 1.140811e+01 1.602746e+01 2.383535e+01 2.516619e+01 2.740352e+01 3.868483e+01 3.255912e+01 3.393725e+01 3.797997e+01 4.200849e+01 3.731875e+01 1.584558e+00 6.146256e-01 1.030637e+00 1.191645e+00 1.905025e+00 2.095124e+00 2.455566e+00 3.172488e+00 2.900618e+00 3.018083e+00 2.629981e+00 2.800649e+00 2.308869e+00 6.527195e-02 9.622537e-02 2.016838e-01 2.112162e-01 3.201971e-01 3.782528e-01 4.323002e-01 4.581530e-01 4.677875e-01 5.400583e-01 4.273093e-01 5.033118e-01 3.866757e-01 6.514039e-03
<GCONST> 9.795096e+01
<STATE> 4
<MEAN> 39
 -6.079130e+00 -3.876287e+00 -3.688528e+00 -9.121995e+00 5.612190e-02 -5.038803e+00 -6.236483e-01 -8.199588e+00 -2.170945e+00 -5.773483e+00 8.308226e-01 -4.793566e+00 1.530877e+01 -4.714242e-01 -1.393529e+00 -8.663788e-01 2.414815e-01 -1.365530e-01 9.517487e-01 8.303602e-01 2.228911e-01 3.098665e-01 -7.081691e-02 2.227010e-01 2.901554e-01 -3.832471e-01 -3.130694e-02 2.933378e-01 2.554415e-03 -3.284004e-01 -1.468196e-01 -4.422680e-01 -3.004343e-01 -1.467848e-01 -1.342212e-01 1.876603e-03 -7.319706e-02 1.392858e-03 9.573451e-02
<VARIANCE> 39
 5.188941e+00 8.897615e+00 8.249856e+00 1.139758e+01 1.745702e+01 2.094841e+01 2.018014e+01 2.029799e+01 1.899699e+01 2.060294e+01 1.661627e+01 1.726810e+01 1.429415e+00 5.278545e-01 9.005385e-01 1.258237e+00 1.596884e+00 1.719556e+00 2.833374e+00 2.747604e+00 2.261654e+00 2.522465e+00 2.716907e+00 2.460150e+00 2.014681e+00 6.549386e-02 8.736875e-02 1.296722e-01 1.714675e-01 2.326082e-01 3.317283e-01 4.836429e-01 4.035279e-01 3.722543e-01 4.384440e-01 4.312761e-01 3.676674e-01 3.410909e-01 7.264079e-03
<GCONST> 8.802625e+01
<TRANSP> 5
 0.000000e+00 1.000000e+00 0.000000e+00 0.000000e+00 0.000000e+00
 0.000000e+00 8.302386e-01 1.697613e-01 0.000000e+00 0.000000e+00
 0.000000e+00 0.000000e+00 7.360255e-01 2.639746e-01 0.000000e+00
 0.000000e+00 0.000000e+00 0.000000e+00 6.606804e-01 3.393197e-01
 0.000000e+00 0.000000e+00 0.000000e+00 0.000000e+00 0.000000e+00
<ENDHMM>
~h "ow"
<BEGINHMM>
<NUMSTATES> 5
<STATE> 2
<MEAN> 39
 -4.607744e+00 -1.071723e+01 -7.376486e+00 -9.049939e+00 -2.757058e+00 -6.494642e+00 3.161889e+00 -7.208182e+00 -4.901060e+00 -6.731857e+00 -1.709055e+00 -5.049742e+00 1.763620e+01 4.267860e-01 -8.529545e-02 -6.581122e-01 2.724220e-01 2.320656e-01 -7.316982e-01 2.240921e-01 5.440321e-01 -1.206549e-01 -4.687099e-01 -2.965024e-01 -2.143430e-02 2.526272e-01 6.550352e-02 1.074352e-01 8.407040e-03 -5.556218e-02 -1.783673e-02 -3.700430e-02 -1.524739e-01 2.300380e-02 1.605057e-01 -5.358969e-03 -3.899184e-02 -5.176878e-02 -6.394140e-04
<VARIANCE> 39
 8.340713e+00 1.291869e+01 1.455682e+01 1.843185e+01 2.487206e+01 2.439100e+01 3.153983e+01 6.016269e+01 4.133691e+01 3.546873e+01 2.592131e+01 2.799142e+01 3.029405e+00 5.102677e-01 9.124213e-01 9.893561e-01 1.033160e+00 1.399998e+00 1.603641e+00 2.065377e+00 2.757569e+00 2.333651e+00 2.227372e+00 2.133663e+00 1.781010e+00 1.614783e-01 8.304969e-02 1.232336e-01 1.635066e-01 1.599011e-01 2.266845e-01 2.717508e-01 3.701148e-01 4.387181e-01 4.417240e-01 4.156576e-01 3.859604e-01 3.043147e-01 2.298366e-02
<GCONST> 9.341627e+01
<STATE> 3
<MEAN> 39
 -7.172777e-01 -8.327621e+00 -1.171562e+01 -1.009418e+01 -2.043492e+00 -1.151840e+01 -9.531631e-01 -1.093705e+00 -2.552292e-02 -8.510460e+00 -4.069394e+00 -6.653615e+00 1.885847e+01 2.010598e-01 5.140061e-01 -1.017787e-01 -2.553180e-01 1.548368e-01 -1.214680e-01 -7.387923e-01 -2.512448e-01 6.001715e-01 5.060652e-01 -4.457092e-02 -3.726867e-01 -3.886392e-02 -4.911963e-02 3.742013e-02 1.569021e-01 -1.271476e-02 -8.143476e-02 1.397903e-01 2.366873e-02 -2.344878e-01 -8.038380e-02 1.352268e-01 1.060611e-01 1.679156e-02 -2.941523e-02
<VARIANCE> 39
 5.649477e+00 9.505617e+00 1.951064e+01 1.447762e+01 2.502276e+01 2.414246e+01 4.396171e+01 3.386967e+01 4.722726e+01 3.718817e+01 3.120039e+01 3.614072e+01 1.480457e+00 1.355113e-01 2.935610e-01 5.291886e-01 5.428241e-01 9.432881e-01 9.476138e-01 1.237392e+00 1.698336e+00 1.530220e+00 1.597726e+00 1.407153e+00 1.198605e+00 1.851778e-02 2.257788e-02 3.395706e-02 8.617619e-02 8.209745e-02 1.323995e-01 1.724241e-01 1.989553e-01 2.317015e-01 2.542444e-01 2.478097e-01 2.268441e-01 2.038119e-01 2.027069e-03
<GCONST> 7.247025e+01
<STATE> 4
<MEAN> 39
 -1.347459e+00 -3.979910e+00 -7.169383e+00 -1.140123e+01 -2.735104e+00 -8.361635e+00 -3.460721e+00 -7.747777e+00 -5.158101e-01 -4.466272e+00 -2.341932e-01 -6.498799e+00 1.746907e+01 -6.183178e-01 1.940878e-01 7.390652e-01 2.994944e-01 1.414797e-01 6.647319e-01 3.669909e-01 -6.321842e-01 -6.276283e-01 -1.822136e-02 4.111057e-01 4.098780e-01 -3.556422e-01 -1.379021e-01 -1.794562e-01 -5.576137e-02 4.380894e-02 3.850672e-02 8.053246e-02 1.518745e-01 1.339650e-01 -4.049491e-02 -1.113650e-01 -3.620825e-02 8.338054e-02 -3.413987e-02
<VARIANCE> 39
 7.992555e+00 8.183950e+00 2.122980e+01 2.007067e+01 2.291431e+01 2.836859e+01 3.082760e+01 2.681767e+01 3.349487e+01 3.702264e+01 3.242610e+01 3.173652e+01 2.527808e+00 4.918605e-01 7.963628e-01 9.995005e-01 1.231306e+00 1.805211e+00 2.161793e+00 2.421715e+00 2.556105e+00 2.651131e+00 2.518101e+00 2.198604e+00 2.052223e+00 6.213949e-02 6.859297e-02 9.286858e-02 2.048032e-01 2.235924e-01 3.135602e-01 3.970963e-01 4.203784e-01 4.312597e-01 5.189404e-01 4.432727e-01 3.922741e-01 3.766629e-01 8.580599e-03
<GCONST> 9.310479e+01
<TRANSP> 5
 0.000000e+00 1.000000e+00 0.000000e+00 0.000000e+00 0.000000e+00
 0.000000e+00 8.117124e-01 1.882876e-01 0.000000e+00 0.000000e+00
 0.000000e+00 0.000000e+00 8.603702e-01 1.396298e-01 0.000000e+00
 0.000000e+00 0.000000e+00 0.000000e+00 8.539931e-01 1.460069e-01
 0.000000e+00 0.000000e+00 0.000000e+00 0.000000e+00 0.000000e+00
<ENDHMM>
~h "sp"
<BEGINHMM>
<NUMSTATES> 3
<STATE> 2
~s "silst"
<TRANSP> 3
 0.000000e+00 1.669166e-01 8.330833e-01
 0.000000e+00 9.096204e-01 9.037962e-02
 0.000000e+00 0.000000e+00 0.000000e+00
<ENDHMM>
~h "th"
<BEGINHMM>
<NUMSTATES> 5
<STATE> 2
<MEAN> 39
 -7.778532e+00 -6.504828e+00 -5.618255e+00 -1.004541e+01 -9.436913e-01 -4.925990e+00 -4.954020e-01 -8.778330e+00 -2.630440e+00 -5.339391e+00 1.028561e+00 -3.597134e+00 1.475157e+01 -2.567635e-01 -2.472925e-02 -5.446114e-02 -9.259165e-02 5.360293e-02 -5.976237e-02 4.072083e-02 6.933752e-02 -4.127467e-02 9.327344e-03 -1.769590e-03 1.313550e-01 -8.269883e-03 1.566939e-01 1.226321e-01 1.910069e-01 -8.797849e-03 -1.142991e-01 -1.113616e-01 -1.199087e-01 -1.827205e-03 -2.392849e-02 -3.546439e-02 -3.913860e-02 -9.367198e-02 8.689003e-02
<VARIANCE> 39
 3.837434e+00 5.672356e+00 8.088335e+00 8.604021e+00 1.191952e+01 1.316105e+01 1.513613e+01 1.734956e+01 1.727675e+01 1.622896e+01 1.487987e+01 1.491152e+01 9.624321e-01 3.962535e-01 8.013936e-01 1.021891e+00 1.124883e+00 1.267194e+00 1.393437e+00 1.582138e+00 2.079125e+00 2.189497e+00 1.895250e+00 1.541643e+00 1.713928e+00 4.404492e-02 9.623002e-02 1.790380e-01 2.094647e-01 2.312089e-01 3.221096e-01 3.488098e-01 3.723048e-01 4.999065e-01 4.330011e-01 4.017459e-01 3.508568e-01 3.954585e-01 9.947044e-03
<GCONST> 8.135923e+01
<STATE> 3
<MEAN> 39
 -8.332559e+00 -5.663794e+00 -3.997106e+00 -1.064899e+01 -7.927298e-01 -4.883554e+00 -7.948075e-01 -8.142253e+00 -2.780751e+00 -5.581390e+00 1.064902e+00 -3.838771e+00 1.523789e+01 1.195596e+00 2.054267e-01 1.147431e+00 7.470313e-02 -1.570682e+00 -1.193995e+00 -6.474895e-01 -1.794594e-01 1.497126e-01 -1.363132e-01 -2.324203e-01 -4.095836e-01 5.014974e-01 4.378446e-01 -1.088285e-01 2.321217e-01 1.017672e-01 -8.032752e-01 -5.032724e-01 -8.478750e-02 -9.017979e-02 1.156964e-01 5.500576e-02 -1.134927e-01 -9.397180e-02 1.428779e-01
<VARIANCE> 39
 6.829744e+00 7.379976e+00 1.105946e+01 1.473022e+01 1.815554e+01 1.636950e+01 1.908892e+01 1.902295e+01 2.140240e+01 1.943625e+01 2.080779e+01 1.388921e+01 1.261215e+00 1.042959e+00 1.220781e+00 1.276644e+00 2.484538e+00 3.233148e+00 3.989777e+00 2.355869e+00 3.000670e+00 2.697823e+00 2.672700e+00 3.324311e+00 2.528029e+00 1.074935e-01 1.516967e-01 2.212326e-01 3.097418e-01 5.284392e-01 4.648317e-01 6.792684e-01 5.106096e-01 5.700335e-01 5.792657e-01 5.959627e-01 6.671160e-01 5.113537e-01 1.306828e-02
<GCONST> 9.792358e+01
<STATE> 4
<MEAN> 39
 -2.075006e+00 -6.074366e+00 -3.803983e-01 -8.636207e+00 -9.944351e+00 -1.331919e+01 -3.309176e+00 -8.905707e+00 -2.707912e+00 -5.944946e+00 -7.954742e-01 -5.570949e+00 1.758548e+01 1.019177e+00 -5.950475e-01 9.985712e-01 4.297755e-01 -2.495868e+00 -1.149536e+00 8.926193e-02 -4.471681e-02 1.902622e-01 2.403023e-01 -4.163865e-02 -3.892708e-01 5.298283e-01 -4.126016e-01 -1.030082e-01 -7.422681e-02 -2.061391e-01 2.342500e-01 7.118360e-01 2.125794e-01 -6.706722e-02 1.271415e-01 9.807438e-02 1.853124e-01 8.382409e-02 -1.026089e-01
<VARIANCE> 39
 5.212737e+00 1.293782e+01 1.271881e+01 3.227023e+01 2.230086e+01 3.989077e+01 2.210334e+01 2.311080e+01 3.197998e+01 2.821070e+01 3.700865e+01 2.981611e+01 1.242996e+00 8.060286e-01 9.842106e-01 1.812178e+00 2.523989e+00 3.197156e+00 4.428063e+00 2.781803e+00 3.257805e+00 2.906546e+00 2.884402e+00 3.630826e+00 3.026260e+00 9.434000e-02 1.117433e-01 2.402976e-01 3.348610e-01 6.116070e-01 5.976533e-01 8.081583e-01 5.115055e-01 6.838282e-01 5.446138e-01 5.105884e-01 5.607867e-01 4.690899e-01 1.283546e-02
<GCONST> 1.033143e+02
<TRANSP> 5
 0.000000e+00 1.000000e+00 0.000000e+00 0.000000e+00 0.000000e+00
 0.000000e+00 8.372188e-01 1.627812e-01 0.000000e+00 0.000000e+00
 0.000000e+00 0.000000e+00 6.526130e-01 3.473869e-01 0.000000e+00
 0.000000e+00 0.000000e+00 0.000000e+00 7.052316e-01 2.947684e-01
 0.000000e+00 0.000000e+00 0.000000e+00 0.000000e+00 0.000000e+00
<ENDHMM>
~h "uw"
<BEGINHMM>
<NUMSTATES> 5
<STATE> 2
<MEAN> 39
 -5.162271e+00 3.085091e-01 1.046396e+00 -1.437856e+01 -5.254993e+00 -8.480579e+00 -5.710266e+00 -1.019393e+01 -2.505589e+00 -5.537266e+00 -7.950078e-01 -6.660550e+00 1.776917e+01 9.799756e-01 1.029690e+00 1.312643e+00 -1.076252e+00 -1.792696e+00 -1.658038e+00 -1.059963e+00 -5.018238e-01 -6.209075e-03 1.576262e-01 -5.785523e-01 -1.026306e+00 7.135484e-01 -3.786088e-01 -2.234972e-01 -5.340983e-01 2.057967e-01 1.536030e-01 1.843696e-01 2.182181e-01 1.972615e-01 2.925402e-03 2.235431e-02 1.388757e-01 1.497120e-01 -1.293968e-01
<VARIANCE> 39
 8.490043e+00 1.007263e+01 1.571719e+01 2.176869e+01 3.901697e+01 3.268604e+01 2.903340e+01 2.448934e+01 2.858007e+01 5.075314e+01 3.665139e+01 4.336115e+01 2.051683e+00 1.402825e+00 1.116278e+00 1.878117e+00 2.304323e+00 2.298409e+00 2.299792e+00 3.061708e+00 3.093834e+00 3.625167e+00 4.398600e+00 5.240685e+00 3.551815e+00 1.256984e-01 1.439492e-01 1.990020e-01 2.092406e-01 3.672627e-01 5.923226e-01 5.049182e-01 5.682195e-01 5.030866e-01 5.321934e-01 7.023654e-01 7.211267e-01 5.691326e-01 3.213576e-02
<GCONST> 1.066039e+02
<STATE> 3
<MEAN> 39
 -3.678543e+00 5.611555e-01 7.643448e-01 -1.485349e+01 -7.708795e+00 -1.131349e+01 -5.861108e+00 -9.648028e+00 -2.613960e+00 -4.970613e+00 -2.435403e-01 -7.810687e+00 1.843305e+01 2.324539e-01 -2.174318e-01 -2.163455e-01 5.996193e-01 1.264304e-01 -8.133329e-02 1.195118e-01 -1.710720e-02 -2.243596e-01 -2.174444e-02 1.872434e-01 1.414578e-01 -7.680216e-02 -1.423128e-02 -5.713505e-02 -7.159708e-02 1.011524e-01 1.528611e-01 9.836868e-02 3.802942e-02 7.506121e-04 2.019251e-02 -3.680495e-02 6.940201e-03 7.503039e-02 -5.022142e-02
<VARIANCE> 39
 6.179046e+00 7.958659e+00 1.108164e+01 2.852600e+01 3.847971e+01 2.094592e+01 3.296263e+01 3.216518e+01 4.190618e+01 4.502707e+01 5.718343e+01 4.354958e+01 1.176614e+00 1.807754e-01 2.825989e-01 5.137298e-01 9.178219e-01 1.197100e+00 1.284899e+00 1.329545e+00 1.503943e+00 1.539644e+00 1.451247e+00 1.615276e+00 1.555561e+00 1.199250e-02 3.806794e-02 5.924728e-02 8.827624e-02 1.834090e-01 2.132034e-01 2.302838e-01 2.495170e-01 2.762794e-01 3.143972e-01 2.962955e-01 3.207231e-01 3.073566e-01 4.857372e-03
<GCONST> 7.928795e+01
<STATE> 4
<MEAN> 39
 -2.884445e+00 -2.569081e+00 -2.301727e+00 -8.873203e+00 -3.602965e+00 -9.502884e+00 -4.411771e+00 -9.943374e+00 -3.458493e+00 -5.671910e+00 6.331839e-01 -5.561139e+00 1.675582e+01 -5.610945e-01 -6.380636e-01 -5.600649e-01 2.251630e-01 9.356370e-01 1.098609e+00 7.902011e-01 2.887999e-01 2.099425e-01 -1.188103e-02 -3.503584e-02 3.285383e-01 -4.036188e-01 -1.583986e-01 -7.649658e-02 -2.404004e-02 -1.578469e-01 -6.473749e-02 1.114280e-01 1.180954e-01 4.581163e-02 9.080785e-03 9.436574e-03 -4.006043e-02 -1.411999e-02 -1.849724e-02
<VARIANCE> 39
 5.918642e+00 6.991158e+00 9.565304e+00 1.156378e+01 1.943713e+01 3.197726e+01 3.136708e+01 2.998040e+01 2.861891e+01 3.329714e+01 3.374450e+01 3.037311e+01 2.228418e+00 6.149147e-01 6.057041e-01 9.948369e-01 1.239268e+00 1.577381e+00 2.227662e+00 2.719146e+00 3.072623e+00 2.761848e+00 2.928382e+00 2.928876e+00 2.352582e+00 6.058576e-02 7.882252e-02 9.260900e-02 1.681753e-01 2.080441e-01 3.204547e-01 5.048546e-01 4.596350e-01 5.456179e-01 4.676516e-01 4.991044e-01 5.064620e-01 3.822239e-01 1.047507e-02
<GCONST> 9.266263e+01
<TRANSP> 5
 0.000000e+00 1.000000e+00 0.000000e+00 0.000000e+00 0.000000e+00
 0.000000e+00 7.389023e-01 2.610977e-01 0.000000e+00 0.000000e+00
 0.000000e+00 0.000000e+00 8.936802e-01 1.063199e-01 0.000000e+00
 0.000000e+00 0.000000e+00 0.000000e+00 8.265915e-01 1.734085e-01
 0.000000e+00 0.000000e+00 0.000000e+00 0.000000e+00 0.000000e+00
<ENDHMM>
~h "sil"
<BEGINHMM>
<NUMSTATES> 5
<STATE> 2
<MEAN> 39
 -6.811655e+00 -7.264632e+00 -5.677744e+00 -1.011757e+01 -9.311097e-01 -4.133493e+00 -1.821379e-01 -8.610024e+00 -2.917908e+00 -5.641509e+00 1.024536e+00 -3.916961e+00 1.540308e+01 -3.084012e-02 -2.276496e-02 -2.334734e-02 -1.394718e-02 1.561298e-04 6.854909e-03 9.648113e-03 9.396679e-04 -6.016424e-03 3.103285e-02 1.664203e-02 7.093379e-04 -1.067332e-02 -6.555608e-03 7.062638e-03 -1.622151e-03 -2.706958e-03 -5.994129e-03 -1.729934e-02 -1.874871e-02 1.005718e-02 1.648502e-02 4.658270e-03 -5.915420e-03 -9.198557e-03 3.177037e-03
<VARIANCE> 39
 2.668091e+00 3.406022e+00 5.629834e+00 7.972116e+00 1.218771e+01 1.375595e+01 1.438477e+01 1.526065e+01 1.596425e+01 1.419103e+01 1.455460e+01 1.285109e+01 6.079444e-01 1.521601e-01 3.241310e-01 5.654326e-01 8.670704e-01 1.174971e+00 1.570693e+00 1.553503e+00 1.659314e+00 1.721314e+00 1.488516e+00 1.584693e+00 1.535826e+00 6.956420e-03 3.005860e-02 6.292109e-02 1.077968e-01 1.653357e-01 2.331813e-01 3.108443e-01 3.036973e-01 3.221346e-01 3.317851e-01 2.846904e-01 3.048202e-01 3.098136e-01 1.593630e-03
<GCONST> 6.664993e+01
<STATE> 3
~s "silst"
<STATE> 4
<MEAN> 39
 -8.473816e+00 -6.428627e+00 -6.010068e+00 -1.031868e+01 -1.290274e+00 -4.655542e+00 -8.856353e-01 -8.830248e+00 -2.086555e+00 -5.605967e+00 1.204856e+00 -4.680267e+00 1.441176e+01 -2.115146e-02 2.346954e-02 -1.461318e-02 -2.298904e-02 -4.526593e-02 -4.729817e-02 -4.224486e-02 3.446110e-02 -3.190221e-02 -8.077228e-02 -4.511087e-02 -2.488304e-02 1.142559e-03 5.021784e-02 3.953255e-02 3.579503e-02 3.211954e-02 2.680144e-02 1.948265e-02 9.277486e-03 -2.490845e-02 -4.959507e-02 -3.001157e-02 -2.874736e-02 2.957020e-02 1.541894e-02
<VARIANCE> 39
 4.626187e+00 5.643935e+00 9.072330e+00 1.046962e+01 1.226435e+01 1.393468e+01 1.582179e+01 1.855892e+01 1.865157e+01 1.658936e+01 1.696551e+01 1.433090e+01 8.166049e-01 3.170207e-01 5.476617e-01 9.741254e-01 1.244605e+00 1.205087e+00 1.648727e+00 1.466753e+00 2.207003e+00 1.986066e+00 1.839152e+00 1.830130e+00 1.575530e+00 1.175617e-02 6.598403e-02 1.208331e-01 2.049836e-01 2.567261e-01 2.363231e-01 3.375874e-01 2.807048e-01 4.562631e-01 3.942466e-01 3.628133e-01 3.607138e-01 2.903432e-01 3.344326e-03
<GCONST> 7.729498e+01
<TRANSP> 5
 0.000000e+00 1.000000e+00 0.000000e+00 0.000000e+00 0.000000e+00
 0.000000e+00 8.667124e-01 6.787280e-02 6.541482e-02 0.000000e+00
 0.000000e+00 0.000000e+00 9.402501e-01 5.974985e-02 0.000000e+00
 0.000000e+00 6.719708e-02 0.000000e+00 7.655948e-01 1.672081e-01
 0.000000e+00 0.000000e+00 0.000000e+00 0.000000e+00 0.000000e+00
<ENDHMM>
